tree
version=v4
num_class=1
num_tree_per_iteration=1
label_index=0
max_feature_idx=63
objective=regression
feature_names=rsi_14 macd_hist boll_pctb kdj_j vol_price_ratio mom_20d mom_60d volatility_20d rsi_delta macd_hist_delta boll_pctb_delta mom_accel volume_trend close_ma5_dev close_ma20_dev close_ma60_dev ma_alignment atr_14 price_range_10d williams_r adx_14 obv_slope amount_ratio turnover_5d turnover_pctile return_skew_20d return_kurtosis_20d updown_vol_ratio max_drawdown_20d return_autocorr close_position upper_shadow lower_shadow body_ratio gap_5d amihud_illiq volume_volatility mom_5d mom_10d vwap_dev boll_bandwidth vol_price_corr consecutive_days high_distance_60d low_distance_60d vol_ratio_5_60 mfi_14 intraday_intensity cci_20 return_extremes_ratio amount_volatility pe_ttm pb total_mv_log roe revenue_growth profit_growth roe_qoq profit_growth_accel revenue_growth_accel pe_ind_rank pb_ind_rank roe_ind_rank mom_20d_ind_rank
feature_infos=[7.5980278682076943:98.82372290021884] [-37.762013358084943:37.852699744841196] [-0.55685951330981898:1.5439981000671827] [-28.621921477684225:128.42640441330769] [0.0028196469890109234:168.94433781885849] [-0.66083916083916083:4.4903943377148625] [-0.85079365079365077:17.000000000000004] [0.020517243459690974:4.2824095481178377] [-55.466418825462256:58.145365080303407] [-38.147170122478428:49.285655826664559] [-1.5705568987991558:1.6525703438214996] [-4.4283955111942293:0.6830742345359887] [0.0028311073735106831:3.9465379225683099] [-0.3074119076549211:0.55529953917050712] [-0.4524639123942259:1.5622379697992805] [-0.69682614874467075:2.6850948827918453] [-0.66840360018948375:2.3702367663474528] [0.0056622724492899614:0.33241457626258047] [0:0.32407751408899438] [-100:0] [5.9530427180030605:76.137675636642868] [-1.2633943287804055:1.4167914947109985] [0.0010067312041592759:14.247746679691518] [0.0002137669675732196:3.1520000000000001] [0:0.98333333333333328] [-4.1060294251192717:4.1085979113369229] [-1.9410754173151583:14.943273360719875] [0.0026082164864978932:541.67438377254064] [-0.71219512195121959:0] [-0.85662173009838194:0.89425749667964582] [0.032345214178339646:1] [0:0.10634406774393393] [0:0.088508467471551056] [0:0.96704563569699853] [-0.12896749439985983:0.20795731510044008] [8.3908933457844325e-13:7.437411050895681e-08] [0.10270431741442471:4.1824664201794279] [-0.41943734015345269:1.5719035743973402] [-0.49541284403669728:3.3449709060681636] [-0.99924171036670417:1.4494151049287969] [0.014116623645025601:2.840427027106696] [-0.94789454096527948:0.98608233993327377] [-27:21] [-0.86435786435786433:0] [0:26] [0:3.1621634932789457] [0:100] [-0.84653431407964574:0.9428967425282706] [-595.92326139087936:574.46808510638778] [-0.90810810810811082:21.899325801749203] [0.10767921136128715:3.3981063218463565] [-3926.2399999999998:9731.5799999999999] [-93.480000000000004:1803.52] [19.340116126226558:26.695119338405277] [-381.31:247.19] [-797.92349967492203:20238.869956644801] [-8303997.5854256898:47154.854950655099] [-446.52000000000004:384.5] [-8303993.1009503743:8303998.6237557875] [-20233.810947637394:20248.167456230927] [0.029411764705882353:1] [0.029411764705882353:1] [0.019230769230769232:1] [0.019230769230769232:1]
tree_sizes=3094 3155 3189 3184 3175 3169 3203 3166 3172 3165 3168 3167 3155 3133 3176 3168 3161 3176 3173 3199 3188 3125 3152 3197 3154 3185 3159 3183 3169 3169 3163 3176 3153 3163 3180 3138 3191 3135 3194 3187 3169 3130 3179 3168 3083 3134 3133 3179 3114 3110 3095 3137 3097 3103 3139 3154 3128 3125 3160 3120 3155 3140 3171 3072 3111 3101 3094 3100 3112 3109 3107 3073 3131 3157 3169 3136 3038 3005 3117 3119 3155 3070 3104 3023 3091 3178 3104 3065 3086 3168 3093 3022 3106 3030 3059 3094 3145 3020 3122 3023 3092 3157 3021 3152 3108 3132 3034 3128 3054 3108 3037 3006 3026 3095 3048 3001 3150 3159 3113 3002 3038

Tree=0
num_leaves=31
num_cat=0
split_feature=53 53 52 53 39 53 35 7 52 43 39 35 32 56 60 28 6 53 16 24 57 35 56 53 16 54 35 50 56 50
split_gain=79.8998 36.3136 58.039 42.7517 33.8225 23.9757 21.2453 14.6535 12.3068 12.2424 11.9445 11.3098 10.728 9.19931 9.17578 8.11813 7.74328 7.52858 7.24164 7.22637 6.93154 6.73182 6.53204 6.53184 6.33342 6.33105 6.04715 6.12774 5.4742 5.02717
threshold=22.889261085566137 24.102763190245028 15.435 23.625842974752111 -0.18328500807296658 23.372706690990757 4.0075884191293015e-10 0.4934846997834475 7.4250000000000007 -0.4219222593379896 -0.52295451687513139 1.4098730498757361e-10 0.010891459731014318 98.696032044934512 0.56458333333333344 -0.16690059155233714 0.38601398216629074 23.842887009227788 -0.27090694273751997 0.89166666666666672 9.6100000000000012 3.7261829013052062e-11 377.83910733336853 24.399870257302336 -0.075217305906975132 0.42200000000000004 2.760764909718182e-11 0.4611076683648217 -1.7994547226064996 1.3536324833072861
decision_type=10 10 8 10 2 10 2 2 8 2 2 2 2 10 8 2 2 10 2 10 10 2 10 10 2 10 2 2 10 2
left_child=4 2 3 15 9 16 8 23 -6 -1 11 13 26 20 -12 -2 -4 -5 -8 -14 25 22 -7 -3 -9 -11 -10 -28 -18 -20
right_child=1 7 5 17 6 21 18 24 12 10 14 -13 19 -15 -16 -17 28 -19 29 -21 -22 -23 -24 -25 -26 -27 27 -29 -30 -31
leaf_value=0.01191708982247747 0.011173706425638221 0.006354350542753664 0.0068346190362026642 0.0076684848194109503 0.012814983977773952 0.0046688195154939586 0.014297143833218909 0.0068523755076764616 0.0064745521332534757 0.0011382090533972079 0.019636743117236587 0.012212125393598183 0.006778966147470423 0.019294558713838554 0.0081017006679292083 0.0089462506989731738 0.0038415183775835997 0.0067075629924068774 0.0083400526103566928 0.0051275344519898652 0.0035082232502800124 0.0058961336094169696 0.012154313526155036 0.0050856682100596552 0.0040387733681848236 0.0092956870972689121 0.0076817219116392978 0.0070467657074199195 0.0062476350812920517 0.0040759311560300184
leaf_weight=2732 4863 34909 131177 35573 964 17054 505 2267 17977 245 173 3665 49585 208 48645 25933 3596 47732 45814 7648 608 70876 296 14315 17237 7718 100315 61191 6923 701
leaf_count=2732 4863 34909 131177 35573 964 17054 505 2267 17977 245 173 3665 49585 208 48645 25933 3596 47732 45814 7648 608 70876 296 14315 17237 7718 100315 61191 6923 701
internal_value=0.00704561 0.00657484 0.00678448 0.00770636 0.00760285 0.00632697 0.00736936 0.00552556 0.00717723 0.00864153 0.00849537 0.00987845 0.00715424 0.00890358 0.00814271 0.00929816 0.00672991 0.00711784 0.00834047 0.0065582 0.00865069 0.00567989 0.00479684 0.0059853 0.00436555 0.009044 0.00734434 0.00744118 0.00542459 0.00827568
internal_weight=761445 412751 344023 114101 348694 229922 284700 68728 237680 63994 61262 12444 236716 8779 48818 30796 141696 83305 47020 57233 8571 88226 17350 49224 19504 7963 179483 161506 10519 46515
internal_count=761445 412751 344023 114101 348694 229922 284700 68728 237680 63994 61262 12444 236716 8779 48818 30796 141696 83305 47020 57233 8571 88226 17350 49224 19504 7963 179483 161506 10519 46515
is_linear=0
shrinkage=1


Tree=1
num_leaves=31
num_cat=0
split_feature=53 52 53 23 53 39 17 35 39 39 18 35 40 17 57 23 56 28 6 15 53 53 56 57 43 56 35 57 6 55
split_gain=72.2279 38.9493 70.5171 38.9894 27.63 26.1144 23.5299 18.1183 12.0195 11.2678 10.5975 9.97877 8.64442 8.09673 7.74074 7.71549 11.5822 7.56548 7.48752 6.78698 6.54961 6.2494 5.95827 5.71523 5.45979 5.61399 5.14545 5.04326 4.89631 4.73066
threshold=23.890258146316054 17.755000000000006 23.173754501527846 0.052350943187809106 23.417622960544161 -0.57451007097630302 0.027193142727408588 4.0075884191293015e-10 -0.1415444150381451 -0.26683005266470838 0.053055957704444594 1.4098730498757361e-10 0.20855192254964525 0.05821177407404058 9.6100000000000012 0.033679820936179779 74.839403443871007 -0.047210300429184469 -0.42019791461042016 -0.079331437562333282 22.726816072133079 23.625842974752111 145.52876200614654 -0.62499999999999989 -0.38435387573953039 26.643030940597004 3.0312687897341048e-11 2.4233000000000007 0.69812365495092887 16.749307493953506
decision_type=10 8 10 10 10 2 2 2 2 2 2 2 2 2 8 10 10 2 2 2 10 10 10 8 2 10 2 8 2 10
left_child=1 4 3 5 12 11 -2 8 20 -5 -8 14 -1 21 22 -4 28 26 -9 -12 24 -6 -3 -14 -7 -26 -10 -21 -17 -27
right_child=6 2 15 9 13 7 10 18 17 -11 19 -13 23 -15 -16 16 -18 -19 -20 27 -22 -23 -24 -25 25 29 -28 -29 -30 -31
leaf_value=0.0024068121092635101 0.00018136722755484561 0.0023455708481766174 -0.00077456687188368913 0.0014795053070926507 0.0014615063496549383 0.0032841456870703711 -0.0012169924523305739 0.0066379709071444542 -0.00068389689003913313 -0.0015955599564142185 0.00026693585661640128 0.0054447952216084873 0.0025498867436771575 0.0029632472183846927 -0.0026849086768641213 -0.0018192998507519922 0.0015250080246851146 0.0006974505747252746 0.0012290904345230455 -0.0021634454775422505 0.00012726220339627712 0.00034193840750876042 0.013367588919022386 0.0063128034958768557 0.00083201993054545257 0.0031907582708798204 0.00010616320369290088 -0.0038952111530649609 -0.0039398041486488353 0.00037230329572278295
leaf_weight=9401 27092 6764 104724 3312 17685 2943 74626 648 23094 29489 1967 2922 1518 4123 787 18484 2403 51220 53037 11029 20213 42287 125 3043 39912 5023 191434 6819 3199 2122
leaf_count=9401 27092 6764 104724 3312 17685 2943 74626 648 23094 29489 1967 2922 1518 4123 787 18484 2403 51220 53037 11029 20213 42287 125 3043 39912 5023 191434 6819 3199 2122
internal_value=0 0.000212222 6.6816e-05 0.000372326 0.00125879 0.000508153 -0.00111742 0.00044153 0.000305217 -0.00128491 -0.00149005 0.00295712 0.00327445 0.000819629 0.00200944 -0.000960235 -0.00176729 0.00015147 0.00129448 -0.00251816 0.000887059 0.00067217 0.00254648 0.0050616 0.00119411 0.00106329 2.10894e-05 -0.00282538 -0.0021324 0.00235442
internal_weight=761445 639912 561855 433045 78057 400244 121533 389646 335961 32801 94441 10598 13962 64095 7676 128810 24086 265748 53685 19815 70213 59972 6889 4561 50000 47057 214528 17848 21683 7145
internal_count=761445 639912 561855 433045 78057 400244 121533 389646 335961 32801 94441 10598 13962 64095 7676 128810 24086 265748 53685 19815 70213 59972 6889 4561 50000 47057 214528 17848 21683 7145
is_linear=0
shrinkage=0.05


Tree=2
num_leaves=31
num_cat=0
split_feature=35 23 39 39 23 43 28 22 35 39 44 35 17 57 60 39 56 32 60 54 44 16 57 57 56 59 23 54 56 55
split_gain=49.5839 29.5317 22.0278 20.9604 19.832 16.7479 15.0251 10.9625 9.20037 8.82698 7.93855 6.75798 6.61982 7.57133 6.21405 6.32685 5.74417 5.45748 5.3328 5.29916 5.57332 6.43853 4.79933 4.66064 4.55505 9.53079 4.50867 4.32043 4.35097 4.30456
threshold=1.8052587215756042e-10 0.056831417920096043 -0.57451007097630302 -0.10653119306353152 1.0000000180025095e-35 -0.38435387573953039 -0.064406779661016961 2.6612031869987955 4.5271378476171815e-10 -0.16606889392247101 0.77346383940888697 5.3040262197716963e-11 0.025111560830889803 -1.0672999999999997 0.60303030303030314 -0.52295451687513139 145.52876200614654 0.012084025578703373 0.089572192513368995 20.530000000000005 0.35791938876999435 -0.15914149921623708 -10.834999999999999 3.5449999999999995 81.327768988035004 4.8405125212290008 1.0000000180025095e-35 3.5150000000000001 -76.737726400576989 7.6142359711415013
decision_type=2 10 2 2 10 2 2 2 2 2 10 2 2 8 8 2 10 2 10 10 10 2 10 10 8 8 10 10 10 10
left_child=1 3 -2 4 19 -4 11 8 -7 -3 18 27 13 -8 -6 16 -16 -9 -11 20 21 -1 -17 29 -12 -26 -13 -5 -29 -24
right_child=2 9 5 6 14 7 12 17 -10 10 24 26 -14 -15 15 22 -18 -19 -20 -21 -22 -23 23 -25 25 -27 -28 28 -30 -31
leaf_value=0.0036992257847744655 0.0055070728938347354 0.00044888346392573503 0.0034601833604674635 -0.00050986803988499799 0.0010619756946406707 0.00043411132793950356 -0.00020374269782379227 -0.0002297987428462149 0.0012722108145876913 -0.0016769877234171036 -0.0033405869753717165 0.0007366001256502386 -0.0001900425908814907 0.0010132124260120651 0.0012733437286876026 -0.0011990915618647346 0.010467147217055467 -0.0027141294204281307 -4.7429535411899071e-05 -0.00038005139956102956 0.0027638450564346092 0.00096566046467435782 -1.4921993604528493e-05 -0.00064206698205529641 -0.0051594705858820245 0.0058573030476476136 -0.00044623496186212835 0.0099656899964802505 -0.0012781487341020272 0.0011879633400413731
leaf_weight=2387 2326 5272 5036 33056 12871 143491 21424 6365 42443 23982 8533 8517 84778 31659 4979 10824 176 3391 6358 3766 7819 22246 41006 24186 373 414 148010 86 46588 9083
leaf_count=2387 2326 5272 5036 33056 12871 143491 21424 6365 42443 23982 8533 8517 84778 31659 4979 10824 176 3391 6358 3766 7819 22246 41006 24186 373 414 148010 86 46588 9083
internal_value=0 -0.000243303 0.000669099 -0.000135728 0.000387709 0.000613009 -0.000330699 0.000539711 0.000625451 -0.00147251 -0.00172804 -0.00057275 8.40769e-05 0.000521963 3.41573e-05 -0.000112364 0.0015884 -0.00109384 -0.00133567 0.00139425 0.00160031 0.00123077 -0.000215451 -7.20376e-05 -0.0030048 0.00062954 -0.000381842 -0.000947481 -0.0012573 0.000203108
internal_weight=761445 558393 203052 513461 139343 200726 374118 195690 185934 44932 39660 236257 137861 53083 103125 90254 5155 9756 30340 36218 32452 24633 85099 74275 9320 787 156527 79730 46674 50089
internal_count=761445 558393 203052 513461 139343 200726 374118 195690 185934 44932 39660 236257 137861 53083 103125 90254 5155 9756 30340 36218 32452 24633 85099 74275 9320 787 156527 79730 46674 50089
is_linear=0
shrinkage=0.05


Tree=3
num_leaves=31
num_cat=0
split_feature=35 23 23 35 43 52 22 35 54 35 61 52 43 54 56 58 57 16 18 43 17 6 32 59 56 57 5 35 55 58
split_gain=44.7496 26.7653 17.4522 17.1175 17.1011 14.0279 10.0636 9.13449 9.43217 8.49789 8.12859 6.57922 6.16184 6.50223 6.89446 5.54684 5.39332 4.90409 4.86428 4.82481 4.57599 4.54401 4.51361 4.47066 4.38649 6.69347 4.36159 4.18429 4.16232 4.70377
threshold=1.8052587215756042e-10 0.062320568507959397 0.001721916763594821 6.6115802463421625e-11 -0.38435387573953039 2.6450000000000005 2.7816811647756574 3.9028875771650081e-11 -10.848799999999999 4.5271378476171815e-10 0.73431372549019625 12.615 -0.35251933893066123 24.400000000000002 7.1123824587925011 717.28695981225553 -0.97999999999999965 -0.17650259264060911 0.087120485608363121 -0.27067497228251741 0.020192638733111931 0.58385513637106012 0.012084025578703373 -9.6160089713019996 42.472173114073009 4.5350000000000019 -0.20832671747644746 1.5082764983475172e-11 6.4425221397365009 -8.6320347559864974
decision_type=2 10 10 2 2 8 2 2 10 2 8 8 2 8 10 10 8 2 2 2 2 2 2 8 10 10 2 2 10 8
left_child=1 2 7 5 -2 -4 9 19 -9 -6 -5 27 -7 14 -14 17 28 -10 -13 -1 -18 -19 -8 -23 -21 -26 -22 -3 29 -12
right_child=4 11 3 10 6 12 22 8 15 -11 16 18 13 -15 -16 -17 20 21 -20 24 26 23 -24 -25 25 -27 -28 -29 -30 -31
leaf_value=0.0012789058727075918 0.0034479366872336979 -0.0028613694444939103 0.00011288784199319343 0.00061795458211138664 0.00045549245638108803 0.00060233519963860368 -0.00024881609122369826 0.0095955806932714952 0.004046748644985337 0.0012542789135698011 -0.000181449701664727 -0.0015627045931562876 -0.0012972204147792515 -0.0030443964364241698 -0.00047812523069469835 0.0081076741894471407 0.001031345593732037 0.00072200921204219621 -0.0032837706840699154 -0.00032287350924136012 0.0017166325676015359 0.011456186828250036 -0.002607738859415603 0.0025729289681888129 0.0031545476525095283 -0.00084913154009932544 -9.0417312385210336e-05 0.00029121016038459224 0.00029948109795494514 -0.0010421626014963559
leaf_weight=6768 5266 1253 40956 41148 145738 5972 5734 320 1224 43172 28986 25532 64849 3928 42585 271 10585 37660 4901 38964 3422 158 3142 1403 2346 1878 137629 6567 13956 35132
leaf_count=6768 5266 1253 40956 41148 145738 5972 5734 320 1224 43172 28986 25532 64849 3928 42585 271 10585 37660 4901 38964 3422 158 3142 1403 2346 1878 137629 6567 13956 35132
internal_value=0 -0.000231137 -0.00013725 -0.00027062 0.000635645 -0.000683698 0.000560742 0.000491711 0.00104446 0.000638068 -2.91972e-05 -0.00150763 -0.000961793 -0.00104572 -0.000972592 0.000977104 -0.000145144 0.000929182 -0.00184004 3.75613e-05 2.86695e-05 0.000831752 -0.00108443 0.00347595 -0.000156857 0.00137334 -4.65403e-05 -0.000213319 -0.000482789 -0.000653137
internal_weight=761445 558393 520140 429148 203052 158290 197786 90992 41036 188910 270858 38253 117334 111362 107434 40716 229710 40445 30433 49956 151636 39221 8876 1561 43188 4224 141051 7820 78074 64118
internal_count=761445 558393 520140 429148 203052 158290 197786 90992 41036 188910 270858 38253 117334 111362 107434 40716 229710 40445 30433 49956 151636 39221 8876 1561 43188 4224 141051 7820 78074 64118
is_linear=0
shrinkage=0.05


Tree=4
num_leaves=31
num_cat=0
split_feature=35 39 18 39 23 16 12 23 61 17 35 57 16 39 11 44 58 59 57 57 7 16 18 57 39 58 54 16 59 57
split_gain=40.4354 25.5799 23.1318 20.6487 17.7208 14.7356 9.89672 9.53993 8.88942 8.56056 7.22506 6.68112 5.89509 5.30951 5.26811 5.15358 5.06508 5.21981 4.68434 4.45334 4.37421 4.36898 4.76094 4.33624 4.56916 4.41157 4.23535 4.1825 4.12982 4.10872
threshold=1.7450949723124611e-10 -0.10254180173589915 0.044317527404368555 -0.57451007097630302 1.0000000180025095e-35 -0.27090694273751997 1.7903910837691324 0.069250592584663276 0.85960591133004927 0.025758519226046151 4.5271378476171815e-10 -8.4349999999999969 -0.13917737421717366 -0.52295451687513139 -0.26642165371153415 0.77346383940888697 33.015897115194001 1.8266233628615007 -10.834999999999999 -25.129999999999995 0.50900177446687012 -0.16386935803272498 0.067428856406080137 6.4800000000000022 -0.43878481410000397 -11.985640915004998 24.400000000000002 -0.14658921266093983 16.936086409396001 -2.3449999999999993
decision_type=2 2 2 2 10 2 2 10 8 2 2 8 2 2 2 10 10 10 10 8 2 2 2 8 2 8 10 2 10 8
left_child=1 4 9 -2 16 -5 10 12 -6 11 27 -3 -4 -10 29 -9 23 -18 -15 -11 -8 22 -20 24 25 -1 -23 -7 -26 -14
right_child=3 2 7 5 8 6 20 15 13 19 -12 -13 14 18 -16 -17 17 -19 21 -21 -22 26 -24 -25 28 -27 -28 -29 -30 -31
leaf_value=0.0053856694554317063 0.0051263126170269166 -0.00096903052889953675 0.001096222608391949 0.0054433557609378479 0.0010239415626628321 0.0015771559919025291 0.00016709954589513086 -0.0014319074644869596 0.0013041431269665746 -0.0023774507449127774 0.0011607258969461073 0.00045274444127893872 0.0019791242385563354 -0.0011839918930067691 -0.0010150698727345515 -0.0030226605463770429 0.0063555457804416599 0.0016682380428349208 0.00078040834204703112 -0.00033022383520666092 -0.0016775534836202999 -0.00015366187829712451 0.0062332595272424646 -0.00015376352493850096 0.0010002512545506672 0.001916433401705075 -0.0020908076110512266 0.00036517862708571307 0.007567869402885204 -0.00040406318660691099
leaf_weight=1185 2476 9479 3921 1517 18484 7490 5876 16610 5722 2692 42743 64315 2513 12055 78968 7358 955 1582 5514 205323 7081 69860 432 5599 23319 4086 2941 144662 242 6445
leaf_count=1185 2476 9479 3921 1517 18484 7490 5876 16610 5722 2692 42743 64315 2513 12055 78968 7358 955 1582 5514 205323 7081 69860 432 5599 23319 4086 2941 144662 242 6445
internal_value=0 -0.000226206 -0.000437098 0.000586881 0.000325528 0.000533172 0.000497308 -0.00103199 1.93766e-05 -0.000192595 0.000586282 0.000270046 -0.000800082 -0.000172943 -0.000884705 -0.00192048 0.00127783 0.00343483 -0.00026608 -0.000356743 -0.000840623 -0.000125496 0.00117752 0.00111874 0.00136603 0.00269741 -0.00023199 0.000424875 0.00106795 0.000263952
internal_weight=761445 549600 397624 211845 151976 209369 207852 115815 115008 281809 194895 73794 91847 96524 87926 23968 36968 2537 90802 208015 12957 78747 5946 34431 28832 5271 72801 152152 23561 8958
internal_count=761445 549600 397624 211845 151976 209369 207852 115815 115008 281809 194895 73794 91847 96524 87926 23968 36968 2537 90802 208015 12957 78747 5946 34431 28832 5271 72801 152152 23561 8958
is_linear=0
shrinkage=0.05


Tree=5
num_leaves=31
num_cat=0
split_feature=53 61 53 23 53 18 53 40 17 15 53 53 6 56 23 54 55 17 16 57 44 41 6 16 18 50 35 54 54 7
split_gain=59.3238 34.3219 55.4845 28.1736 24.2227 19.6301 12.5224 11.4147 9.76142 9.46584 7.92782 7.22863 6.88835 6.38839 8.82739 6.04559 6.66048 5.95688 5.57196 5.44524 7.16952 5.39063 5.79245 5.33557 5.32226 5.05958 4.88254 4.82642 5.41925 4.78202
threshold=23.899952245589684 0.063508064516129045 23.173754501527846 0.046373030973866088 23.625842974752111 0.033074560203224572 21.833628658119348 0.20560359615068799 0.081820925907076042 -0.12113406132446151 21.56551743928771 23.19881998617219 0.81261758314652377 70.068818329843012 0.046373030973866088 20.530000000000005 -4.2979105064239986 0.023876802203326317 -0.15042610939631904 -13.199999999999999 0.26033560555790142 -0.032053315978521756 0.018067623585888985 -0.27090694273751997 0.054152622871879504 0.56587493343200945 1.8694761396989356e-10 12.275 0.17500000000000002 0.51432678866193349
decision_type=10 10 10 10 10 2 8 2 2 2 10 10 2 10 10 10 10 2 2 10 10 2 2 2 2 2 2 10 10 2
left_child=1 2 3 6 7 17 12 -3 15 -7 -5 -9 23 14 -4 16 26 -2 29 20 -20 22 -10 -1 -11 -21 -8 28 -15 -18
right_child=5 4 13 10 -6 9 8 11 21 24 -12 -13 -14 27 -16 -17 18 -19 19 25 -22 -23 -24 -25 -26 -27 -28 -29 -30 -31
leaf_value=0.0060490042708542385 0.00046470522751714959 0.0016160791608455347 -0.00079403245877894622 0.0015094471415475256 0.00042732483099954004 0.00033872309815200787 -0.00043920027481124575 0.0061658511387469236 0.0051463248011336064 -0.0015021220574824915 -0.0011393671792768187 0.0028965517866970606 0.011043799823287161 -0.003403025336298356 -0.0021585046409692936 -0.00078757815460600903 0.00073499151917917475 -0.00067260340548311011 -0.0010965246915131828 0.00061958843159391362 0.00097915012365980942 0.0042775867092547729 -0.0024822806952335469 0.00128988396597465 -0.0025524100695238508 4.5915006281216808e-05 0.00039026807393259815 -0.0020236755525459694 0.0016453963807116661 0.0027887065110092021
leaf_weight=602 16455 23828 108735 3056 46770 5623 37558 2233 375 41437 37097 7023 186 587 13310 11365 7096 38309 12081 199821 6343 2463 739 28299 17048 47612 33622 1471 5571 4730
leaf_count=602 16455 23828 108735 3056 46770 5623 37558 2233 375 41437 37097 7023 186 587 13310 11365 7096 38309 12081 199821 6343 2463 739 28299 17048 47612 33622 1471 5571 4730
internal_value=2.0184e-09 0.000189829 5.21635e-05 0.00032386 0.00115988 -0.00102608 0.000452796 0.00219531 0.000372961 -0.00161996 -0.000937641 0.00368587 0.00145116 -0.000855124 -0.000942882 0.000347136 0.000384117 -0.000330783 0.000494729 0.000447464 -0.00038164 0.0029722 8.14404e-05 0.00138921 -0.00180836 0.00050922 -4.73292e-05 0.000548128 0.00116331 0.00155685
internal_weight=761445 642573 562719 433045 79854 118872 392892 33084 363805 64108 40153 9256 29087 129674 122045 360228 348863 54764 277683 265857 18424 3577 1114 28901 58485 247433 71180 7629 6158 11826
internal_count=761445 642573 562719 433045 79854 118872 392892 33084 363805 64108 40153 9256 29087 129674 122045 360228 348863 54764 277683 265857 18424 3577 1114 28901 58485 247433 71180 7629 6158 11826
is_linear=0
shrinkage=0.05


Tree=6
num_leaves=31
num_cat=0
split_feature=35 39 17 39 23 16 23 52 22 28 16 35 17 35 55 43 39 56 58 59 7 44 28 7 18 57 57 57 44 59
split_gain=33.5635 22.4409 19.8382 17.3891 15.2122 12.1131 10.2225 9.21765 8.62749 8.20142 6.59783 5.85803 5.74417 5.73974 6.45615 5.72941 5.48198 5.39748 4.5368 4.7074 4.4413 4.42769 4.19436 4.43652 3.97276 7.18436 3.86252 3.84587 4.00533 4.82393
threshold=1.8052587215756042e-10 -0.10254180173589915 0.040956853506754112 -0.57451007097630302 1.0000000180025095e-35 -0.27090694273751997 0.069250592584663276 7.8750000000000009 2.6612031869987955 -0.064882862248145698 -0.11566405398318809 4.8634007870285449e-10 0.063553646314944187 3.66571582735257e-11 2.8764924058440005 -0.34618012933599929 -0.52295451687513139 145.52876200614654 33.015897115194001 1.8266233628615007 0.54716727057834447 0.77346383940888697 -0.30301229980412486 0.72705761985491357 0.025612793993181494 -1.0672999999999997 -11.454999999999998 5.8750000000000018 0.35791938876999435 -5.8442668507109996
decision_type=2 2 2 2 10 2 10 8 2 2 2 2 2 2 10 2 2 10 10 10 2 10 2 2 2 8 10 8 10 8
left_child=1 4 9 -2 18 -5 10 12 11 -3 -4 15 -6 -12 -15 -7 17 -9 27 -20 -10 -8 -18 26 25 -11 -24 28 -1 -30
right_child=3 2 6 5 7 8 21 16 20 24 13 -13 -14 14 -16 -17 22 -19 19 -21 -22 -23 23 -25 -26 -27 -28 -29 29 -31
leaf_value=0.00098575541492842674 0.0048490085804247345 -0.0004091302455083431 0.00045537524620017531 0.0049984051416944297 0.00065323384460296886 0.0019973847741607217 -0.0013341322176053123 0.00099714477211743546 -0.00010425528625652492 -0.00021283114729725249 -0.0013817301642026604 0.0010976303836083146 0.003414606050569838 -0.00092212382047175158 -4.8646651226892705e-05 0.00034340297904844364 0.0015063815743985092 0.0092036377281388675 0.0059940631361580744 0.0015569968248710648 -0.002276013804983656 -0.0027957700022919413 -0.0012062923215193846 -0.0014898413247741475 -0.00012085236344613544 0.00087189974142669812 -0.00011371522419663283 7.4671775007025321e-06 0.0054761196573500925 0.0017903593571230944
leaf_weight=21289 2326 123865 11947 1486 23322 5432 17217 5533 5848 25306 29485 37937 2050 53392 35058 146077 3096 208 961 1593 3946 7429 9228 7964 61995 38445 65682 7120 1076 5132
leaf_count=21289 2326 123865 11947 1486 23322 5432 17217 5533 5848 25306 29485 37937 2050 53392 35058 146077 3096 208 961 1593 3946 7429 9228 7964 61995 38445 65682 7120 1076 5132
internal_value=4.07552e-09 -0.000200168 -0.000396001 0.000550502 0.000312873 0.000500664 -0.000841236 3.30575e-05 0.00046709 -0.000120347 -0.000664022 0.000541918 0.000876556 -0.000777462 -0.00057597 0.000402737 -0.000200244 0.0012955 0.00119411 0.00322867 -0.000979781 -0.00177492 -0.000300188 -0.00036774 0.000164077 0.000441237 -0.000248376 0.00104385 0.00131203 0.00243008
internal_weight=761445 558393 404139 203052 154254 200726 154528 117083 199240 249611 129882 189446 25372 117935 88450 151509 91711 5741 37171 2554 9794 24646 85970 82874 125746 63751 74910 34617 27497 6208
internal_count=761445 558393 404139 203052 154254 200726 154528 117083 199240 249611 129882 189446 25372 117935 88450 151509 91711 5741 37171 2554 9794 24646 85970 82874 125746 63751 74910 34617 27497 6208
is_linear=0
shrinkage=0.05


Tree=7
num_leaves=31
num_cat=0
split_feature=53 52 53 53 18 53 16 17 15 17 57 40 35 7 53 56 35 17 56 53 15 53 43 16 6 62 57 56 16 59
split_gain=52.0802 32.2247 48.0619 22.2181 16.9203 14.1807 12.8365 9.1729 8.52618 7.37846 6.98276 7.80981 6.85879 6.64866 5.6596 5.44097 6.36805 5.41016 5.37716 5.03307 4.80473 4.72398 4.4598 4.1017 3.95271 4.41539 3.87582 3.99819 3.95437 5.15242
threshold=23.890258146316054 17.755000000000006 23.241449133486089 23.417622960544161 0.033074560203224572 22.590795054146309 -0.18415019933449198 0.065515945127874745 -0.12113406132446151 0.058620215378134388 -0.62499999999999989 0.17295586190254 1.8483633829541031e-10 0.50127468345781589 21.56551743928771 70.068818329843012 4.1448659237378939e-11 0.023298656403909178 2.0875713140020005 24.352910215020845 -0.15212247719215713 23.625842974752111 -0.35251933893066123 0.025425373224643413 0.26529195132874067 0.53923076923076929 -20.159999999999993 -9.6908765905064982 0.15597317291974125 -6.8069959171699992
decision_type=10 8 10 10 2 10 2 2 2 2 10 2 2 2 10 10 2 2 10 10 2 10 2 2 2 10 10 8 2 8
left_child=1 3 5 10 17 6 7 -3 -6 21 -1 -12 26 -7 -14 16 -4 -2 20 -10 -15 -5 -18 -19 -17 -26 -8 -28 -29 -30
right_child=4 2 15 9 8 13 12 -9 19 -11 11 -13 14 18 -16 24 22 23 -20 -21 -22 -23 -24 -25 25 -27 27 28 29 -31
leaf_value=0.0015796778447342225 0.00048785783184531676 0.0012657551373965129 -0.0018698667301616065 0.0012857442044641842 0.00033652471676450831 0.00012903551937715744 -0.00088541288714833052 0.0047888370246254742 -0.0014112300637414157 0.0028219103565957126 0.002469106815069975 0.0055500353662857249 0.0016162817913479542 0.0014569319170112964 0.00059607230534183093 -0.00026295242896182439 0.0012328960607631972 -0.00092220040128431163 0 -0.0024806471524607175 -0.0011844081134996106 0.00031334302921393769 -0.00087337240886103137 0.00020179158861721795 -0.00059807177543023124 0.0044036638795991309 -0.00026131525088958447 0.00029846716356275499 0.0036564380203528875 0.00082473394193901791
leaf_weight=5639 15369 5522 16985 17720 5789 136022 7554 2781 45101 3986 4566 3757 15789 1842 98150 4899 2590 29509 25035 14578 26013 42389 82646 11187 722 1128 27312 92901 1854 12110
leaf_count=5639 15369 5522 16985 17720 5789 136022 7554 2781 45101 3986 4566 3757 15789 1842 98150 4899 2590 29509 25035 14578 26013 42389 82646 11187 722 1128 27312 92901 1854 12110
internal_value=5.41112e-09 0.00018022 4.796e-05 0.00113216 -0.000948843 0.000274808 0.000511497 0.00244642 -0.00149482 0.000738344 0.00293969 0.00386049 0.000448639 -5.59e-05 0.000737492 -0.000894784 -0.000985583 -0.000311208 -0.000531609 -0.00167255 -0.00100956 0.00060009 -0.000809311 -0.000613102 0.00047972 0.00244901 0.000216391 0.000278459 0.000416459 0.00120108
internal_weight=761445 639912 561855 78057 121533 452885 263973 8303 65468 64095 13962 8323 255670 188912 113939 108970 102221 56065 52890 59679 27855 60109 85236 40696 6749 1850 141731 134177 106865 13964
internal_count=761445 639912 561855 78057 121533 452885 263973 8303 65468 64095 13962 8323 255670 188912 113939 108970 102221 56065 52890 59679 27855 60109 85236 40696 6749 1850 141731 134177 106865 13964
is_linear=0
shrinkage=0.05


Tree=8
num_leaves=31
num_cat=0
split_feature=53 52 53 23 53 17 53 17 17 57 23 53 6 53 53 26 54 50 57 28 43 51 41 53 16 56 23 28 28 16
split_gain=47.0434 28.1005 43.6243 23.7235 20.6389 15.2031 10.0642 7.66508 6.4071 6.30158 6.31601 6.22679 6.12172 5.88539 5.66714 5.57841 5.31333 6.10236 5.21033 4.89879 4.86116 4.74616 4.62403 4.50792 4.1927 4.12766 4.89587 4.04219 4.0073 4.28653
threshold=23.899952245589684 17.755000000000006 23.173754501527846 0.052350943187809106 23.417622960544161 0.027489236812217162 21.833628658119348 0.081820925907076042 0.05821177407404058 -0.62499999999999989 0.01989360457830491 24.352910215020845 0.81261758314652377 21.433756333729409 23.381905316896056 -0.2674326491292624 20.530000000000005 0.57307592304396782 -0.97999999999999965 -0.25188526610044565 -0.4219222593379896 41.805000000000007 1.0000000180025095e-35 23.625842974752111 0.09737416400155223 174.54117171943003 0.045320568314892569 -0.35587537599506225 -0.031183913441977948 -0.13917737421717366
decision_type=10 8 10 10 10 2 8 2 2 10 10 10 2 10 10 2 10 2 10 2 2 10 2 10 2 10 10 2 2 2
left_child=1 4 3 6 9 -2 12 16 23 19 -11 -7 20 -5 -4 22 17 18 24 -1 -3 -12 -9 -6 -8 26 -16 -15 29 -20
right_child=5 2 14 13 8 11 7 15 -10 10 21 -13 -14 27 25 -17 -18 -19 28 -21 -22 -23 -24 -25 -26 -27 -28 -29 -30 -31
leaf_value=0.0077975421314928784 0.00011774930744739117 0.0042478801053831231 -0.00038887780222787369 0.0015438552745944735 0.0012219996730938303 -0.00099195855304783174 2.3493517416853985e-05 -0.0023134164656567107 0.0025596352039122137 0.0025507828822665547 0.0071900459129454241 -0.0019593597144814279 0.0098838638365795449 0.0029018492591314968 -0.00095489415375408962 0.0046311431147843451 -0.00076082704987921268 -9.3705749125700069e-05 0.0014624127972511576 0.0011545073372564473 0.0010777559234095265 0.0033816299285046817 0.0026137789199961268 0.00027683317349660026 0.0009710212285640934 0.0014021371652326792 -0.002210660627411988 -0.0012639732007286492 0.0014671759411093166 0.00046231522663287304
leaf_weight=293 27462 1264 57280 2113 17685 69522 89467 758 4229 5029 1719 21888 205 593 61735 1748 11503 68307 11489 5346 28549 1575 1278 44082 13429 1668 8887 30095 12208 160039
leaf_count=293 27462 1264 57280 2113 17685 69522 89467 758 4229 5029 1719 21888 205 593 61735 1748 11503 68307 11489 5346 28549 1575 1278 44082 13429 1668 8887 30095 12208 160039
internal_value=8.54727e-09 0.000169051 4.43918e-05 0.000285232 0.00104614 -0.000913722 0.000391185 0.000319774 0.000676548 0.00279274 0.0036675 -0.00122366 0.00127176 -0.00100747 -0.000760499 0.00255875 0.000296639 0.000330924 0.000432134 0.0015007 0.00121234 0.00537076 0.000776912 0.000547534 0.000147205 -0.00105489 -0.00111299 -0.0011833 0.000591673 0.000529332
internal_weight=761445 642573 562615 433045 79958 118872 400244 370226 65996 13962 8323 91410 30018 32801 129570 3784 366442 354939 286632 5639 29813 3294 2036 61767 102896 72290 70622 30688 183736 171528
internal_count=761445 642573 562615 433045 79958 118872 400244 370226 65996 13962 8323 91410 30018 32801 129570 3784 366442 354939 286632 5639 29813 3294 2036 61767 102896 72290 70622 30688 183736 171528
is_linear=0
shrinkage=0.05


Tree=9
num_leaves=31
num_cat=0
split_feature=53 52 53 39 53 18 16 18 17 15 35 24 35 57 53 56 36 53 28 57 15 55 54 53 39 35 52 56 18 17
split_gain=42.4585 26.2868 39.3287 20.5423 18.1393 14.3695 11.1114 12.4638 8.38326 7.51028 7.42087 7.21411 6.88239 6.977 6.59527 6.57829 6.22085 6.15864 5.59658 5.9293 5.92168 5.47235 5.29321 6.48213 4.99877 5.35002 4.76264 4.63124 4.5928 4.4686
threshold=23.890258146316054 17.755000000000006 23.116061774776547 -0.47932943164558722 23.354532241778603 0.032495778098153259 -0.16386935803272498 0.064363469753970198 0.062971180041855049 -0.13096583641123752 4.6900301515894423e-10 0.92500000000000016 1.4098730498757361e-10 9.6100000000000012 23.381905316896056 145.52876200614654 0.53964171782652548 23.667123704129313 -0.25188526610044565 -0.62499999999999989 0.14470810907621737 -15.917131053338998 -7.3899999999999997 21.618147147879466 -0.10122366178287627 6.2141953081718725e-11 1.8450000000000004 28.043854408773004 0.047171207588367799 0.055242334375830648
decision_type=10 8 10 2 10 2 2 2 2 2 2 10 2 8 10 10 2 10 2 10 2 8 8 10 2 2 8 8 2 2
left_child=1 4 3 12 18 26 8 10 -5 -7 16 22 13 15 -4 21 24 29 -1 -20 -21 -3 23 -9 27 -26 -2 -8 -11 -6
right_child=5 2 14 6 17 9 7 11 -10 28 -12 -13 -14 -15 -16 -17 -18 -19 19 20 -22 -23 -24 -25 25 -27 -28 -29 -30 -31
leaf_value=0.007154808690614938 0.00033660081479754459 -0.0080384316948547731 -0.0003332940138787478 0.00082876931307983162 0.001079773890554171 0.00051616190864522905 0.0004813262078209503 0.0054598984675789794 0.0034504482014865129 -0.0011172355131349075 0.00092111657565639216 -0.0028501298563985283 0.0037447177223111378 -0.0021672445912393483 -0.0010045929467430038 0.010275563945202071 -0.00026271997151089817 0.00031688524421839593 0.0011706896632421545 0.003058124825719228 0.0079673859383389677 0.0018097577901304658 -0.00078079710345951283 6.3470289302414761e-05 -0.00034228828920956022 0.00029632828334005395 -0.00062487114461917941 0.0016690193997169053 -0.0019833164846131688 0.0032186205604143462
leaf_weight=732 21103 143 74962 11317 25069 5018 63190 761 4178 35265 37048 3833 4474 1209 71530 227 65059 39537 4141 5170 699 9127 22121 2077 42997 138163 33036 9439 27111 2709
leaf_count=732 21103 143 74962 11317 25069 5018 63190 761 4178 35265 37048 3833 4474 1209 71530 227 65059 39537 4141 5170 699 9127 22121 2077 42997 138163 33036 9439 27111 2709
internal_value=1.23764e-08 0.000162731 4.32755e-05 0.000291715 0.00102251 -0.000856714 0.000223217 0.000170325 0.00153601 -0.00134402 0.000251286 -0.000830247 0.00209715 0.00140814 -0.000661115 0.00186384 0.00017344 0.000717926 0.00293069 0.00262123 0.0036438 0.00165721 -0.00051984 0.00151241 0.00028527 0.00014473 -0.000250004 0.000635752 -0.00149375 0.00128855
internal_weight=761445 639912 561855 415363 78057 121533 400183 384688 15495 67394 355896 28792 15180 10706 146492 9497 318848 67315 10742 10010 5869 9270 24959 2838 253789 181160 54139 72629 62376 27778
internal_count=761445 639912 561855 415363 78057 121533 400183 384688 15495 67394 355896 28792 15180 10706 146492 9497 318848 67315 10742 10010 5869 9270 24959 2838 253789 181160 54139 72629 62376 27778
is_linear=0
shrinkage=0.05


Tree=10
num_leaves=31
num_cat=0
split_feature=53 61 53 23 53 39 18 16 53 17 57 15 55 35 40 55 53 39 32 56 56 17 57 50 17 35 18 57 16 43
split_gain=38.3609 23.0062 35.8678 21.0225 16.5272 16.5262 13.0194 8.74948 8.68936 7.01716 6.75291 6.74833 6.27093 6.11495 5.81061 5.73561 5.67806 5.47401 5.43108 5.36524 4.732 4.60166 4.55506 4.52359 4.30008 4.27683 4.24681 4.30355 3.915 3.90152
threshold=23.899952245589684 0.063508064516129045 22.98333435801128 0.069250592584663276 23.354532241778603 -0.47932943164558722 0.033074560203224572 -0.18415019933449198 23.381905316896056 0.064832021818911859 6.4800000000000022 -0.12113406132446151 34.387218809132513 4.0075884191293015e-10 0.20855192254964525 18.040227793261504 23.625842974752111 -0.1415444150381451 0.010891459731014318 38.657589060603009 28.043854408773004 0.089176545133122079 1.8900000000000006 0.33666983372215326 0.020977939634839841 2.6881579928869291e-11 0.054152622871879504 -2.4652499999999997 0.025425373224643413 -0.44434649341761984
decision_type=10 10 10 10 10 2 2 2 10 2 8 2 10 2 2 8 10 2 2 10 10 2 10 2 2 2 2 8 2 2
left_child=1 2 3 5 14 10 24 9 -4 -7 12 -8 21 17 -3 19 -6 20 25 -12 -9 -1 -16 -23 -2 -19 -13 -28 -26 -5
right_child=6 4 8 29 16 7 11 13 -10 -11 15 26 -14 -15 22 -17 -18 18 -20 -21 -22 23 -24 -25 28 -27 27 -29 -30 -31
leaf_value=0.002218100453830165 0.00069808761232667505 0.0019240460503362014 -0.00025445791150809934 0.0046075852226980085 0.0013191077142730057 0.00096680771929231872 0.00034496161080523866 0.00045881096652036345 -0.00095303598037877043 0.0039691445088384115 0.0006050089457585189 -0.0011942625484796235 0.010635703294806521 0.00080230391599114207 0.0029030817843154815 -0.0033204682242162693 0.00034946049891798441 -0.00054948203758470695 -0.00038282449396752886 0.0092703557859037632 0.0017787875867679135 0.011794342759546692 0.0064667907725190314 0.0033298450088402407 -0.00075141209899193349 0.00029580172797153271 -0.00077582564449363127 -0.0025983880719057384 0.00029087764735770194 -0.0015141339712910296
leaf_weight=9969 9664 7055 115578 264 22310 6772 5623 48953 72426 2735 1838 41437 242 50077 2191 912 46770 16463 47379 198 7888 252 1528 429 32668 164004 4361 12687 12432 16340
leaf_count=9969 9664 7055 115578 264 22310 6772 5623 48953 72426 2735 1838 41437 242 50077 2191 912 46770 16463 47379 198 7888 252 1528 429 32668 164004 4361 12687 12432 16340
internal_value=1.46103e-08 0.000152663 3.99512e-05 0.000322714 0.000946863 0.000403366 -0.000825098 0.000335246 -0.000523603 0.00183109 0.00209749 -0.00130875 0.00267208 0.00029275 0.00276842 -2.37694e-05 0.000662691 0.000203101 9.3566e-05 0.00145058 0.000642079 0.00249055 0.00436876 0.00647069 -0.00025883 0.000218663 -0.00146783 -0.00213246 -0.00046399 -0.00141647
internal_weight=761445 642573 562719 374715 79854 358111 118872 344271 188004 9507 13840 64108 10892 334764 10774 2948 69080 284687 227846 2036 56841 10650 3719 681 54764 180467 58485 17048 45100 16604
internal_count=761445 642573 562719 374715 79854 358111 118872 344271 188004 9507 13840 64108 10892 334764 10774 2948 69080 284687 227846 2036 56841 10650 3719 681 54764 180467 58485 17048 45100 16604
is_linear=0
shrinkage=0.05


Tree=11
num_leaves=31
num_cat=0
split_feature=53 53 52 53 39 53 23 18 35 23 57 56 28 43 56 55 21 16 16 52 57 59 35 56 16 23 56 15 53 14
split_gain=34.882 19.6289 27.9915 21.1131 16.5391 14.3312 13.3697 9.41035 7.7362 6.45312 6.27624 5.94147 5.37213 5.04274 5.48413 5.61636 5.01157 4.80386 4.78256 4.77688 4.40679 4.35268 4.31241 5.31935 4.22918 4.60833 4.21314 3.83272 3.7519 3.64571
threshold=24.102763190245028 22.688568613575587 15.435 23.625842974752111 -0.22678685650174599 23.372706690990757 0.056831417920096043 0.036694846204160088 3.0312687897341048e-11 0.033679820936179779 41.160000000000011 40.396507820687511 -0.16690059155233714 -0.4219222593379896 14.063668987227002 8.8671705355695014 0.23007941368317344 -0.17650259264060911 -0.080457023297077823 3.7650000000000001 -2.1254999999999993 4.8405125212290008 3.7261829013052062e-11 377.83910733336853 0.16413145402362156 0.02169416231123986 -348.08206727596496 0.091888633080469365 22.122882216037059 0.02974248737847374
decision_type=10 10 8 10 2 10 10 2 2 10 8 10 2 2 10 10 2 2 2 10 10 10 2 10 2 10 8 2 8 2
left_child=1 4 3 12 13 9 8 -2 -6 -4 24 -11 -3 -1 26 28 -17 -7 -9 -8 -14 -13 23 -19 25 -10 -15 -22 -16 -5
right_child=7 2 5 29 6 17 19 18 10 11 -12 21 20 14 15 16 -18 22 -20 -21 27 -23 -24 -25 -26 -27 -28 -29 -30 -31
leaf_value=0.0036955810435142181 -0.00054456183857486812 0.0031159549700302031 -1.6577208801407314e-05 0.00032034985926331316 -0.00040483309960997544 0.0012169066560210405 -0.0012847646328688978 -0.00011919887727441197 0.00047237110225685475 -0.0010311853847307102 0.0017631717453831944 -0.00032193671264521973 0.00044549039749496684 0.010567357250870791 0.0013440023013926421 0.0004613280718825663 0.0033067063438829997 -0.0018149941636425235 -0.0019621685561451688 0.009952149250653311 0.0014894241330812019 0.0027170919755778204 -0.00080392488100982241 0.0052291802802519813 0.0014691938584851193 -0.00015692911458895385 0.00076580068498208545 0.0035159340278524964 0.0041273197071084412 -0.00042720232658326651
leaf_weight=2051 37775 5145 163250 61055 29834 2564 14567 4057 144898 29978 8812 3103 8951 110 1799 6243 2060 16424 26896 95 14859 1897 68966 272 8791 36386 31840 2774 3743 22250
leaf_count=2051 37775 5145 163250 61055 29834 2564 14567 4057 144898 29978 8812 3103 8951 110 1799 6243 2060 16424 26896 95 14859 1897 68966 272 8791 36386 31840 2774 3743 22250
internal_value=1.75087e-08 0.00010662 -0.000120054 0.000538738 0.00041913 -0.000384629 0.000252039 -0.00107437 0.000345884 -0.00014866 0.00045852 -0.000764975 0.00163634 0.00126898 0.00116019 0.00199162 0.00116791 -0.000914753 -0.00172077 -0.00121155 0.00134978 0.000830102 -0.000978617 -0.00169991 0.000398008 0.000346035 0.000799736 0.00180853 0.00322476 0.000120625
internal_weight=761445 692717 401488 115034 291229 286454 243383 68728 228721 198228 198887 34978 31729 47846 45795 13845 8303 88226 30953 14662 26584 5000 85662 16696 190075 181284 31950 17633 5542 83305
internal_count=761445 692717 401488 115034 291229 286454 243383 68728 228721 198228 198887 34978 31729 47846 45795 13845 8303 88226 30953 14662 26584 5000 85662 16696 190075 181284 31950 17633 5542 83305
is_linear=0
shrinkage=0.05


Tree=12
num_leaves=31
num_cat=0
split_feature=53 52 53 23 53 17 16 53 17 53 17 16 23 40 26 54 23 56 62 57 18 57 18 17 54 54 18 28 1 62
split_gain=31.6841 22.7107 28.8615 16.4338 12.4594 11.0386 8.99741 8.20083 6.95221 6.22337 5.56407 5.46582 5.99717 4.83322 4.56897 4.41609 4.26598 5.39736 4.95425 4.1546 5.8406 4.09947 4.06919 3.95047 5.1965 3.91238 4.26909 3.84844 3.76358 3.7785
threshold=23.852107538871174 17.755000000000006 22.889261085566137 0.069250592584663276 23.354532241778603 0.025758519226046151 -0.18415019933449198 23.381905316896056 0.065515945127874745 24.352910215020845 0.056262123088590237 0.14810411019586017 0.033679820936179779 0.20855192254964525 -0.090362081581968776 22.455000000000002 0.015401994648845643 65.862586809649514 0.45401691331923894 -1.0672999999999997 0.087120485608363121 1.8900000000000006 0.067428856406080137 0.055242334375830648 -10.848799999999999 6.6830000000000007 0.046177433382957246 -0.028744985688456345 -0.44812791932441215 0.072299651567944254
decision_type=10 8 10 10 10 2 2 10 2 10 2 2 10 2 2 10 10 10 10 8 2 10 2 2 10 10 2 2 2 8
left_child=1 4 3 6 13 -2 8 16 -3 -7 -6 12 15 -1 23 19 -4 -18 -19 20 -8 -15 -11 -13 28 26 -20 -21 -25 -30
right_child=5 2 7 -5 10 9 11 -9 -10 22 -12 14 -14 21 -16 -17 17 18 25 27 -22 -23 -24 24 -26 -27 -28 -29 29 -31
leaf_value=0.0017894115056159355 0.00025101509213547784 0.001019653625405107 3.1647549227571982e-05 -0.0012875560357497359 0.0005692100168632621 -0.00072406275146491442 9.4594600772972138e-05 -0.00086948548610271616 0.0039432557019915574 -0.0014463619405035825 0.0023478878459210683 0.0011584985950728265 -0.000435248368790045 0.0026372561954060986 0.0016711669885139707 -0.00084340342841415826 -0.00064865283910422262 -0.0010670545699080624 0.0012403795373180319 0.00047913898070326647 0.0093962672960711518 0.006025456798213074 -0.0038067238887110316 -0.0061077046360308897 -0.00097033238045049074 0.00036314864081308823 0.006518397896950176 0.0015381316292577144 -0.0016085564704174504 0.0072215839768998737
leaf_weight=7032 24640 6791 82222 15158 55056 84682 87865 68285 2907 20930 4781 7885 26194 2195 13682 7440 57174 1585 708 162648 169 1515 2004 88 6010 1270 842 9062 163 462
leaf_count=7032 24640 6791 82222 15158 55056 84682 87865 68285 2907 20930 4781 7885 26194 2195 13682 7440 57174 1585 708 162648 169 1515 2004 88 6010 1270 842 9062 163 462
internal_value=1.89116e-08 0.000147898 4.1112e-05 0.000322287 0.000993006 -0.000703458 0.000395943 -0.000418272 0.00189656 -0.000922043 0.000711414 0.000350685 0.000286658 0.00256109 0.00101448 0.000357451 -0.000203974 -0.000518664 0.00116735 0.000391867 0.000112519 0.00402232 -0.00165285 0.000399075 -0.000490867 0.00242498 0.004111 0.000535057 0.00354319 0.0049108
internal_weight=761445 629189 558610 346524 70579 132256 331366 212086 9698 107616 59837 321668 293378 10742 28290 267184 143801 61579 4405 259744 88034 3710 22934 14608 6723 2820 1550 171710 713 625
internal_count=761445 629189 558610 346524 70579 132256 331366 212086 9698 107616 59837 321668 293378 10742 28290 267184 143801 61579 4405 259744 88034 3710 22934 14608 6723 2820 1550 171710 713 625
is_linear=0
shrinkage=0.05


Tree=13
num_leaves=31
num_cat=0
split_feature=53 39 23 61 53 60 53 61 53 18 35 53 56 44 15 35 7 19 54 57 58 62 57 54 56 57 15 56 58 58
split_gain=28.9073 17.145 15.7273 14.9565 12.8857 15.4476 10.2206 9.99019 9.39559 8.03438 7.07093 6.75903 5.93217 6.42868 5.46171 5.91318 5.61858 5.15689 5.04146 5.25455 5.9168 4.81938 6.60741 4.79123 4.71947 4.41127 4.33091 4.20525 3.73071 3.671
threshold=24.102763190245028 -0.52295451687513139 0.046373030973866088 0.10566188197767147 22.889261085566137 0.030776515151515155 23.625842974752111 0.78679653679653694 23.667123704129313 0.036694846204160088 1.4098730498757361e-10 23.417622960544161 42.472173114073009 0.77346383940888697 -0.16945131810181055 3.9028875771650081e-11 0.53490371793620217 -75.842400946185677 0.42200000000000004 9.6100000000000012 21.982496390408503 0.42940199335548174 3.8400000000000012 12.275 29.052953769588502 -2.1254999999999993 -0.13096583641123752 279.13022781810605 -69.000778862595482 9.8769377319340013
decision_type=10 2 10 10 10 10 10 8 10 2 2 10 8 10 2 2 2 2 10 10 10 10 8 8 10 8 2 10 10 10
left_child=1 10 4 12 7 11 -7 28 25 -2 18 -6 13 -4 16 23 -9 -17 -1 20 24 -14 27 -16 -20 -5 -11 -23 -3 -12
right_child=9 2 3 8 5 6 -8 14 -10 26 29 -13 21 -15 15 17 -18 -19 19 -21 -22 22 -24 -25 -26 -27 -28 -29 -30 -31
leaf_value=-0.0052593850623939157 -0.0004884783671876622 0.013719392602095544 -0.00095689959547819831 -0.00015974480016024418 -0.00014234520419405123 0.001218991503200192 0.00010383907090467642 0.00053329526011521955 -6.1297525765784119e-05 0.00065590673964888299 0.0027403169360984739 -0.00075715609508194128 -0.0013330569364917839 -0.002540246434617489 0.00012900053208331704 3.6472431534925184e-05 0.0025852939952016141 0.0005463930373938654 0.0016523558102833529 -0.0026976466730339824 0.0053019594620158147 0.0019297320138003116 -0.00080809552428779449 -0.00096850783044616178 -0.0017163734934729233 0.0040417009749244915 -0.0017320114829561251 0.0070331250317016234 0.0040605896814854617 0.0063490438830769201
leaf_weight=303 37775 111 39518 797 134896 28035 76973 8850 6333 2029 3280 66881 2985 7659 31737 69198 5362 175098 7443 768 970 2281 2250 14478 1207 2853 28924 492 1057 902
leaf_count=303 37775 111 39518 797 134896 28035 76973 8850 6333 2029 3280 66881 2985 7659 31737 69198 5362 175098 7443 768 970 2281 2250 14478 1207 2853 28924 492 1057 902
internal_value=2.0121e-08 9.7065e-05 6.02108e-05 -0.000678241 0.000138765 -9.01898e-05 0.000401611 0.000368406 0.00110245 -0.000978032 0.00177636 -0.000346155 -0.00100046 -0.00121406 0.000350697 0.000303855 0.00130785 0.000401976 0.00109381 0.00127965 0.00159772 0.000257278 0.00120336 -0.000214714 0.0011817 0.00312294 -0.00157532 0.00283723 0.00498388 0.00352
internal_weight=761445 692717 677844 65168 612676 306785 105008 305891 9983 68728 14873 201777 55185 47177 304723 290511 14212 244296 10691 10388 9620 8008 5023 46215 8650 3650 30953 2773 1168 4182
internal_count=761445 692717 677844 65168 612676 306785 105008 305891 9983 68728 14873 201777 55185 47177 304723 290511 14212 244296 10691 10388 9620 8008 5023 46215 8650 3650 30953 2773 1168 4182
is_linear=0
shrinkage=0.05


Tree=14
num_leaves=31
num_cat=0
split_feature=53 52 53 23 39 53 17 35 54 39 53 56 23 54 56 17 16 34 43 40 54 39 54 18 21 56 23 18 17 59
split_gain=26.227 19.6455 24.142 14.5802 13.3177 10.0847 9.62832 7.69616 5.98024 5.4885 5.36408 4.74829 5.50135 5.02496 4.74496 4.72488 4.69218 4.5598 4.38911 4.38389 4.18002 4.11763 5.3814 4.92658 4.07242 3.92482 3.89274 3.79688 3.69521 3.46279
threshold=23.842887009227788 17.755000000000006 23.241449133486089 0.069250592584663276 -0.47932943164558722 23.354532241778603 0.025758519226046151 4.0075884191293015e-10 22.455000000000002 -0.10254180173589915 24.399870257302336 70.068818329843012 0.035402130972047315 11.185 145.52876200614654 0.056262123088590237 -0.27090694273751997 -0.0039137814528045984 -0.48056692762575115 0.37328637893932209 0.17500000000000002 -0.082263044601014232 3.5150000000000001 0.046666114068830568 0.24317447888101887 16.466146926832003 0.015542815501153629 0.067428856406080137 0.089176545133122079 -89.369938180767477
decision_type=10 8 10 10 2 10 2 2 8 2 10 10 10 10 10 2 2 2 2 2 10 2 8 2 2 10 10 2 2 10
left_child=1 5 3 4 8 19 -2 9 14 26 21 12 -4 20 28 -7 -9 -11 -5 25 -13 -8 -23 -24 -19 -1 -6 -12 -3 -18
right_child=6 2 11 18 7 15 10 16 -10 17 27 13 -14 -15 -16 -17 29 24 -20 -21 -22 22 23 -25 -26 -27 -28 -29 -30 -31
leaf_value=0.0015471597081254858 0.00024872398965764821 0.001708347514604967 -0.00056365309504493167 0.0073026770177765073 0.00063048196505872749 0.00053965797489518555 -0.00013880396380718199 0.0045234492066600221 -0.0015254166283985033 -0.00051092534721084088 -0.0013860407618777766 -0.0031349301054032809 -0.0015643217184841175 -0.0020456411745131977 0.0091098252061869046 0.0022021433971563305 0.0046360590075477329 -3.5356994586081223e-05 -0.0011630413443002887 0.0055054910744863194 0.0018444022924738884 -0.00038774384068909328 -0.0009147224961714612 -0.002194496724784219 0.00047291961130173821 0.004163416172084957 -1.6126333414025919e-05 -0.0039128084327617243 0.0052056434982414943 0.00066127857924011221
leaf_weight=7996 25209 12399 81976 154 72760 53322 25618 816 1281 37658 17022 463 16510 1345 234 4649 554 166582 20552 995 4622 29610 25084 10756 51615 1751 34203 1632 806 53271
leaf_count=7996 25209 12399 81976 154 72760 53322 25618 816 1281 37658 17022 463 16510 1345 234 4649 554 166582 20552 995 4622 29610 25084 10756 51615 1751 34203 1632 806 53271
internal_value=1.99919e-08 0.000136207 3.79289e-05 0.00019626 0.000258367 0.000933941 -0.00063229 0.000206234 0.00173651 0.000122904 -0.000834751 -0.000645483 -0.000731455 0.000670539 0.00204782 0.000673071 0.000759455 -2.81615e-06 -0.0010998 0.00234128 0.00138999 -0.000676431 -0.000886788 -0.00129894 8.48542e-05 0.00201771 0.000423673 -0.00160739 0.00192223 0.000702291
internal_weight=761445 626514 557801 452885 432179 68713 134931 417459 14720 362818 109722 104916 98486 6430 13439 57971 54641 255855 20706 10742 5085 91068 65450 35840 218197 9747 106963 18654 13205 53825
internal_count=761445 626514 557801 452885 432179 68713 134931 417459 14720 362818 109722 104916 98486 6430 13439 57971 54641 255855 20706 10742 5085 91068 65450 35840 218197 9747 106963 18654 13205 53825
is_linear=0
shrinkage=0.05


Tree=15
num_leaves=31
num_cat=0
split_feature=53 15 23 53 61 18 61 53 18 35 17 56 53 53 57 53 56 62 57 35 31 59 53 7 57 17 19 58 18 17
split_gain=23.9999 14.6588 13.5389 11.9521 10.7577 10.6674 10.4785 7.47351 6.95088 6.52656 7.10674 6.26815 6.49069 6.12153 5.80606 5.75265 4.99534 4.7757 5.53119 5.02369 4.02406 3.67782 4.83442 4.66477 3.45482 3.44097 3.42838 3.4427 3.36234 3.26632
threshold=24.102763190245028 -0.195979426421205 0.035402130972047315 22.717040361454053 0.10566188197767147 0.06661335273237462 0.93440860215053767 23.667123704129313 0.054152622871879504 3.844104620226152e-11 0.089176545133122079 74.839403443871007 23.275173928851007 23.381905316896056 -2.1254999999999993 23.625842974752111 -1.0144623576214997 0.42940199335548174 5.4850000000000012 5.9454014624493034e-11 0.014303756031536765 -13.716549893022998 22.640088531258147 1.0533142693482629 -2.7349999999999985 0.027193142727408588 -75.454545454545453 120.97658352407201 0.084318838651637765 0.020977939634839841
decision_type=10 2 10 10 10 2 8 10 2 2 2 8 10 10 10 10 10 10 10 2 2 8 10 2 8 2 2 10 2 2
left_child=1 5 3 9 11 20 15 14 25 -3 26 12 16 -8 -6 -5 -4 -13 19 -19 24 22 23 -18 -1 -2 -11 -28 -23 -17
right_child=8 2 4 6 7 -7 13 -9 -10 10 -12 17 -14 -15 -16 29 21 18 -20 -21 -22 28 -24 -25 -26 -27 27 -29 -30 -31
leaf_value=-0.00084201471620214271 -3.1779504919575269e-05 -0.00012295042206837895 -0.0010742025648623724 0.0011347119323341889 -0.00028850389949692449 0.0047801350599573963 -3.0516691919050569e-05 -9.0902904754871952e-05 -0.0020540046612400049 0.0001887559138809 0.0051396530979124595 -0.0010734250936225342 -0.0016772718779277133 -0.00054986218586954927 0.0033470894895582153 0.0011001881799753606 0.0036988714443193411 0.0049548789633234698 -0.0009201193649887641 0.00092171529255621442 0.002452662329148635 -0.00012899552555748067 -0.0006245059428106256 0.019273301205231484 0.0011170233270205987 -0.00090519175114337879 0.00056406259555837621 0.0014430524025520314 -0.0021340987265966076 2.0362968120223256e-05
leaf_weight=3110 15361 47993 27743 21975 1558 2200 158904 9253 10830 60107 831 2382 17806 88271 3701 8214 873 1497 1392 1602 3826 26860 869 51 8123 42537 131555 12180 2268 47573
leaf_count=3110 15361 47993 27743 21975 1558 2200 158904 9253 10830 60107 831 2382 17806 88271 3701 8214 873 1497 1392 1602 3826 26860 869 51 8123 42537 131555 12180 2268 47573
internal_value=1.91919e-08 8.84446e-05 5.16705e-05 0.000143815 -0.000492177 0.00152736 -5.6734e-05 0.000764001 -0.000891156 0.000401748 0.000524807 -0.000710968 -0.000840995 -0.000216005 0.00226909 0.000449463 -0.000587076 0.000735 0.00169529 0.00287168 0.00105179 -0.000149852 0.00204762 0.0045659 0.000574191 -0.000673552 0.000505967 0.000638583 -0.000285298 0.000179446
internal_weight=761445 692717 675458 577603 97855 17259 324937 14512 68728 252666 204673 83343 76470 247175 5259 77762 58664 6873 4491 3099 15059 30921 1793 924 11233 57898 203842 143735 29128 55787
internal_count=761445 692717 675458 577603 97855 17259 324937 14512 68728 252666 204673 83343 76470 247175 5259 77762 58664 6873 4491 3099 15059 30921 1793 924 11233 57898 203842 143735 29128 55787
is_linear=0
shrinkage=0.05


Tree=16
num_leaves=31
num_cat=0
split_feature=53 16 39 23 52 18 53 60 51 53 18 53 53 56 44 57 57 7 54 57 16 20 1 39 57 17 32 19 25 57
split_gain=21.6603 15.2245 13.4113 13.0864 10.0805 9.71996 8.73998 11.3944 7.28328 6.88387 6.34259 6.215 5.88066 4.90812 4.9704 4.70109 4.15452 5.47279 4.14401 4.0077 3.96421 3.90154 3.86985 3.98484 4.31164 4.37382 3.91304 4.10971 3.7151 3.69594
threshold=24.102763190245028 -0.16386935803272498 -0.52295451687513139 0.046373030973866088 2.2450000000000006 0.06661335273237462 22.897848245631973 0.030776515151515155 39.275000000000013 23.795903317702287 0.045943307417580175 23.919075912181579 23.417622960544161 42.472173114073009 0.77346383940888697 -0.97999999999999965 -2.5874999999999995 1.0079032413874016 12.665000000000001 -3.2649999999999992 -0.079143681817658393 17.356429291241376 -0.75037147210249988 -0.1496230842966286 26.135000000000002 0.043765479017144351 0.010891459731014318 -76.565047747462259 1.2604236633140189 -9.3549999999999969
decision_type=10 2 2 10 10 2 10 10 8 10 2 10 10 8 10 8 8 2 8 10 2 2 2 2 10 2 2 2 2 8
left_child=1 5 18 6 13 15 8 12 21 -9 -2 -6 -8 14 -5 -1 17 19 -3 -15 -12 -4 -10 -24 26 -26 27 -25 -7 -14
right_child=10 2 3 4 11 28 7 9 22 -11 20 -13 29 16 -16 -17 -18 -19 -20 -21 -22 -23 23 24 25 -27 -28 -29 -30 -31
leaf_value=-0.00010469834410890915 -0.00055910646024563855 0.0021663348417685175 0.00053712541039555408 -0.00088730208746461722 0.0018122290056380526 0.004274917647367117 -0.00014489381426710746 0.0007284531253653726 -0.00060991655669070466 -9.3140318014756286e-05 0.00052245971362388163 -0.001224343171518615 -0.0017109294892274788 0.0044579038522242652 -0.0022724983009080372 0.0014275839030140395 -8.3977644890617957e-05 -0.0091692772283349013 0.00028846280702561714 0.017920230439458736 -0.0019013557512210879 0.0067494920244180606 0.00069981669654062273 -0.0001252767877742928 0.0025450192323353913 -0.00020004817989857727 -0.00026334696475563874 0.00041193427688323816 -0.0032219443253055863 -0.00058394890585105426
leaf_weight=7531 50614 9478 411 39404 5929 3014 128504 50484 12355 51488 1879 2352 8375 422 7758 14893 7396 65 4267 64 16235 664 49823 48259 3849 2324 42120 135592 174 55722
leaf_count=7531 50614 9478 411 39404 5929 3014 128504 50484 12355 51488 1879 2352 8375 422 7758 14893 7396 65 4267 64 16235 664 49823 48259 3849 2324 42120 135592 174 55722
internal_value=1.78241e-08 8.4023e-05 3.80861e-05 5.56172e-06 -0.000677096 0.00128032 7.89192e-05 -0.000113784 0.000271102 0.000313563 -0.000846606 0.000949162 -0.000340068 -0.000921559 -0.00111527 0.000912753 0.000227421 0.00441562 0.00158374 0.00624433 -0.00164965 0.00437927 0.000256079 0.000294042 0.000206933 0.00151076 0.000171292 0.000270895 0.00386408 -0.000731282
internal_weight=761445 692717 667105 653360 63390 25612 589970 294573 295397 101972 68728 8281 192601 55109 47162 22424 7947 551 13745 486 18114 1075 294322 281967 232144 6173 225971 183851 3188 64097
internal_count=761445 692717 667105 653360 63390 25612 589970 294573 295397 101972 68728 8281 192601 55109 47162 22424 7947 551 13745 486 18114 1075 294322 281967 232144 6173 225971 183851 3188 64097
is_linear=0
shrinkage=0.05


Tree=17
num_leaves=31
num_cat=0
split_feature=53 16 39 23 61 18 18 53 60 35 53 53 55 53 35 58 54 39 54 28 54 54 50 6 62 15 56 17 58 44
split_gain=19.5784 13.1155 11.4112 10.9001 10.6222 8.92633 8.15172 6.93779 12.0348 6.83947 6.69298 6.36353 4.90239 4.86066 4.80666 4.5666 4.37087 4.3345 4.53975 3.93609 3.74399 3.73094 3.72038 3.81322 3.6941 3.67923 3.65204 3.67507 3.95547 3.92148
threshold=23.992297841009776 -0.16386935803272498 -0.52295451687513139 0.062320568507959397 0.26393188854489169 0.06661335273237462 0.033648962738102708 22.717040361454053 0.030776515151515155 1.4098730498757361e-10 23.372706690990757 23.667123704129313 -15.917131053338998 23.657125896702993 3.844104620226152e-11 44.786677180232509 12.275 -0.088321271482718941 3.4250000000000003 -0.043992880690470498 -14.729999999999999 22.455000000000002 0.46681169758163094 -0.020381300193852089 1.0000000180025095e-35 0.54107407282142916 35.416315705857009 0.069674349348503486 44.786677180232509 0.59824757915127103
decision_type=10 2 2 10 10 2 2 10 10 2 10 10 8 10 2 10 10 2 8 2 10 8 2 2 10 2 10 2 10 10
left_child=1 5 9 7 25 20 -2 14 10 12 19 -10 -3 -6 16 21 26 -8 -19 -9 -1 -14 24 -24 -16 -5 -4 28 29 -28
right_child=6 2 3 4 13 -7 17 8 11 -11 -12 -13 15 -15 22 -17 -18 18 -20 -21 -22 -23 23 -25 -26 -27 27 -29 -30 -31
leaf_value=0.0032442594802804484 -0.00018724261529268682 -0.0088824248170778792 -5.1784629465520185e-05 -0.00098562956552991719 0.0032627859494769951 0.0037128689029508016 -0.00030783782105812371 -0.00019890404462296956 0.0009644854464398115 0.0033042312897073774 -0.00066779118091334772 8.8773830847735784e-05 0.001004943638961843 4.7347562894487443e-05 0.0028504406404444862 0.0054682953201392881 -0.00092030351991343557 -0.00074716803397765997 -0.0018664731088868171 0.00044332841961695159 0.00068096430242858591 -0.0022968460553951186 -0.00031134446988981577 0.00037254420546348351 0.00050481390925632833 -0.0030362771154913573 0.0026471114078702594 -0.0028364997674631821 0.00027858652470365145 0.0085821180821647001
leaf_weight=1533 45192 129 28025 30070 1999 3137 12430 142360 33454 3740 71354 54646 8304 2860 1702 523 14405 15860 21186 28657 20386 953 32968 53377 126578 2362 1214 389 1289 363
leaf_count=1533 45192 129 28025 30070 1999 3137 12430 142360 33454 3740 71354 54646 8304 2860 1702 523 14405 15860 21186 28657 20386 953 32968 53377 126578 2362 1214 389 1289 363
internal_value=1.57604e-08 9.55549e-05 5.17283e-05 2.06381e-05 -0.000808421 0.00121781 -0.000672843 7.29782e-05 -7.9081e-05 0.001482 -0.000261009 0.000421363 0.000793692 0.00137125 0.000266041 0.000921922 -0.000199581 -0.00111629 -0.00138742 -9.12569e-05 0.000860482 0.000664466 0.000365176 0.000111366 0.000535977 -0.00113514 0.000132167 0.00171745 0.00233738 0.00401688
internal_weight=761445 666777 641721 628072 37291 25056 94668 590781 330471 13649 242371 88100 9909 4859 260310 9780 45685 49476 37046 171017 21919 9257 214625 86345 128280 32432 31280 3255 2866 1577
internal_count=761445 666777 641721 628072 37291 25056 94668 590781 330471 13649 242371 88100 9909 4859 260310 9780 45685 49476 37046 171017 21919 9257 214625 86345 128280 32432 31280 3255 2866 1577
is_linear=0
shrinkage=0.05


Tree=18
num_leaves=31
num_cat=0
split_feature=39 23 28 35 43 39 57 57 35 1 31 45 55 58 57 57 44 54 55 1 61 24 35 44 58 57 56 62 57 62
split_gain=14.729 14.0483 9.85572 9.1407 7.72353 5.91096 5.68263 5.3664 5.36636 5.03053 4.56281 4.34172 4.20728 4.77517 6.02614 4.15955 4.1311 4.0023 5.02176 3.804 3.71583 3.69082 3.60479 4.41914 3.56142 3.55515 6.15164 3.80894 6.30605 3.75213
threshold=-0.12242480381808267 0.069250592584663276 -0.045078546210897956 1.7648762093289036e-10 -0.39431502949601777 -0.57451007097630302 0.12000000000000056 -3.9194999999999998 1.4098730498757361e-10 0.58731037063640856 0.014303756031536765 1.8257875837921358 -15.917131053338998 38.466598049861012 7.9050000000000011 -25.129999999999995 0.81209469173541049 3.3250000000000006 0.6017231774620001 0.1216330751202279 0.6066017316017317 0.84166666666666679 5.243790040530516e-11 0.9702085108397237 9.8769377319340013 7.205000000000001 61.528341442594005 0.89897959183673481 -2.4652499999999997 0.83935483870967753
decision_type=2 10 2 2 2 2 8 10 2 2 2 2 8 10 10 8 10 8 10 2 8 10 2 10 10 8 10 10 10 10
left_child=4 2 3 15 10 8 -4 -7 12 20 -1 -5 -6 14 -14 -2 -3 18 -17 -8 -9 22 25 -24 -10 26 29 -28 -29 -19
right_child=1 16 6 11 5 7 19 9 24 -11 -12 -13 13 -15 -16 17 -18 21 -20 -21 -22 -23 23 -25 -26 -27 27 28 -30 -31
leaf_value=0.00092502203460661256 -0.0018052858603046095 -0.0008082758551529476 -2.6946759731429483e-05 0.00025289917615267129 -0.0085169868464647584 -0.00023211136510926678 0.00099297066054847261 0.001813877675195784 0.0022528813805958001 -0.00081716328932634043 0.003311228909282227 -0.0010775501718660984 0.0010832941632744121 0.006036304477728122 -0.0035690294874165234 -0.00035634176181734731 -0.0021216902081439438 -0.00097192706944146878 0.00020643193015619307 5.6355726209644725e-05 0.00046155699447646045 -0.0010492093494470099 -0.00017291589637666974 0.0045598608869672529 0.0062271806615164125 -0.0016643620765183287 0.00054870890258385278 0.016338852033467115 0.0030704087947467668 -7.6041066666610599e-05
leaf_weight=4901 4514 23072 44120 129321 120 41147 39565 5377 2371 7386 3398 6436 7037 430 772 86419 8097 30261 73218 14948 92810 22201 83239 496 743 7601 1582 103 698 19062
leaf_count=4901 4514 23072 44120 129321 120 41147 39565 5377 2371 7386 3398 6436 7037 430 772 86419 8097 30261 73218 14948 92810 22201 83239 496 743 7601 1582 103 698 19062
internal_value=1.57209e-08 -0.000116308 -5.91711e-05 -0.000155445 0.000415725 0.000337684 0.000394802 0.000252175 0.00143075 0.000440973 0.00190268 0.000189787 0.000769931 0.000905902 0.000622684 -0.000297744 -0.00114964 -0.000276782 -9.81926e-05 0.000736234 0.000535667 -0.000449282 -0.000356134 -0.000144816 0.00320292 -0.000654407 -0.000505839 0.00197478 0.00478466 -0.000625794
internal_weight=761445 594953 563784 465151 166492 158193 98633 146720 11473 105573 8299 135757 8359 8239 7809 329394 31169 324880 159637 54513 98187 165243 143042 83735 3114 59307 51706 2383 801 49323
internal_count=761445 594953 563784 465151 166492 158193 98633 146720 11473 105573 8299 135757 8359 8239 7809 329394 31169 324880 159637 54513 98187 165243 143042 83735 3114 59307 51706 2383 801 49323
is_linear=0
shrinkage=0.05


Tree=19
num_leaves=31
num_cat=0
split_feature=16 23 39 18 35 17 57 55 54 57 39 54 17 39 19 23 32 57 55 54 25 45 5 61 40 17 59 61 45 57
split_gain=13.7067 12.2948 8.54843 7.84081 7.59261 6.57527 4.85154 4.83144 5.49793 4.90126 5.77174 4.62154 4.60634 5.1023 4.2735 4.23728 4.13974 4.12583 4.01452 3.898 3.7014 3.43256 3.35485 3.31652 3.28252 3.26411 4.3262 3.24898 3.08581 3.08218
threshold=-0.16386935803272498 0.040132056487262542 -0.57451007097630302 0.06661335273237462 2.6037232378206249e-10 0.020719387760176098 -1.1458999999999997 -5.1801336361359995 24.400000000000002 -14.554999999999998 -0.08720142430683496 12.665000000000001 0.070653227943698535 -0.43878481410000397 -74.478849806935429 0.040132056487262542 0.011117650377228484 -0.97999999999999965 3.0058313510065005 5.7650000000000006 1.3639859078030405 1.8257875837921358 0.12237221009078116 0.78679653679653694 0.29030049226837012 0.037227746566131564 -15.668956930138 0.83578431372549034 1.7421552462986296 -0.68509999999999982
decision_type=2 10 2 2 2 2 8 10 8 10 2 10 2 2 2 8 2 8 10 10 2 2 2 8 2 2 10 8 2 10
left_child=3 2 11 17 5 6 -4 25 9 22 15 -2 13 -3 23 27 -12 -1 -15 24 -5 -6 -9 -14 -20 -7 -27 -11 -18 -19
right_child=1 12 4 20 21 7 -8 8 -10 10 16 -13 14 18 -16 -17 28 29 19 -21 -22 -23 -24 -25 -26 26 -28 -29 -30 -31
leaf_value=-0.00012613987831983846 0.0022537006531099303 0.002131508568190586 -0.00013550020222994746 0.0037883453113518278 0.00045257421654411507 -0.00017737033367356834 0.00091728706273791244 -0.0009709164615783046 -0.0012467520473112663 0.00079787702346890304 -2.5071274893712754e-05 -7.032350961630949e-05 0.0043619506726955892 -0.00077758265676237286 -0.001917871001588609 0.00086071928326478763 -0.00043874399014080844 0.0038387686142580175 -0.00010093749487121338 -0.00081924101296033079 -0.004187076869471223 -0.00095224066074782888 0.00065733120127007898 -0.00057826801896269269 0.0013267683362733532 0.00051165233335415117 -0.0011257165876347797 1.3866809206733607e-05 -0.002108505779952358 0.0010714440752497129
leaf_weight=8100 6617 1917 17955 3088 103883 34006 27991 20468 9491 15838 212738 3155 359 43400 11027 26267 43944 1082 10257 9227 152 4536 3738 6254 6621 4735 27104 79851 2955 14689
leaf_count=8100 6617 1917 17955 3088 103883 34006 27991 20468 9491 15838 212738 3155 359 43400 11027 26267 43944 1082 10257 9227 152 4536 3738 6254 6621 4735 27104 79851 2955 14689
internal_value=1.50986e-08 -4.07392e-05 3.52615e-05 0.00110407 1.26864e-05 -6.56885e-05 0.000505766 -0.00012027 -5.71664e-05 -2.93312e-05 1.44213e-05 0.00150286 -0.000591435 -0.000412628 -0.00131511 0.000298162 -0.000118838 0.000790526 -0.000482872 6.89984e-06 0.00341253 0.000393753 -0.000719267 -0.00030926 0.00045884 -0.000518193 -0.000882054 0.000143685 -0.000544063 0.00126164
internal_weight=761445 734334 645272 27111 635500 527081 45946 481135 415290 405799 381593 9772 89062 71422 17640 121956 259637 23871 69505 26105 3240 108419 24206 6613 16878 65845 31839 95689 46899 15771
internal_count=761445 734334 645272 27111 635500 527081 45946 481135 415290 405799 381593 9772 89062 71422 17640 121956 259637 23871 69505 26105 3240 108419 24206 6613 16878 65845 31839 95689 46899 15771
is_linear=0
shrinkage=0.05


Tree=20
num_leaves=31
num_cat=0
split_feature=16 24 35 55 17 6 54 56 57 35 28 39 28 57 58 7 59 59 58 52 39 23 57 54 6 39 59 43 39 39
split_gain=12.5087 11.6386 11.9324 8.39853 7.03564 6.85287 6.41351 7.85541 5.87535 5.60129 5.65767 6.66552 4.93753 5.32903 4.74544 4.31736 4.19039 5.66411 4.07495 3.81106 4.75912 3.71362 3.4382 3.32115 3.28488 3.24575 3.3103 3.24298 4.44886 3.18969
threshold=-0.18415019933449198 0.94166666666666676 6.9454792706271355e-11 -7.1460431627314991 0.068754687338687379 0.34321479485226641 24.400000000000002 34.22113982633801 -0.97999999999999965 4.8634007870285449e-10 -0.046190818059411901 -0.12064494412317787 -0.13320542202318278 -2.5874999999999995 21.982496390408503 0.66869158678153906 5.7257713404730017 10.027048642365001 20.527346818777506 3.1450000000000005 -0.12242480381808267 0.091465925954329133 3.4000000000000017 5.0250000000000012 0.046111408534663785 -0.29060194528952871 -12.724378516729997 -0.14720114777618362 -0.82000617094445194 -0.57451007097630302
decision_type=2 10 2 8 2 2 8 8 8 2 2 2 2 8 10 2 10 10 10 8 2 8 8 10 2 2 10 2 2 2
left_child=4 2 3 5 -1 -2 7 19 23 10 11 14 18 16 -10 -3 -14 -18 -9 -5 22 -15 -21 27 -13 -23 -27 28 -4 -20
right_child=1 15 8 6 -6 -7 -8 12 9 -11 -12 24 13 21 -16 -17 17 -19 29 20 -22 25 -24 -25 -26 26 -28 -29 -30 -31
leaf_value=0.00079372421487865186 -0.00083616647560691773 -0.00056526967888907351 0.0042726775389802683 0.00019911596646489513 0.0032263559767218468 -0.0033651767179947393 -0.0015511375234370996 -0.001574890983090816 0.00043211385229042327 0.0010607319410972404 0.00076556750195362752 -0.00016938193365536127 0.0017725703121382345 0.00029391995651587537 0.0017547378362027435 -0.0018026055785619211 0.0097746165891167466 0.0018021900774843449 0.0066805069013293117 0.00048352085060492165 -0.00050554044495431511 0.0054351800898346713 -0.00050112178815703995 -0.0009276008700153859 0.00028677206439671102 0.0087860529856302848 0.0011931409529151423 0.00021677943673533719 -0.00029982097953985815 0.00033603423721598885
leaf_weight=14054 15758 38321 536 40237 3773 3230 8145 3696 46692 22678 43445 112283 1741 11451 7939 8647 470 427 206 24970 117103 588 13743 10678 60858 149 4048 73480 66894 5205
leaf_count=14054 15758 38321 536 40237 3773 3230 8145 3696 46692 22678 43445 112283 1741 11451 7939 8647 470 427 206 24970 117103 588 13743 10678 60858 149 4048 73480 66894 5205
internal_value=1.30782e-08 -3.13581e-05 1.99965e-05 -0.000255584 0.00130887 -0.00126665 -0.000172875 -0.000122744 0.000175382 0.000305795 0.000242651 0.000142889 0.000660913 0.00112234 0.000624413 -0.000793178 0.00320723 0.00598569 -0.000294826 -0.000234615 -0.000346651 0.00078326 0.000133846 -7.7425e-05 -9.01765e-06 0.00195323 0.0014641 -1.29636e-05 -0.000263394 0.000578615
internal_weight=761445 743618 696650 251167 17827 18988 232179 224034 445483 293895 271217 227772 27981 18874 54631 46968 2638 897 9107 196053 155816 16236 38713 151588 173141 4785 4197 140910 67430 5411
internal_count=761445 743618 696650 251167 17827 18988 232179 224034 445483 293895 271217 227772 27981 18874 54631 46968 2638 897 9107 196053 155816 16236 38713 151588 173141 4785 4197 140910 67430 5411
is_linear=0
shrinkage=0.05


Tree=21
num_leaves=31
num_cat=0
split_feature=53 53 52 53 39 53 23 35 40 17 59 62 17 54 56 53 44 56 59 62 59 54 54 35 63 53 51 6 52 35
split_gain=16.7045 9.53923 14.7256 11.8659 9.18493 7.52217 5.5442 4.73502 4.55417 4.499 4.18907 6.03458 4.11226 3.72258 5.23525 4.57243 5.60837 3.39724 5.51312 3.88991 4.55139 4.53588 3.83995 3.63129 4.02089 3.38346 3.35754 3.31549 3.25775 3.13566
threshold=24.102763190245028 22.590795054146309 15.435 23.564739082188783 -0.32272238470652487 23.372706690990757 0.074821078384843226 4.1214926563075567e-10 0.20560359615068799 0.03447919212637323 -89.369938180767477 0.20881782945736438 0.040347006617966148 -1.9289999999999996 74.839403443871007 21.884413236945246 0.90747300118320018 37.205326838922005 6.3139487186550012 0.23166368515205729 9.1663458164205007 10.715000000000002 1.885 5.1790365111698554e-11 0.70638945233265737 23.19881998617219 55.655000000000008 0.007591161858347629 3.6450000000000005 3.0312687897341048e-11
decision_type=10 10 8 10 2 10 10 2 2 2 8 10 2 8 10 8 10 10 10 10 10 10 10 2 10 10 10 2 10 2
left_child=1 4 3 8 -1 12 7 29 -3 -2 11 -9 27 14 -12 16 -15 23 -19 -20 -21 22 -22 -14 -25 26 -10 -4 -8 -6
right_child=9 2 5 -5 6 -7 28 10 25 -11 13 -13 17 15 -16 -17 -18 18 19 20 21 -23 -24 24 -26 -27 -28 -29 -30 -31
leaf_value=0.0011623957576526091 -0.00028610686795268851 0.00095156193294164784 -0.00011954760469492987 0.00014573214000682667 -0.00029089306299094684 -0.0006415509489323388 -0.0011787287068500433 0.013786272784158308 0.0057336652155788211 -0.0011015090615447757 -0.00011194931358327211 -0.00050638022808847157 -0.0012979415289051015 0.0017366087487465911 0.0067918669144418162 0.00054381505983691896 0.012568922773231218 -0.00031402947821886713 -0.0021736082431255822 0.005270226764812494 -0.0011830965651806055 -0.0023978566062795113 0.0044020127016431406 -3.9709464647998036e-06 -0.00079306951466543015 0.0018068195898836494 0.0010759443945102104 0.00038881297435482278 0.011603519674241841 0.00024039903195899814
leaf_weight=28210 30184 17631 82811 90553 33982 88226 7821 148 1268 38544 13969 146 11508 10012 280 18436 121 7639 474 1105 433 593 1053 38446 27845 5246 561 52340 50 151810
leaf_count=28210 30184 17631 82811 90553 33982 88226 7821 148 1268 38544 13969 146 11508 10012 280 18436 121 7639 474 1105 433 593 1053 38446 27845 5246 561 52340 50 151810
internal_value=1.52966e-08 7.3788e-05 -7.22431e-05 0.000410787 0.000309526 -0.00025043 0.000207892 0.000252775 0.00138206 -0.000743474 0.000724886 0.0066738 -9.65277e-05 0.000683907 2.341e-05 0.00101316 0.00186658 -0.000360248 0.000449753 0.00204609 0.0026759 0.0012944 0.00277125 -0.000477931 -0.000335502 0.00245415 0.0043079 7.72886e-05 -0.00109675 0.000143197
internal_weight=761445 692717 427732 115259 264985 312473 236775 228904 24706 68728 43112 294 224247 42818 14249 28569 10133 89096 11297 3658 3184 2079 1486 77799 66291 7075 1829 135151 7871 185792
internal_count=761445 692717 427732 115259 264985 312473 236775 228904 24706 68728 43112 294 224247 42818 14249 28569 10133 89096 11297 3658 3184 2079 1486 77799 66291 7075 1829 135151 7871 185792
is_linear=0
shrinkage=0.05


Tree=22
num_leaves=31
num_cat=0
split_feature=16 23 39 28 17 35 35 57 22 57 57 58 55 44 16 57 59 56 62 18 6 57 41 58 62 41 49 18 18 18
split_gain=11.3987 10.2297 8.45317 8.02896 7.85822 7.37458 5.05472 4.75708 4.44263 4.13599 3.97331 4.07187 3.80756 4.26503 3.68916 6.06643 5.82844 5.60338 4.59661 3.78196 4.53429 3.6739 3.62324 3.44377 4.75212 3.33982 3.29833 3.49632 3.29726 3.24914
threshold=-0.15042610939631904 0.069250592584663276 -0.57451007097630302 -0.045078546210897956 0.057387309037482528 1.8052587215756042e-10 1.4098730498757361e-10 0.12000000000000056 3.3761658688907157 -23.06999999999999 9.6100000000000012 21.982496390408503 -4.2979105064239986 0.32621980251309329 0.14810411019586017 2.8450000000000011 -12.724378516729997 13.074445514077501 0.14434523809523811 0.056497315900714822 1.179159390797518 -4.2989999999999986 0.16241133149180415 -11.985640915004998 0.73401360544217698 0.081046561446247792 1.5615146993595239 0.068279611577665558 0.030665777645962542 0.090884449800316611
decision_type=2 10 2 2 2 2 2 8 2 8 8 10 10 10 2 8 8 10 8 2 2 8 2 10 10 2 2 2 2 2
left_child=4 2 6 5 21 9 10 -5 -7 -4 11 23 13 -11 -14 17 22 -16 -18 -20 -21 -1 -17 -2 -25 -22 27 -6 -9 -3
right_child=1 29 3 7 26 8 -8 28 -10 12 -12 -13 14 -15 15 16 18 -19 19 20 25 -23 -24 24 -26 -27 -28 -29 -30 -31
leaf_value=-0.00067911443543296505 0.0025746836183338211 -0.00066816284970687195 -0.0013524075887696673 -3.7488659968823222e-06 0.0016312586434307367 0.00023571100652934208 0.0032392212252029167 0.0008751318178554752 -0.0016065509970124407 -0.00033605525226530785 -0.0028239305040788135 0.0046948438712533782 -0.00017546896333784151 -0.0013550182123883046 0.00030919424471421725 0.010878393974454299 0.0042454307939393974 0.0019953901303111309 9.6014476123581688e-05 -0.0022102076633887008 -0.00333106938773834 0.00071992406570941842 -0.00016213613115457863 -0.0024997774508142114 0.0010261801155116528 0.0046919875021330833 -0.0013673730745939498 0.0036984486946697193 5.9499095442629529e-05 -0.0020199842936342561
leaf_weight=6365 1776 31014 7758 48930 8397 151554 2770 45706 3344 51360 706 712 305640 12844 15360 178 447 7260 5004 5522 184 17832 126 1358 3224 435 713 2713 17018 5195
leaf_count=6365 1776 31014 7758 48930 8397 151554 2770 45706 3344 51360 706 712 305640 12844 15360 178 447 7260 5004 5522 184 17832 126 1358 3224 435 713 2713 17018 5195
internal_value=1.48987e-08 -4.30862e-05 -4.25435e-08 -2.1878e-05 0.000868186 -9.82e-05 0.00140466 0.000365665 0.000195906 -0.000208754 0.000750463 0.00110814 -0.0001868 -0.000539978 -0.000120123 0.000369822 -0.000543973 0.000850615 -0.00072361 -0.000923391 -0.00175486 0.0003517 0.00628739 0.000705628 -1.77736e-05 0.00229888 0.00192479 0.00213653 0.000653918 -0.000862255
internal_weight=761445 725425 689216 678670 36020 567016 10546 111654 154898 412118 7776 7070 404360 64204 340156 34516 11896 22620 11592 11145 6141 24197 304 6358 4582 619 11823 11110 62724 36209
internal_count=761445 725425 689216 678670 36020 567016 10546 111654 154898 412118 7776 7070 404360 64204 340156 34516 11896 22620 11592 11145 6141 24197 304 6358 4582 619 11823 11110 62724 36209
is_linear=0
shrinkage=0.05


Tree=23
num_leaves=31
num_cat=0
split_feature=39 17 16 23 55 57 57 57 14 16 57 17 25 55 47 58 52 35 55 35 39 45 29 56 36 35 24 58 39 41
split_gain=10.4655 10.0343 9.21311 5.93934 5.85946 5.54474 4.83432 5.0782 5.0716 4.82616 5.29814 5.71928 4.60686 4.08155 6.40374 4.08125 4.39232 3.96442 3.96016 3.7655 3.73949 3.59693 3.29793 3.2936 3.64504 3.50152 3.24499 3.17382 4.86006 3.03903
threshold=-0.096294914264946282 0.040652350904289015 -0.10570892333354952 0.001721916763594821 2.8764924058440005 41.160000000000011 -2.5874999999999995 6.9700000000000024 -0.19517667639272615 0.058668487150786951 -9.3549999999999969 0.01842149125208007 0.755989366262941 19.218889494395501 0.020958595868198707 65.513655315403014 5.1850000000000014 2.1643374668594416e-11 9.4523133895265019 5.5417314252405415e-10 -0.1496230842966286 1.249732179945366 0.025258176208642857 23.133672325865003 0.17961079507752256 1.4087487499482549e-11 0.94166666666666676 -220.24474389296549 -0.23418773316989019 0.59514891373553469
decision_type=2 2 2 10 10 10 8 10 2 2 8 2 2 10 2 10 8 2 8 2 2 2 2 10 2 2 10 8 2 2
left_child=3 5 12 18 22 9 13 8 -8 10 -2 -12 -3 27 -15 16 -10 29 23 21 -17 -13 -4 -1 -25 -26 -24 28 -5 -6
right_child=1 2 4 6 17 -7 7 -9 15 -11 11 19 -14 14 -16 20 -18 -19 -20 -21 -22 -23 26 24 25 -27 -28 -29 -30 -31
leaf_value=0.00090947945310163091 -0.00069295088683941984 0.00090128928042112013 -0.00099698190540202232 0.0070643855505270088 -0.0015375008044364086 0.0024572683977933962 0.0031802339226358022 -0.00054010665211593823 0.0011325049824043017 0.00044149021143766724 0.00081718213443619434 -2.9864153571728465e-05 -0.0010147953225380054 -0.00025159991293617856 0.0051924117139039438 0.0028003918671029721 0.0001877129942050754 -1.9068694430829627e-05 -4.0218962235595863e-05 0.00083830298659857473 0.00049506389065783255 -0.00068743649840956496 -0.00029041178485233668 -0.0084377695684653749 0.0065448523036238451 0.0020922700490405006 -0.0015733591742146406 -0.00042435700175735266 0.00040190551105155983 0.0011316111453592505
leaf_weight=30618 29321 18062 60059 347 7498 2368 1668 14879 14322 58737 20522 195966 3794 1423 869 3278 87380 60957 10508 11248 3810 23268 42249 73 532 2646 5583 46915 1304 1241
leaf_count=30618 29321 18062 60059 347 7498 2368 1668 14879 14322 58737 20522 195966 3794 1423 869 3278 87380 60957 10508 11248 3810 23268 42249 73 532 2646 5583 46915 1304 1241
internal_value=1.42864e-08 -0.000118354 -0.000400134 0.000290291 -0.000519367 4.62312e-05 0.000160045 0.000326895 0.000443728 2.93772e-05 -5.69559e-05 1.73181e-05 0.000568443 -0.00025105 0.00181042 0.000401723 0.000320812 -0.000161935 0.000807308 -5.388e-05 0.00156194 -9.96775e-05 -0.000750217 0.0010704 0.00258438 0.00283939 -0.000440266 -0.000348444 0.00180557 -0.00115789
internal_weight=761445 540873 199443 220572 177587 341430 176195 125337 110458 339062 280325 251004 21856 50858 2292 108790 101702 69696 44377 230482 7088 219234 107891 33869 3251 3178 47832 48566 1651 8739
internal_count=761445 540873 199443 220572 177587 341430 176195 125337 110458 339062 280325 251004 21856 50858 2292 108790 101702 69696 44377 230482 7088 219234 107891 33869 3251 3178 47832 48566 1651 8739
is_linear=0
shrinkage=0.05


Tree=24
num_leaves=31
num_cat=0
split_feature=53 24 53 52 53 35 39 56 35 54 17 18 62 26 55 59 53 54 1 18 43 58 54 18 55 55 58 54 20 56
split_gain=14.6971 8.87962 7.34682 10.7217 9.11705 7.59893 6.95114 5.21816 4.60965 4.06727 4.02519 3.94312 3.57153 3.46502 3.15727 5.4733 3.32279 3.16739 3.15168 3.11251 3.14554 3.0911 3.04997 4.59714 4.02713 3.39629 3.22989 3.15843 2.95752 2.94273
threshold=24.165876694610279 0.94166666666666676 22.590795054146309 15.435 23.667123704129313 3.7849245254679909e-11 -0.32272238470652487 174.54117171943003 4.0075884191293015e-10 5.7650000000000006 0.054584816598873979 0.054152622871879504 0.59878048780487814 -0.27591886893887158 -16.856214894770996 -16.392690362887993 23.417622960544161 24.400000000000002 -0.75037147210249988 0.045943307417580175 -0.4219222593379896 93.316122049582006 17.485000000000003 0.05871885066831118 7.7500429182720003 -4.0909759205214993 -629.31613475740244 -27.292699999999996 40.727016791164196 3.5097069890270007
decision_type=10 10 10 8 10 2 2 10 2 10 2 2 10 2 10 8 10 8 2 2 2 10 10 2 8 8 10 10 2 10
left_child=1 2 6 4 10 7 18 -5 22 12 -4 -2 -9 -12 15 -7 17 -16 -1 -3 -21 -19 25 24 29 -8 27 -27 -28 -24
right_child=11 19 3 5 -6 14 8 9 -10 -11 13 -13 -14 -15 16 -17 -18 21 -20 20 -22 -23 23 -25 -26 26 28 -29 -30 -31
leaf_value=-0.00013056892597050593 -0.00060048024109704199 -0.00026865881209167441 0.00085492246625392266 -0.0011474949554469845 9.4245035314884158e-05 0.00076184184986149484 -0.00025997472024187813 0.0010614003304885967 0.00070092096106342497 -0.0017380804123918068 0.0042939339358175552 -0.0017519405094285814 0.009444269407904278 0.0013894347669629317 3.97515605195275e-05 -0.0020462667292670731 -0.00041776779801762565 -0.0023191460302288604 0.0013071369421508757 0.0039560771450432627 -0.0012012533675127607 0.0028684423243120305 -0.00064182193304465358 -0.0036909083965404829 -0.0015473654362084908 0.0088199600076981407 0.00024762594290183231 -0.0018701424313141068 0.0011084999283138281 0.0016196632100088561
leaf_weight=4562 46402 25943 30282 24371 82417 2613 36147 236 41879 295 1642 8862 279 2762 199855 5153 56185 2362 22993 300 18229 326 2819 1143 4050 71 123180 2293 10861 2933
leaf_count=4562 46402 25943 30282 24371 82417 2613 36147 236 41879 295 1642 8862 279 2762 199855 5153 56185 2362 22993 300 18229 326 2819 1143 4050 71 123180 2293 10861 2933
internal_value=1.43612e-08 6.1472e-05 0.000107443 -2.3598e-05 0.00038052 -0.000185862 0.000319245 -0.00101612 0.000227565 0.00292999 0.00106059 -0.000785219 0.00561346 0.00247356 -0.000107392 -0.00110079 -7.75541e-05 1.67959e-05 0.00106893 -0.000622422 -0.00111746 -0.00168805 0.000119504 -0.000689787 -0.000339286 0.000170867 0.000285076 -0.0015466 0.000317418 0.00051047
internal_weight=761445 706181 661709 408778 117103 291675 252931 25181 225376 810 34686 55264 515 4404 266494 7766 258728 202543 27555 44472 18529 2688 183497 10945 9802 172552 136405 2364 134041 5752
internal_count=761445 706181 661709 408778 117103 291675 252931 25181 225376 810 34686 55264 515 4404 266494 7766 258728 202543 27555 44472 18529 2688 183497 10945 9802 172552 136405 2364 134041 5752
is_linear=0
shrinkage=0.05


Tree=25
num_leaves=31
num_cat=0
split_feature=53 16 34 17 53 61 51 53 35 18 56 21 55 1 62 24 44 20 16 51 28 55 59 18 56 32 7 53 18 16
split_gain=13.3089 8.568 7.54441 6.37493 5.86458 10.1455 6.09879 5.98536 4.38522 4.16437 4.05136 3.96681 3.39925 3.18665 3.69526 3.3378 3.34253 3.15971 3.04388 3.01591 2.80966 2.79004 3.88504 3.27192 2.77498 2.71606 2.69843 2.7082 2.6659 2.84809
threshold=24.127697912632694 -0.15042610939631904 -0.0035642484214867434 0.062971180041855049 22.98333435801128 0.041958041958041967 39.635000000000012 23.805722682522433 3.7261829013052062e-11 0.054152622871879504 377.83910733336853 0.37106989583430217 0.82290807232600016 -0.75037147210249988 0.088562091503267992 0.94166666666666676 0.037954434482952666 17.701376768079189 0.14048617398625371 330.15500000000003 -0.064882862248145698 2.3161094657405004 11.305727888503503 0.025759885838685537 117.00543889084601 0.014442641895994014 1.0533142693482629 21.908829307972471 0.013145698516563784 -0.27090694273751997
decision_type=10 2 2 2 10 10 8 10 2 2 10 2 10 2 8 10 8 2 2 10 2 10 10 2 10 2 2 8 2 2
left_child=1 3 12 -1 6 8 17 18 10 -2 -6 13 25 14 -8 16 -15 -4 -7 -20 -10 22 23 -9 26 -3 -18 -28 -5 -30
right_child=9 2 4 28 5 7 11 21 20 -11 -12 -13 -14 15 -16 -17 24 -19 19 -21 -22 -23 -24 -25 -26 -27 27 -29 29 -31
leaf_value=0.00046769520402330749 -0.00051770098734418043 -0.00043621001100413215 0.00068269362445856532 -0.0093705740831643639 -0.0012607067702629371 0.00062528789695978073 0.0042836013750433997 0.00019644419199540218 -0.00039962716842145186 -0.0016270854538299956 0.0047242811200333742 0.00080798690140788964 -7.2880510968764594e-05 -0.00017022283358594778 -0.00088860453941225865 -0.00056054609915871063 0.00029389117081278304 0.0056985571148172745 0.0019345874362503416 0.010061647687310637 6.5868156001421782e-05 0.00041244445787309104 0.0040054299376311711 -0.00087625091431553677 0.00136764288161595 -0.0013015213213704957 -0.0051707846259408212 0.0033081240145407965 0.0038473421615842929 0.0016187135859907116
leaf_weight=26335 53239 49766 531 50 14382 44608 358 12090 91405 10065 288 28115 64400 37667 9483 13050 188134 777 2966 119 50204 19305 501 17231 6407 11101 102 1157 1925 5684
leaf_count=26335 53239 49766 531 50 14382 44608 358 12090 91405 10065 288 28115 64400 37667 9483 13050 188134 777 2966 119 50204 19305 501 17231 6407 11101 102 1157 1925 5684
internal_value=1.37673e-08 6.29661e-05 2.33298e-05 0.000837198 0.000104587 -7.06702e-05 0.000259819 0.000331492 -0.000319855 -0.000694169 -0.00114284 0.000244137 -0.000326185 0.000182279 -0.000699898 0.000217516 0.000261029 0.00366633 0.000730492 0.00225002 -0.000234562 -5.57602e-05 -0.000359016 -0.000433774 0.000344017 -0.000594111 0.000309361 0.00261686 0.00210703 0.00218323
internal_weight=761445 698141 664147 33994 538880 253099 285781 96820 156279 63304 14670 284473 125267 256358 9841 246517 233467 1308 47693 3085 141609 49127 29822 29321 195800 60867 189393 1259 7659 7609
internal_count=761445 698141 664147 33994 538880 253099 285781 96820 156279 63304 14670 284473 125267 256358 9841 246517 233467 1308 47693 3085 141609 49127 29822 29321 195800 60867 189393 1259 7659 7609
is_linear=0
shrinkage=0.05


Tree=26
num_leaves=31
num_cat=0
split_feature=53 16 24 32 28 35 39 17 55 56 54 54 57 6 6 39 55 57 52 51 53 52 51 39 59 49 17 40 57 53
split_gain=12.0563 7.7807 7.39859 6.34602 6.04102 6.30629 6.0797 5.80963 5.74671 5.27307 5.64541 4.74102 4.25886 4.14012 3.84954 3.79997 3.49613 3.4908 3.12559 3.06974 3.0042 4.78023 3.65783 3.24847 3.08548 2.97746 2.93042 2.8476 3.42312 2.79072
threshold=24.165876694610279 -0.15042610939631904 0.94166666666666676 0.016766189143885838 -0.045078546210897956 1.7450949723124611e-10 -0.57451007097630302 0.060826607960981556 -4.8939303067794997 145.52876200614654 21.645000000000003 0.10250000000000002 0.2149999999999995 0.37399583817266752 0.61675543033036573 -0.10947577454709144 19.218889494395501 -1.4056 8.6650000000000009 117.42500000000003 22.717040361454053 8.0050000000000008 38.475000000000001 -0.29060194528952871 -18.121861791289998 1.58225496855092 0.07427865618802347 0.40548367116007444 0.33000000000000024 24.399870257302336
decision_type=10 2 10 2 2 2 2 2 8 8 8 10 8 2 2 2 10 8 10 10 10 8 8 2 10 2 2 2 8 10
left_child=1 7 4 -4 5 8 -7 17 13 10 15 -11 -6 -3 29 20 19 -1 -15 -12 22 -22 -10 -23 -24 -9 27 -17 -29 -2
right_child=14 2 3 -5 12 6 -8 25 9 11 16 -13 -14 18 -16 26 -18 -19 -20 -21 21 23 24 -25 -26 -27 -28 28 -30 -31
leaf_value=-0.00042656540715500985 -0.00032218444665788683 -0.00043299229698480328 -0.00038325548612978252 -0.0021982595982898774 5.6033125900926292e-05 0.0030079506028310408 0.00023024087645066366 0.002099303196484117 0.01251749355315453 -0.0037962644502489112 -0.00074833908941275573 0.0014738219540004038 0.00073283882641508001 -0.0020037588471266163 -0.0023966108590810003 -0.00014141789749115975 -0.0027543548663762404 0.00081905879583615447 0.0057366648288674597 0.01153583963658595 0.00088545028522507877 -0.0011508597012988544 -0.0016809155889025717 -3.1149653335627009e-05 0.00064783323648219852 -0.0018503296294317398 -0.0012872868995794894 0.0022208135177076258 1.0850726005948577e-05 -0.0010774610970547506
leaf_weight=8464 32393 49709 37182 5535 41990 1996 152222 8535 64 450 9022 8072 52111 5811 3194 204998 2617 16743 133 51 11365 8410 1477 28232 37666 504 5389 2836 4597 19677
leaf_count=8464 32393 49709 37182 5535 41990 1996 152222 8535 64 450 9022 8072 52111 5811 3194 204998 2617 16743 133 51 11365 8410 1477 28232 37666 504 5389 2836 4597 19677
internal_value=1.45355e-08 5.56783e-05 1.82024e-05 -0.000618554 6.14392e-05 -3.51923e-06 0.000266226 0.000790838 -0.000112747 -3.23938e-05 -6.54327e-05 0.00119491 0.000430886 -0.000582252 -0.000711183 -2.4091e-05 -0.00114375 0.000400605 -0.00182963 -0.000678611 0.000254785 -1.03117e-05 0.000579508 -0.000288282 0.00055983 0.00187851 -0.000135774 -0.000106538 0.000854735 -0.000607697
internal_weight=761445 706181 671935 42717 629218 535117 154218 34246 380899 325246 316724 8522 94101 55653 55264 305034 11690 25207 5944 9073 87214 48007 39207 36642 39143 9039 217820 212431 7433 52070
internal_count=761445 706181 671935 42717 629218 535117 154218 34246 380899 325246 316724 8522 94101 55653 55264 305034 11690 25207 5944 9073 87214 48007 39207 36642 39143 9039 217820 212431 7433 52070
is_linear=0
shrinkage=0.05


Tree=27
num_leaves=31
num_cat=0
split_feature=53 52 53 39 17 17 28 6 32 24 54 39 18 1 43 24 58 57 54 55 59 55 59 53 57 55 57 57 16 54
split_gain=11.1256 12.2317 9.56528 6.78401 5.66116 5.65578 4.58011 3.91491 3.50207 3.61131 3.41536 4.99083 4.14913 3.26134 3.18058 3.15008 3.14155 2.96602 3.09651 2.89464 3.4905 2.82405 2.70092 5.04601 5.67514 2.6895 2.60216 2.56054 2.55134 4.26599
threshold=23.842887009227788 1.5550000000000004 22.688568613575587 -0.32272238470652487 0.023876802203326317 0.05663136464182978 -0.068234270209389242 -0.42019791461042016 0.010486956466188463 0.89166666666666672 3.4250000000000003 -0.058205470232918437 0.059219075249229175 -1.1220878543069135 -0.40674112251388722 0.92500000000000016 2.0360981501110005 -1.0672999999999997 17.485000000000003 -1.5902514175379998 -43.381583664267488 0.30987279005250007 -0.83255387074950027 23.224004617004315 -5.214999999999999 -11.635683547416997 22.875000000000004 -5.6749999999999989 0.20888981428464015 -2.0949999999999993
decision_type=10 10 10 2 2 2 2 2 2 10 8 2 2 2 2 10 8 8 10 10 8 10 8 10 10 10 8 10 2 10
left_child=1 2 3 13 27 21 15 16 17 28 14 -12 -13 -1 -6 -4 -5 19 26 20 -9 -3 23 24 -23 -7 -19 -2 -10 -30
right_child=4 5 6 7 10 25 -8 8 9 -11 11 12 -14 -15 -16 -17 -18 18 -20 -21 -22 22 -24 -25 -26 -27 -28 -29 29 -31
leaf_value=-0.00048008550690777687 -0.00058437038233999231 0.00013328825163114966 -0.00026397255982714657 0.00093658744437901699 0.0050875760441879058 -0.0024335306854761313 9.332676394467192e-05 0.0044676940822586777 -0.00015315599660592418 -0.0010927481256493546 -0.00030666228675397628 -0.00093970850020082394 -0.0024498002212084732 0.001142132095264055 -0.00023745174518925071 -0.0010156971232733001 0.0059145851682234846 0.00039024562974024845 -0.00058235519479487457 0.00024315432464520653 -0.00051657747637044705 -0.0014811423230725604 0.00060616509633928028 0.0013318456882664476 0.0084655556821010818 0.0024612781555429734 0.0013298797841368164 0.00073340965083394866 0.0029720485328151736 0.00020377183562527443
leaf_weight=3515 4995 16478 172600 837 282 293 100609 356 54864 9120 32608 32681 5291 25875 45038 15167 513 107716 7673 38401 24892 197 16652 7735 519 6128 7915 14036 1758 6701
leaf_count=3515 4995 16478 172600 837 282 293 100609 356 54864 9120 32608 32681 5291 25875 45038 15167 513 107716 7673 38401 24892 197 16652 7735 519 6128 7915 14036 1758 6701
internal_value=1.26222e-08 8.87148e-05 2.50671e-05 0.000227769 -0.000411814 0.00085568 -0.000178854 0.000146575 0.000132577 -0.000162515 -0.000543068 -0.00076059 -0.00115026 0.000947946 -0.000204196 -0.000324721 0.00283223 0.00024695 0.000390039 -3.0171e-05 -0.000446083 0.000642233 0.000976111 0.00170445 0.00572202 0.00223711 0.000454608 0.000387273 -2.8459e-05 0.000779711
internal_weight=761445 626514 578512 290136 134931 48002 288376 260746 259396 72443 115900 70580 37972 29390 45320 187767 1350 186953 123304 63649 25248 41581 25103 8451 716 6421 115631 19031 63323 8459
internal_count=761445 626514 578512 290136 134931 48002 288376 260746 259396 72443 115900 70580 37972 29390 45320 187767 1350 186953 123304 63649 25248 41581 25103 8451 716 6421 115631 19031 63323 8459
is_linear=0
shrinkage=0.05


Tree=28
num_leaves=31
num_cat=0
split_feature=53 39 32 22 53 52 56 28 57 57 54 55 40 35 61 6 62 55 58 58 18 56 57 55 62 59 58 28 58 39
split_gain=10.1949 6.62377 7.80407 4.36185 4.15883 5.28505 4.12229 4.08586 4.36395 3.83012 4.55223 4.83623 3.687 3.44387 3.60487 3.37994 3.36653 3.28695 3.11097 4.58942 3.82293 3.56098 5.89095 3.48942 4.08631 3.33217 3.07161 3.0207 3.0153 4.25077
threshold=24.165876694610279 -0.12242480381808267 0.011579589094063836 2.4544299765011863 21.803511611176777 8.0050000000000008 8.5954191853210009 -0.045078546210897956 0.2149999999999995 -2.4652499999999997 8.5550000000000015 13.099073381513001 0.43864536910823643 1.8262392408463555e-10 0.73606811145510853 0.61675543033036573 0.25962962962962971 1.2326343667700004 9.5495759439675023 -18.776737130354999 0.045943307417580175 5.6705383306565009 -19.049999999999997 -3.8787904690109998 0.28708791208791212 -3.3504285667649998 0.60155108828050097 -0.19301222388902148 79.506550679899519 -0.24204762697939972
decision_type=10 2 2 2 10 8 10 2 8 10 10 10 2 2 8 2 10 10 10 8 2 10 8 10 8 10 10 2 10 2
left_child=1 4 7 12 18 6 27 13 -9 -7 17 16 -4 14 -3 -2 -12 -11 19 23 -20 -21 -23 -1 -25 -22 -8 -6 -19 -30
right_child=15 2 3 -5 5 9 26 8 -10 10 11 -13 -14 -15 -16 -17 -18 28 20 21 25 22 -24 24 -26 -27 -28 -29 29 -31
leaf_value=-0.00025886687445100652 -0.00055700523742316485 0.00030168394924166359 -0.00043507824554077438 -0.0015000519800062422 0.0019370863536162502 -0.00048401806911365166 0.0043801110123329445 -1.8216839688765456e-05 0.00070464467786881862 0.00011630832263748177 -0.0057038969196817101 -0.001572327733360858 0.00050993795707637791 0.00022565586354440575 -0.00019979009683509261 -0.0022332866636586273 0.00012844436959561916 0.00083058704938330098 0.00053120395430202776 0.00067934347191257434 0.0054499185953599634 -0.0043574442685192548 -0.00014078189270807083 0.005336950481956218 0.001629342728945744 0.0018822286698845136 0.001425498625818714 0.00010259663889233231 0.0071237514779056797 0.0015823568810547424
leaf_weight=1928 52070 43290 85744 8539 2959 26542 1311 38374 45762 19539 250 5595 11729 106704 208005 3194 22934 17708 5813 16248 754 897 10845 879 4875 5064 2699 9313 459 1422
leaf_count=1928 52070 43290 85744 8539 2959 26542 1311 38374 45762 19539 250 5595 11729 106704 208005 3194 22934 17708 5813 16248 754 897 10845 879 4875 5064 2699 9313 459 1422
internal_value=1.28056e-08 5.11999e-05 -3.10144e-05 -0.000416305 0.000336395 0.000168691 0.00100066 6.13567e-05 0.000374892 2.52145e-05 0.000224326 -0.000252896 -0.000321312 -1.23157e-05 -0.000113382 -0.000653981 6.53125e-05 0.000575455 0.000728864 0.000497111 0.0014392 0.000199791 -0.000463363 0.00157975 0.00219668 0.00234554 0.00239279 0.000545345 0.00103317 0.00293753
internal_weight=761445 706181 548147 106012 158034 110731 16282 442135 84136 94449 67907 28779 97473 357999 251295 55264 23184 39128 47303 35672 11631 27990 11742 7682 5754 5818 4010 12272 19589 1881
internal_count=761445 706181 548147 106012 158034 110731 16282 442135 84136 94449 67907 28779 97473 357999 251295 55264 23184 39128 47303 35672 11631 27990 11742 7682 5754 5818 4010 12272 19589 1881
is_linear=0
shrinkage=0.05


Tree=29
num_leaves=31
num_cat=0
split_feature=53 60 53 23 56 40 53 53 54 57 18 39 58 55 57 18 58 53 28 56 55 55 51 55 26 24 35 46 28 1
split_gain=9.51774 12.186 8.46438 5.99093 5.00229 4.99747 4.89322 4.57335 4.08976 3.65194 3.64539 3.59966 4.22718 4.22277 4.12703 3.74897 3.64166 3.87525 3.57968 3.56842 3.44967 3.44477 3.43132 3.43073 3.42861 3.39625 4.6433 3.58283 3.32864 3.20622
threshold=23.805722682522433 0.87689393939393956 23.241449133486089 0.069250592584663276 145.52876200614654 0.3194341972314671 22.923943322957395 24.399870257302336 -10.848799999999999 -9.3549999999999969 0.025612793993181494 -0.20597979071858755 52.321091499200001 14.428221816164003 -1.0672999999999997 0.038177660518860609 13.887204378609502 21.803511611176777 -0.35587537599506225 -348.08206727596496 12.678810391300003 5.9843646098740004 66.090000000000018 21.671224728463002 -0.51947242500398716 0.041666666666666678 1.0624851328277884e-11 48.235825747560632 -0.055986780909749123 -0.0083827529029059326
decision_type=10 8 10 10 10 2 10 10 10 8 2 2 10 10 8 2 8 10 2 8 10 10 8 10 2 10 2 2 2 2
left_child=1 6 3 5 9 11 23 10 25 -4 -2 12 19 14 21 29 -17 -18 -5 -3 -9 -13 -15 -1 28 26 -7 -28 -10 -16
right_child=7 2 4 18 -6 8 -8 20 24 -11 -12 13 -14 22 15 16 17 -19 -20 -21 -22 -23 -24 -25 -26 -27 27 -29 -30 -31
leaf_value=0.0042138806370728759 0.00020735795375060085 0.010215884008069182 -0.0012347967360837313 0.0038508446894968233 0.0015267968556401273 -0.0038325603091460799 0.0007709538411122674 -0.0012975643252545797 -0.00055844704845200792 -0.00031523087377734313 -0.00040911688155007611 -0.00027075693050479901 0.002317500202932918 0.012094356811063762 8.4543195846215784e-05 -0.00031757164449244059 0.0018197679763774146 0.0001317125313350179 -0.00079897674248183585 0.00036277584669144853 0.00056154253489202753 0.00054432960853035282 -0.00075126782107486567 -0.0025540898868144407 0.000824306601409626 0.0015354996539305057 0.0022445567121128582 0.010276903126593623 0.002590274110536684 0.0005670356118333621
leaf_weight=1602 32446 92 12094 422 3421 114 43208 18262 9023 101088 91810 95463 2989 52 59185 49297 4217 17588 20517 49674 2886 14996 17315 211 26293 3253 229 360 925 82413
leaf_count=1602 32446 92 12094 422 3421 114 43208 18262 9023 101088 91810 95463 2989 52 59185 49297 4217 17588 20517 49674 2886 14996 17315 211 26293 3253 229 360 925 82413
internal_value=1.42488e-08 8.59026e-05 2.34514e-05 0.000120974 -0.000356564 0.000160885 0.000877885 -0.000363839 0.000691933 -0.000413536 -0.000248101 0.000106594 0.000490923 4.70377e-05 8.78692e-05 0.000216644 -7.95285e-05 0.000458412 -0.000705009 0.000381112 -0.00104362 -0.000160054 -0.000712448 0.00342336 0.00052512 0.0022188 0.00537284 0.00716337 -0.000265142 0.000365399
internal_weight=761445 616041 571020 454417 116603 433478 45021 145404 40197 113182 124256 393281 52755 340526 323159 212700 71102 21805 20939 49766 21148 110459 17367 1813 36241 3956 703 589 9948 141598
internal_count=761445 616041 571020 454417 116603 433478 45021 145404 40197 113182 124256 393281 52755 340526 323159 212700 71102 21805 20939 49766 21148 110459 17367 1813 36241 3956 703 589 9948 141598
is_linear=0
shrinkage=0.05


Tree=30
num_leaves=31
num_cat=0
split_feature=53 52 61 53 24 56 35 40 53 43 18 40 54 52 43 58 56 16 16 18 54 24 59 18 35 59 54 26 35 32
split_gain=8.62899 11.6956 7.42677 6.65802 4.6056 4.56345 4.49719 4.41392 3.75702 3.62209 3.69262 3.08749 3.08323 5.47561 3.02557 4.14089 4.09404 3.9212 3.22327 3.63424 3.25707 3.21263 3.1302 2.97177 3.45988 3.86662 3.5548 3.36773 2.90103 2.88664
threshold=23.318135507392409 6.3050000000000006 0.9298029556650248 24.292971099227149 0.95833333333333337 9.9368746073815029 4.0075884191293015e-10 0.20855192254964525 23.77737554847155 -0.33487305312566673 0.044091965762426667 0.078261806835688827 12.275 11.230000000000002 -0.10300068212824008 1406.2943357045697 37.205326838922005 0.20888981428464015 -0.11566405398318809 0.078013078233711564 22.455000000000002 0.4250000000000001 -2.1643690440949994 0.07989676424817084 8.7663948419758258e-11 -6.3824658799879987 11.185 -0.74218852579010253 1.0624851328277884e-11 0.014901948960492717
decision_type=10 8 8 10 10 10 2 2 10 2 2 2 10 8 2 8 8 2 2 2 8 10 8 2 2 10 10 2 2 2
