tree
version=v4
num_class=1
num_tree_per_iteration=1
label_index=0
max_feature_idx=63
objective=regression
feature_names=rsi_14 macd_hist boll_pctb kdj_j vol_price_ratio mom_20d mom_60d volatility_20d rsi_delta macd_hist_delta boll_pctb_delta mom_accel volume_trend close_ma5_dev close_ma20_dev close_ma60_dev ma_alignment atr_14 price_range_10d williams_r adx_14 obv_slope amount_ratio turnover_5d turnover_pctile return_skew_20d return_kurtosis_20d updown_vol_ratio max_drawdown_20d return_autocorr close_position upper_shadow lower_shadow body_ratio gap_5d amihud_illiq volume_volatility mom_5d mom_10d vwap_dev boll_bandwidth vol_price_corr consecutive_days high_distance_60d low_distance_60d vol_ratio_5_60 mfi_14 intraday_intensity cci_20 return_extremes_ratio amount_volatility pe_ttm pb total_mv_log roe revenue_growth profit_growth roe_qoq profit_growth_accel revenue_growth_accel pe_ind_rank pb_ind_rank roe_ind_rank mom_20d_ind_rank
feature_infos=[6.2312152261198719:98.82372290021884] [-42.037435320327354:34.484388742298954] [-0.53764040948156777:1.5508443518701795] [-27.182597663248309:129.35314107991579] [0.0077318620610453094:238.04653389715628] [-0.64347826086956528:4.4000000000000004] [-0.85858585858585856:7.4210526315789469] [0.016513154867664595:3.6847602020581363] [-48.805119919783635:57.866510960011766] [-42.11744490851784:50.290757996976993] [-1.6374361782293656:1.5771065927422081] [-4.3958886189497299:0.73251563251563256] [0.0049238577290768434:3.9585601030021329] [-0.21805392731535755:0.55529953917050712] [-0.42474019443513245:1.8148311266481323] [-0.70468707667298847:3.008833599038236] [-0.6716337036033595:2.1265870657517958] [0.0054700935744892718:0.23780678959281518] [0:0.26369646286186876] [-100:0] [4.9437823832215653:78.038772951374511] [-1.3872269881310653:1.4415423909947105] [0.0030458806715272183:15.352647618676064] [0.00021669075536656196:4.024] [0:0.98333333333333328] [-4.129483209670112:3.5967006957999472] [-1.9924756159073636:15.052631578947366] [0.001193498558424813:572.52541064789091] [-0.71219512195121959:0] [-0.86718722353093713:0.9017937394566411] [0:1] [0:0.081036831762251363] [0:0.079397566326317129] [0:0.90870966031143507] [-0.095090907540270719:0.17497209211035863] [7.8186995033676192e-13:7.4378542600005145e-08] [0.10381985734573566:4.1667426939951335] [-0.4290415466886055:1.5094476744186047] [-0.52456594015515334:4.1855983772819476] [-0.99920335574166153:1.0580550565445201] [5.7673923357150998e-16:2.7902991482632671] [-0.94212356497084015:0.97656242948992289] [-30:19] [-0.84704184704184704:0] [0:10.594339622641508] [0:3.1876041047910597] [0:100] [-0.90063145523253119:0.95584228776305225] [-522.548092084519:573.45971563980879] [-0.92903225806451872:21.276764843384889] [0.10342391344656005:3.2990106699150892] [-7159.9700000000003:9717.0200000000004] [-78:1557.6400000000001] [19.414437204401331:26.676384488136907] [-381.31:247.19] [-797.92349967492203:8875.9109129803601] [-8303997.5854256898:47154.854950655099] [-446.52000000000004:384.5] [-8303993.1009503743:8303998.6237557875] [-20233.810947637394:8877.9033321980187] [0.029411764705882353:1] [0.029411764705882353:1] [0.019230769230769232:1] [0.019230769230769232:1]
tree_sizes=3205 3145 3202 3173 3173 3167 3219 3195 3210 3177 3196 3182 3185 3186 3207 3172 3173 3211 3192 3162 3158 3178 3187 3137 3169 3174 3191 3186 3140 3236 3120 3188 3159 3154 3196 3173 3188 3180 3133 3178 3175 3171 3135 3184 3111 3100 3118 3185 3204 3143 3129 3179 3157 3172 3136 3131 3079 3074 3155 3148 3059 3074 3114 3061 3136 3152 3065

Tree=0
num_leaves=31
num_cat=0
split_feature=53 39 53 52 53 16 53 7 28 51 35 57 56 7 15 35 50 6 55 55 35 7 39 43 39 56 57 7 57 35
split_gain=44.3993 31.5556 23.1534 36.5308 32.9788 19.0391 19.0113 14.2422 8.88925 8.01268 7.51095 7.66007 7.43874 7.37626 5.73519 5.66173 6.62481 5.58621 5.35864 5.10964 4.95613 4.74135 4.68632 4.34255 4.33471 4.16299 4.68254 4.1122 4.1019 4.13684
threshold=22.686139375465654 -0.47718988358056774 24.099333426990054 18.060000000000006 23.625959018021202 -0.18889401067703643 23.379134688597478 0.49340109540787108 -0.16665462253697541 -87.399999999999991 1.4146507896858504e-10 9.7650000000000023 139.27732875678302 0.60129914203911194 -0.064902277040446529 5.2298407322305417e-10 0.57075353746517099 0.384391440312493 -1.1050567844044996 -16.296435430626499 3.6947884914946891e-11 0.20416163849965671 -0.2061833825518313 -0.47152260638271898 -0.10374464232559603 352.22650902791059 2.5637500000000002 0.17790725868737228 23.210000000000004 2.8367876889605025e-11
decision_type=10 2 8 8 10 2 8 2 2 10 2 8 10 2 2 2 2 2 10 8 2 2 2 2 2 10 10 2 8 2
left_child=1 10 3 4 8 13 17 21 -2 15 11 12 19 -3 -9 16 22 -5 -19 -1 25 -4 -7 -15 -6 -8 -27 -26 29 -24
right_child=2 5 7 6 24 9 20 14 -10 -11 -12 -13 -14 23 -16 -17 -18 18 -20 -21 -22 -23 28 -25 27 26 -28 -29 -30 -31
leaf_value=-0.0081710733752218059 0.0015401053754933462 -0.00022021344453286812 -0.0013320209934513264 -0.0016963026984290084 -0.00088304467223915251 -0.00082846376985670918 -0.0032372021395829413 -0.0017029188754828304 -0.00031306868872779409 0.0024234377428794824 0.0023676200973389433 -0.0031207907294657396 0.010955190272873346 0.0053115479457191486 -0.0038227169013916986 -0.00086055956696261661 -0.0018032207745464985 -0.0037890248838304968 -0.0019781432493761507 0.00060967754834336603 -0.0023123738593250455 -0.0023515124514380606 -0.0019310396823526699 0.0015295063775005648 -0.00083011970032569797 0.009562312662261931 -0.001362516244029459 -0.0017572636728139205 -0.00027453175977147528 -0.0013385443182800489
leaf_weight=168 7590 6752 13876 324395 22134 44763 21933 3728 44099 1417 5648 1550 172 1017 22353 53682 83558 6210 11966 10370 108316 63848 33875 3037 13566 127 434 100941 8120 225786
leaf_count=168 7590 6752 13876 324395 22134 44763 21933 3728 44099 1417 5648 1550 172 1017 22353 53682 83558 6210 11966 10370 108316 63848 33875 3037 13566 127 434 100941 8120 225786
internal_value=-0.00157815 -0.0012011 -0.00181452 -0.0017056 -0.00111662 -0.00128094 -0.00193993 -0.00250879 -4.08468e-05 -0.00133062 0.000858265 0.000162493 0.000638142 0.000793168 -0.00351991 -0.00134246 -0.00140778 -0.00174411 -0.00259713 0.000469156 -0.00245271 -0.00216944 -0.00130205 0.00247966 -0.0015236 -0.00312827 0.00112112 -0.00164738 -0.00138123 -0.00141586
internal_weight=1.24543e+06 479915 765516 661711 188330 462007 473381 103805 51689 451201 17908 12260 10710 10806 26081 449784 396102 342571 18176 10538 130810 77724 312544 4054 136641 22494 561 114507 267781 259661
internal_count=1245431 479915 765516 661711 188330 462007 473381 103805 51689 451201 17908 12260 10710 10806 26081 449784 396102 342571 18176 10538 130810 77724 312544 4054 136641 22494 561 114507 267781 259661
is_linear=0
shrinkage=1


Tree=1
num_leaves=31
num_cat=0
split_feature=53 39 52 53 35 52 23 43 18 40 5 53 35 56 53 57 53 57 17 43 56 17 53 57 55 60 43 55 39 56
split_gain=40.3265 29.205 20.6829 37.6381 18.4466 17.0727 18.8039 12.8379 11.4398 9.15928 8.6475 7.30322 7.16145 7.88286 7.12599 5.98749 5.80333 5.40397 5.28495 4.87147 5.2118 4.73047 4.61822 4.88536 4.44737 4.43423 4.43289 4.2735 4.25037 4.72028
threshold=22.880852921411474 -0.47718988358056774 6.2150000000000007 23.668039797318887 4.3010624696330547e-11 8.5850000000000026 0.063085788660726644 -0.41524782183478159 0.041305942619876961 0.20501357272924786 -0.109485196751388 23.379134688597478 1.4845200026605446e-10 92.637959831265007 23.273950582793884 8.0650000000000013 23.990906203784103 23.210000000000004 0.020942165906009204 -0.31415988876887913 169.40647847886154 0.065641509072153506 23.895825434717782 1.7500000000000004 -16.296435430626499 0.09232954545454547 -0.4361820846057865 -1.7961609761274999 -0.1954727764825698 27.699901510920501
decision_type=10 2 8 8 2 8 10 2 2 2 2 10 2 10 10 8 10 8 2 2 10 2 10 10 8 8 2 10 2 10
left_child=1 12 3 9 19 -3 7 21 18 -2 -10 -6 13 15 -11 24 -12 28 -5 25 -21 -7 23 -22 -1 -4 -8 -24 29 -9
right_child=2 5 4 8 11 6 26 17 10 14 16 -13 -14 -15 -16 -17 -18 -19 -20 20 22 -23 27 -25 -26 -27 -28 -29 -30 -31
leaf_value=-0.0059619282989144149 0.00091407621409039493 0.00414416787056933 0.012928397497255212 0.00058396011502626132 -0.00016388352168585736 0.001352563315856101 0.0037548782312538348 0.00042476105140291627 0.0010943143559431644 0.0050789892763488395 -0.00063628713906511763 -0.00063699302745210361 0.0037548990929555828 0.010410693717715679 0.0019045031024730241 -0.00086868006968185852 -0.0020219609998501516 0.0010681907667311915 -0.00018652298616737034 -0.0014470389440187404 0.0091652580658085625 0.0039585446956157027 0.011176911955226057 0.0013515335862438619 0.0020643935725660682 -0.00017316249674113952 -0.0013354803244234256 -0.0034345836474969239 0.00016166156753179292 0.0016601052493267238
leaf_weight=175 43179 2787 65 27216 235063 4569 436 59401 4108 2159 14692 124953 5506 250 9832 2303 15587 19446 122107 59604 277 2823 55 727 10748 8055 20984 534 438895 8895
leaf_count=175 43179 2787 65 27216 235063 4569 436 59401 4108 2159 14692 124953 5506 250 9832 2303 15587 19446 122107 59604 277 2823 55 727 10748 8055 20984 534 438895 8895
internal_value=0 0.000306122 -0.000264433 0.000108478 -0.000471932 0.000240529 0.000220932 0.000279204 -0.000235436 0.00125376 -0.00105765 -0.000328103 0.00223486 0.00161341 0.00247653 0.00144666 -0.00134977 0.000250149 -4.60589e-05 -0.00121887 -0.00137156 0.0023485 0.00144927 0.00351299 0.00193529 -6.75118e-05 -0.00123162 -0.00206003 0.000218775 0.00058573
internal_weight=1.24543e+06 577218 668213 238880 429333 558236 555449 534029 183710 55170 34387 360016 18982 13476 11991 13226 30279 526637 149323 69317 61197 7392 1593 1004 10923 8120 21420 589 507191 68296
internal_count=1245431 577218 668213 238880 429333 558236 555449 534029 183710 55170 34387 360016 18982 13476 11991 13226 30279 526637 149323 69317 61197 7392 1593 1004 10923 8120 21420 589 507191 68296
is_linear=0
shrinkage=0.05


Tree=2
num_leaves=31
num_cat=0
split_feature=39 23 16 35 17 23 35 35 28 39 56 15 44 62 56 60 57 57 60 28 35 54 44 54 55 57 56 60 45 44
split_gain=32.8136 26.979 21.5128 14.2776 12.0423 9.53577 9.67739 8.46704 7.67364 7.60052 6.95024 6.94881 5.90392 6.34318 6.6484 5.41028 4.63361 4.47401 4.38996 5.54481 4.0375 8.27379 4.35087 3.98821 4.20239 3.79239 3.68212 3.64071 3.61141 3.39826
threshold=-0.52707985382371259 0.058179920095970318 -0.18889401067703643 1.8022017740227969e-10 0.068652487940421683 0.0021460124398222421 3.6947884914946891e-11 1.4845200026605446e-10 -0.064509348368591277 -0.095497305682589614 139.27732875678302 -0.16760735749675584 0.75108970686885235 0.59878048780487814 32.030493136423011 0.030776515151515155 26.815000000000005 9.7650000000000023 0.072751322751322761 -0.18134103036664209 2.8367876889605025e-11 -10.499999999999998 0.32279195359602258 0.41250000000000003 -0.50461235956849992 1.6535000000000004 -17.558113954854495 0.87689393939393956 1.7591062151030368 0.35830338915802212
decision_type=2 10 2 2 2 10 2 2 2 2 10 2 10 10 10 10 8 10 10 2 2 8 10 10 8 8 10 8 2 10
left_child=7 2 4 5 -2 9 15 10 27 29 17 -3 18 -14 -15 -7 28 23 -13 -20 -11 22 -22 -1 26 -16 -25 -8 -5 -4
right_child=1 11 3 16 -6 6 8 -9 -10 20 -12 12 13 14 25 -17 -18 -19 19 -21 21 -23 -24 24 -26 -27 -28 -29 -30 -31
leaf_value=-0.0030111046583471603 0.0010385627422974809 0.0027258515726303143 0.00057778957006721901 0.00025595572461270533 0.0041570061911414841 -0.0012119674528060418 2.4156545476959385e-05 0.0038126737441164307 0.00010571142644276103 -0.00048156386542560435 0.0092543128251219645 -0.0010953417170950204 -0.0028242844001221405 -0.00172504604684746 0.0056798005291150404 -0.00034223537657015026 0.0011088018323443703 -0.0019383752070736963 0.0025389976397161593 -0.00051988112578695044 0.0020456639946416686 0.00020411779673269552 0.013396927455101125 -0.0013973310603458697 0.001277454041267658 0.00028611814170807803 0.0045927840868608075 -0.00034832689980626307 -0.00052868489705878985 0.0016952547583724813
leaf_weight=468 18706 1187 39992 316186 3712 33541 83770 5011 214275 30339 278 36771 9037 3687 526 38343 15330 1008 1907 6635 162 45294 179 298 10500 862 1790 302056 15374 8207
leaf_count=468 18706 1187 39992 316186 3712 33541 83770 5011 214275 30339 278 36771 9037 3687 526 38343 15330 1008 1907 6635 162 45294 179 298 10500 862 1790 302056 15374 8207
internal_value=0 -3.22412e-05 2.12423e-05 -8.83738e-06 0.00155516 -0.000125485 -0.000199874 0.00204278 -0.000134193 0.000277043 0.00142402 -0.00106072 -0.00113644 -0.00202974 -0.000613902 -0.000748122 0.000258871 0.00126882 -0.000858124 0.000162449 -3.44708e-05 0.000262656 0.00802108 0.00151683 0.00168559 0.00233399 0.00373545 -0.000267441 0.000219558 0.000768171
internal_weight=1.24543e+06 1.22608e+06 1.16547e+06 1.14305e+06 22418 796158 671985 19353 600101 124173 14342 60612 59425 14112 5075 71884 346890 14064 45313 8542 75974 45635 341 13056 12588 1388 2088 385826 331560 48199
internal_count=1245431 1226078 1165466 1143048 22418 796158 671985 19353 600101 124173 14342 60612 59425 14112 5075 71884 346890 14064 45313 8542 75974 45635 341 13056 12588 1388 2088 385826 331560 48199
is_linear=0
shrinkage=0.05


Tree=3
num_leaves=31
num_cat=0
split_feature=16 23 17 35 23 35 61 52 52 35 54 6 35 44 54 23 17 21 35 35 54 58 36 17 43 55 58 59 21 58
split_gain=24.7466 24.9762 14.2771 13.9774 12.6566 10.4137 9.33909 6.26385 5.86867 5.65743 8.67495 5.10899 4.97101 4.78448 5.21881 4.69782 7.55446 4.44406 4.42581 3.96412 3.86266 3.68568 3.68552 3.58022 3.57875 3.38361 3.82967 3.34864 3.26439 3.24878
threshold=-0.18889401067703643 0.069484176819560192 0.071217218867618379 1.7640276436074817e-10 0.0017949178514427185 3.6947884914946891e-11 0.73606811145510853 12.675000000000002 11.425000000000002 3.8959924591203078e-11 -10.499999999999998 0.50000000000000022 6.6372271909207382e-11 0.92611654241674513 16.475000000000005 0.069484176819560192 0.074505144568977152 0.14563704560902471 4.8725674134814763e-10 1.4625587718417769e-11 -1.6449999999999998 133.16523128712302 1.0191045077862537 0.057022879457349171 -0.34519254315267789 20.133389263461002 210.91136317179101 -9.4683453148144991 0.19634285499304444 146.54387772366451
decision_type=2 10 2 2 10 2 8 8 8 2 10 2 2 10 10 8 2 2 2 2 10 10 2 2 2 10 10 8 2 10
left_child=2 3 23 4 9 8 -7 19 -6 22 28 29 21 -9 25 18 20 -18 24 -3 -17 -8 -2 -1 -5 -15 -27 -13 -11 -12
right_child=1 7 -4 15 5 6 12 13 -10 10 11 27 -14 14 -16 16 17 -19 -20 -21 -22 -23 -24 -25 -26 26 -28 -29 -30 -31
leaf_value=0.00058601135344506629 4.4791263218529852e-06 -0.0026319003003488872 0.0044109004131744093 0.0014286621775195022 -0.00029986766767267327 0.00028074241470795467 -0.00056084495888184959 -0.0012174093361525318 -0.0011752424711694877 0.0052677299678114452 0.00050881335814994329 0.0081194519933648814 -0.00012592403205323601 -0.0032953630444959598 0.0029908768614609355 0.0064360863046976141 0.011018928228268205 0.0017992937618769912 0.00060655922873608043 0.00046474283476092215 0.00076286496176911317 0.00078452997225783832 0.0034719062786888288 0.0019837853058833972 0.00013623524261863578 -0.0011724084185120395 0.012901694791519184 0.0021968271973952544 0.015851828480539201 0.0033143685589318845
leaf_weight=13499 68121 1206 3769 5461 38342 117942 111520 28808 38283 227 55655 265 375188 5957 377 319 323 222 69124 7220 5119 5331 775 6947 281555 171 67 2477 109 1052
leaf_count=13499 68121 1206 3769 5461 38342 117942 111520 28808 38283 227 55655 265 375188 5957 377 319 323 222 69124 7220 5119 5331 775 6947 281555 171 67 2477 109 1052
internal_value=5.27845e-10 -3.13799e-05 0.00158279 1.22313e-05 -0.000102578 -0.000187868 -0.000118843 -0.00120367 -0.000737284 0.00035247 0.000708372 0.000662993 -0.000214634 -0.00149545 -0.00271342 0.000270727 0.00166031 0.0072736 0.000247368 2.09059e-05 0.0010967 -0.000499423 4.35612e-05 0.00106119 0.000160844 -0.0030614 0.00277238 0.00277132 0.00871983 0.000560955
internal_weight=1.24543e+06 1.22122e+06 24215 1.17741e+06 815287 686606 609981 43806 76625 128681 59785 59449 492039 35380 6572 362123 5983 545 356140 8426 5438 116851 68896 20446 287016 6195 238 2742 336 56707
internal_count=1245431 1221216 24215 1177410 815287 686606 609981 43806 76625 128681 59785 59449 492039 35380 6572 362123 5983 545 356140 8426 5438 116851 68896 20446 287016 6195 238 2742 336 56707
is_linear=0
shrinkage=0.05


Tree=4
num_leaves=31
num_cat=0
split_feature=39 23 16 17 35 23 35 35 50 61 39 44 39 57 58 16 58 18 23 54 61 44 54 59 50 58 18 35 58 58
split_gain=28.6425 22.2138 18.162 12.1953 11.8628 8.99625 7.41874 6.48779 6.3546 6.16205 5.8536 6.27941 5.30901 4.35352 4.75862 3.93564 3.86172 3.6874 3.66688 3.654 3.61615 3.59771 3.51688 3.33996 3.8596 3.24736 3.3928 3.34113 3.31613 3.2323
threshold=-0.52707985382371259 0.060404499765877424 -0.16129624109465576 0.061176497237418644 6.9945582857366033e-11 0.0060881412873999025 1.4146507896858504e-10 4.8725674134814763e-10 0.48039087315509715 0.93142633228840133 -0.13995759414608136 0.75108970686885235 -0.1025502657472651 9.7650000000000023 21.630106183719505 -0.17321873031504914 9.943926216649503 0.068524819977974188 1.0000000180025095e-35 -12.659999999999998 0.66421568627450989 0.34248287671232885 24.515000000000004 9.8219518364195029 0.3959057372481764 -12.019478247872499 0.09158215173321993 3.5611235009530655e-11 0.25091125627349981 874.64162217193609
decision_type=2 10 2 2 2 10 2 2 2 8 2 10 2 10 10 2 10 2 10 10 8 10 8 10 2 8 2 2 10 10
left_child=6 2 3 -2 5 12 13 8 18 -7 -3 15 21 14 25 -12 -8 19 -6 -5 -20 -4 -11 24 -18 26 -1 28 -27 -16
right_child=1 10 4 17 7 9 16 -9 -10 22 11 -13 -14 -15 29 -17 23 -19 20 -21 -22 -23 -24 -25 -26 27 -28 -29 -30 -31
leaf_value=0.0023165269213048416 0.0005836812580076599 0.00031444036702603655 0.00035040471216734903 0.0052640859411340283 0.00084460781816767319 -9.5093943280371746e-05 0.00279811028992524 0.0005567592868308504 -0.0001740461770884182 -0.00058687065541922028 0.0033398727013018697 -0.0021822020979859395 -0.0001324378210299853 -0.0018248232242666963 0.0050200543568191041 -0.00093456700017368959 0.012095866423055225 0.0042154589089281281 0.00053056725108511376 0.0015817969847903225 7.1227419507691796e-05 0.0016003237538608052 -0.0018832167790262051 0.00068259789299492189 0.0051117212755087725 0.00033053133922159012 0.010625084438689463 0.00037432900682210306 0.0057517045394385406 -0.0062213458051945296
leaf_weight=2730 32529 7379 28886 763 18055 82141 4274 67148 229455 144772 546 12143 78813 1031 1223 36462 302 2654 47746 5863 418095 7196 5432 228 587 522 129 7641 619 67
leaf_count=2730 32529 7379 28886 763 18055 82141 4274 67148 229455 144772 546 12143 78813 1031 1223 36462 302 2654 47746 5863 418095 7196 5432 228 587 522 129 7641 619 67
internal_value=3.62055e-09 -3.01177e-05 1.66681e-05 0.00103999 -2.12655e-05 -0.000264394 0.00190854 8.68949e-05 4.26593e-05 -0.000443364 -0.000998155 -0.00119532 9.74809e-05 0.00129965 0.00154916 -0.00087136 0.00348451 0.00263893 0.000145428 0.00200665 0.000118318 0.000599824 -0.000633786 0.00610595 0.00749101 0.00122925 0.00269352 0.000751954 0.00327618 0.00443189
internal_weight=1.24543e+06 1.22608e+06 1.16955e+06 41809 1.12774e+06 347240 19353 780499 713351 232345 56530 49151 114895 13962 12931 37008 5391 9280 483896 6626 465841 36082 150204 1117 889 11641 2859 8782 1141 1290
internal_count=1245431 1226078 1169548 41809 1127739 347240 19353 780499 713351 232345 56530 49151 114895 13962 12931 37008 5391 9280 483896 6626 465841 36082 150204 1117 889 11641 2859 8782 1141 1290
is_linear=0
shrinkage=0.05


Tree=5
num_leaves=31
num_cat=0
split_feature=53 52 53 18 53 16 23 23 56 0 16 40 17 44 53 52 16 18 57 17 17 59 57 18 20 44 53 17 54 54
split_gain=33.5963 25.2921 27.3571 17.104 17 13.665 13.6618 8.46226 7.80528 7.49909 7.17835 6.8933 6.75828 6.48397 6.3386 8.49974 6.07725 5.05463 4.97224 4.42761 4.30671 4.16853 3.90355 3.76188 5.6987 3.56632 3.52551 3.51243 3.35309 3.33876
threshold=23.905954741837828 1.4950000000000003 22.592251339156572 0.033022332202170553 23.379134688597478 -0.26119755015504098 0.045055407034419466 0.069484176819560192 77.187482776672013 43.710422048224849 0.15767218977673739 0.20965805046020278 0.058425550315476596 0.8549171312625633 23.1740426631196 1.4750000000000003 -0.1443660403935296 0.053909894926764533 1.9035000000000004 0.068652487940421683 0.023947629898282662 4.7298719269175011 23.210000000000004 0.09158215173321993 20.664998605801269 0.8549171312625633 23.625959018021202 0.057471115323161272 8.1150000000000002 10.485000000000001
decision_type=10 10 10 2 10 2 8 10 10 2 2 2 2 10 8 8 2 2 8 2 2 10 8 2 2 10 10 2 10 10
left_child=1 2 5 20 11 19 14 10 13 -5 16 -3 26 -8 -4 28 27 -11 -13 -1 -2 -10 23 -18 -25 -23 -6 -7 -16 -12
right_child=3 4 6 9 12 7 8 -9 21 17 29 18 -14 -15 15 -17 22 -19 -20 -21 -22 25 -24 24 -26 -27 -28 -29 -30 -31
leaf_value=0.0017905903308385489 0.00033705641061822363 0.0016834953001927805 3.5453920152181914e-05 -0.00027401050962539368 0.0010034686390084017 0.00068133535389980045 -0.00099010577864129729 -0.00094893557834925676 -0.0005383071005115441 -0.0010990048725954811 0.0014070827663230966 0.0026067205126118383 0.0022446004771675991 -0.0027762175588892267 0.00017004552626496454 -0.00046551664214415542 0.00020100478779870408 -0.0020392598131628607 0.0057967034140977104 0.0058251201470016258 -0.00039623738003703691 0.0016359172208103277 0.0010431452231426045 0.011913051041866449 0.00063638429312285166 0.0069968587462312676 0.00023273814962082877 0.002038724000324487 0.0016352029630346645 3.9563300301367365e-05
leaf_weight=1336 29962 9590 268107 19700 21407 16476 34505 13040 2046 47518 21784 2861 5807 5964 37326 188145 353332 20475 2144 1395 60335 1621 14540 172 324 385 48431 6717 4363 5623
leaf_count=1336 29962 9590 268107 19700 21407 16476 34505 13040 2046 47518 21784 2861 5807 5964 37326 188145 353332 20475 2144 1395 60335 1621 14540 172 324 385 48431 6717 4363 5623
internal_value=6.04923e-09 0.000106053 3.20875e-05 -0.00063595 0.000906963 0.00032761 -0.00020474 0.000305308 -0.00104392 -0.00113332 0.000344358 0.00246944 0.000605429 -0.00125346 -0.000129699 -0.000322376 0.000289586 -0.00138222 0.00397431 0.0038534 -0.000152863 0.00104762 0.000240141 0.000207129 0.00455853 0.0026676 0.000469058 0.00107468 0.000323506 0.0011267
internal_weight=1.24543e+06 1.06744e+06 977201 177990 90240 434739 542462 432008 44521 87693 418968 14595 75645 40469 497941 229834 391561 67993 5005 2731 90297 4052 368368 353828 496 2006 69838 23193 41689 27407
internal_count=1245431 1067441 977201 177990 90240 434739 542462 432008 44521 87693 418968 14595 75645 40469 497941 229834 391561 67993 5005 2731 90297 4052 368368 353828 496 2006 69838 23193 41689 27407
is_linear=0
shrinkage=0.05


Tree=6
num_leaves=31
num_cat=0
split_feature=39 23 16 17 35 23 52 35 28 56 52 35 36 44 55 55 56 39 56 57 54 43 23 35 60 58 35 16 57 44
split_gain=25.2035 18.6124 14.528 10.1613 9.39359 6.80818 6.7389 6.59704 6.47393 5.73117 5.72096 5.48132 5.07059 4.88064 4.77375 7.72201 6.37388 4.74874 4.20286 3.71981 3.65389 3.54204 3.5327 3.50944 3.48242 3.4484 3.37517 3.35786 3.51048 3.14847
threshold=-0.52707985382371259 0.052266387153032411 -0.16129624109465576 0.064747692685289585 7.1435421679349595e-11 0.0060881412873999025 12.675000000000002 1.4146507896858504e-10 -0.16665462253697541 139.27732875678302 2.5450000000000004 4.2111615562727978e-10 0.53942369494260989 0.75108970686885235 9.6890456455610003 10.263653668374003 84.598166645449524 -0.1025502657472651 112.54080392508901 7.8399999999999999 0.41250000000000003 -0.30668815785372133 0.0012638997982989271 3.8301577703932871e-11 0.81365740740740755 9.943926216649503 1.7140700638588007e-11 0.096505771376578647 -10.904999999999999 0.34248287671232885
decision_type=2 10 2 2 2 10 8 2 2 10 8 2 2 10 10 10 10 2 10 8 10 2 10 2 8 10 2 2 8 10
left_child=7 2 3 -2 5 17 8 9 21 19 -7 12 22 -8 -15 -16 -17 29 -18 20 -1 -3 -6 -12 -24 -9 -10 28 -26 -4
right_child=1 6 4 -5 11 10 13 25 26 -11 23 -13 -14 14 15 16 18 -19 -20 -21 -22 -23 24 -25 27 -27 -28 -29 -30 -31
leaf_value=-0.0032834256636012655 0.00060682907457494575 0.0050617363620742333 0.00032372970324866582 0.0027785545735463484 0.00072619149223134027 2.8944308011417813e-05 -0.0008010690167841888 0.0026277255049870084 -0.0026114910011185767 0.0084177680666826741 -0.00088482018676806654 0.00045262654321079717 -0.00024162279840225762 -0.0023867017217038969 0.0098422857615650915 -0.0024793086532890786 0.0098693656006571973 -0.00013299587293821643 0.00055945510485606897 -0.00076292394182383397 0.0016126346268807224 0.0011988632003711941 0.0004096351682867387 -0.00038735538329759205 -0.00058727159162319856 0.0057538314713023765 -7.6560733182088784e-05 0.00048567252407314803 2.3487873913459194e-05 0.0014880958440976826
leaf_weight=394 34805 732 29411 6375 21881 61089 47862 4274 1567 271 50468 89466 132138 9935 190 1403 192 80263 332 2293 11004 3170 68563 119409 25038 1117 8131 36688 389730 7240
leaf_count=394 34805 732 29411 6375 21881 61089 47862 4274 1567 271 50468 89466 132138 9935 190 1403 192 80263 332 2293 11004 3170 68563 119409 25038 1117 8131 36688 389730 7240
internal_value=8.31233e-09 -2.82467e-05 2.09491e-05 0.000943157 -1.3217e-05 -0.000228571 -0.000799612 0.00179031 0.000204868 0.00121609 -0.000385947 8.48994e-05 3.6083e-05 -0.0010277 -0.00192731 0.000226253 -0.000719744 8.22873e-05 0.00398149 0.00107312 0.00144292 0.00192492 0.000103809 -0.000535175 7.76107e-05 0.00327647 -0.000486692 2.71747e-05 -1.33695e-05 0.000553877
internal_weight=1.24543e+06 1.22608e+06 1.15256e+06 41180 1.11138e+06 347880 73514 19353 13600 13962 230966 763504 674038 59914 12052 2117 1927 116914 524 13691 11398 3902 541900 169877 520019 5391 9698 451456 414768 36651
internal_count=1245431 1226078 1152564 41180 1111384 347880 73514 19353 13600 13962 230966 763504 674038 59914 12052 2117 1927 116914 524 13691 11398 3902 541900 169877 520019 5391 9698 451456 414768 36651
is_linear=0
shrinkage=0.05


Tree=7
num_leaves=31
num_cat=0
split_feature=53 52 53 18 53 43 7 15 17 40 53 35 17 18 57 56 6 18 50 60 53 56 6 17 43 18 53 57 18 3
split_gain=29.4841 23.3661 23.2233 15.1682 14.3824 13.0662 7.2026 7.07023 6.18689 6.17883 5.45641 7.46711 5.17907 4.82806 4.64975 4.59739 4.65011 5.3044 4.56098 4.50878 7.01745 4.13977 4.90412 4.02682 3.6924 3.41469 3.27699 3.25444 3.23696 3.78902
threshold=23.895825434717782 1.5550000000000004 22.722717000914802 0.033022332202170553 23.350690213818421 -0.41524782183478159 0.63185563394832445 -0.12076833802161167 0.058425550315476596 0.20965805046020278 21.843636536707653 3.8959924591203078e-11 0.068652487940421683 0.053909894926764533 1.9035000000000004 25.528928507906503 0.50000000000000022 0.04007930547556509 0.46752064535104243 0.93649193548387111 23.398181893500588 77.187482776672013 0.77285623689517857 0.02439939501714276 -0.34519254315267789 0.080246838102106463 24.393894080288646 -9.3849999999999962 0.064615823683325094 70.412648532220885
decision_type=10 10 10 2 10 2 2 2 2 2 10 2 2 2 8 10 2 2 2 8 10 10 2 2 2 2 10 8 2 2
left_child=1 2 5 23 9 12 19 -5 -6 -3 11 -7 -1 -9 -11 -13 25 -18 -12 -4 -21 22 24 -2 -8 -17 -15 -22 -20 -30
right_child=3 4 6 7 8 10 21 13 -10 14 18 15 -14 26 -16 16 17 -19 28 20 27 -23 -24 -25 -26 -27 -28 -29 29 -31
leaf_value=0.0012614308041282178 0.00030588009168094617 0.0016331248618489632 0.00040287026662436175 0.00031392934334383054 0.00048423898695042103 3.6209630969969481e-05 0.00090248108101560406 -0.0009571365345240699 0.0021826141959085756 0.0025341072259709423 0.00027000931372184802 0.00057413749042740155 0.0038828999323045894 -0.0015105561573748828 0.0057967514578062271 0.0011950400480139501 0.019616662693728398 0.0040456909090589551 -4.7256048296007672e-05 -7.4692060497120181e-05 -0.0013749563583943477 0.00081247256208105223 -0.0023409901807809569 -0.00038308460530747364 -0.0008428276275546237 0.0070973709182449787 -0.0030066366670987582 -0.00046109983259704466 -0.0003640514833330266 -0.0024390819017662581
leaf_weight=4840 32903 8375 34241 8584 66891 69474 3267 58921 5832 2551 174922 105707 3094 17678 1921 13126 59 776 112887 296769 10999 3872 5179 59647 41394 250 4629 85783 7790 3070
leaf_count=4840 32903 8375 34241 8584 66891 69474 3267 58921 5832 2551 174922 105707 3094 17678 1921 13126 59 776 112887 296769 10999 3872 5179 59647 41394 250 4629 85783 7790 3070
internal_value=9.25915e-09 0.000100774 3.14124e-05 -0.000587364 0.000893057 0.000271541 -0.000215932 -0.00105028 0.000620511 0.00243545 0.000238809 0.00044876 0.00228438 -0.0011945 0.00393683 0.000687727 0.00153229 0.00515412 0.000105658 -0.000147395 -0.000195284 -0.000761706 -0.000884104 -0.000138093 -0.000715043 0.00130578 -0.00182125 -0.00056501 -0.00012662 -0.000951117
internal_weight=1.24543e+06 1.06307e+06 977499 182362 85570 495995 481504 89812 72723 12847 488061 189392 7934 81228 4472 119918 14211 835 298669 427792 393551 53712 49840 92550 44661 13376 22307 96782 123747 10860
internal_count=1245431 1063069 977499 182362 85570 495995 481504 89812 72723 12847 488061 189392 7934 81228 4472 119918 14211 835 298669 427792 393551 53712 49840 92550 44661 13376 22307 96782 123747 10860
is_linear=0
shrinkage=0.05


Tree=8
num_leaves=31
num_cat=0
split_feature=53 52 53 17 17 43 23 23 16 56 53 23 53 17 44 60 53 26 56 56 26 27 53 57 54 23 17 44 35 1
split_gain=26.6514 22.7024 20.7645 13.1105 12.5163 11.7926 8.99572 8.91327 7.34293 7.00564 6.87502 5.37476 5.24599 4.71217 4.45075 4.42099 6.29463 3.73259 3.71786 4.62296 3.64359 3.58144 3.53515 3.52977 3.38315 3.10528 5.17966 3.20582 3.07855 3.01503
threshold=23.875792896821995 1.5550000000000004 22.722717000914802 0.027904563326678955 0.056561339148558161 -0.41524782183478159 0.069484176819560192 0.038076896218539609 0.15767218977673739 77.187482776672013 23.562208685275895 0.056050284751750439 23.198789383939907 0.065641509072153506 0.8549171312625633 0.81980519480519487 23.240039917965007 -0.12854072892083776 13.492874173520002 15.682046190208501 -0.060162918972693318 0.50899598601524509 24.320878544896047 23.210000000000004 -12.659999999999998 0.035683887026273807 0.069883802291866678 0.04558614043908172 3.0737124131781881e-11 -0.045776801042147479
decision_type=10 10 10 2 2 2 10 8 2 10 10 10 10 2 10 8 10 2 10 10 2 8 10 8 8 10 2 10 2 2
left_child=1 2 5 -2 10 13 8 15 23 14 -3 22 20 -1 -9 -4 -17 21 24 -20 -6 -10 -5 25 -19 26 27 -7 -29 -28
right_child=3 4 7 11 12 6 -8 9 17 -11 -12 -13 -14 -15 -16 16 -18 18 19 -21 -22 -23 -24 -25 -26 -27 29 28 -30 -31
leaf_value=0.0010675266266588475 0.00011511099080338942 0.0013537018356324952 0.00044872588950257579 -0.00056155553606780379 0.0085581313854851734 -6.2584241343932858e-05 -0.00096725809041595416 -0.0008290047063036197 0.0090697954611218441 0.0010531746787788418 0.00032766211517432434 -0.0018829687422725401 0.0021268342811224792 0.0035193959954803651 -0.002315404933799791 -9.5562715549853816e-06 -0.00041572190601180922 0.0048593214224944949 0.0067905719629220837 0.002137392611056809 0.0034113981718096251 0.00039845565014921884 -0.0011761601382657258 0.00092199286933891591 0.00082046939194539963 -0.00034503517598160157 0.0010973324180317036 -0.00016055335342583788 0.00033446662340623181 0.0038609867766376477
leaf_weight=4368 54192 24946 30668 95311 564 90334 15276 40417 120 4493 47303 10642 7561 3566 5759 235087 160556 549 614 4158 895 14887 31042 16949 9515 25839 4364 35552 268625 1279
leaf_count=4368 54192 24946 30668 95311 564 90334 15276 40417 120 4493 47303 10642 7561 3566 5759 235087 160556 549 614 4158 895 14887 31042 16949 9515 25839 4364 35552 268625 1279
internal_value=1.01559e-08 9.85125e-05 3.14498e-05 -0.000543126 0.000901344 0.000257966 0.00022687 -0.000204087 0.000265464 -0.000831051 0.000682002 -0.000803545 0.00265766 0.0021702 -0.0010145 -0.000129557 -0.000174395 0.00102465 0.00158719 0.00273728 0.00540483 0.000468187 -0.00071259 0.000214303 0.00104134 0.000186134 0.000220445 0.000198916 0.000276593 0.00172466
internal_weight=1.24543e+06 1.05424e+06 972975 191187 81269 495995 488061 476980 472785 50669 72249 136995 9020 7934 46176 426311 395643 29843 14836 4772 1459 15007 126353 442942 10064 425993 400154 394511 304177 5643
internal_count=1245431 1054244 972975 191187 81269 495995 488061 476980 472785 50669 72249 136995 9020 7934 46176 426311 395643 29843 14836 4772 1459 15007 126353 442942 10064 425993 400154 394511 304177 5643
is_linear=0
shrinkage=0.05


Tree=9
num_leaves=31
num_cat=0
split_feature=53 39 52 53 18 53 16 17 51 39 35 53 56 50 54 18 16 57 26 57 55 24 18 54 57 17 28 54 35 55
split_gain=24.0966 19.2103 19.1143 15.6012 12.9865 12.6789 8.76183 8.58617 6.17603 6.13872 5.85643 5.78661 5.34102 5.16117 4.78149 4.58202 3.69612 3.67322 3.53417 3.41163 3.36198 3.17376 4.38021 3.16237 3.11396 3.04604 3.03213 2.97345 2.92978 3.34192
threshold=23.915833670179151 -0.52707985382371259 1.4950000000000003 22.987527850614651 0.033022332202170553 23.625959018021202 -0.26119755015504098 0.056561339148558161 -103.675 -0.082214034040683989 1.4845200026605446e-10 23.379134688597478 139.27732875678302 0.63810987388707863 -6.294999999999999 0.053909894926764533 -0.14085746618295333 7.8399999999999999 -0.31388174030361154 0.80000000000000027 -16.296435430626499 0.92500000000000016 0.061476249572854927 4.6350000000000007 3.410000000000001 0.023947629898282662 -0.020653883722226745 8.1150000000000002 5.2298407322305417e-10 59.844480301095011
decision_type=10 2 10 10 2 10 2 2 10 2 2 10 10 2 10 2 2 8 2 8 8 10 2 10 8 2 2 10 2 10
left_child=1 10 3 6 25 7 14 -4 11 -6 12 -5 17 16 -3 -11 -8 20 23 -17 -1 28 -23 -9 -25 -2 -22 -10 -15 -30
right_child=4 2 5 8 9 -7 13 18 27 15 -12 -13 -14 21 -16 19 -18 -19 -20 -21 26 22 -24 24 -26 -27 -28 -29 29 -31
leaf_value=-0.0055137899858205188 0.00029703396466602082 0.0065314947946037358 0.0011602516496207198 -0.00018481030923575727 -0.00031447993975391281 0.00026028770597705454 0.00072737914693525249 0.0036596019471621354 0.00013668185219351908 -0.00098211006678242921 0.0031591216070031257 -0.00063604105322244506 0.0080099704210719793 -0.00018882531396564514 0.0017573875367167026 -0.0011338533854063076 0.0001613841596521704 -0.00083138712313160501 0.0024058272786007476 -0.0025595853587488137 0.0014200015978274878 -0.00042838252100822278 -0.0024184732413326643 0.011408059539793611 0.0041255363338820808 -0.00032729771693027697 0.012422519742338347 0.0014584722915875572 0.0006369854659811422 0.011090109793926214
leaf_weight=174 29235 681 32614 190321 24424 54221 30673 1150 39317 44025 4907 113420 278 65529 2305 7386 485516 2261 3217 9767 11087 14841 3401 331 269 58861 63 4773 10307 77
leaf_count=174 29235 681 32614 190321 24424 54221 30673 1150 39317 44025 4907 113420 278 65529 2305 7386 485516 2261 3217 9767 11087 14841 3401 331 269 58861 63 4773 10307 77
internal_value=1.14313e-08 8.8556e-05 6.02879e-05 -5.54413e-06 -0.000546288 0.000749599 0.000146151 0.00145543 -0.000273043 -0.000984881 0.00167407 -0.000353321 0.00114804 0.000132924 0.00284805 -0.00125244 0.000195027 0.00100719 0.00339254 -0.00194597 0.00137473 -0.000207489 -0.000799696 0.0052033 0.00815263 -0.000120054 0.00148273 0.00027989 -6.51144e-05 0.000715086
internal_weight=1.24543e+06 1.07173e+06 1.05296e+06 961161 173698 91802 613330 37581 347831 85602 18770 303741 13863 610344 2986 61178 516189 13585 4967 17153 11324 94155 18242 1750 600 88096 11150 44090 75913 10384
internal_count=1245431 1071733 1052963 961161 173698 91802 613330 37581 347831 85602 18770 303741 13863 610344 2986 61178 516189 13585 4967 17153 11324 94155 18242 1750 600 88096 11150 44090 75913 10384
is_linear=0
shrinkage=0.05


Tree=10
num_leaves=31
num_cat=0
split_feature=53 61 53 39 53 23 18 15 40 16 17 53 54 56 23 55 53 53 6 56 58 18 50 35 58 35 55 17 17 6
split_gain=21.862 19.8286 21.6344 17.8699 13.2723 11.0108 10.9963 6.41994 6.16715 6.08122 5.65067 5.22594 4.86094 5.19096 4.32218 4.14393 4.00935 3.82977 7.91892 3.7517 3.73945 3.65274 3.47776 3.45859 4.09553 4.09871 3.3429 3.31487 3.30456 3.39967
threshold=23.845819824566401 0.063508064516129045 23.1740426631196 -0.47718988358056774 23.379134688597478 0.052266387153032411 0.032457569895108569 -0.12076833802161167 0.31935507034492566 -0.15674110915310105 0.058425550315476596 21.983015524776288 22.425000000000004 139.27732875678302 0.11591473396038897 9.4659504588075016 24.124279868328689 21.843636536707653 0.87180176269130871 16.177447630257504 45.24462556566251 0.053909894926764533 0.57075353746517099 1.3751221307101173e-10 -12.019478247872499 4.2365407717553387e-11 14.581256203133501 0.063169342771792883 0.020942165906009204 0.07294103421405175
decision_type=10 10 10 2 10 10 2 2 2 2 2 10 8 10 10 10 10 8 2 10 10 2 2 2 8 2 8 2 2 2
left_child=1 2 3 12 8 9 28 -8 19 11 -6 27 13 23 -4 -16 -9 18 -11 -3 -17 -18 26 24 -1 -26 -19 -5 -2 -30
right_child=6 4 14 5 10 -7 7 16 -10 17 -12 -13 -14 -15 15 20 21 22 -20 -21 -22 -23 -24 -25 25 -27 -28 -29 29 -31
leaf_value=0.0030852780013481749 0.00045749638104427334 0.0012776671966058574 -0.00041732454987751809 0.0012143194799877075 0.0003902373459623203 -0.00070705527097925276 0.00035655602143475404 -0.00065140651332155246 0.0045084412874046896 0.00052888258659634035 0.0021035493228509523 0.00031669181614541641 -0.0007813801838363187 0.0087738328314852908 -0.0033632442974161399 -0.0015921712957610284 -0.0010278561308364792 0.00017534885075902245 0.012479379867075653 0.0033312177797630905 0.0082417820868977646 -0.0020399738718361433 -0.00016148766481917278 0.002774420067246174 0.0028468444475015504 0.00029877257144540254 -0.00041028718927154842 0.0032137554792058018 -0.00042237405048805362 0.00036044132507048542
leaf_weight=2511 20926 13282 197827 8388 91291 39767 10175 48567 2097 44077 5082 17011 1918 268 2152 255 32213 452310 139 2677 155 12350 115896 5728 1984 7745 25750 2761 62294 17835
leaf_count=2511 20926 13282 197827 8388 91291 39767 10175 48567 2097 44077 5082 17011 1918 268 2152 255 32213 452310 139 2677 155 12350 115896 5728 1984 7745 25750 2761 62294 17835
internal_value=1.22851e-08 9.28302e-05 1.61437e-05 0.000143054 0.00071379 0.000101144 -0.000472805 -0.000835566 0.00195794 0.000149386 0.000480639 0.000868484 0.00161111 0.00186302 -0.000443782 -0.00248464 -0.000965866 0.000117647 0.000566592 0.00162247 0.00211445 -0.00130847 8.42172e-05 0.00175962 0.00128429 0.00081893 0.000143794 0.00170994 -0.000101918 -0.000248073
internal_weight=1.24543e+06 1.04107e+06 926642 726253 114429 706099 204360 103305 18056 666332 96373 28160 20154 18236 200389 2562 93130 638172 44216 15959 410 44563 593956 17968 12240 9729 478060 11149 101055 80129
internal_count=1245431 1041071 926642 726253 114429 706099 204360 103305 18056 666332 96373 28160 20154 18236 200389 2562 93130 638172 44216 15959 410 44563 593956 17968 12240 9729 478060 11149 101055 80129
is_linear=0
shrinkage=0.05


Tree=11
num_leaves=31
num_cat=0
split_feature=53 52 39 23 53 18 53 16 39 35 57 23 61 53 56 18 7 28 57 44 53 44 28 23 57 52 55 56 36 56
split_gain=19.7306 18.66 16.7265 14.4945 11.8281 9.92425 8.81073 7.33739 5.88841 5.25881 5.11941 5.85483 4.92035 4.32446 4.16615 3.95639 3.8317 3.82838 3.56517 3.35799 3.7503 5.89856 3.34582 3.23488 3.23123 3.19414 4.33046 3.19033 3.13564 3.10829
threshold=23.845819824566401 1.5550000000000004 -0.52707985382371259 0.069484176819560192 22.889127901382174 0.032457569895108569 23.341248645684754 -0.18889401067703643 -0.083148726002487669 1.4146507896858504e-10 1.9035000000000004 0.02046026368278361 0.81980519480519487 23.379134688597478 139.27732875678302 0.046669184262387219 0.60129914203911194 -0.3148915227642608 0.76000000000000056 0.04558614043908172 21.843636536707653 0.92611654241674513 -0.15749892887746358 0.038076896218539609 7.8399999999999999 4.8250000000000011 11.567175104450001 8.7165654982130025 0.80449217077619395 84.598166645449524
decision_type=10 10 2 10 10 2 10 2 2 2 10 10 8 10 10 2 2 2 8 8 8 10 2 10 10 10 10 10 2 8
left_child=1 2 9 4 7 -2 10 16 -7 14 -3 -12 -6 -14 24 -10 -4 -5 -17 -9 21 -21 23 -8 -1 26 -13 -24 -23 -19
right_child=5 6 3 17 12 8 22 19 15 -11 11 25 13 -15 -16 18 -18 29 -20 20 -22 28 27 -25 -26 -27 -28 -29 -30 -31
leaf_value=0.0011913739893898948 -9.6816716391153054e-05 0.0012860521885647541 0.00074882049870194549 0.0017043835673951513 0.00039296475819204554 -0.00019524032307938508 0.00093440565436489302 -8.9405790871535648e-05 -0.00071298319024711303 0.0029114161676358223 0.0018830828671323888 0.0061766184552790575 -0.00011786782681970831 -0.00050420939481430292 0.0071425727355940291 -0.00083392090985895157 0.0025993838397577302 -0.0013064827160471409 -0.0019049793197210936 0.00064376842756396575 0.00017453172844077684 0.0046417179950285136 0.00019766948442594221 0.0029773790859901113 -0.0011260026136029947 0.0030770581416109323 0.016455620103115159 0.0010867626784258654 0.016718943522320315 0.00056880554746828341
leaf_weight=11050 101055 7781 8115 1212 33974 29412 8716 109522 42008 5021 2676 998 232545 105232 271 13488 4278 28143 18397 37536 384767 190 37634 2497 1739 793 115 13796 76 2394
leaf_count=11050 101055 7781 8115 1212 33974 29412 8716 109522 42008 5021 2676 998 232545 105232 271 13488 4278 28143 18397 37536 384767 190 37634 2497 1739 793 115 13796 76 2394
internal_value=1.34564e-08 8.81911e-05 2.92022e-05 4.63937e-07 3.68635e-05 -0.000449165 0.00084789 0.00018531 -0.00079379 0.00153566 0.00206789 0.00339444 -0.000180545 -0.000238245 0.00100634 -0.00103197 0.00138804 -0.00104982 -0.00145206 0.000157288 0.000221238 0.000696503 0.000607032 0.00138982 0.000875869 0.00551353 0.00724456 0.000436266 0.00811613 -0.0011593
internal_weight=1.24543e+06 1.04107e+06 966065 947984 916235 204360 75006 544484 103305 18081 12363 4582 371751 337777 13060 73893 12393 31749 31885 532091 422569 37802 62643 11213 12789 1906 1113 51430 266 30537
internal_count=1245431 1041071 966065 947984 916235 204360 75006 544484 103305 18081 12363 4582 371751 337777 13060 73893 12393 31749 31885 532091 422569 37802 62643 11213 12789 1906 1113 51430 266 30537
is_linear=0
shrinkage=0.05


Tree=12
num_leaves=31
num_cat=0
split_feature=53 52 53 23 53 18 16 17 56 15 58 53 61 58 23 40 54 18 17 26 36 40 44 57 54 7 54 57 23 44
split_gain=17.9352 13.4627 15.4754 9.84726 9.84697 9.72686 7.95008 6.76251 5.63712 5.23382 4.69001 4.58273 4.92476 4.35105 3.97726 4.07391 3.94124 3.4287 3.36849 3.30457 3.20053 3.5121 3.19105 3.12665 3.32074 3.12458 3.08026 2.8104 2.77056 3.63031
threshold=23.915833670179151 1.5550000000000004 22.344834299034787 0.045055407034419466 23.625959018021202 0.033595146493050503 -0.26119755015504098 0.055306948999409668 41.916425030946506 -0.097098770807020937 -167.79131254474098 23.1740426631196 0.79128856624319432 -372.05850772013849 0.077238599584151149 0.29063212118718479 -10.499999999999998 0.046669184262387219 0.07644241323212117 -0.31388174030361154 0.53942369494260989 0.31483824098113089 0.8549171312625633 23.210000000000004 17.275000000000002 0.92929324308988315 8.1150000000000002 -9.1749999999999989 0.0053842466430587778 0.8549171312625633
decision_type=10 10 10 10 10 2 2 2 10 2 8 10 8 10 10 2 10 2 2 2 2 2 10 8 10 2 10 8 10 10
left_child=1 2 6 11 7 -2 18 -3 22 -7 13 20 26 -10 15 23 28 -11 -1 -9 21 -4 -5 -8 -25 -12 -13 -14 -17 -30
right_child=5 4 3 8 -6 9 14 19 10 17 25 12 27 -15 -16 16 -18 -19 -20 -21 -22 -23 -24 24 -26 -27 -28 -29 29 -31
leaf_value=0.0018337390286963214 -0.00011410705499287311 0.0010028144916358391 9.1095224371568709e-05 -0.0008162919474836585 0.00022292179335832655 0.00014369014143517323 0.00020450345465141334 0.004577194581516373 0.0014560821389557775 -0.0006986390563601631 0.00053852102344957218 0.00013848679044656357 -0.00086280549267760153 0.011148750122648718 -0.00091211888754121723 0.004818514352176298 0.00061322295325154689 -0.0013927109015137839 0.0058166944359389029 0.002006487655107947 -0.00024546687976915234 0.0010039375386823345 -0.002046748907460184 0.0014110139365869493 -0.00075999659207617843 -0.0023394221248073071 0.0016472404253017549 -0.00026572603677089718 0.0010276003280500017 0.006619784759203504
leaf_weight=1580 90894 31600 280347 40005 52783 11156 268625 1918 305 38463 6749 34512 22243 188 6834 840 35269 33185 804 3627 72671 10950 6077 9949 2137 1096 3752 173647 2902 323
leaf_count=1580 90894 31600 280347 40005 52783 11156 268625 1918 305 38463 6749 34512 22243 188 6834 840 35269 33185 804 3627 72671 10950 6077 9949 2137 1096 3752 173647 2902 323
internal_value=1.50551e-08 7.64056e-05 2.27679e-05 -0.000118235 0.000661949 -0.000471293 0.000302226 0.00128567 -0.000762173 -0.000863315 0.000433747 -5.9638e-05 -0.000232193 0.00516392 0.000281227 0.000306725 0.000783338 -0.00102018 0.00317927 0.00289666 5.13593e-05 0.000125427 -0.000978669 0.000239922 0.00102673 0.000135791 0.000286563 -0.000333549 0.00225802 0.00158942
internal_weight=1.24543e+06 1.07173e+06 981805 652542 89928 173698 329263 37145 54420 82804 8338 598122 234154 493 326879 320045 39334 71648 2384 5545 363968 291297 46082 280711 12086 7845 38264 195890 4065 3225
internal_count=1245431 1071733 981805 652542 89928 173698 329263 37145 54420 82804 8338 598122 234154 493 326879 320045 39334 71648 2384 5545 363968 291297 46082 280711 12086 7845 38264 195890 4065 3225
is_linear=0
shrinkage=0.05


Tree=13
num_leaves=31
num_cat=0
split_feature=53 39 15 18 23 61 53 18 53 60 53 61 53 57 58 35 56 15 44 56 57 7 53 58 6 53 6 54 57 58
split_gain=16.5791 15.014 10.541 8.60585 8.486 10.1568 7.73711 7.57345 5.95282 9.59556 7.52704 6.70144 4.56567 4.51185 4.31863 4.20064 3.94639 3.9169 3.59062 3.52428 4.3823 4.85481 4.20211 3.57926 3.30022 3.12102 6.71792 3.07996 3.81837 2.94472
threshold=24.099333426990054 -0.52707985382371259 -0.19242829379525164 0.066437716921119591 0.045055407034419466 0.10566188197767147 23.668039797318887 0.036591971039083314 22.880852921411474 0.030776515151515155 23.615743353466492 0.78679653679653694 23.416428570095274 -2.1149999999999998 -72.471555043641985 1.4845200026605446e-10 139.27732875678302 -0.053444002738026457 0.04558614043908172 41.916425030946506 -2.5485999999999995 1.0075496012715897 23.265530077338557 -209.54351474081648 0.30488633914211344 21.843636536707653 0.87180176269130871 -14.924999999999999 -2.6649499999999997 -1.2033970617625001
decision_type=10 2 2 2 10 10 10 2 10 10 10 8 10 10 10 2 10 2 10 8 8 2 10 10 2 8 2 10 8 10
left_child=1 15 3 27 8 19 13 -2 11 12 -11 14 -10 -7 -4 16 -1 -9 -13 22 21 23 -6 -21 -15 26 -20 -3 -29 -26
right_child=7 2 4 -5 5 6 -8 17 9 10 -12 18 -14 24 -16 -17 -18 -19 25 20 -22 -23 -24 -25 29 -27 -28 28 -30 -31
leaf_value=0.00088369451838314628 -0.00025074885959748924 0.0028537051447725657 0.012637080749966416 0.0036574710638974531 -0.00062561340310098175 7.3612672705699453e-05 -0.00010482376629980164 -0.00015552108725867497 -0.00010811202329602727 0.00080223752730778665 3.8343416690689124e-05 -0.0001017565319589991 -0.00051085547598813828 0.0022962457837723631 0.0027027399591281528 0.002691737049704988 0.0069028828464045237 -0.0013603247904284889 0.00063676332506158858 0.014698983600524877 -0.0001268555863640835 -0.0088900307277936085 -0.0016155093609564707 0.0038015687611255345 0.0026381477004085632 0.00018392538389145743 0.012293065407168569 -0.00056482485216940287 0.00093679644241104676 0.0078085331830643756
leaf_weight=13758 61515 1564 119 2758 47669 1407 8200 8437 233241 43103 128106 104629 100803 2125 1400 5004 278 33853 34885 88 9579 66 13846 544 479 364758 124 5658 16775 660
leaf_count=13758 61515 1564 119 2758 47669 1407 8200 8437 233241 43103 128106 104629 100803 2125 1400 5004 278 33853 34885 88 9579 66 13846 544 479 364758 124 5658 16775 660
internal_value=1.60558e-08 5.50296e-05 3.14104e-05 0.00101196 7.46525e-06 -0.000473384 0.00081983 -0.000604963 4.77308e-05 -7.36582e-05 0.000230688 0.000168971 -0.000229661 0.00244411 0.00348508 0.00144733 0.00100332 -0.00112008 0.000158974 -0.000705305 0.000151368 0.0039762 -0.000848506 0.00532893 0.00346439 0.000227226 0.000678227 0.00070769 0.000557837 0.00563897
internal_weight=1.24543e+06 1.14163e+06 1.12259e+06 26755 1.09583e+06 84663 12871 103805 1.01117e+06 505253 171209 505915 334044 4671 1519 19040 14036 42290 504396 71792 10277 698 61515 632 3264 399767 35009 23997 22433 1139
internal_count=1245431 1141626 1122586 26755 1095831 84663 12871 103805 1011168 505253 171209 505915 334044 4671 1519 19040 14036 42290 504396 71792 10277 698 61515 632 3264 399767 35009 23997 22433 1139
is_linear=0
shrinkage=0.05


Tree=14
num_leaves=31
num_cat=0
split_feature=53 39 16 23 52 17 53 18 53 60 53 51 35 35 15 56 44 56 57 7 44 15 26 57 59 53 29 7 57 57
split_gain=14.9651 13.6108 10.4689 7.82061 7.41223 7.33276 6.69827 6.43005 5.09811 9.82027 6.78277 6.71524 3.76618 3.76063 3.68411 3.55968 3.52338 3.24248 3.875 4.86609 3.6285 3.22691 3.19542 3.15679 3.03789 3.44474 3.54627 2.97164 2.95954 2.91424
threshold=24.124279868328689 -0.52707985382371259 -0.15674110915310105 0.052266387153032411 16.445000000000004 0.062477609648766474 23.657644356605747 0.046098453910826544 22.987527850614651 0.030776515151515155 23.615743353466492 39.725000000000001 1.4845200026605446e-10 3.4935942647788972e-11 -0.053444002738026457 139.27732875678302 0.046515821165893707 41.916425030946506 -2.5485999999999995 1.0075496012715897 0.79692792583618732 0.071424948759356247 -0.28658890452240121 -11.244999999999999 24.819177970752001 22.823181363862663 -0.050174877552478535 0.17790725868737228 -0.97999999999999954 9.7650000000000023
decision_type=10 2 2 10 8 2 10 2 10 10 10 8 2 2 2 10 8 8 8 2 10 2 2 8 10 10 2 2 8 10
left_child=1 12 5 8 6 28 22 -2 11 13 -11 21 15 -10 -9 29 -13 20 19 -19 -6 -4 -5 -15 -20 -26 -27 -12 -3 -1
right_child=7 2 3 4 17 -7 -8 14 9 10 27 16 -14 23 -16 -17 -18 18 24 -21 -22 -23 -24 -25 25 26 -28 -29 -30 -31
leaf_value=0.0010453689811568438 -0.00037832787254046623 -0.00016921040912202742 0.0021640264477500335 0.004428627564072315 -0.00072274324181960479 0.0020262255386798355 -0.0002025906779634127 0.00017551786726221011 -0.0010344237824869134 0.00075670969632101641 0.00066172753117801778 -0.00012156075855677979 0.0025522230541915113 -0.00082121228855768196 -0.0016315063173794175 0.0065578628407651609 0.00018676367018320551 0.0060037576915985946 -0.00041257633510446626 -0.0085446928197892829 -0.0019009912668120452 0.0081770059039661131 0.0012803698234373809 -0.00018013041766380721 -0.0021876825087938762 -0.00021952247162144715 0.0098343919395125975 -5.8376909888270114e-05 0.00078533332961779306 -0.0017452413999537978
leaf_weight=12796 73195 12529 2069 1339 39471 9299 6668 3322 15316 41959 16297 117590 5007 20796 18507 278 436731 477 6978 65 7840 251 2041 251552 183 137 239 118454 23037 1008
leaf_count=12796 73195 12529 2069 1339 39471 9299 6668 3322 15316 41959 16297 117590 5007 20796 18507 278 436731 477 6978 65 7840 251 2041 251552 183 137 239 118454 23037 1008
internal_value=1.67156e-08 4.98336e-05 2.74889e-05 -3.41491e-06 -0.000533309 0.000775967 0.000715841 -0.000603038 3.05417e-05 -9.17761e-05 0.000201574 0.000132594 0.00137383 -0.000271996 -0.00135628 0.000954475 0.000121349 -0.000760001 0.000165226 0.00424854 -0.000918102 0.00281705 0.00252914 -0.000229101 -0.000127802 0.00341753 0.00615875 2.8677e-05 0.000448932 0.000841219
internal_weight=1.24543e+06 1.15041e+06 1.13132e+06 1.08645e+06 65438 44865 10048 95024 1.02102e+06 464374 176710 556641 19089 287664 21829 14082 554321 55390 8079 542 47311 2320 3380 272348 7537 559 376 134751 35566 13804
internal_count=1245431 1150407 1131318 1086453 65438 44865 10048 95024 1021015 464374 176710 556641 19089 287664 21829 14082 554321 55390 8079 542 47311 2320 3380 272348 7537 559 376 134751 35566 13804
is_linear=0
shrinkage=0.05


Tree=15
num_leaves=31
num_cat=0
split_feature=53 52 53 17 17 23 15 56 53 57 59 7 58 53 53 53 61 23 35 55 23 57 23 58 57 5 26 58 17 55
split_gain=13.6198 13.3352 11.7442 8.16164 7.48495 7.19875 5.88567 4.42451 4.37468 3.96106 4.00751 3.87757 3.59367 3.48863 3.44969 3.39297 3.97154 3.36247 3.56234 3.20755 3.06545 3.00121 3.6228 3.26765 4.01447 2.95061 2.91401 2.90064 3.92032 2.82873
threshold=23.845819824566401 1.5550000000000004 22.344834299034787 0.027101542736144936 0.056561339148558161 0.045055407034419466 -0.27794249207781863 41.916425030946506 24.393894080288646 -5.1949999999999985 4.6276608554270009 0.59213743703751764 9.3747087579015016 23.379134688597478 23.198789383939907 23.1740426631196 0.81980519480519487 0.095225175939403703 2.8367876889605025e-11 -4.2785785324524994 0.077238599584151149 1.9035000000000004 0.02046026368278361 -21.501850644583499 2.370000000000001 0.10427659541583602 -0.060162918972693318 1.7824472729630003 0.093570301548066878 12.615891730417003
decision_type=10 10 10 2 2 8 2 10 10 8 10 2 10 10 10 8 8 10 2 10 10 10 10 10 10 2 2 8 2 10
left_child=1 2 6 -2 13 15 11 -7 -5 -9 -11 -1 17 21 26 19 -17 18 -8 -4 29 -3 23 24 -23 -14 -6 28 -20 -10
right_child=3 4 5 8 14 7 12 9 20 10 -12 -13 25 -15 -16 16 -18 -19 27 -21 -22 22 -24 -25 -26 -27 -28 -29 -30 -31
leaf_value=0.00067518685314123608 0.00015915327340679353 0.0007103516932590859 -0.0002404368771381916 -0.00044072898278715546 0.0071463312907276508 -0.00084935441392659263 -0.0002789652950686917 0.0062500524085006108 -0.0012714377316776061 -0.00081637482445675192 0.0014558848989079244 0.0046928472942165895 0.0003840246312244069 0.00036999687984439448 0.0016526453068321963 0.00030177244288065192 -0.00029545337818687 -0.0015377011072801215 0.00033354865170034617 0.00012043356311720261 -0.0036209912663672152 0.017155307095534016 0.0047062674197796243 0.0011019620277546817 0.000271034499460276 0.0011361788973226958 0.0025437710318050653 -0.00013525983991150999 0.0047377534834345258 0.00023774875872749931
leaf_weight=1180 53233 7339 78506 126072 564 45385 37726 281 20182 4301 3534 1230 75475 54886 7055 32709 186624 2933 155674 285462 1210 72 1203 2922 70 15775 895 38763 507 3663
leaf_count=1180 53233 7339 78506 126072 564 45385 37726 281 20182 4301 3534 1230 75475 54886 7055 32709 186624 2933 155674 285462 1210 72 1203 2922 70 15775 895 38763 507 3663
internal_value=1.5581e-08 7.32774e-05 2.34095e-05 -0.000373177 0.0007155 -0.000101942 0.000265857 -0.000657037 -0.000560719 0.00041779 0.000207902 0.00272788 0.000247688 0.000536666 0.00211153 -5.10192e-05 -0.000206367 0.000144479 0.000165707 4.25819e-05 -0.00116428 0.00132442 0.00237938 0.00146403 0.00887331 0.00051411 0.00432676 0.000251787 0.000347881 -0.00103939
internal_weight=1.24543e+06 1.04107e+06 966065 204360 75006 636802 329263 53501 151127 8116 7835 2410 326853 66492 8514 583301 219333 235603 232670 363968 25055 11606 4267 3064 142 91250 1459 194944 156181 23845
internal_count=1245431 1041071 966065 204360 75006 636802 329263 53501 151127 8116 7835 2410 326853 66492 8514 583301 219333 235603 232670 363968 25055 11606 4267 3064 142 91250 1459 194944 156181 23845
is_linear=0
shrinkage=0.05


Tree=16
num_leaves=31
num_cat=0
split_feature=39 53 16 18 24 32 17 60 53 51 53 19 7 16 34 57 6 57 17 50 59 43 23 20 54 56 52 56 23 62
split_gain=12.4573 11.4828 8.98075 7.16606 6.50952 6.42584 6.37955 5.72745 6.69171 5.50856 5.09581 3.95889 3.8408 3.79563 3.20194 3.07913 3.03749 3.01151 3.48169 4.83873 4.32028 3.0021 3.17352 2.90374 3.30729 2.8957 2.78993 2.77687 3.24377 2.59781
threshold=-0.52707985382371259 24.048415975310853 -0.1443660403935296 0.036591971039083314 0.94166666666666676 0.012979669283789139 0.061176497237418644 0.62828947368421062 23.215830336336772 29.635000000000002 23.615743353466492 -36.538461538461569 0.62109183527643197 -0.096925590758053015 -0.0039097782590601328 -1.4056 -0.0095212913298581819 6.8449999999999998 0.093570301548066878 0.32017531151525475 -2.8455060255834996 -0.08429023227372183 0.036415750039422032 36.097306932974448 -49.964999999999996 139.27732875678302 2.5450000000000004 27.699901510920501 0.1041747191292305 0.77859477124183019
decision_type=2 10 2 2 10 2 2 8 10 10 10 2 2 2 2 8 2 10 2 2 8 2 10 2 10 10 10 10 10 8
left_child=17 2 6 -3 7 -6 15 10 11 21 12 -9 -4 -5 -13 -2 -14 18 25 20 -20 22 -10 -8 -25 -1 -26 -11 -29 -18
right_child=1 3 4 13 5 -7 23 8 9 27 -12 14 16 -15 -16 -17 29 -19 19 -21 -22 -23 -24 24 26 -27 -28 28 -30 -31
leaf_value=0.0013052179662856301 -0.00019854432533057966 -0.00016575962322408461 0.00087433054929604299 0.00029115183091505862 -0.00023563697018786066 -0.0014897679978573631 0.0012219342453580824 -4.3133787661482125e-06 -0.00037518855878691164 9.6279228183272642e-05 0.00019106487349183701 -0.00029092586053925979 0.00057485337977504741 -0.0011065217175915557 0.00033613037454771898 0.00066538603190920077 0.0057953521771921951 -0.00014648420017460674 0.017191516989668497 0.0021046257270380662 0.0030387901959787675 -3.1600285386258437e-05 -0.0011103221246803717 0.011111150338177847 0.0022124119155989626 0.0076366906908581335 0.0078345726668477261 0.00099793358818731168 0.0083331986857151479 0.00050890999692267081
leaf_weight=15304 15501 72231 19459 5464 47153 13043 8509 459344 130708 38047 57988 23031 741 43367 174927 30774 1017 3180 126 464 96 57454 16549 122 2608 183 242 7341 154 304
leaf_count=15304 15501 72231 19459 5464 47153 13043 8509 459344 130708 38047 57988 23031 741 43367 174927 30774 1017 3180 126 464 96 57454 16549 122 2608 183 242 7341 154 304
internal_value=1.7e-08 -1.98463e-05 3.07965e-05 -0.000482139 -2.67318e-06 -0.000507462 0.000637771 2.81063e-05 -7.53752e-06 -0.000227579 0.000435025 7.62308e-05 0.00109213 -0.000950025 0.000263151 0.000375883 0.00314497 0.00125868 0.00153527 0.00502352 0.0110981 -0.000338236 -0.000457839 0.00169288 0.00303947 0.0013804 0.00269181 0.000269711 0.00114943 0.00458271
internal_weight=1.24543e+06 1.22608e+06 1.10502e+06 121062 1.04726e+06 60196 57756 987064 907555 250253 79509 657302 21521 48831 197958 46275 2062 19353 16173 686 222 204711 147257 11481 2972 15487 2850 45542 7495 1321
internal_count=1245431 1226078 1105016 121062 1047260 60196 57756 987064 907555 250253 79509 657302 21521 48831 197958 46275 2062 19353 16173 686 222 204711 147257 11481 2972 15487 2850 45542 7495 1321
is_linear=0
shrinkage=0.05


Tree=17
num_leaves=31
num_cat=0
split_feature=53 39 16 23 17 60 53 18 28 35 61 53 53 55 58 56 28 22 39 53 56 58 58 56 17 58 62 54 17 15
split_gain=11.3353 10.8982 8.38438 6.54951 5.835 5.59336 6.49082 5.40055 4.53863 4.34935 4.358 5.99407 5.74922 3.90657 3.69349 5.13608 3.40513 3.3952 3.35779 3.34379 3.28883 4.31127 4.72566 3.22397 3.06701 3.42808 5.04523 2.99328 2.94024 2.8023
threshold=24.124279868328689 -0.52707985382371259 -0.16129624109465576 0.069484176819560192 0.064747692685289585 0.09232954545454547 23.709376975137779 0.053909894926764533 -0.045045045045045022 1.8022017740227969e-10 0.063508064516129045 23.379134688597478 23.788445995703654 -5.1211788896634989 9.943926216649503 28.954062595768004 -0.021869917780990292 2.9507826084289457 -0.11035229227692943 21.198698738486179 -26.549247309161498 -1.2033970617625001 -0.55470756610749816 32.030493136423011 0.035390161988579409 -317.74352795081143 0.5240998838559815 17.275000000000002 0.026394023179828769 0.1272497990609486
decision_type=10 2 2 10 2 10 10 2 2 2 10 10 10 10 10 10 2 2 2 10 8 10 10 10 2 8 10 8 2 2
left_child=1 14 4 8 -3 -5 20 28 9 10 11 13 24 -4 15 16 -1 29 19 -15 -7 23 -23 -22 -12 26 -26 -20 -2 -11
right_child=7 2 3 5 -6 6 -8 -9 -10 17 12 -13 -14 18 -16 -17 -18 -19 27 -21 21 22 -24 -25 25 -27 -28 -29 -30 -31
leaf_value=0.0011540098652031488 0.00011319553707877218 0.00044655054542393414 -0.00047378196391037637 -0.00090677603832506587 0.0020025209009837315 0.0083696355545532786 -0.00056763735000932639 -0.0014709415365973422 0.00024626812155400699 0.00012051566243118167 0.00018594163967872531 -0.00053367864093466081 -0.00015402935626917998 0.00062384304220598112 0.0025920737071492505 -0.001595122005965229 0.011566576847434442 -0.00095999714538788552 -8.3174912833546721e-05 1.0180707615004577e-05 -0.001015873734737904 0.016556563525332784 0.0033398444379067597 0.0097344898400498394 9.7271257134998604e-06 0.0008259407249329193 0.009784432225982867 -0.00091931268489478697 -0.00055827207793933615 0.00077339805106592342
leaf_weight=13219 22430 33234 54907 32461 7364 232 3893 13020 183958 256093 32761 93812 71062 34351 3942 1849 79 6906 199326 62794 973 72 1159 75 266 26475 264 11313 59574 17567
leaf_count=13219 22430 33234 54907 32461 7364 232 3893 13020 183958 256093 32761 93812 71062 34351 3942 1849 79 6906 199326 62794 973 72 1159 75 266 26475 264 11313 59574 17567
internal_value=1.80248e-08 4.33749e-05 2.338e-05 -2.87627e-06 0.000728913 -0.000640286 0.00070973 -0.000524829 2.06707e-05 -2.71408e-05 -0.000104507 -0.000177424 0.000149888 -8.52632e-05 0.00122811 0.000872797 0.00121633 0.000134798 -1.59372e-05 0.000227227 0.00269207 0.00211156 0.00411822 -0.000240899 0.00051133 0.000905885 0.004889 -0.000128106 -0.000374549 0.000162445
internal_weight=1.24543e+06 1.15041e+06 1.13132e+06 1.09072e+06 40598 38865 6404 95024 1.05186e+06 867897 587331 456503 130828 362691 19089 15147 13298 280566 307784 97145 2511 2279 1231 1048 59766 27005 530 210639 82004 273660
internal_count=1245431 1150407 1131318 1090720 40598 38865 6404 95024 1051855 867897 587331 456503 130828 362691 19089 15147 13298 280566 307784 97145 2511 2279 1231 1048 59766 27005 530 210639 82004 273660
is_linear=0
shrinkage=0.05


Tree=18
num_leaves=31
num_cat=0
split_feature=39 43 23 28 35 39 57 23 35 17 52 35 22 54 58 57 57 54 60 56 44 62 56 49 58 63 57 28 61 58
split_gain=10.1432 8.70497 9.14936 5.33097 5.42612 5.35063 5.03807 4.52487 4.22781 3.9461 3.92168 3.4482 3.36953 2.93461 3.78962 4.38796 2.85207 2.70555 2.68631 2.75828 2.64933 3.29098 3.92791 3.24228 3.04803 2.88459 2.54878 2.50602 2.43982 5.32159
threshold=-0.52707985382371259 -0.36779515956180031 0.069484176819560192 -0.045045045045045022 1.8022017740227969e-10 -0.10637541481012618 0.090000000000000024 0.069484176819560192 2.7579935629751152e-11 0.065641509072153506 7.8850000000000007 1.4845200026605446e-10 2.7764230119870379 0.41250000000000003 43.082664005973506 8.4550000000000036 -23.814999999999994 13.255400000000002 0.32843137254901966 84.598166645449524 0.75108970686885235 0.59878048780487814 32.030493136423011 1.750144595394753 874.64162217193609 0.92450142450142458 -10.904999999999999 -0.020653883722226745 0.89379699248120315 308.268010840204
decision_type=2 2 10 2 2 2 8 8 2 2 8 2 2 10 10 10 8 8 10 8 10 10 10 2 10 10 10 2 8 10
left_child=11 9 3 4 5 7 -5 10 17 -2 -3 13 -6 -1 15 27 -10 -7 19 -11 28 24 -23 -24 -22 -26 -12 -15 29 -4
right_child=1 2 20 6 12 8 -8 -9 16 18 26 -13 -14 14 -16 -17 -18 -19 -20 -21 21 22 23 -25 25 -27 -28 -29 -30 -31
leaf_value=-0.0031507339063757949 0.00044001507524715967 0.00045504154821442286 0.00037624146537770873 -7.459285477877358e-05 0.00014781047499504306 -0.00048256251133201727 0.00043315826300245619 0.00057094131518216915 -0.0013461148646107066 0.0016702084268389265 -0.00083758301144809901 0.0022653516191212609 -0.00087263285328380942 0.00095074801100850093 0.0044289871907569741 -0.001882794650833605 -0.0001642599503116243 -0.0014140502328498364 0.0050241279708487345 -0.0020974604931544598 -0.0021815129649103968 -0.0012086639790676221 0.00047959914292535291 0.0063080379395754312 0.01394971320794358 0.00010569738130901136 -9.2295615815763857e-05 0.010950178707888565 -0.00068516496594560967 0.012362079125631711
leaf_weight=468 22633 31065 3604 83953 280059 38714 116806 38757 5167 8232 13053 5011 8329 11619 711 1481 431734 9773 560 515 7391 3123 807 340 55 121 94907 63 26285 95
leaf_count=468 22633 31065 3604 83953 280059 38714 116806 38757 5167 8232 13053 5011 8329 11619 711 1481 431734 9773 560 515 7391 3123 807 340 55 121 94907 63 26285 95
internal_value=1.85663e-08 -1.79047e-05 -3.96976e-05 -1.33268e-05 -6.27287e-05 -0.000141468 0.000220803 9.31836e-05 -0.000227424 0.000796705 -3.99687e-05 0.00113577 0.000118321 0.000740741 0.000872391 0.000679869 -0.000178249 -0.000670418 0.00166356 0.00144779 -0.000766184 -0.00139981 -0.000288595 0.00221205 -0.00202619 0.00446581 -0.000182452 0.0010052 -0.000515873 0.000685747
internal_weight=1.24543e+06 1.22608e+06 1.19414e+06 1.15232e+06 951558 663170 200759 177782 485388 31940 139025 19353 288388 14342 13874 13163 436901 48487 9307 8747 41821 11837 4270 1147 7567 176 107960 11682 29984 3699
internal_count=1245431 1226078 1194138 1152317 951558 663170 200759 177782 485388 31940 139025 19353 288388 14342 13874 13163 436901 48487 9307 8747 41821 11837 4270 1147 7567 176 107960 11682 29984 3699
is_linear=0
shrinkage=0.05


Tree=19
num_leaves=31
num_cat=0
split_feature=39 35 24 43 32 35 23 43 18 57 52 34 58 55 23 59 55 39 5 58 48 54 18 55 58 18 58 54 1 17
split_gain=9.21306 9.93833 6.19394 5.9223 5.83253 5.80974 5.48711 5.05099 4.51526 4.01335 4.00041 3.50049 3.34861 3.98172 3.27796 6.0092 3.04276 5.16046 4.65031 3.13332 3.07753 2.95516 3.56134 2.90282 3.03692 3.38617 3.24825 3.21375 2.96918 2.88907
threshold=-0.12249425107495553 2.7579935629751152e-11 0.94166666666666676 -0.3882547450252144 0.014915871974152471 4.0043896140973081e-10 1.0000000180025095e-35 -0.087949073933446573 0.063798669124938104 -3.8649999999999993 4.4350000000000014 -0.0057351717289502507 20.219406792905502 20.133389263461002 0.1041747191292305 39.904933643052509 20.133389263461002 -0.47718988358056774 0.18937835902230796 -317.74352795081143 17.567569217908304 -14.924999999999999 0.019592301337117382 9.4659504588075016 9.3747087579015016 0.040703549364326339 9.943926216649503 -2.3980999999999995 -0.41515223132778628 0.019750682276845764
decision_type=2 2 10 2 2 2 10 2 2 8 8 2 10 10 10 10 10 2 2 8 2 10 2 8 10 2 10 10 2 2
left_child=3 14 5 8 -4 7 23 29 21 16 -11 -9 13 -12 -2 -16 19 -18 -19 20 -8 -1 -23 24 27 -26 -27 28 -5 -3
right_child=1 2 4 6 -6 -7 9 11 -10 10 12 -13 -14 -15 15 -17 17 18 -20 -21 -22 22 -24 -25 25 26 -28 -29 -30 -31
leaf_value=0.0038070051054808459 -0.00057317599627026842 0.00034855619198629153 -0.00030028017771773223 0.00091118510288750636 -0.0016335927937062842 0.00041724880485977356 0.0011731922262169783 -0.00068350032686027764 0.0031100072910473769 0.001016756674737183 9.6580527827122965e-05 0.00020870348683772329 0.00069402362240896778 -0.001335386485384139 -0.0025034086323929266 0.013189968856684442 0.0067498342524652671 -0.00068528058980731543 0.0056618699926870844 -0.00039038998989385367 0.0093152220050905753 -0.010731539914489614 0.00065794627243414032 1.3199499888187554e-05 0.00062640784958545607 0.011091647330480592 0.0025525701792916342 0.00062097327080647396 0.01021045390731313 -0.00014662148754686621
leaf_weight=765 65861 31258 49160 177 9849 78283 488 11583 2730 14471 111113 215230 23028 5076 3183 62 389 1617 351 52631 153 69 9309 12260 3270 115 3857 29399 169 509525
leaf_count=765 65861 31258 49160 177 9849 78283 488 11583 2730 14471 111113 215230 23028 5076 3183 62 389 1617 351 52631 153 69 9309 12260 3270 115 3857 29399 169 509525
internal_value=1.82173e-08 -7.17685e-05 -2.76251e-05 0.000257628 -0.000522906 6.92017e-06 0.000205493 -3.49206e-05 0.0013044 9.37413e-05 0.000225479 0.000163118 0.000143193 3.39774e-05 -0.000649718 -0.00220163 -0.000270125 0.00148745 0.000444447 -0.000347984 0.00312556 0.000817904 0.0005735 0.000680374 0.000901384 0.00181999 0.00280133 0.000677557 0.0054694 -0.00011799
internal_weight=1.24543e+06 973994 904888 271437 59009 845879 258564 767596 12873 209317 153688 226813 139217 116189 69106 3245 55629 2357 1968 53272 641 10143 9378 49247 36987 7242 3972 29745 346 540783
internal_count=1245431 973994 904888 271437 59009 845879 258564 767596 12873 209317 153688 226813 139217 116189 69106 3245 55629 2357 1968 53272 641 10143 9378 49247 36987 7242 3972 29745 346 540783
is_linear=0
shrinkage=0.05


Tree=20
num_leaves=31
num_cat=0
split_feature=39 16 23 17 28 57 35 39 35 52 58 56 28 28 57 56 23 54 20 56 57 7 47 59 57 57 28 59 16 61
split_gain=8.78804 7.96881 7.37763 5.67339 4.81125 4.55903 4.17628 3.76325 3.55626 3.74198 3.1643 4.34897 2.96474 2.8841 2.75877 2.75845 2.72168 2.69903 2.7833 2.6568 4.34428 4.03859 3.00821 2.66166 2.60476 2.55506 2.66227 2.49345 2.42448 2.37157
threshold=-0.52707985382371259 -0.1443660403935296 0.046291324697275246 0.057471115323161272 -0.045045045045045022 0.090000000000000024 1.8422532457138233e-10 -0.10637541481012618 1.5902251415620287e-11 8.2350000000000012 9.943926216649503 28.954062595768004 -0.15608140224862213 -0.020653883722226745 -23.814999999999994 26.472675965772506 0.046291324697275246 -30.269999999999996 42.701575946100739 41.916425030946506 -2.5485999999999995 1.0075496012715897 -0.016319472541963108 13.101991799478503 -3.8649999999999993 35.830000000000005 -0.16500904981160314 -11.403438694940499 0.24044372934564706 0.85825892857142871
decision_type=2 2 10 2 2 8 2 2 2 8 10 8 2 2 8 10 8 10 2 8 8 2 2 10 8 10 2 10 2 8
left_child=10 3 4 24 6 -6 7 16 -4 12 11 13 -10 15 -9 -1 29 18 -5 -11 21 22 -21 -24 -2 -8 -27 -12 -13 -3
right_child=1 2 8 17 5 -7 25 14 9 19 27 28 -14 -15 -16 -17 -18 -19 -20 20 -22 -23 23 -25 -26 26 -28 -29 -30 -31
leaf_value=0.00092813189157409418 -0.0003675064358961315 0.00045750853475758974 -0.0017428795154059464 0.0029784394868343448 -7.067345487594818e-05 0.00041595745513607586 8.5170148223048933e-05 -0.0012923392171921486 0.001656064653804014 -0.00067127040498857454 0.01161592911035556 -0.0020737777074097039 -8.2491920519222323e-05 0.012187658970704476 -0.00019166345311928017 0.0070309208287644073 0.00045419842830732646 0.0011699000858316911 0.012015402942009352 -0.0002396052558736592 -9.2288456607920061e-05 -0.0073409534417469922 0.0085673837321356867 -0.0015893160243991133 0.00048002864013767742 -0.0019718257416904651 0.0016893402834480928 0.0021490253255787403 0.0029540658940196644 -0.00013141673802202143
leaf_weight=13093 12400 20412 5298 958 82663 115157 258417 5768 3402 60341 71 1791 8765 58 447140 188 36629 15102 94 196 9210 73 427 75 33663 562 4190 3876 276 105136
leaf_count=13093 12400 20412 5298 958 82663 115157 258417 5768 3402 60341 71 1791 8765 58 447140 188 36629 15102 94 196 9210 73 427 75 33663 562 4190 3876 276 105136
internal_value=1.9529e-08 -1.66632e-05 -4.61394e-05 0.00053465 -1.01786e-05 0.000212584 -6.03598e-05 -0.000131682 -0.000486882 -0.00040615 0.00105718 0.000733087 0.000403222 0.001064 -0.000205692 0.00101495 7.49733e-05 0.00134097 0.00379174 -0.000546258 0.000209013 0.00381424 0.00498895 0.00703998 0.000251766 0.000106318 0.00125526 0.00232088 -0.0013999 -3.56272e-05
internal_weight=1.24543e+06 1.22608e+06 1.16386e+06 62217 1.07607e+06 197820 878254 615085 87787 82489 19353 15406 12167 13339 452908 13281 162177 16154 1052 70322 9981 771 698 502 46063 263169 4752 3947 2067 125548
internal_count=1245431 1226078 1163861 62217 1076074 197820 878254 615085 87787 82489 19353 15406 12167 13339 452908 13281 162177 16154 1052 70322 9981 771 698 502 46063 263169 4752 3947 2067 125548
is_linear=0
shrinkage=0.05


Tree=21
num_leaves=31
num_cat=0
split_feature=53 39 43 24 56 35 39 17 53 61 53 53 6 0 7 51 35 20 56 6 62 59 54 52 17 52 53 56 7 56
split_gain=9.89679 7.76717 6.25352 6.28648 5.00506 4.2609 4.49396 4.19671 4.14498 5.05443 5.8541 4.73102 4.12059 3.43281 3.3197 3.03148 2.95784 2.94207 2.79749 3.47157 4.88715 3.26401 2.79449 2.7895 2.70294 2.5871 3.18755 2.54764 2.54256 3.76463
threshold=24.393894080288646 -0.52707985382371259 -0.33941531749342752 0.94166666666666676 112.54080392508901 2.7579935629751152e-11 -0.11752021881297479 0.05895481883321773 21.843636536707653 0.73606811145510853 23.615743353466492 23.215830336336772 0.50000000000000022 57.368334739928478 0.66815231603401071 12.865 1.4146507896858504e-10 36.097306932974448 28.954062595768004 0.52941176470588247 0.77346041055718484 4.5249400134675009 0.41250000000000003 1.9450000000000001 0.031753851663408043 2.5450000000000004 21.756144058120913 25.528928507906503 0.47407579790918508 5.9262788038365004
decision_type=10 2 2 10 10 2 2 2 10 8 8 8 2 2 2 8 2 2 8 2 8 8 10 10 2 10 8 10 2 10
left_child=1 16 7 4 5 6 -4 -3 18 10 12 13 24 -11 -5 -15 22 -9 -7 -20 -21 -22 -1 27 -10 26 -19 -2 -13 -30
right_child=23 2 3 14 -6 8 -8 17 9 11 -12 28 -14 15 -16 -17 -18 25 19 20 21 -23 -24 -25 -26 -27 -28 -29 29 -31
leaf_value=-0.0033923093701437451 -0.00077900572526296171 0.00019623194111096869 0.0003065043275820422 -0.00033787486927194929 0.00061670919681284381 0.00022677620546177795 -0.00060608807619671285 0.00083085430128715463 0.0003483144531292241 -4.2422974246006556e-05 8.870609296442926e-05 -0.00014725989802169748 0.008105372650992048 0.0090869023487582783 -0.0013144609735924453 0.00029088705673007266 0.0020118897644216755 0.0054734488562451708 0.00091801958083402048 0.00011524197427161016 0.015665909558598781 0.0035408954472384521 0.0007564028069451447 -0.0015043346663343035 0.0013210045381488811 0.0071103537647789917 0.0013566298267234536 0.00078973662259730789 -0.0007987428555433617 -4.4478036161112987e-05
leaf_weight=418 15321 31209 17959 56570 33098 110290 54138 15201 13929 386363 99878 180188 197 98 10291 89849 5391 563 8496 223 132 98 13491 11599 14696 271 2895 3111 42259 27209
leaf_count=418 15321 31209 17959 56570 33098 110290 54138 15201 13929 386363 99878 180188 197 98 10291 89849 5391 563 8496 223 132 98 13491 11599 14696 271 2895 3111 42259 27209
internal_value=1.91497e-08 2.21787e-05 6.11853e-06 -1.77912e-05 1.13547e-05 -7.79547e-06 -0.000378696 0.000552691 1.96568e-05 -1.88664e-05 0.000269912 -7.00682e-05 0.000897675 2.23314e-05 -0.000488264 0.000300536 0.00101723 0.0011401 0.00029582 0.00114616 0.0054128 0.0105251 0.000631341 -0.000896644 0.000847869 0.00239932 0.00202848 -0.000513955 -0.000246374 -0.000503387
internal_weight=1.24543e+06 1.2154e+06 1.1961e+06 1.14596e+06 1.0791e+06 1.046e+06 72097 50139 973905 854666 128700 725966 28822 476310 66861 89947 19300 18930 119239 8949 453 230 13909 30031 28625 3729 3458 18432 249656 69468
internal_count=1245431 1215400 1196100 1145961 1079100 1046002 72097 50139 973905 854666 128700 725966 28822 476310 66861 89947 19300 18930 119239 8949 453 230 13909 30031 28625 3729 3458 18432 249656 69468
is_linear=0
shrinkage=0.05


Tree=22
num_leaves=31
num_cat=0
split_feature=39 35 28 35 23 57 57 18 55 28 61 56 58 39 56 58 55 23 17 58 59 22 55 56 56 55 5 39 58 61
split_gain=7.15757 7.95859 6.02317 5.22871 4.56742 3.9627 3.94111 3.69111 4.01601 3.8712 3.49033 3.22424 2.9572 3.11811 2.9567 2.95278 3.77139 2.94792 2.91257 2.91019 2.87605 2.80461 2.68745 2.7323 3.2239 2.53071 4.0231 3.72798 2.4976 2.45788
threshold=-0.12249425107495553 2.6751773652782034e-11 -0.047029702970296954 3.9134738449309822e-10 0.088415528010479166 -3.8649999999999993 -1.0672999999999997 0.044274663358695489 2.8748498368490005 -0.173552866501375 0.85825892857142871 17.228246149223505 9.3747087579015016 -0.99550725809139851 139.27732875678302 20.219406792905502 20.133389263461002 0.040708365043144533 0.072736575074680732 -139.32816152399698 14.158069846495502 3.4673106323336804 18.906656560825002 24.669738650773503 5.6167800408465007 20.133389263461002 0.18937835902230796 -0.47718988358056774 7.3363437332450001 0.71651785714285732
decision_type=2 2 2 2 8 8 8 2 10 2 8 10 10 2 10 10 10 10 2 10 10 2 10 10 8 10 2 2 8 8
left_child=4 14 3 7 5 19 -4 -3 9 -9 11 -7 20 18 17 16 -12 -2 -14 -1 22 -5 23 24 -6 -21 27 -27 -13 -16
right_child=1 2 6 21 12 10 -8 8 -10 -11 15 28 13 -15 29 -17 -18 -19 -20 25 -22 -23 -24 -25 -26 26 -28 -29 -30 -31
leaf_value=0.0014964911756848922 -0.0004811069266856666 -6.4477329594212572e-05 -8.6024837212441262e-05 0.00035788769585497578 0.00070972046439218308 0.00064199705198471162 0.00040114408466520489 6.0237496514692912e-05 -2.8347647607715709e-05 -0.00068766198613739744 0.00013569655852468154 0.0046453081805712783 0.0020041287642870694 0.0010287100630075364 0.0076807564891264854 0.00068535051839189098 -0.0012142796330802709 -0.0013167401786947873 0.0070496239607206529 -0.00037654157033560035 0.0038418073910675256 -0.0015897137288345587 -0.0014277953653953942 0.0020310292901640835 -0.00025680750868833192 0.0054709263184984777 0.0061544610931549325 -0.00059312379037445022 0.0014066177469100668 0.00077894612482340365
leaf_weight=2331 49699 482810 63674 72320 23788 12561 119208 21932 65135 81749 114424 937 925 11638 138 23713 5418 13415 417 52712 609 1896 1958 2617 13528 303 364 1543 1651 2018
leaf_count=2331 49699 482810 63674 72320 23788 12561 119208 21932 65135 81749 114424 937 925 11638 138 23713 5418 13415 417 52712 609 1896 1958 2617 13528 303 364 1543 1651 2018
internal_value=2.04017e-08 -6.32531e-05 -2.49427e-05 -8.95624e-05 0.000227082 0.000123096 0.000231499 -0.000134857 -0.000336112 -0.000529408 0.000251754 0.00097364 0.00063176 0.00129249 -0.000596553 0.00017554 7.46221e-05 -0.000658803 0.00357605 -0.000233455 0.000429845 0.000308063 0.000380115 0.000468889 0.000359196 -0.000306971 0.00135009 0.000399755 0.00258127 0.00122337
internal_weight=1.24543e+06 973994 908724 725842 271437 215957 182882 651626 168816 103681 158704 15149 55480 12980 65270 143555 119842 63114 1342 57253 42500 74216 41891 39933 37316 54922 2210 1846 2588 2156
internal_count=1245431 973994 908724 725842 271437 215957 182882 651626 168816 103681 158704 15149 55480 12980 65270 143555 119842 63114 1342 57253 42500 74216 41891 39933 37316 54922 2210 1846 2588 2156
is_linear=0
shrinkage=0.05


Tree=23
num_leaves=31
num_cat=0
split_feature=15 23 39 17 58 28 57 35 55 55 56 57 1 57 35 57 45 31 57 23 59 35 17 20 15 56 1 28 16 17
split_gain=6.97483 6.30987 5.95245 5.85018 4.52963 4.4805 3.92124 3.51162 3.57773 3.94002 5.50577 4.25123 6.33926 3.95286 3.39808 3.38003 3.36792 3.05875 3.04034 2.85359 4.80685 4.46556 4.15295 2.57221 2.53552 2.52711 2.94436 2.63631 4.73138 2.79226
threshold=-0.14094974879625413 0.077238599584151149 -0.59719709209950866 0.058425550315476596 78.921608680064509 -0.047029702970296954 6.4604500000000007 6.6372271909207382e-11 -7.213112215849999 18.906656560825002 33.450611126044009 -0.40999999999999975 1.3800081909731807 0.43999999999999967 2.622484611980257e-10 -1.1458999999999997 1.9714687583210377 0.017629894513430392 -3.8649999999999993 0.0050606123591077678 -7.7762428664094996 1.2040033071241699e-11 0.072736575074680732 42.701575946100739 0.36957899659481469 14.19057120597 4.3299133565903487 -0.26932177612734076 0.047063603569765182 0.058425550315476596
decision_type=2 10 2 2 10 2 8 2 10 10 8 8 2 10 2 8 2 2 8 10 10 2 2 2 2 10 2 2 2 2
left_child=3 2 6 18 5 7 14 8 -4 10 -10 12 -11 -12 25 -7 -9 -5 -1 20 21 -15 -22 -23 -16 26 27 28 -2 -29
right_child=1 -3 4 17 -6 15 -8 16 9 11 13 -13 -14 19 24 -17 -18 -19 -20 -21 22 23 -24 -25 -26 -27 -28 29 -30 -31
leaf_value=-0.00036541722455909147 0 -0.0006933762015643853 -0.00092681538922122046 0.00080043791903720461 0.0003184130910486837 -0.00011239584420321245 -0.00064233015675497639 -1.7278385033537276e-05 -0.00022712084148441086 -0.00064566486856515925 0.001904466873506705 -0.0016928514437701766 0.004616419571041688 -0.0019612058468994522 0.0054414034314322771 0.00030880603492505396 -0.00079950382075372976 0.0021873657258096976 0.00041709423048933396 -0.00034144176726031951 0.0014892763130000591 0.0071301194386646175 -0.004529115115498793 0.018147026443266163 -0.0016429911475285266 0.002501151195215782 -0.008513640918599661 0.0013018913466302513 0.017131916176390639 -0.001139131322237884
leaf_weight=16807 98 34946 18694 13617 89234 74841 2599 554988 204112 3174 5031 8588 698 103 821 130934 14111 5627 47430 7273 2304 191 327 75 148 2708 86 4171 68 1627
leaf_count=16807 98 34946 18694 13617 89234 74841 2599 554988 204112 3174 5031 8588 698 103 821 130934 14111 5627 47430 7273 2304 191 327 75 148 2708 86 4171 68 1627
internal_value=2.07406e-08 -3.16912e-05 -1.11692e-05 0.00044147 -2.32571e-05 -5.29941e-05 0.00108156 -0.000105364 -0.000261335 -0.000207662 -0.000158519 -0.00107263 0.000301727 0.000756098 0.00154269 0.000155589 -3.66828e-05 0.00120625 0.000212279 0.000193207 0.00149101 0.00683611 0.000739222 0.0102608 0.00435415 0.00123101 0.000661634 0.000794919 0.00700867 0.000616036
internal_weight=1.24543e+06 1.16195e+06 1.127e+06 83481 1.11468e+06 1.02544e+06 12326 819669 250570 231876 219416 12460 3872 15304 9727 205775 569099 19244 64237 10273 3000 369 2631 266 969 8758 6050 5964 166 5798
internal_count=1245431 1161950 1127004 83481 1114678 1025444 12326 819669 250570 231876 219416 12460 3872 15304 9727 205775 569099 19244 64237 10273 3000 369 2631 266 969 8758 6050 5964 166 5798
is_linear=0
shrinkage=0.05


Tree=24
num_leaves=31
num_cat=0
split_feature=53 53 43 24 52 53 53 17 39 62 15 39 18 18 56 15 53 55 26 20 39 58 18 59 19 34 47 55 58 17
split_gain=8.59713 6.68506 5.3418 4.86413 4.11692 10.7768 6.80872 4.29262 3.94956 4.36538 3.98156 3.47222 3.10274 2.96813 3.07692 4.03103 3.36619 3.0884 2.98668 3.05255 3.94283 2.92275 2.85895 2.8573 2.83553 2.86859 2.76013 2.72179 3.98825 3.93153
threshold=24.393894080288646 21.843636536707653 -0.28666666666666663 0.94166666666666676 16.445000000000004 23.625959018021202 23.379134688597478 0.054500913982607944 -0.33273321817792101 0.31311274509803927 0.071424948759356247 -0.057000764826795274 0.044274663358695489 0.077817512931654551 33.450611126044009 0.20168305102996678 21.787629281885323 16.449510737326502 -0.76114117273141313 47.501431961712548 -0.12426832229493566 236.33924887896805 0.064615823683325094 4.5249400134675009 -69.811320754717073 -0.0031964622624158522 0.17696519156963661 4.9583407269700013 40.677610794099508 0.048877661642111749
decision_type=10 10 2 10 8 10 10 2 2 10 2 2 2 2 8 2 8 10 2 2 2 10 2 8 2 2 2 10 10 2
left_child=1 2 -1 4 5 7 24 -3 10 -10 -4 -7 -13 14 -11 17 -17 -16 -15 23 -21 26 -2 -20 -6 -26 -9 28 29 -18
right_child=22 3 8 -5 6 11 -8 21 9 13 -12 12 -14 18 15 16 27 -19 19 20 -22 -23 -24 -25 25 -27 -28 -29 -30 -31
leaf_value=0.00097979185994636351 -0.00068852483955184833 0.00067210803986259601 0.00031770704123008583 -0.00044622862245608235 -0.00012404983527241443 0.00026667643818417463 -0.00037748214593618295 0.0021982564412454421 0.00060226490915766498 -0.00010081444256686353 0.0017217451168342276 -5.2872257718832431e-05 -0.00075517515609589388 -0.0047659102695324388 0.0010432484816212016 0.013634356616086649 -0.00068082381726299415 -0.00084982772621932864 -0.00078680528769746938 0.0088508697461034923 -0.00040455859769169834 0.0083651790657866855 -0.0024564430673645905 -0.006472267138631015 -0.00020861745658567931 0.00016597118733305204 -0.003282639340392145 0.0012631459531283701 -0.00091055651528627142 0.014922387097614856
leaf_weight=24524 27534 44194 14348 65783 228269 74467 137283 4985 33020 100242 7801 89050 19105 624 6804 77 54 3150 950 164 382 184 2497 289 61739 296601 240 808 110 153
leaf_count=24524 27534 44194 14348 65783 228269 74467 137283 4985 33020 100242 7801 89050 19105 624 6804 77 54 3150 950 164 382 184 2497 289 61739 296601 240 808 110 153
internal_value=1.91572e-08 2.06728e-05 0.000290155 -3.03497e-05 -1.73099e-06 0.000181446 -6.05011e-05 0.000835 0.000190036 9.61102e-05 0.000812448 3.90229e-06 -0.000176977 -5.07022e-05 -1.31065e-05 0.000774537 0.0035101 0.000443669 -0.00178707 -0.00074272 0.00236742 0.00216494 -0.000835697 -0.0021174 1.36729e-05 0.000101419 0.00194549 0.00281156 0.00674088 0.0108295
internal_weight=1.24543e+06 1.2154e+06 193500 1.0219e+06 956117 232225 723892 49603 168976 146827 22149 182622 108155 113807 111398 11156 1202 9954 2409 1785 546 5409 30031 1239 586609 358340 5225 1125 317 207
internal_count=1245431 1215400 193500 1021900 956117 232225 723892 49603 168976 146827 22149 182622 108155 113807 111398 11156 1202 9954 2409 1785 546 5409 30031 1239 586609 358340 5225 1125 317 207
is_linear=0
shrinkage=0.05


Tree=25
num_leaves=31
num_cat=0
split_feature=53 53 61 53 53 43 40 44 58 52 56 35 26 35 22 0 32 54 35 59 28 55 18 59 55 56 50 18 7 59
split_gain=7.82769 5.85604 5.42467 8.3107 5.75301 4.83495 4.56079 3.98162 4.17128 3.67978 3.38297 6.40152 4.34191 3.31001 3.2291 3.29362 3.0453 2.82636 3.71194 2.82121 3.30664 2.81377 2.78452 2.77624 2.87182 3.36844 6.33576 2.62252 2.57469 2.50738
threshold=24.320878544896047 21.843636536707653 0.93440860215053767 23.625959018021202 23.379134688597478 -0.2994494670026584 0.20501357272924786 0.36414635425544467 1406.2943357045697 1.0750000000000004 37.79234072108801 1.7573176866280255e-09 -0.7050867072714232 3.3542528764311636e-11 2.5170317803319926 60.805827261151215 0.012493306145332886 10.375000000000002 1.2040033071241699e-11 10.124201000322003 -0.15897160483626646 5.9812879706535016 0.064615823683325094 -5.9091812874224985 -5.2553433899459998 -83.607823229578486 0.39734606426314656 0.066437716921119591 0.17790725868737228 8.9812025532285009
decision_type=10 10 8 10 10 2 2 8 10 10 8 2 2 2 2 2 2 10 2 10 2 10 2 8 10 10 2 2 2 8
left_child=1 5 3 6 9 -1 -3 13 10 14 17 12 -12 -7 15 -4 -16 23 -19 20 -14 27 -2 -9 -25 26 -26 -17 -5 -22
right_child=22 2 4 28 -6 7 -8 8 -10 -11 11 -13 19 -15 16 21 -18 18 -20 -21 29 -23 -24 24 25 -27 -28 -29 -30 -31
leaf_value=0.00099398658982161937 -0.00054622306032481012 0.00053788029667244477 -3.5230656561059968e-05 0.0006043664241872879 -0.00031713392452966711 -0.00030815260973507765 0.0017394122150183506 0.0018719313089222312 0.011371585867215872 0.001824923012737486 -0.0016783018301369306 0.014070901378683127 -0.00033397749386954769 0.00022786984790070577 -0.00026119439553951148 0.00027910667512287237 -0.0015945823508621421 -0.0034747693430495653 2.0765010813507078e-05 -0.00021480287277055059 0.0037338195620674579 0.00093117767152975416 -0.0020454730849928057 -0.0012314716467332308 0.020518786235761321 0.00059118244514970767 0.0024751472707896793 -0.00082789802285118035 -4.6536591310214649e-05 0.010793425196687322
leaf_weight=20898 39485 33271 532317 17325 194525 40583 10366 4359 91 2732 775 107 496 99171 16808 51539 5752 867 6097 738 1826 15103 3364 2191 59 14825 281 5968 123376 136
leaf_count=20898 39485 33271 532317 17325 194525 40583 10366 4359 91 2732 775 107 496 99171 16808 51539 5752 867 6097 738 1826 15103 3364 2191 59 14825 281 5968 123376 136
internal_value=1.75245e-08 2.36829e-05 -2.46286e-05 0.000220578 -7.94408e-05 0.000275648 0.000823423 0.000188645 0.000684004 -6.06581e-06 0.000654126 0.00200197 0.00167516 7.2179e-05 -1.4046e-05 7.85007e-06 -0.000601388 0.00046229 -0.000413746 0.00248993 0.00330403 0.000323751 -0.000664048 0.000743465 0.000459751 0.000704431 0.00562606 0.000164135 3.35762e-05 0.00422624
internal_weight=1.24543e+06 1.20258e+06 1.00908e+06 184338 824744 193500 43637 172602 32848 630219 32757 4078 3971 139754 627487 604927 22560 28679 6964 3196 2458 72610 42849 21715 17356 15165 340 57507 140701 1962
internal_count=1245431 1202582 1009082 184338 824744 193500 43637 172602 32848 630219 32757 4078 3971 139754 627487 604927 22560 28679 6964 3196 2458 72610 42849 21715 17356 15165 340 57507 140701 1962
is_linear=0
shrinkage=0.05


Tree=26
num_leaves=31
num_cat=0
split_feature=53 16 39 18 24 32 56 54 51 57 34 6 25 54 56 57 53 52 35 59 23 53 39 17 59 56 49 57 55 49
split_gain=7.11728 5.67432 5.0121 4.89503 4.53117 5.17209 3.71548 3.68907 3.39381 3.32598 3.38745 3.49661 3.03723 3.02141 3.17299 2.75569 2.79986 2.5597 2.54095 2.53402 2.46098 2.43258 2.42732 3.18936 2.35584 2.33857 2.38093 2.77326 2.40478 2.26036
threshold=24.393894080288646 -0.1443660403935296 -0.52707985382371259 0.070948625142301366 0.94166666666666676 0.016652320318806351 112.54080392508901 26.870000000000001 53.745000000000012 14.490000000000002 -0.0034944234074610232 0.011830431773826035 1.3786515992590676 22.425000000000004 139.27732875678302 -2.6649499999999997 21.816749370885137 1.9450000000000001 9.2922768095917598e-11 -17.7481251558895 0.034929396769591357 21.582378097412988 -0.081319780187741483 0.037088147054640828 -33.810073069777992 25.528928507906503 2.329608651487669 5.8250000000000002 15.233611803867001 2.8412719864455127
decision_type=10 2 2 2 10 2 10 10 10 10 2 2 2 8 10 8 10 10 2 8 10 10 2 2 10 8 2 10 10 2
left_child=1 3 13 15 6 -6 7 9 -9 10 20 -12 19 14 -3 -1 -17 25 22 -5 -4 24 -13 -24 -11 -2 27 -27 -28 -15
right_child=17 2 4 12 5 -7 -8 8 -10 21 11 18 -14 29 -16 16 -18 -19 -20 -21 -22 -23 23 -25 -26 26 28 -29 -30 -31
leaf_value=-0.00017002724043996886 -0.00064777214931934217 0.00095281989974195882 -0.00010996224668387316 0.0097686259396562933 -0.00026291161359637895 -0.001657087609638363 0.00052584000402503548 -0.0010101591194602111 0.010523452633169485 -0.0047540987098360805 -5.9905743699191528e-05 0.00029139641451885167 -0.0036783764187963484 -0.0016420642570182204 0.0067132870711745177 0.001345777013454903 0.00036779943033198894 -0.0013424629600073343 0.00028211798234172454 0.0023331489562822276 -0.00055121608543712102 0.00037313675666427804 0.00015492957032487372 -0.00037012814411167702 0.0020693682607251184 0.001297732989841999 0 -0.0023649654420521628 0.0092976581709568115 0.0091446484484153986
leaf_weight=16807 15321 15598 127614 119 57929 7518 33232 10522 64 131 489485 52635 204 1478 243 9439 32697 11599 174361 3397 42018 20686 55608 60249 3316 2147 125 680 159 50
leaf_count=16807 15321 15598 127614 119 57929 7518 33232 10522 64 131 489485 52635 204 1478 243 9439 32697 11599 174361 3397 42018 20686 55608 60249 3316 2147 125 680 159 50
internal_value=1.72893e-08 1.88098e-05 -6.37472e-06 0.000482179 -1.92744e-05 -0.000423141 5.42546e-06 -1.12521e-05 -0.000939859 -1.66699e-06 -1.56424e-05 2.58556e-05 0.00224151 0.000836554 0.00104154 0.000371057 0.000587 -0.000760377 0.00014831 0.0025865 -0.000219291 0.000578364 9.81133e-06 -0.000118073 0.00180847 -0.000393802 0.000855321 0.000414895 0.00522014 -0.00128525
internal_weight=1.24543e+06 1.2154e+06 1.15274e+06 62663 1.13537e+06 65447 1.06992e+06 1.03669e+06 10586 1.0261e+06 1.00197e+06 832338 3720 17369 15841 58943 42136 30031 342853 3516 169632 24133 168492 115857 3447 18432 3111 2827 284 1528
internal_count=1245431 1215400 1152737 62663 1135368 65447 1069921 1036689 10586 1026103 1001970 832338 3720 17369 15841 58943 42136 30031 342853 3516 169632 24133 168492 115857 3447 18432 3111 2827 284 1528
is_linear=0
shrinkage=0.05


Tree=27
num_leaves=31
num_cat=0
split_feature=53 60 53 53 39 18 51 40 51 54 53 28 16 57 17 59 18 54 36 57 39 17 36 58 43 53 17 58 52 55
split_gain=6.64351 4.95924 7.2022 6.75263 6.15629 3.91438 3.84522 3.4157 3.23794 4.18274 3.87434 3.15132 3.07173 2.4855 3.00099 2.48347 2.38328 2.35646 2.37315 2.34375 2.39563 2.32213 2.21957 2.40665 2.39264 2.19006 2.70439 3.89364 2.85531 2.47617
threshold=24.099333426990054 0.70185185185185195 23.379134688597478 22.592251339156572 -0.33273321817792101 0.053909894926764533 15.765000000000002 0.20965805046020278 30.275000000000002 26.870000000000001 23.445553974781753 -0.3148915227642608 -0.26119755015504098 23.210000000000004 0.069883802291866678 24.819177970752001 0.023005771138312824 23.425000000000004 0.56453662698252194 5.8250000000000002 -0.078594959460613109 0.027101542736144936 0.41267736652534631 43.082664005973506 -0.1550940023458294 23.798041680292648 0.054122968490531727 -275.24497467051691 5.3350000000000009 2.3304323492170007
decision_type=10 8 10 10 2 2 8 2 10 10 10 2 2 8 2 8 2 8 2 10 2 2 2 10 2 10 2 8 10 10
left_child=1 2 7 4 16 21 -6 -1 10 11 17 -10 -8 15 22 -14 -3 18 -5 20 -7 -2 -15 -24 -25 26 -4 -28 -29 -27
right_child=5 3 25 8 6 19 12 -9 9 -11 -12 -13 13 14 -16 -17 -18 -19 -20 -21 -22 -23 23 24 -26 29 27 28 -30 -31
leaf_value=0.0010172285325998679 0.00012762273402512237 -0.00061231062421072252 0.00036806624885526746 1.7876313997834281e-06 0.013675744972400004 0.00038559168686758951 0.0019777560436347523 0.0029912180293779882 0.0052290975670294983 0.013042018389657677 -0.00037885131213500934 0.00022791663264053226 7.4472469979066028e-05 0.0015228696928488751 -0.0020094222833906788 -0.00072677227028605893 0.0008768533659971405 -0.0010390575425518907 -0.00031678129033876337 -0.0028934672473333034 -0.0012909689661827943 -0.00042764112582107056 -0.00029731565005917005 -1.8911719455364735e-05 0.0024378738691466411 -0.00025788171377965854 0.015301411705382743 0.0004829833146578159 0.0035661936633927765 0.00043984309012671879
leaf_weight=7670 26851 2908 42708 335593 52 2735 2145 3076 317 64 132906 49634 367966 6718 991 9931 34721 6160 70784 1714 9576 62929 5889 1848 2127 33745 53 2013 1202 20405
leaf_count=7670 26851 2908 42708 335593 52 2735 2145 3076 317 64 132906 49634 367966 6718 991 9931 34721 6160 70784 1714 9576 62929 5889 1848 2127 33745 53 2013 1202 20405
internal_value=1.69243e-08 3.48431e-05 0.000352591 6.60088e-07 0.000150344 -0.000382946 9.24886e-05 0.00158276 -0.000108755 0.000276248 -0.000144067 0.000259766 9.06962e-05 8.04477e-05 0.000661749 5.34026e-05 0.000761635 -6.84153e-05 -5.36894e-05 -0.00115989 -0.0009181 -0.00026152 0.000821701 0.000343643 0.00129447 0.000220511 0.000474293 0.00186093 0.00163734 4.94548e-06
internal_weight=1.24543e+06 1.14163e+06 110872 1.03075e+06 435296 103805 397667 10746 595458 50015 545443 49951 397615 395470 17573 377897 37629 412537 406377 14025 12311 89780 16582 9864 3975 100126 45976 3268 3215 54150
internal_count=1245431 1141626 110872 1030754 435296 103805 397667 10746 595458 50015 545443 49951 397615 395470 17573 377897 37629 412537 406377 14025 12311 89780 16582 9864 3975 100126 45976 3268 3215 54150
is_linear=0
shrinkage=0.05


Tree=28
num_leaves=31
num_cat=0
split_feature=53 39 32 53 52 53 28 55 58 57 54 53 55 35 57 35 22 17 56 58 18 55 39 19 5 55 47 18 59 17
split_gain=6.01884 4.81865 5.58059 5.07955 6.21396 4.49958 3.85826 3.333 3.3891 3.31636 3.21265 3.17705 3.45679 3.63228 3.13527 2.98729 2.92433 2.78327 2.68451 2.77235 4.58116 3.44735 3.36117 2.50928 2.49701 5.08688 2.41783 2.35863 2.30509 2.60743
threshold=24.393894080288646 -0.1025502657472651 0.011685713361170866 21.529994789395207 8.3950000000000014 23.332155792339943 -0.045045045045045022 4.7865515850725009 -209.54351474081648 0.53499999999999981 -10.499999999999998 20.959253481853462 2.8137407652080006 1.0496099861148013e-11 -2.5485999999999995 5.0471715770506479e-10 1.6736267750891067 0.074505144568977152 -338.81648433587992 9.3747087579015016 0.041305942619876961 -3.5956263452539994 -0.24878756148674971 -52.173913043478059 0.20931386120339626 7.5302600559755009 0.13708298456345847 0.073927983211627177 8.3100546833165012 0.072736575074680732
decision_type=10 2 2 10 8 10 2 10 10 8 8 10 10 2 10 2 2 2 8 10 2 10 2 2 2 10 2 2 10 2
left_child=1 3 6 18 5 7 15 -5 -9 -8 11 12 13 -4 24 -3 17 -12 -1 -20 -21 22 -22 -15 -6 -26 -27 -2 -23 -30
right_child=27 2 10 4 14 -7 9 8 -10 -11 16 -13 -14 23 -16 -17 -18 -19 19 20 21 28 -24 -25 25 26 -28 -29 29 -31
leaf_value=0.0061057312534695558 -0.00060567050708701148 -7.6474709369454006e-05 -0.0053242229243204639 0.0012099939641739719 -0.00039071587224683631 0.00047367156251379309 -2.3335439170764129e-07 0.016613366064751542 0.0037956155464876143 0.00046216762492334369 -0.0002061922516565038 0.00033287729047909198 -0.00028235475950470789 0.00041625278742609556 9.1377027560012936e-05 0.00039757596485769878 -0.00086219594298794821 -0.0012529051280889515 0.00037398908584435986 0.00015910548920993535 0.0070537506389433098 0.002230801602683144 0.00017751940232526594 0.010438342269711137 -0.0007722537949014348 0.0012869262644661919 0.0061237233790973076 -0.002803758858361996 -7.9099773834606239e-05 0.0047883955269100963
leaf_weight=218 28755 551830 55 2515 59576 38490 77013 54 1244 78055 99229 6643 306 80 161243 35360 26326 6788 52360 6713 582 4905 258 303 1346 487 558 1276 2555 308
leaf_count=218 28755 551830 55 2515 59576 38490 77013 54 1244 78055 99229 6643 306 80 161243 35360 26326 6788 52360 6713 582 4905 258 303 1346 487 558 1276 2555 308
internal_value=1.74977e-08 1.72995e-05 -4.39074e-05 0.000179227 8.05135e-05 0.000636143 1.06551e-05 0.00227483 0.00433396 0.000232489 -0.000333784 0.000680747 0.00377961 0.00662826 -2.47678e-05 -4.79193e-05 -0.00039045 -0.000273259 0.000565165 0.000547236 0.00113898 0.00190255 0.00494799 0.00835866 -0.000327066 0.00125674 0.00387476 -0.000699242 0.00157252 0.000442945
internal_weight=1.24543e+06 1.2154e+06 881988 333412 265513 42303 742258 3813 1298 155068 139730 7387 744 438 223210 587190 132343 106017 67899 67681 15321 8608 840 383 61967 2391 1045 30031 7768 2863
internal_count=1245431 1215400 881988 333412 265513 42303 742258 3813 1298 155068 139730 7387 744 438 223210 587190 132343 106017 67899 67681 15321 8608 840 383 61967 2391 1045 30031 7768 2863
is_linear=0
shrinkage=0.05


Tree=29
num_leaves=31
num_cat=0
split_feature=43 53 24 18 56 32 54 39 57 28 16 16 52 39 35 35 23 56 53 55 18 55 57 54 59 18 35 59 29 23
split_gain=5.82255 5.79279 4.27915 4.20425 4.07247 3.83265 3.33858 3.43754 3.44247 4.20677 4.65195 3.44425 3.18333 2.88002 3.37118 2.96351 2.78641 2.63793 2.75301 2.63706 2.56306 3.21942 3.96296 3.12127 2.56017 3.23755 3.61768 3.36405 2.54739 2.52364
threshold=-0.36779515956180031 24.320878544896047 0.95833333333333337 0.064615823683325094 112.54080392508901 0.012979669283789139 21.415000000000003 -0.59719709209950866 -3.8649999999999993 -0.031239392396469761 -0.11716148715009227 0.09884891435887487 0.99500000000000011 -0.11752021881297479 2.2387903209514904e-11 5.0471715770506479e-10 0.088415528010479166 36.18043530342451 22.235323056157771 17.924161889043003 0.042405423085817247 2.8748498368490005 0.030000000000000696 10.615 3.4350576729320008 0.060105192425461126 1.9027613183222247e-10 3.3361591624615001 0.40811843562541378 0.038076896218539609
decision_type=2 10 10 2 10 2 10 2 8 2 2 2 8 2 2 2 10 10 8 10 2 10 8 10 8 2 2 10 2 10
left_child=3 2 4 -1 6 -4 7 -2 11 10 -10 29 -8 -12 -15 20 17 18 -13 -14 -16 -22 23 24 25 -23 27 -27 -17 -9
right_child=1 -3 5 -5 -6 -7 12 8 9 -11 13 16 19 14 15 28 -18 -19 -20 -21 21 22 -24 -25 -26 26 -28 -29 -30 -31
leaf_value=0.00042027550727335891 0.00086920540168929864 -0.00059325325682159499 -0.00022015859870072241 0.002015279841755127 0.00055869469291258971 -0.001298697833809365 0.01121719244463066 -0.00018582095850989435 0.00047632584852296201 0.00048745937946028246 0.0002026566191195717 0.0018812253700459019 -0.00033098355750832409 -0.00068566916887361081 4.9482599000993827e-06 0.00033486149426979707 -0.0013006540048019753 0.0027938581461778018 0.00020606741368325854 -0.0016056075142715184 -0.00044998481088665948 0.00078593717354870818 -0.00015267431968032406 0.0095298317848822381 0.00010842375979790271 0.0042374861643955115 -0.0018123573829322331 0.017503016337699129 0.0023887009437628115 -0.0010018376342030434
leaf_weight=28582 11753 42228 36478 4833 34321 10646 57 211830 54052 53831 133933 2688 19399 20454 374103 29931 2476 1148 28167 5137 79519 2813 39107 106 4837 1190 249 50 1591 9922
leaf_count=28582 11753 42228 36478 4833 34321 10646 57 211830 54052 53831 133933 2688 19399 20454 374103 29931 2476 1148 28167 5137 79519 2813 39107 106 4837 1190 249 50 1591 9922
internal_value=1.80271e-08 -1.79288e-05 2.83556e-06 0.000651125 2.24324e-05 -0.000463925 5.51666e-06 1.88366e-05 9.33141e-06 6.06599e-05 2.96867e-05 -0.000150058 -0.000570422 -5.40178e-06 -5.57148e-05 -3.15531e-05 0.00031478 0.000439922 0.00035217 -0.000598055 -6.10926e-05 -0.000254343 6.73046e-05 0.000998363 0.000898759 0.0017862 0.00367234 0.00477779 0.00043869 -0.000222356
internal_weight=1.24543e+06 1.21202e+06 1.16979e+06 33415 1.12266e+06 47124 1.08834e+06 1.06375e+06 1.052e+06 795766 741935 256231 24593 687883 553950 533496 34479 32003 30855 24536 501974 127871 48352 9245 9139 4302 1489 1240 31522 221752
internal_count=1245431 1212016 1169788 33415 1122664 47124 1088343 1063750 1051997 795766 741935 256231 24593 687883 553950 533496 34479 32003 30855 24536 501974 127871 48352 9245 9139 4302 1489 1240 31522 221752
is_linear=0
shrinkage=0.05


Tree=30
num_leaves=31
num_cat=0
split_feature=53 52 53 17 17 43 62 16 26 7 54 27 58 54 7 49 56 16 62 54 58 51 53 16 56 53 26 56 56 54
split_gain=5.32971 8.61246 5.24341 4.82776 4.77083 3.57566 3.45623 3.05755 3.86764 3.11098 4.20164 3.57582 3.18254 4.1797 2.99968 2.90908 2.74044 2.82499 2.69982 4.55012 2.69137 2.60857 2.57417 2.56649 5.11939 2.38917 2.46153 2.38749 2.41856 3.09094
