tree
version=v4
num_class=1
num_tree_per_iteration=1
label_index=0
max_feature_idx=63
objective=regression
feature_names=rsi_14 macd_hist boll_pctb kdj_j vol_price_ratio mom_20d mom_60d volatility_20d rsi_delta macd_hist_delta boll_pctb_delta mom_accel volume_trend close_ma5_dev close_ma20_dev close_ma60_dev ma_alignment atr_14 price_range_10d williams_r adx_14 obv_slope amount_ratio turnover_5d turnover_pctile return_skew_20d return_kurtosis_20d updown_vol_ratio max_drawdown_20d return_autocorr close_position upper_shadow lower_shadow body_ratio gap_5d amihud_illiq volume_volatility mom_5d mom_10d vwap_dev boll_bandwidth vol_price_corr consecutive_days high_distance_60d low_distance_60d vol_ratio_5_60 mfi_14 intraday_intensity cci_20 return_extremes_ratio amount_volatility pe_ttm pb total_mv_log roe revenue_growth profit_growth roe_qoq profit_growth_accel revenue_growth_accel pe_ind_rank pb_ind_rank roe_ind_rank mom_20d_ind_rank
feature_infos=[2.3166009834486374:98.62890887316739] [-32.051047590557204:33.59953649555154] [-0.54510285779095158:1.5609768950744967] [-28.621717840992076:128.20041060531031] [0.0010652002232918738:461.62776397515529] [-0.70048602673147031:2.8695652173913042] [-0.80875576036866359:17.000000000000004] [0.033235951989323539:4.6655917279045722] [-60.824508711095277:57.747490985123889] [-36.048663180254493:33.453880159581715] [-1.5361648895678468:1.6220903421537507] [-2.5942325664189396:0.70938882407664028] [0.002325151935330178:3.9619221358367822] [-0.3074119076549211:0.55529953917050712] [-0.56126558005752636:1.2149302707136993] [-0.69797978434838936:1.9987958577506624] [-0.65490344259861533:1.6537368547804447] [0.005291641762174345:0.33241457626258047] [0:0.32556199452084322] [-100:0] [5.9173072426031341:84.145246702347777] [-1.3010522967559617:1.3994916889459663] [0.00065250893677871341:11.179008904134841] [3.2548615775224872e-05:3.7619999999999996] [0:0.98333333333333328] [-3.6651159179387403:3.729734861868828] [-1.9919958737532184:13.102602655171793] [0:197.07931371548855] [-0.71219512195121959:-0.0028328611898016396] [-0.85662173009838194:0.90000754595304067] [0:1] [0:0.083267144667010823] [0:0.078276109785269443] [0:0.93843043445017216] [-0.10016531009840994:0.10023284082524415] [7.8186995033676192e-13:1.1091910244518501e-07] [0.11656188611352677:4.1974281499404853] [-0.40989159891598914:1.3684210526315792] [-0.65121951219512186:1.374523264683448] [-0.99931720549597347:0.89010089870947517] [0.0078000805481764765:1.7738076421607532] [-0.94789454096527948:0.97513365790545536] [-19:17] [-0.80963302752293576:0] [0:26] [0:3.1007122508003557] [0:100] [-0.75751643419489179:0.95584228776305225] [-564.45324781487648:579.09604519773586] [0:23.14738110891853] [0.11961660504481622:2.5419915093325081] [-2762.4699999999998:9731.5799999999999] [-74.689999999999998:34.479999999999997] [19.900260509128238:26.085360647898206] [-93.459999999999994:130.74000000000001] [-125.903093464919:1983.34666651731] [-144364.74348736901:47154.854950655099] [-140.60999999999999:125.53999999999999] [-144264.60461670198:144305.16280707432] [-1806.223094004936:1986.2519413291341] [0.029411764705882353:1] [0.029411764705882353:1] [0.019607843137254902:1] [0.019230769230769232:1]
tree_sizes=2998 3061 3063 3045 3088 3054 3088 3025 3049 3057 3078 3073 3020 3058 3104 3129 3139 3121 3092 3085 3109 3079 3088 3084 3082 3086 3133 3086 3117 3071 3021 3111 3123 3122 3028 3110 3107 3085 3069 3078 3104 3104 3050 3076 3080 3147 3102 3112 3091 3072 3128 3110 3125 3070 3122 3079 3086 3076 3094 3036 3072 3145 3002 3063 3065 3097 3050 3104 3080 3100 3076 3063 3012 3064 3079 3109 3078 3065 3047 3090 3131 3046 3011 3044 2992 3018 3051 2946 3103 3062 3117 3067 3123 3007 3090 3058 3082 3082 3066 3073 2972 3090 3089 3116 3093 3023 2997 3045 3128 3061 3051 3034 3057 3120 3045 2992 2986 3015 3054 3006 3094 3037 3093 3046 3080 3039 3094 3033 3065 2995 3021 3063 2977 3035 3033 3104 3000 3016 3039 2983 3056 3054 3084 3045 3013 2987 3046 3090 3052 3106 3060 3031 3038 3022 3061 3015 2987 3055 3002 3050 3045 3019 3111 3022 3070 3055 3008 3036 3043 3097 3012 3062 3019 2989 3115 3114 3072 2958 2974 3052 3044 3000

Tree=0
num_leaves=31
num_cat=0
split_feature=24 39 52 53 53 7 58 50 35 54 56 54 55 53 16 39 54 39 28 57 7 6 52 53 51 35 47 59 59 35
split_gain=62.3481 27.7835 20.6834 20.7757 16.005 12.5406 14.6381 24.6374 12.4061 18.4542 9.82806 9.47433 9.30579 8.77247 7.90873 6.85293 6.51715 7.17456 6.46295 11.9893 6.15719 6.15132 5.31788 13.8297 6.59195 4.80438 4.69658 4.09286 15.9797 17.961
threshold=inf -0.14271699838891286 2.3850000000000002 23.232015721271988 23.651836228682004 1.0217833732495143 10.572465516782003 0.29816730955644061 2.986201990111515e-11 -9.5599999999999987 -81.844083076015991 -2.2349999999999999 -2.0400042089089996 24.362025462542487 0.25417317178491561 -0.081365458233330676 10.715000000000002 -0.8413124402991411 -0.14257662556207504 -2.0249999999999995 0.1767927526879258 0.68950156427758835 8.7000000000000011 23.784707514649025 -643.20499999999993 9.982543767614603e-11 -0.0090264498312730718 -12.768577518696498 -13.221154958967999 4.6205478489070455e-11
decision_type=8 2 8 10 10 2 10 2 2 10 10 8 10 10 2 2 10 2 2 10 2 2 8 10 10 2 2 10 10 2
left_child=2 5 4 15 11 10 -7 -8 -3 14 12 18 -2 21 -10 -4 17 -12 19 -1 -6 22 23 24 -5 -17 -9 28 -11 -30
right_child=1 8 3 13 20 6 7 26 9 27 16 -13 -14 -15 -16 25 -18 -19 -20 -21 -22 -23 -24 -25 -26 -27 -28 -29 29 -31
leaf_value=0.042092310362268029 0.01304802041891205 0.0062309680209970911 0.0067878124632397251 0.022723978585935736 0.0083169092966314632 0.010046307797036712 0.04721450523305578 0.022456923765593419 0.014505624950759351 0.0081685808819750225 0.012383349231312124 0.0086733345944955981 0.039331090127177837 0.0045086301375510075 0.032163316279189134 0.0054989012795203318 0.0078888069134255938 0.009155199439670544 0.012408304955957588 0.011361629833354212 0.0065880796369057193 0.0034707864076248414 0.0057605854800876358 0.0058663000021600617 0.0080330791117987667 0.0063994617155229442 0.0096492487772531881 0.0075747042820231746 0.041548888277207367 0.012879141817817253
leaf_weight=58 105 19586 112560 77 5965 615 80 139 187 1689 1986 9379 50 12663 97 19368 9162 13074 421 71 37744 2610 117572 24868 8849 63010 150 24803 78 184
leaf_count=58 105 19586 112560 77 5965 615 80 139 187 1689 1986 9379 50 12663 97 19368 9162 13074 421 71 37744 2610 117572 24868 8849 63010 150 24803 78 184
internal_value=0.00655522 0.00791367 0.00631971 0.00618378 0.00723591 0.0092456 0.0147815 0.022657 0.00718905 0.00788326 0.0090219 0.00904811 0.0215743 0.00577385 0.0205611 0.00653423 0.00894131 0.00958127 0.0154285 0.0252341 0.00682413 0.00587794 0.00591948 0.00647243 0.00816055 0.00618767 0.01583 0.00774845 0.00995452 0.0214436
internal_weight=487200 71985 415215 361577 53638 25361 984 369 46624 27038 24377 9929 155 166639 284 194938 24222 15060 550 129 43709 153976 151366 33794 8926 82378 289 26754 1951 262
internal_count=487200 71985 415215 361577 53638 25361 984 369 46624 27038 24377 9929 155 166639 284 194938 24222 15060 550 129 43709 153976 151366 33794 8926 82378 289 26754 1951 262
is_linear=0
shrinkage=1


Tree=1
num_leaves=31
num_cat=0
split_feature=23 39 53 52 17 20 57 23 53 53 3 35 6 60 39 56 17 26 62 44 17 57 56 56 32 20 57 40 39 44
split_gain=57.3692 22.1355 17.7197 20.4089 15.9323 16.3181 18.5901 15.3769 16.0706 12.9057 12.6442 9.65489 6.95583 9.56565 6.37225 6.34764 7.50468 5.93012 5.43894 7.32604 5.28942 4.88752 5.2654 4.7337 8.70168 8.1711 4.68959 4.58198 4.90469 4.64235
threshold=0.0023439913519999814 -0.33221773489047585 24.320756163778096 2.5450000000000004 0.077712990456236059 21.230503316929987 -4.8449999999999989 0.038190858045847292 23.232015721271988 23.677871386277598 57.927558124636612 2.986201990111515e-11 0.63170434397163144 0.10263157894736843 -0.10641638892286635 -409.40971863725645 0.045660187319410316 -0.72172616812606594 0.077677224736048281 0.45260080943123832 0.018322760867092724 10.795000000000003 14.0512234564855 -81.844083076015991 0.013137236936707363 38.60608818916635 -3.0099999999999993 0.27222869590149773 -0.081365458233330676 0.050787032233062364
decision_type=10 2 10 8 2 2 10 10 10 10 2 2 2 8 2 10 2 2 8 10 2 10 10 10 2 2 10 2 2 10
left_child=1 4 3 9 21 6 10 8 27 15 -6 14 13 -9 -3 16 -2 -7 19 -13 -11 22 -1 24 -20 26 -26 28 -5 -30
right_child=2 11 -4 7 5 17 -8 12 -10 20 -12 18 -14 -15 -16 -17 -18 -19 23 -21 -22 -23 -24 -25 25 -27 -28 -29 29 -31
leaf_value=0.0021120920767691703 0.0043211227511593632 0.0012326330171140815 -0.0017316117965392149 0.00027495632673128566 0.053206983665208853 -0.0024691746990128591 0.010657871935494194 0.016464884786464361 -0.0006246200817155744 0.00230541131065991 0.017415972994993666 0.0041044924463496399 -0.0037100671861632611 -0.0011655289957281116 -0.00044382049479486956 0.0020796419161340511 0.028279553590985593 0.0069277358536712829 0.0024515876195986479 0.025752164138783562 0.00014851401521199123 -0.0011423278494770617 0.0047621529460926864 0.0011815673553808512 0.026031394718427525 -0.0034588877565715453 0.0079311677532049353 0.00097991403753306229 -0.0010950779848964453 -7.3716950476383075e-05
leaf_weight=6228 96 8390 19140 91326 50 221 320 77 129079 3091 50 170 2841 29704 17469 11689 50 689 1091 51 35440 809 2690 45064 98 52 58 14006 14080 53081
leaf_count=6228 96 8390 19140 91326 50 221 320 77 129079 3091 50 170 2841 29704 17469 11689 50 689 1091 51 35440 809 2690 45064 98 52 58 14006 14080 53081
internal_value=1.0215e-09 0.00119301 -0.000246746 -0.000172829 0.00327694 0.00841122 0.016567 -0.000314245 -0.000202677 0.000765412 0.0353967 0.000874871 -0.00134547 -0.00111972 9.99172e-05 0.00220963 0.012574 0.00464011 0.00130494 0.00913211 0.000321678 0.00257433 0.00291205 0.00126751 0.00424463 0.0136198 0.0193432 0.00011304 3.63998e-05 -0.000287916
internal_weight=487200 83500 403700 384560 11057 1330 420 334194 301572 50366 100 72443 32622 29781 25859 11835 146 910 46584 221 38531 9727 8918 46363 1299 208 156 172493 158487 67161
internal_count=487200 83500 403700 384560 11057 1330 420 334194 301572 50366 100 72443 32622 29781 25859 11835 146 910 46584 221 38531 9727 8918 46363 1299 208 156 172493 158487 67161
is_linear=0
shrinkage=0.05


Tree=2
num_leaves=31
num_cat=0
split_feature=23 39 44 17 20 57 50 54 16 35 23 35 60 28 43 12 39 26 39 17 56 55 16 43 50 60 54 54 59 28
split_gain=51.7781 20.0023 15.1062 14.1147 14.8373 16.9622 16.216 11.8633 9.72203 9.35502 8.849 8.05025 6.50469 8.42683 6.14621 9.28252 5.91595 5.55807 5.48338 5.0217 4.95121 7.28933 4.80041 4.63738 6.96539 4.60915 4.59385 4.23432 4.20069 4.16387
threshold=0.0023439913519999814 -0.32629409924438807 0.78184562486463094 0.077712990456236059 21.230503316929987 -4.8449999999999989 0.31495502618520521 -9.5599999999999987 -0.16455794581112757 3.5653316269528643e-11 0.023667141584800416 2.986201990111515e-11 0.082579185520362017 -0.17042106160707257 -0.15921483097055614 0.99862465621004792 -0.088015016327421355 -0.72172616812606594 -0.11959809201502229 0.020896501292514909 -57.499825850287493 0.99260358599350018 0.09350977247676763 -0.43839753899108858 0.42473934839770183 0.9298029556650248 10.715000000000002 4.245000000000001 -1.2620665186594986 -0.33341315999543847
decision_type=10 2 10 2 2 10 2 8 2 2 10 2 10 2 2 2 2 2 2 2 10 10 2 2 2 8 10 8 10 2
left_child=1 3 8 22 5 6 -5 9 -2 -3 16 18 -12 -14 -11 -16 23 -6 -9 25 21 -15 29 24 -10 -18 -24 -21 -23 -1
right_child=2 7 -4 4 17 -7 -8 11 10 14 12 -13 13 20 15 -17 19 -19 -20 27 -22 28 26 -25 -26 -27 -28 -29 -30 -31
leaf_value=-0.010970905716582637 0.00099851174285011421 0.0025637607105004072 -0.0028412579121601042 0.053774867486208681 -0.0024464956411650082 0.010044182522204639 0.013323989361589645 0.0011988343545867716 0.024118545928601909 0.0067402889556988357 -0.00096277943128412731 0.0011449181688411743 0.0031166717671651644 0.00071406962424462248 0.036251134876796591 0.010994627654783198 0.0017234523851810037 0.0065349830256669454 -0.00043594892488467858 -0.0002068352644812479 -0.00061669385773461833 0.020106131808257752 0.005946908044761277 0.0001032905068178312 -0.0013571002700034978 -3.4459621310784935e-05 0.0014715590504464848 -0.00074102065293868685 0.0043547653654560396 0.0019154791782118271
leaf_weight=63 16268 562 5482 50 228 325 50 7185 50 180 59789 45992 2192 479 58 100 5113 695 17927 91984 9086 91 1597 137063 57 13753 900 62212 81 7588
leaf_count=63 16268 562 5482 50 228 325 50 7185 50 180 59789 45992 2192 479 58 100 5113 695 17927 91984 9086 91 1597 137063 57 13753 900 62212 81 7588
internal_value=8.16484e-09 0.0011334 -0.000234406 0.00307029 0.00787882 0.0156128 0.0336329 0.000824084 -0.000198506 0.00652902 -0.000249503 0.000751794 -0.000750062 0.00031567 0.0131046 0.0203147 -0.000133769 0.00431093 3.15961e-05 -0.000328164 -0.000314405 0.00389641 0.00243099 0.000111454 0.0105121 0.000441705 0.00433597 -0.000422391 0.0127242 0.00180857
internal_weight=487200 83500 403700 11496 1348 425 100 72004 398218 900 381950 71104 71718 11929 338 158 310232 923 25112 173062 9737 651 10148 137170 107 18866 2497 154196 172 7651
internal_count=487200 83500 403700 11496 1348 425 100 72004 398218 900 381950 71104 71718 11929 338 158 310232 923 25112 173062 9737 651 10148 137170 107 18866 2497 154196 172 7651
is_linear=0
shrinkage=0.05


Tree=3
num_leaves=31
num_cat=0
split_feature=23 17 55 59 52 35 35 54 58 20 23 6 57 17 57 58 62 11 35 35 58 56 16 31 54 17 52 56 59 57
split_gain=46.738 17.7965 16.7856 18.1817 16.6898 16.4866 12.881 9.68245 10.7917 8.80781 7.37023 6.15367 5.63691 5.57058 5.34234 5.02242 4.91729 4.89865 4.79212 4.67413 4.41062 4.95281 4.2804 4.22906 4.16904 4.23987 6.51887 4.40736 4.06875 3.76645
threshold=1.0000000180025095e-35 0.082131092390574659 -1.9590979090279996 -12.301808926515497 2.3850000000000002 6.9044897668090921e-11 3.8821444500921064e-11 -2.5849999999999995 -19.734582352543494 33.371177491354992 0.051847605602440547 0.68950156427758835 -5.0549999999999988 0.020277650324604945 0.29499999999999998 217.82841770189052 0.063164893617021281 0.020750755457185358 4.0390899944854452e-11 2.0586291178623156e-10 58.942628653319012 334.97494000306006 -0.11547742886551489 0.0013682366889937729 -1.095 0.047617792909763763 0.90500000000000014 -8.1731764649079981 -2.8347415492119992 -22.384999999999994
decision_type=10 2 10 10 8 2 2 10 10 2 10 2 10 2 10 10 8 2 2 2 10 10 2 2 8 2 10 10 10 10
left_child=1 6 3 -3 13 11 16 8 12 14 19 20 -8 -2 17 -9 -1 -5 -4 -7 21 -6 23 -21 25 -15 -27 -28 -11 -18
right_child=4 2 18 9 5 10 7 15 -10 28 -12 -13 -14 24 -16 -17 29 -19 -20 22 -22 -23 -24 -25 -26 26 27 -29 -30 -31
leaf_value=0.0071739873002988098 0.0018704418758765731 0.036854469264922578 0.00038595122267988727 0.028932704919414826 -0.00090784918548161635 -0.00020643642756747673 0.0094699129641695294 0.0016087254083150789 0.0036409537363161024 -0.0079937806500908707 -0.0016577197325146871 -0.003156957232267975 0.028918545593021833 0.0016675823930268681 0.0089899782869345222 0.0072577883485696257 -0.0018087436730346758 0.0097446748111961468 0.0062295980711685652 -0.0093735992131885985 0.0003072263566972276 0.014811711835334758 9.7092191588366277e-05 0.001206133309157235 0.00030739601170044111 0.023658679529159125 0.00055540123715799264 0.015844061489503208 0.0088410203529613336 0.00049083788075633488
leaf_weight=268 7631 70 823 86 90874 178534 71 30805 316 83 7511 2847 81 1794 228 399 1872 56 614 95 8259 50 61315 12092 43913 55 181 64 63 36150
leaf_count=268 7631 70 823 86 90874 178534 71 30805 316 83 7511 2847 81 1794 228 399 1872 56 614 95 8259 50 61315 12092 43913 55 181 64 63 36150
internal_value=1.48219e-08 0.00117619 0.00579989 0.0129338 -0.000203884 -0.000325987 0.00104241 0.00178842 0.00892867 0.00967251 -0.000114279 -0.000864487 0.0198791 0.000619128 0.0137757 0.00168114 0.000425202 0.021413 0.00288656 -6.82619e-05 -0.000798629 -0.000899134 0.000267291 0.00112318 0.000411465 0.00259137 0.00809657 0.00457441 -0.000694146 0.000377483
internal_weight=487200 71985 2023 586 415215 361577 69962 31672 468 516 259547 102030 152 53638 370 31204 38290 142 1437 252036 99183 90924 73502 12187 46007 2094 300 245 146 38022
internal_count=487200 71985 2023 586 415215 361577 69962 31672 468 516 259547 102030 152 53638 370 31204 38290 142 1437 252036 99183 90924 73502 12187 46007 2094 300 245 146 38022
is_linear=0
shrinkage=0.05


Tree=4
num_leaves=31
num_cat=0
split_feature=23 39 44 61 17 20 35 36 35 35 54 16 39 44 54 15 26 44 5 54 35 58 57 17 54 57 39 57 58 35
split_gain=42.329 17.9026 13.3619 11.3176 11.2562 16.1178 17.6519 15.3713 9.91583 7.16611 12.7643 7.542 6.07751 5.58195 6.43646 10.075 5.34624 4.63577 4.50811 4.24857 4.64832 5.30757 3.74324 3.7316 3.64759 4.18696 3.6061 3.50939 3.386 3.8109
threshold=0.0023439913519999814 -0.10763878174747697 0.46311638504699199 0.64400921658986188 0.082131092390574659 21.230503316929987 1.367166620595374e-10 0.30122915699047209 1.4615212100529322e-10 2.986201990111515e-11 -9.5599999999999987 0.25417317178491561 -0.088015016327421355 0.35937860189027199 -2.5849999999999995 -0.056147125634661836 0.031235965520313162 0.84336506866627348 -0.15665214794313145 10.715000000000002 1.1351680620892593e-11 36.86343472362001 -13.734999999999998 0.016909037977920371 12.615 -7.8449999999999989 -0.8413124402991411 -18.609999999999996 42.604307918045002 5.2827535644784895e-11
decision_type=10 2 10 8 2 2 2 2 2 2 8 2 2 10 10 2 2 10 2 10 2 10 10 2 10 10 2 10 10 2
left_child=1 4 3 18 13 6 -6 -8 12 24 11 -11 27 14 15 -1 -7 -4 -2 26 -21 -22 -16 -20 25 -3 -15 -5 29 -14
right_child=2 9 17 8 5 16 7 -9 -10 10 -12 -13 28 19 22 -17 -18 -19 23 20 21 -23 -24 -25 -26 -27 -28 -29 -30 -31
leaf_value=0.0034817471424605216 0.0028486269548005914 -0.0013614007698794079 -0.001028537532962956 -0.0015124186854998702 0.0068190580090147406 0.00019953264414211653 0.049799807937979813 0.016421052139772293 0.00013270561008093409 0.0055599064257937083 0.00075656523170338234 0.023233533372540353 -0.0013014226297902967 0.0065028878212941236 -0.00041280991484414162 0.025469107159538748 0.0069270607521291928 -0.002844915997440454 0.0025875274522493621 -0.0027997905168002908 0.0018121255666231765 0.014774617495172516 0.0014780617773728832 0.00037823292896597917 -0.0015093132344598202 0.00066044783758466979 0.0030808813173492417 -9.4567126531900508e-05 2.6261243768440571e-05 -0.00060692558883494513
leaf_weight=215 2091 3650 20159 4572 327 774 51 109 114732 175 29170 93 26965 998 2917 69 479 4260 1999 558 1338 84 25141 44026 5342 8577 3433 96389 14425 74082
leaf_count=215 2091 3650 20159 4572 327 774 51 109 114732 175 29170 93 26965 998 2917 69 479 4260 1999 558 1338 84 25141 44026 5342 8577 3433 96389 14425 74082
internal_value=2.4267e-08 0.00102479 -0.000211923 -0.000138919 0.00185575 0.0057813 0.013502 0.0271162 -0.000243039 0.000379586 0.000856566 0.0117179 -0.000442246 0.00165905 0.00135734 0.00884843 0.00277569 -0.00134563 0.000577595 0.00299204 0.00106297 0.00258234 0.0012813 0.000474303 -0.00041934 5.64711e-05 0.00385288 -0.000158825 -0.000690006 -0.000792307
internal_weight=487200 83500 403700 379281 36493 1740 487 160 331165 47007 29438 268 216433 34753 28342 284 1253 24419 48116 6411 1980 1422 28058 46025 17569 12227 4431 100961 115472 101047
internal_count=487200 83500 403700 379281 36493 1740 487 160 331165 47007 29438 268 216433 34753 28342 284 1253 24419 48116 6411 1980 1422 28058 46025 17569 12227 4431 100961 115472 101047
is_linear=0
shrinkage=0.05


Tree=5
num_leaves=31
num_cat=0
split_feature=23 35 17 52 53 53 23 20 36 56 40 54 54 62 29 53 61 53 60 23 17 7 56 62 56 6 44 57 56 49
split_gain=38.4202 15.1275 19.1002 14.3481 15.9218 14.1156 11.6732 10.7503 12.4704 14.0263 6.63401 6.5841 6.38479 9.49916 9.33536 5.87042 5.75414 8.54409 7.83067 6.60135 5.39914 5.0558 5.38051 4.44082 6.40872 4.35357 4.10723 4.18476 4.02064 4.49749
threshold=1.0000000180025095e-35 4.2012878971059833e-11 0.077712990456236059 2.5450000000000004 23.366601420614106 23.685613041831797 0.039203719731395179 22.31555253359026 0.32923619248469199 19.777956336321505 0.33855952166726994 -4.8699999999999992 -2.5849999999999995 0.24190177638453506 0.086929495863060841 24.362025462542487 0.36515151515151517 23.83370969515445 0.10620300751879701 0.027038389283919041 0.025222799457810027 0.60030241336451795 -173.31676106128447 0.063164893617021281 2.4858610803740002 0.46340725657710297 0.84336506866627348 -18.609999999999996 25.337085107037502 2.459412765243528
decision_type=10 2 2 8 10 10 10 2 2 10 2 8 10 10 2 10 10 10 10 10 2 2 10 8 10 2 10 10 10 2
left_child=1 23 12 5 6 11 -5 8 9 10 -4 -2 13 -3 -15 16 26 18 19 -18 -7 -13 -23 24 -1 -14 27 -6 -17 -30
right_child=3 2 7 4 15 20 -8 -9 -10 -11 -12 21 25 14 -16 28 17 -19 -20 -21 -22 22 -24 -25 -26 -27 -28 -29 29 -31
leaf_value=0.020232472074906218 0.010864866331017388 0.0034667267147237019 0.022835928758808847 6.6305786375740237e-05 -0.0025639509601826718 0.00094106586809906143 -0.0011999035650403554 0.0044792243951074775 0.007780779115590282 0.0041048674274394344 0.047498372236993859 0.001593835588516002 0.0014366456441809057 0.03652029718047458 0.0061266589705115497 -0.0021595308691510482 0.0044047374702105247 -0.00056383069180195966 0.0011029506047738318 0.026470706111560501 -0.00024093002644637426 0.019639303690555915 0.0043871710229982028 0.00041276912818896682 0.0028163426715687918 0.0042743887432829955 -0.003209946271220657 -0.00071440272078860116 -0.00039867066187548709 0.0083761322354788982
leaf_weight=65 208 308 56 205334 3174 14182 19972 755 277 54 56 11286 26613 50 52 10459 90 21448 8460 55 30298 62 894 41987 286 1426 1776 85587 1771 159
leaf_count=65 208 308 56 205334 3174 14182 19972 755 277 54 56 11286 26613 50 52 10459 90 21448 8460 55 30298 62 894 41987 286 1426 1776 85587 1771 159
internal_value=2.98294e-08 0.00106642 0.00193265 -0.000184836 -0.000302007 0.000552483 -4.59142e-05 0.00811797 0.0143058 0.0251525 0.0352431 0.00204065 0.00167198 0.00786873 0.0210956 -0.000735867 -0.000629319 -2.96682e-05 0.00130114 0.0128215 0.000135826 0.00189023 0.00538351 0.000459725 0.00606064 0.00158116 -0.000828313 -0.0007806 -0.00177254 0.000322034
internal_weight=487200 71985 29647 415215 358285 56930 225306 1198 443 166 112 12450 28449 410 102 132979 120590 30053 8605 145 44480 12242 956 42338 351 28039 90537 88761 12389 1930
internal_count=487200 71985 29647 415215 358285 56930 225306 1198 443 166 112 12450 28449 410 102 132979 120590 30053 8605 145 44480 12242 956 42338 351 28039 90537 88761 12389 1930
is_linear=0
shrinkage=0.05


Tree=6
num_leaves=31
num_cat=0
split_feature=23 39 52 35 17 35 36 54 35 39 39 28 20 17 35 6 43 12 28 39 16 23 28 54 59 6 58 56 59 58
split_gain=34.8085 15.5264 11.9533 12.6332 9.77209 9.86633 17.4461 8.59869 6.91154 6.24448 6.23095 6.13658 5.52636 5.1132 4.98396 4.84962 4.76005 8.13188 4.49458 4.20658 4.11764 3.80542 3.71417 3.69478 3.63797 3.81943 3.62218 6.39263 5.07409 3.60377
threshold=0.0024641016230601658 -0.32629409924438807 2.5450000000000004 6.9044897668090921e-11 0.074848080925657853 1.3297643397779792e-10 0.27379234395257462 -9.5599999999999987 3.5653316269528643e-11 -0.079504226649268137 -0.096142762384841249 -0.17759781420765033 19.574290155310702 0.02069619221805126 2.7251901849760787e-11 0.77965708311960358 -0.15921483097055614 0.99862465621004792 -0.1720535812575362 -0.12397325138422575 0.09350977247676763 0.051847605602440547 -0.167105290495945 10.715000000000002 10.853081856740502 0.14459797729092752 58.942628653319012 141.58391086126105 4.7036332138004999 -4.6583624960504997
decision_type=10 2 8 2 2 2 2 8 2 2 2 2 2 2 2 2 2 2 2 2 2 10 2 10 10 2 10 10 10 10
left_child=1 4 11 15 20 24 -7 8 22 -5 -9 -2 -8 -13 -12 19 -10 -18 -11 -4 -1 -20 -3 -22 25 -6 27 -21 -29 -27
right_child=2 7 3 9 5 6 12 10 16 18 14 13 -14 -15 -16 -17 17 -19 21 26 23 -23 -24 -25 -26 29 -28 28 -30 -31
leaf_value=0.0014728867510051839 0.0026974520242614829 0.0081866527512370422 -0.00024399621649077186 0.00013482967488779866 0.0063765271296764908 0.034436662834030664 0.017394388063118948 0.0011640295345623417 0.0055315053375294167 0.00085559572271613868 -0.00055066402289799077 0.0015851200656465123 0.0050457214405390327 0.00016245855671480786 0.00058498576958529664 -0.0031722181579228129 0.032401235172727021 0.0088100205095435116 -0.00038846472259704707 -0.0010995032859254942 0.005298290046403367 -0.0019427581342945596 -0.00060734837260925439 0.0012185712064158392 0.010588790002863183 0.0038554218392932767 0.00016607152472532404 0.00062063316521573551 0.016449025748489703 -0.0043483390330280791
leaf_weight=7637 2979 173 30999 126293 324 73 122 28608 180 7059 14303 7358 360 44677 29752 2070 58 101 109356 60357 1557 4087 389 868 148 252 6569 114 92 285
leaf_count=7637 2979 173 30999 126293 324 73 122 28608 180 7059 14303 7358 360 44677 29752 2070 58 101 109356 60357 1557 4087 389 868 148 252 6569 114 92 285
internal_value=3.78606e-08 0.000918133 -0.000194504 -0.000303073 0.00261623 0.00629449 0.0116522 0.000649695 0.00550463 -0.000110814 0.000589419 0.000490195 0.00818465 0.000363729 0.000216169 -0.000776554 0.0111455 0.017462 -0.000368305 -0.000725965 0.00204395 -0.000444507 0.00209178 0.00384018 0.00334166 0.00208904 -0.000948445 -0.00106941 0.00771844 -0.000489219
internal_weight=487200 85190 402010 346996 11626 1564 555 73564 901 246795 72663 55014 482 52035 44055 100201 339 159 120502 98131 10062 113443 562 2425 1009 861 67132 60563 206 537
internal_count=487200 85190 402010 346996 11626 1564 555 73564 901 246795 72663 55014 482 52035 44055 100201 339 159 120502 98131 10062 113443 562 2425 1009 861 67132 60563 206 537
is_linear=0
shrinkage=0.05


Tree=7
num_leaves=31
num_cat=0
split_feature=53 35 17 53 52 53 36 57 53 56 56 56 17 17 21 62 56 35 50 41 56 56 51 35 20 58 17 57 52 53
split_gain=31.6156 13.1574 12.9502 12.8334 13.4466 10.8233 10.7829 19.7412 9.65782 5.71537 5.61721 12.8864 6.5352 5.42255 5.14584 4.8456 8.06863 4.79417 4.66868 4.3908 4.30127 9.75251 4.27663 4.22306 4.80006 4.16428 4.15797 4.03947 3.85155 10.0077
threshold=1.0000000180025095e-35 7.9347504067966312e-11 0.074848080925657853 24.362025462542487 2.5450000000000004 23.651836228682004 0.27379234395257462 -5.0549999999999988 23.232015721271988 -219.74346389746097 -81.844083076015991 -101.47068995076849 0.067412961405851332 0.044312684682403687 0.0288747361084877 0.063164893617021281 2.4858610803740002 8.7106213535549145e-11 0.48049584174376342 -0.65151934874504369 13.728941615042002 14.0512234564855 10.935 1.5477997699062128e-10 19.320473124496083 34.481944925934009 0.016909037977920371 -25.749999999999996 15.795000000000002 23.784707514649025
decision_type=10 2 2 10 8 10 2 10 10 10 10 10 2 2 2 8 10 2 2 2 10 10 8 2 2 10 2 10 8 10
left_child=1 10 20 4 5 9 7 -4 17 13 11 12 -1 -2 23 16 -12 22 -13 -11 -3 -22 -6 -8 -25 -17 -7 -10 29 -29
right_child=3 2 6 -5 8 26 14 -9 27 19 15 18 -14 -15 -16 25 -18 -19 -20 -21 21 -23 -24 24 -26 -27 -28 28 -30 -31
leaf_value=0.00055890580380826469 0.0053484387940621568 0.001637222645996958 0.045829629632024693 -0.0015355482638390221 0.014104633689291046 0.0022205498003848244 0.0022829878096439424 0.0027448242251327968 -0.0028647155338081282 0.012557576195119192 0.021106048803600546 0.025541844590963748 0.018630558256121858 0.024742770156916047 0.002843874057725937 0.00048147159710192278 0.0026014212143300715 0.00013120190653215992 0.0074359598632559977 0.0018106852571398953 0.023208572376302923 0.0036751250993937732 -0.00050989189177659566 0.026801455395204704 0.010279305636491516 0.0021956220041571719 0.00014737620748596329 0.0015189874045461553 -0.00063025252873917742 -0.00051681195355881128
leaf_weight=675 126 8512 51 16467 50 2576 92 56 1823 96 74 87 54 51 436 56131 292 156262 62 10294 67 1397 38587 63 152 3784 39709 8013 116685 24476
leaf_count=675 126 8512 51 16467 50 2576 92 56 1823 96 74 87 54 51 436 56131 292 156262 62 10294 67 1397 38587 63 152 3784 39709 8013 116685 24476
internal_value=4.47311e-08 0.000967402 0.00257424 -0.000167652 -0.00011115 0.000631621 0.00850019 0.0233509 -0.000224658 0.002063 0.000682883 0.00465402 0.00190678 0.0109757 0.00635195 0.000624952 0.00636119 7.86704e-06 0.0180514 0.00191058 0.00206875 0.00457401 -0.000490813 0.0113153 0.0151541 0.000589818 0.000273797 -0.000524821 -0.000496191 -1.45508e-05
internal_weight=487200 71985 10826 415215 398748 52852 850 107 345896 10567 61159 878 729 177 743 60281 366 194899 149 10390 9976 1464 38637 307 215 59915 42285 150997 149174 32489
internal_count=487200 71985 10826 415215 398748 52852 850 107 345896 10567 61159 878 729 177 743 60281 366 194899 149 10390 9976 1464 38637 307 215 59915 42285 150997 149174 32489
is_linear=0
shrinkage=0.05


Tree=8
num_leaves=31
num_cat=0
split_feature=23 53 52 17 1 23 53 53 47 36 35 56 28 35 17 54 58 33 54 7 6 56 51 28 51 54 56 53 23 44
split_gain=28.6437 12.521 11.7338 11.2601 10.8662 10.1003 10.1856 9.14389 8.16794 12.307 9.23396 6.18568 6.51064 5.68623 6.4793 5.57384 6.32104 4.79606 4.60873 5.01535 4.42826 4.18276 4.0195 3.96228 3.73844 3.69931 5.92396 3.56857 3.49473 3.75409
threshold=0.0024641016230601658 24.320756163778096 2.5450000000000004 0.082131092390574659 -0.27358045567514117 0.056617867488629965 23.217427605950022 23.633949917852068 0.0177957376566549 0.27518610687012773 1.4349776498130698e-10 -219.74346389746097 -0.12582613458055711 3.8821444500921064e-11 0.048102610444587045 -5.8099999999999996 13.960357637775504 0.44948033437805185 -4.8699999999999992 0.30487591128795405 0.89946107461317448 42.396344673367004 41.175000000000004 -0.23529411764705871 189.39000000000001 12.275 34.944152879285504 23.801638231486638 0.024007367312829708 0.044777338995494749
decision_type=10 10 8 2 2 10 10 10 2 2 2 10 2 2 2 10 10 2 8 2 2 10 8 2 10 10 10 10 10 10
left_child=3 2 7 13 -5 6 28 11 9 10 -6 12 -2 25 -15 17 21 -16 19 -13 22 -17 27 -10 -8 26 -1 -7 29 -4
right_child=1 -3 5 4 8 20 24 -9 23 -11 -12 18 -14 14 15 16 -18 -19 -20 -21 -22 -23 -24 -25 -26 -27 -28 -29 -30 -31
leaf_value=0.00040277241677956065 0.026302577656534661 -0.0014263938780412796 -0.00022171336314260855 0.00037528887074334097 0.012725955791429371 0.0068953001499528141 -0.00051245595065134983 0.00027211284484610369 0.01012910262890041 0.0085954216006052624 0.043318413548959711 0.001423672145952278 0.0046325395563563592 0.00083358106052232534 0.019837958022961049 0.0013723021960503714 0.0051405440543294502 0.0039392425158635653 0.0016928833097271348 0.020707895495996834 -0.0051187464431955709 0.011293365054304654 -0.0014829568903326185 0.0011984035622052795 0.0017937567712097376 -0.00035065342114617157 0.0029632359245335589 -0.0004363132693299375 -0.00039136633830572071 0.00034415171634849425
leaf_weight=21749 52 19084 40325 893 50 271 137287 40542 175 431 50 69 106 36322 83 6755 1474 113 9219 67 799 108 13355 433 1779 14032 2522 425 31406 107224
leaf_count=21749 52 19084 40325 893 50 271 137287 40542 175 431 50 69 106 36322 83 6755 1474 113 9219 67 799 108 13355 433 1779 14032 2522 425 31406 107224
internal_value=5.53613e-08 -0.000176419 -0.00011411 0.000832893 0.00451066 -0.00022145 -0.000161917 0.000599612 0.00774817 0.0122826 0.0281001 0.00199479 0.0118082 0.00074296 0.00112507 0.00236521 0.00216844 0.010704 0.00182839 0.010969 -0.00149606 0.00152932 -0.00128966 0.00377838 -0.000482917 0.000295358 0.000669047 0.00241178 8.75049e-05 0.000189467
internal_weight=487200 402010 382926 85190 2032 332871 318021 50055 1139 531 100 9513 158 83158 44855 8533 8337 196 9355 136 14850 6863 14051 608 139066 38303 24271 696 178955 147549
internal_count=487200 402010 382926 85190 2032 332871 318021 50055 1139 531 100 9513 158 83158 44855 8533 8337 196 9355 136 14850 6863 14051 608 139066 38303 24271 696 178955 147549
is_linear=0
shrinkage=0.05


Tree=9
num_leaves=31
num_cat=0
split_feature=24 39 53 52 39 53 54 54 50 17 20 35 36 28 57 54 57 35 56 54 26 56 16 31 18 20 56 55 55 18
split_gain=26.0147 16.9046 10.5326 11.0492 8.66525 8.15103 6.72332 6.48357 6.85561 6.15124 11.3907 11.2858 12.758 5.07969 8.87503 4.78883 4.77062 4.70592 8.93491 4.65069 4.56285 4.50302 4.43654 4.882 4.42914 4.35698 4.19358 5.90483 4.17191 3.9458
threshold=inf -0.10763878174747697 24.362025462542487 2.3850000000000002 -0.056199007255847859 23.633949917852068 -2.2349999999999999 0.52500000000000013 0.19872218945167267 0.082131092390574659 21.762567115078905 1.367166620595374e-10 0.29759098020049929 -0.14257662556207504 -2.0249999999999995 21.235000000000003 -18.609999999999996 2.7251901849760787e-11 -72.532356925854486 4.6705000000000014 -0.52539898477490043 39.847313334399509 -0.1600274379564697 0.0013682366889937729 0.052032880821959566 50.283472946857579 -81.844083076015991 -2.0400042089089996 -7.0649675369614995 0.034061725140681044
decision_type=8 2 10 8 2 10 8 10 2 2 2 2 2 2 10 10 10 2 10 8 2 10 2 2 2 2 10 10 10 2
left_child=2 9 3 5 16 6 13 8 -3 15 11 -11 -13 14 -1 21 -5 18 -9 -6 -12 26 23 -18 -24 -22 27 -2 -10 -21
right_child=1 7 -4 4 19 -7 -8 17 28 10 20 12 -14 -15 -16 -17 22 -19 -20 29 25 -23 24 -25 -26 -27 -28 -29 -30 -31
leaf_value=0.031272999821112452 0.0030516133911612647 0.018908179402185615 -0.0013912830434990912 -0.0012492421762014135 -0.00030298713750714175 0.000293664396124906 0.0016124535334062825 0.017354364004724617 -0.0010370340066706081 0.0055887513918994533 -0.0019520107455075178 0.042465729395507607 0.012554913004354688 0.004719769551943729 0.0040767234037720488 -0.00040431596575267762 -0.013146391788988333 0.00045045435176429953 -0.00079803228892243996 -0.00041591231618214112 0.0032566978317134935 0.0039799075216201026 5.8669118052871091e-05 0.0010154727110342255 -0.00081064263490741428 0.017669071310123137 0.0015328455513591778 0.021138862945345418 0.0030285204979661785 -0.0013454146879889233
leaf_weight=55 150 61 16467 7363 91858 40759 8549 68 844 358 462 50 127 404 67 2746 61 23398 13904 21123 677 2155 174880 12737 15992 57 24382 65 2481 24900
leaf_count=55 150 61 16467 7363 91858 40759 8549 68 844 358 462 50 127 404 67 2746 61 23398 13904 21123 677 2155 174880 12737 15992 57 24382 65 2481 24900
internal_value=6.15894e-08 0.00087756 -0.000152057 -0.000100868 -0.000200348 0.000595545 0.00195083 0.00020671 0.00230176 0.0017529 0.00465114 0.0107169 0.0210517 0.00743955 0.0163939 0.00158264 1.0369e-06 1.6743e-05 -0.000709205 -0.000508613 0.00193294 0.00178679 4.62617e-05 0.000947479 -1.41394e-05 0.00438498 0.00159442 0.00855038 0.00199504 -0.000918915
internal_weight=487200 71985 415215 398748 348914 49834 9075 40756 3386 31229 1731 535 177 526 122 29498 211033 37370 13972 137881 1196 26752 203670 12798 190872 734 24597 215 3325 46023
internal_count=487200 71985 415215 398748 348914 49834 9075 40756 3386 31229 1731 535 177 526 122 29498 211033 37370 13972 137881 1196 26752 203670 12798 190872 734 24597 215 3325 46023
is_linear=0
shrinkage=0.05


Tree=10
num_leaves=31
num_cat=0
split_feature=23 39 53 61 53 23 53 39 58 55 55 6 35 54 16 54 54 35 43 6 39 55 25 55 35 40 6 56 17 20
split_gain=23.5416 12.8446 10.2724 11.4614 12.3165 9.80106 9.51867 6.05335 10.1828 12.6685 6.48538 5.30548 5.21921 8.47775 5.65404 5.07946 4.33873 5.45203 6.14643 4.29688 4.04341 3.68101 3.50736 3.4773 3.26731 4.3835 3.48889 3.25121 5.09914 3.21235
threshold=0.0020881015798646986 -0.10763878174747697 24.302357983236618 0.83012820512820518 23.677871386277598 0.030946390418190004 23.351395058462568 -0.99604019249814335 10.572465516782003 -5.7851820623274994 4.1720512639320004 0.26158217233280306 2.986201990111515e-11 -9.5599999999999987 0.25417317178491561 -4.8699999999999992 -2.0149999999999992 3.3392604443296001e-11 -0.23476555516324596 0.68950156427758835 -0.1507582478435853 -20.584917020785493 0.78059313037726052 -1.3065807133759997 4.5213152380902751e-10 0.17265531699409034 -0.018344965834101442 -409.40971863725645 0.043034209011378492 38.000463918477507
decision_type=10 2 10 8 10 10 10 2 10 10 10 2 2 10 2 8 10 2 2 2 2 10 2 10 2 2 2 10 2 2
left_child=1 7 3 4 15 6 20 8 10 -10 -1 -11 -3 14 -14 23 17 -9 -19 -7 -5 -21 -13 -2 26 -26 -22 28 -17 -8
right_child=2 12 -4 5 -6 19 29 16 9 11 -12 22 13 -15 -16 27 -18 18 -20 21 24 -23 -24 -25 25 -27 -28 -29 -30 -31
leaf_value=0.00521592607763143 0.017562212675395417 -0.00044917844862383627 -0.0012345143079890682 0.00041311606666953458 0.00015827742647812987 -0.00078038492655930418 -0.00061458938206368236 0.00092427745442241977 0.031942607281687171 0.011990848154652173 -0.0015622499041563151 0.0061372472785283143 0.0041674334200235809 0.00056647343710792533 0.019473071675047391 0.00081096701839003147 0.0012671961477656237 0.0057356088342091806 0.023177828580918984 0.0079118398197997285 -0.00036367314947247271 -0.0033188525807228831 -0.0058141304803319641 0.0049793821563145386 -8.813041903518021e-05 0.0023572132951108493 0.00020181557702124008 0.0016810775901031864 0.022122881561500288 0.00031955612506387497
leaf_weight=698 79 17564 20880 67598 45127 42622 83867 247 57 286 712 191 175 27294 93 65 32644 150 77 75 67910 2308 90 186 4352 3161 45573 12739 50 10330
leaf_count=698 79 17564 20880 67598 45127 42622 83867 247 57 286 712 191 175 27294 93 65 32644 150 77 75 67910 2308 90 186 4352 3161 45573 12739 50 10330
internal_value=6.43766e-08 0.000782588 -0.000154301 -9.58613e-05 0.000550423 -0.000210715 -0.000101626 0.0014992 0.0041479 0.0094672 0.00178977 0.00719372 0.000224252 0.00065358 0.00950265 0.00189894 0.00133636 0.00608799 0.0116818 -0.00089607 0.000103365 -0.00296297 0.00229091 0.00875456 -6.96459e-05 0.000940069 -0.000136538 0.00175715 0.0101316 -0.000512094
internal_weight=487200 80278 406922 386042 58246 327796 282791 35152 2034 624 1410 567 45126 27562 268 13119 33118 474 227 45005 188594 2383 281 265 120996 7513 113483 12854 115 94197
internal_count=487200 80278 406922 386042 58246 327796 282791 35152 2034 624 1410 567 45126 27562 268 13119 33118 474 227 45005 188594 2383 281 265 120996 7513 113483 12854 115 94197
is_linear=0
shrinkage=0.05


Tree=11
num_leaves=31
num_cat=0
split_feature=23 39 44 52 53 53 56 35 62 57 36 48 1 7 47 55 61 23 7 29 43 16 18 28 7 56 62 56 41 57
split_gain=21.371 14.1012 9.31336 7.57651 7.68477 7.11474 5.9542 5.55565 4.96489 5.43481 8.6687 5.8141 4.93273 5.90113 6.14182 14.5641 4.92278 4.91789 4.53137 7.85487 4.41302 4.37407 4.01737 4.74907 3.90061 4.36132 5.49729 3.76689 3.71529 3.59512
threshold=1.0000000180025095e-35 -0.17934919700634414 0.46311638504699199 2.3850000000000002 23.419214020310104 23.651836228682004 -81.844083076015991 2.986201990111515e-11 0.39827586206896559 -0.46999999999999981 0.21088379168363106 230.23718056507789 -0.63554405314655671 0.81770613136976178 0.014846768559689824 -6.3791293542389989 0.31142241379310348 0.018942764732452481 0.61602150800928246 -0.25144889442347168 -0.23641907497982487 -0.18875595472055548 0.02561177845822225 -0.17042106160707257 0.60030241336451795 -49.915067504524991 0.62331081081081086 39.847313334399509 -0.69027424886558941 -18.609999999999996
decision_type=10 2 10 8 10 10 10 2 8 10 2 2 2 2 2 10 10 10 2 2 2 2 2 2 2 10 10 10 2 10
left_child=1 6 3 5 16 24 20 -3 9 10 -9 18 -8 27 15 -15 17 -5 -12 -20 -1 -6 -7 -24 28 26 -26 -14 -2 -23
right_child=2 7 -4 4 21 22 12 8 -10 -11 11 -13 13 14 -16 -17 -18 -19 19 -21 -22 29 23 -25 25 -27 -28 -29 -30 -31
leaf_value=0.0041022950050281538 0.014881089340290331 -0.00029111574654678733 -0.0010846053293136408 0.00012712175610930709 0.0016414568901862462 0.00075673214271228684 0.00020652781939666887 0.024543350016887722 0.00052925014793845011 0.00062729510109618637 0.001803428652146583 0.017010104791092665 0.0016157388748922104 0.030625900236893884 0.0023721631700720502 0.0061609179893083472 0.0040123774917113289 -0.00040617097388334704 0.026051907178600838 0.0051373196945180243 0.021638266206897808 -0.0019843051489708131 0.002154514808577198 -0.00044344407636958338 0.0027725611083742703 0.0035844936127772137 0.025256244257425203 0.0043843951464910946 0.0013504158826212352 -0.00049076033798827704
leaf_weight=82 51 20663 24445 167725 2329 18333 3965 52 26058 1951 1316 80 14282 67 1001 669 763 58241 52 335 65 4191 1915 21540 53 571 57 1347 9029 105972
leaf_count=82 51 20663 24445 167725 2329 18333 3965 52 26058 1951 1316 80 14282 67 1001 669 763 58241 52 335 65 4191 1915 21540 53 571 57 1347 9029 105972
internal_value=6.8902e-08 0.000795402 -0.000137805 -7.85635e-05 -0.000164399 0.000486186 0.00186859 0.000338929 0.000775319 0.00246756 0.0044213 0.00383031 0.00179917 0.00216251 0.00492893 0.00839868 3.20872e-06 -1.03083e-05 0.00320728 0.00796647 0.0118997 -0.000502259 0.000202152 -0.00023111 0.00170164 0.00535378 0.014481 0.0018547 0.00142713 -0.000547627
internal_weight=487200 71985 415215 390770 339221 51549 21478 50507 29844 3786 1835 1783 21331 17366 1737 736 226729 225966 1703 387 147 112492 41788 23455 9761 681 110 15629 9080 110163
internal_count=487200 71985 415215 390770 339221 51549 21478 50507 29844 3786 1835 1783 21331 17366 1737 736 226729 225966 1703 387 147 112492 41788 23455 9761 681 110 15629 9080 110163
is_linear=0
shrinkage=0.05


Tree=12
num_leaves=31
num_cat=0
split_feature=23 53 61 23 17 20 53 53 57 62 54 54 56 17 40 40 57 60 6 51 62 26 54 43 12 56 54 56 58 26
split_gain=19.3763 9.36721 12.5682 7.9114 7.80789 9.08166 7.54503 7.17511 7.08276 7.60509 4.57461 4.47092 4.38606 4.33612 4.27066 3.93094 3.70357 3.6133 3.53153 4.69932 3.45493 3.8326 4.3261 3.54502 4.64167 3.4625 7.29494 3.56731 5.07924 3.28434
threshold=0.0024641016230601658 24.102200566627669 0.83012820512820518 0.030946390418190004 0.082131092390574659 21.142986674947014 23.677871386277598 23.2390904894506 -3.0099999999999993 0.81530214424951275 -4.8699999999999992 19.860000000000003 31.527987521096005 0.027193359797387143 0.39993972177314507 0.29359060483015448 -18.609999999999996 0.93649193548387111 0.63170434397163144 -837.45999999999992 0.05634920634920635 0.020410521059468504 -5.8099999999999996 -0.29478066040800177 0.47105835545408486 -81.844083076015991 7.0125000000000002 -90.602672546844488 -28.036811714481495 0.051760362122736277
decision_type=10 10 8 10 2 2 10 10 10 10 8 8 10 2 2 2 10 10 2 8 8 2 10 2 2 10 10 10 10 2
left_child=4 2 6 7 11 8 10 15 9 14 -2 12 16 -3 -6 -4 -1 18 19 -5 21 -18 -23 24 -22 26 27 -25 -29 -7
right_child=1 13 3 17 5 29 -8 -9 -10 -11 -12 -13 -14 -15 -16 -17 20 -19 -20 -21 23 22 -24 25 -26 -27 -28 28 -30 -31
leaf_value=-0.00084816317602157121 0.0082889139206766289 0.00017022491985605183 7.2931698922722334e-05 0.014385934989833786 0.0010746598354040419 0 0.0003084504606707865 -0.0003976164116998752 0.0050382556333430153 0.032514428065098078 0.0015981557843411387 -0.0006229186723562774 0.0019156456762761207 -0.0010740491069215952 0.019292246754941896 0.0011270006825578459 0.00030719458140541426 0.0018019670748756146 -0.0026585680492724781 -0.00078173388901015591 -0.01101202438581882 0.016981428527118727 0 0.0012331046217517385 0.0022273967498188428 0.00050527403142676733 0.016597444649177485 0.0018465851809783278 0.022437219853380957 0.0048164059099769507
leaf_weight=4153 261 8702 155420 51 63 952 32556 103882 329 57 12763 6750 6965 35696 67 9380 162 1293 2620 39386 67 109 57 1246 4388 59043 92 76 50 564
leaf_count=4153 261 8702 155420 51 63 952 32556 103882 329 57 12763 6750 6965 35696 67 9380 162 1293 2620 39386 67 109 57 1246 4388 59043 92 76 50 564
internal_value=7.67286e-08 -0.000145066 -6.00095e-05 -0.000173311 0.000685063 0.00374766 0.000715523 -7.21626e-05 0.00947875 0.0172576 0.00173268 0.000610162 0.00071916 -0.000830059 0.0105098 0.000132958 0.000599081 -0.000800112 -0.000880233 -0.000761956 0.000691215 0.00581111 0.0111489 0.000665279 0.00202692 0.000564938 0.00296757 0.00204883 0.0100684 0.00179318
internal_weight=487200 402010 357612 312032 85190 2032 45580 268682 516 187 13024 83158 76408 44398 130 164800 69443 43350 42057 39437 65290 328 166 64962 4455 60507 1464 1372 126 1516
internal_count=487200 402010 357612 312032 85190 2032 45580 268682 516 187 13024 83158 76408 44398 130 164800 69443 43350 42057 39437 65290 328 166 64962 4455 60507 1464 1372 126 1516
is_linear=0
shrinkage=0.05


Tree=13
num_leaves=31
num_cat=0
split_feature=23 39 39 54 18 54 50 54 39 62 58 35 27 20 35 37 61 53 53 40 55 39 44 28 58 20 56 26 56 50
split_gain=17.5567 12.6913 8.13438 6.73529 5.98558 5.2155 5.621 4.95689 5.92259 6.74777 6.1056 5.42241 6.08857 4.81815 7.91928 5.649 4.69561 5.62473 4.64338 4.15297 3.98518 4.01507 3.9244 4.87029 3.75682 4.61533 3.63479 4.86962 5.70141 4.13374
threshold=1.0000000180025095e-35 -0.10763878174747697 -0.052126196084213476 4.6705000000000014 0.032590970663860609 0.52500000000000013 0.19872218945167267 11.485000000000001 -0.99604019249814335 0.72673160173160178 -12.547583137783498 2.8335201465351802e-10 1.4968258801133436 19.660899873702551 1.4482466506318186e-10 0.049282234145120903 0.62701612903225812 23.801638231486638 23.168828366963989 0.1964692708993451 -3.2062283601074997 -0.17934919700634414 0.84336506866627348 -0.14980619863888339 6.6621590638945003 40.938179233174765 -9.7242889919244977 0.093780148441510183 -6.602778675241499 0.63260923973342231
decision_type=10 2 2 8 2 10 2 10 2 10 8 2 10 2 2 2 8 10 10 2 10 2 10 2 10 2 10 2 10 2
left_child=1 7 16 22 -5 6 -3 8 9 -1 11 20 -13 14 -11 -16 17 19 -18 -2 -10 -22 23 -4 -12 -26 -8 -28 -29 -30
right_child=2 5 3 4 -6 -7 26 -9 10 13 24 12 -14 -15 15 -17 18 -19 -20 -21 21 -23 -24 -25 25 -27 27 28 29 -31
leaf_value=0.00076614690807651729 0.0011165849924332991 0.017056231988927747 0.001006010868053012 -0.00024741520517351844 -0.0012907401362067656 -3.0453722933161846e-05 0.00021527512497388455 0.00058767347180330393 -0.00053244863640336179 0.0032728524384512468 0.00066740909297036567 0.0038001703619910416 0.026776131651509057 0.0056568219951741508 0.031721181420340687 0.0097773240514668243 0.00018726842244993689 0.00014893973257866741 -0.0002678407817722764 0.0036758088597654789 0.0051628823399754373 0.0016107656122236102 -0.0023419451504388183 -0.00022720487017295418 0.0018765466937174773 0.0073017509449824214 0.0010958505136402247 0.018985715866981431 0.0036248403662443233 0.018442606210982117
leaf_weight=550 6282 61 8718 24119 32009 37370 1799 10407 634 93 9999 66 52 623 72 51 126117 15043 100871 2125 2053 1307 2037 97894 4895 427 876 84 514 52
leaf_count=550 6282 61 8718 24119 32009 37370 1799 10407 634 93 9999 66 52 623 72 51 126117 15043 100871 2125 2053 1307 2037 97894 4895 427 876 84 514 52
internal_value=8.15723e-08 0.000720956 -0.000124883 -0.00039772 -0.000842499 0.000139673 0.00201872 0.00147941 0.00192486 0.00508073 0.001699 0.00341041 0.0139816 0.00790274 0.0143518 0.0226785 5.46116e-05 0.000728205 -1.49552e-05 0.0017641 0.0030965 0.00378273 -0.000167901 -0.000126313 0.00123933 0.0023129 0.00174084 0.00353592 0.00681601 0.00499804
internal_weight=487200 71985 415215 164777 56128 40756 3386 31229 20822 1389 19433 4112 118 839 216 123 250438 23450 226988 8407 3994 3360 108649 106612 15321 5322 3325 1526 650 566
internal_count=487200 71985 415215 164777 56128 40756 3386 31229 20822 1389 19433 4112 118 839 216 123 250438 23450 226988 8407 3994 3360 108649 106612 15321 5322 3325 1526 650 566
is_linear=0
shrinkage=0.05


Tree=14
num_leaves=31
num_cat=0
split_feature=23 39 53 52 53 23 53 17 1 47 54 54 36 57 29 31 53 35 16 7 56 16 20 17 27 15 29 39 17 44
split_gain=16.1031 8.69505 8.32433 10.9272 9.1513 9.07581 7.89353 5.38554 6.48793 5.86876 5.18662 4.76547 4.67122 12.299 5.02129 4.6277 4.45293 4.21796 3.95922 3.84499 5.27498 3.53433 3.41922 3.35864 3.31562 4.52847 3.2703 4.01293 3.1653 3.01722
threshold=0.0033511287328590934 -0.32006248242311935 24.102200566627669 1.0000000180025095e-35 23.685613041831797 0.056617867488629965 23.210687594934612 0.072349799077225815 -0.24746201133286858 0.10528273031707673 -4.8699999999999992 -9.5599999999999987 0.32804015724614694 0.20799999999999955 -0.069782929041738703 0.019241580372783496 23.232015721271988 8.9063133640026889e-12 0.09350977247676763 0.56870768253458415 -173.31676106128447 -0.14480301197746559 39.563148850173008 0.027193359797387143 1.2161923771792564 0.25011676140045741 0.11546911967795785 -0.073086628644596349 0.027063369011762251 0.05160875117648412
decision_type=10 2 10 10 10 10 10 2 2 2 10 10 2 10 2 2 10 2 2 2 10 2 2 2 10 2 2 2 2 10
left_child=1 7 3 5 10 6 26 18 -9 12 -5 15 13 14 -10 -3 -12 -13 -1 -18 -21 -19 28 -4 25 -17 27 -2 -8 -29
right_child=2 11 23 4 -6 -7 22 8 9 -11 16 17 -14 -15 -16 24 19 21 -20 20 -22 -23 -24 -25 -26 -27 -28 29 -30 -31
leaf_value=0.00087667280618349507 0.00017858174407598063 0.0014572274834550793 0.00015124280256466392 0.0086790639646520101 0.00016403020883396064 -0.0015020236874291998 -2.0467837088445546e-05 0.00038269894923536674 0.017132007918737445 0.00058137073207109873 0.0069125588533666812 -0.0012207609509000154 0.0058105046223898629 0.0063104874658491865 0.038857805393561873 0.0061863333464936797 0.0010236798835366807 0.0019472719960153782 0.0031269897587336507 0.015746313849612278 0.0028496609165585547 0.00034698302828168248 0.00040544019608245981 -0.0010171550262023914 0.0044607271382150785 0.024886857496049412 0.00051310692570438689 -0.0011713976473954827 -0.0007379850446327874 -0.00019764330716165752
leaf_weight=9342 83951 664 7466 251 43294 12701 19647 668 60 298 363 4127 510 205 50 71 14121 3609 2476 83 1835 79243 9695 34721 186 61 33771 9761 70856 43114
leaf_count=9342 83951 664 7466 251 43294 12701 19647 668 60 298 363 4127 510 205 50 71 14121 3609 2476 83 1835 79243 9695 34721 186 61 33771 9761 70856 43114
internal_value=8.73446e-08 0.000560208 -0.000147428 -6.59942e-05 0.000547303 -0.000195697 -0.000134408 0.00173644 0.00429268 0.00661378 0.00154342 0.000378167 0.00878636 0.0135852 0.0270791 0.00384209 0.00143386 0.000338998 0.00134858 0.00130951 0.00341115 0.000416754 -0.000486657 -0.000810261 0.00880408 0.0148784 7.24513e-05 -3.62738e-05 -0.000582277 -0.0003775
internal_weight=487200 101570 385630 343443 59947 283496 270795 13609 1791 1123 16653 87961 825 315 110 982 16402 86979 11818 16039 1918 82852 100198 42187 318 132 170597 136826 90503 52875
internal_count=487200 101570 385630 343443 59947 283496 270795 13609 1791 1123 16653 87961 825 315 110 982 16402 86979 11818 16039 1918 82852 100198 42187 318 132 170597 136826 90503 52875
is_linear=0
shrinkage=0.05


Tree=15
num_leaves=31
num_cat=0
split_feature=23 53 52 53 23 53 17 55 47 36 57 56 53 28 23 51 17 40 62 20 55 17 15 22 57 55 7 23 15 63
split_gain=14.5391 7.49462 9.94689 8.63659 8.24499 6.85384 5.94338 8.69755 8.91513 8.39916 3.95063 3.69533 3.15456 3.08603 3.40651 3.6475 3.08434 3.03576 3.51837 3.02721 3.27991 3.23993 2.9937 4.55192 3.5808 4.51141 2.9067 2.84769 3.10997 2.98955
threshold=0.0032733864248651978 24.102200566627669 0.67500000000000016 23.617011614027295 0.056617867488629965 23.232015721271988 0.082131092390574659 -1.9590979090279996 0.016307903337948074 0.27379234395257462 -22.384999999999994 -409.40971863725645 23.232015721271988 -0.18181026635532502 0.026601665863558086 27.825000000000003 0.027193359797387143 0.30176590060481517 0.077677224736048281 39.563148850173008 -30.846272919037496 0.026382909728656319 -0.13949783166645088 0.35312203587513263 3.2450000000000006 19.218889494395501 0.34154602276576568 0.016373842120876 -0.01912417635476071 0.938137755102041
decision_type=10 10 10 10 10 10 2 10 2 2 8 10 10 2 10 10 2 2 10 2 10 2 2 2 10 10 2 10 2 10
left_child=6 2 4 11 5 17 10 8 9 -8 -1 -4 -13 14 -5 -16 -3 18 -2 20 26 -22 23 -12 -24 -26 -7 28 -20 -30
right_child=1 16 3 13 -6 19 7 -9 -10 -11 22 12 -14 -15 15 -17 -18 -19 27 -21 21 -23 24 -25 25 -27 -28 -29 29 -31
leaf_value=-0.0013306773825526932 -0.0016357181152242631 0.00014724129117103438 0.011474912862077918 0.00054890707054575214 -0.0014269230881005183 -2.8506119513094324e-05 0.029133321521376411 0.001123615435846561 0.0022261934065470773 0.009560130057564304 -0.012676371159724987 0.006611637540702462 0.001567370633188589 0.00012522867402359604 0.00032063339106160743 0.0060210988000650705 -0.00096508572227190349 0.00083590773857279146 -4.2105113462299009e-05 0.00038120737635088242 1.974639567029927e-05 -0.00072125979293191525 0.00068995998667819984 0.0017509771804292444 0.00017598997797181113 -0.0023753784079124092 0.0092258600208822757 -0.00027365055681936862 0.00068996492822469269 -0.00033526408709425411
leaf_weight=2914 3193 7582 98 2323 12701 177 74 1445 297 217 55 320 10500 42894 457 735 34810 11867 64704 9725 18643 70430 59161 5958 27951 1847 161 49796 37392 8773
leaf_count=2914 3193 7582 98 2323 12701 177 74 1445 297 217 55 320 10500 42894 457 735 34810 11867 64704 9725 18643 70430 59161 5958 27951 1847 161 49796 37392 8773
internal_value=9.26591e-08 -0.000138636 -6.15055e-05 0.000539867 -0.00018141 -0.000123838 0.000537846 0.00321402 0.00834158 0.014563 0.00048221 0.00180522 0.00171708 0.000242073 0.00166648 0.00384001 -0.000766023 6.36711e-05 7.71287e-06 -0.000456259 -0.000547404 -0.000566111 0.000537888 0.00161797 0.000464824 1.76707e-05 0.00436628 4.0406e-05 0.000181507 0.000495026
internal_weight=487200 387281 344889 57327 287562 274861 99919 2033 588 291 97886 10918 10820 46409 3515 1192 42392 175725 163858 99136 89411 89073 94972 6013 88959 29798 338 160665 110869 46165
internal_count=487200 387281 344889 57327 287562 274861 99919 2033 588 291 97886 10918 10820 46409 3515 1192 42392 175725 163858 99136 89411 89073 94972 6013 88959 29798 338 160665 110869 46165
is_linear=0
shrinkage=0.05


Tree=16
num_leaves=31
num_cat=0
split_feature=39 23 53 52 53 17 23 1 17 20 59 52 18 57 54 46 53 44 29 23 56 54 44 16 17 43 63 31 51 6
split_gain=13.9425 14.6905 5.75816 7.80868 6.18281 5.11681 5.0277 4.74849 6.33113 7.77332 6.25476 4.31822 4.87769 4.22665 4.20752 4.13428 3.50868 4.41716 3.84324 4.41737 3.49205 4.10248 3.64738 3.37985 4.40509 7.97189 4.36126 3.65655 3.13898 3.24245
threshold=-0.092019443586477165 1.0000000180025095e-35 24.069795816646522 0.65500000000000014 23.702574453367507 0.027845019829899727 0.094604592824859238 -0.5345756732848066 0.082131092390574659 21.762567115078905 -7.2899860386319988 2.6550000000000007 0.057097177421427579 -22.384999999999994 -4.8699999999999992 63.285393236048122 23.224790767138046 0.050787032233062364 0.14307404210866573 0.017947730308368923 -81.844083076015991 0.33500000000000008 0.47415898994622402 -0.16455794581112757 0.043943610800388964 -0.41566180316796086 0.19292803970223329 0.0013682366889937729 -837.45999999999992 0.032131095074384837
decision_type=2 10 10 10 10 2 10 2 2 2 10 8 2 10 10 2 10 10 2 10 10 10 10 2 2 2 10 2 10 2
left_child=1 7 3 6 14 -4 13 -1 20 10 -10 12 -3 -2 -5 -12 17 -15 19 -19 21 -9 -22 26 25 -25 27 -13 29 -6
right_child=2 11 5 4 28 -7 -8 8 9 -11 15 23 -14 16 -16 -17 -18 18 -20 -21 22 -23 -24 24 -26 -27 -28 -29 -30 -31
leaf_value=0.00016573197687156041 -0.0019363931711113111 0.00082063998887010815 0.00018956194537144758 0.0079833980431002066 0.017886160642230239 -0.001175302213531515 -0.0025393877287188805 0.017033810957742465 0.022172281384768955 0.0022131364273630912 0.010101616356518236 -0.013204148552764609 0.0065332936090244298 -0.00071233007867312049 0.0012179857480509202 -0.005119488042281759 -0.00050746392061800337 0.00014828027549079189 0.00071954811700877612 -0.00068895714202200269 0.0011058834769475299 0.0028490678340613086 0.0028486445967600559 0.016422590665945837 -0.00050353107477361144 0.00012640885607895027 0.0018824893842271221 -1.219202565027647e-05 3.0800034641106562e-05 0.00042865349015095973
leaf_weight=7896 3657 12935 9243 234 50 26645 2434 76 94 752 245 53 385 21384 13501 54 68179 60417 18995 21310 22104 158 3480 75 34894 116289 5535 4955 31113 58
leaf_count=7896 3657 12935 9243 234 50 26645 2434 76 94 752 245 53 385 21384 13501 54 68179 60417 18995 21310 22104 158 3480 75 34894 116289 5535 4955 31113 58
internal_value=9.27521e-08 0.000307437 -0.000232687 -0.000144786 0.000449602 -0.000823641 -0.000280884 0.00124482 0.00156064 0.00520029 0.0109014 0.000120815 0.000986181 -0.000252512 0.00133367 0.00733514 -0.000220123 -5.96426e-05 7.88785e-05 -6.99655e-05 0.00139901 0.00748275 0.00134314 4.95439e-05 -1.07562e-05 0.000136969 0.000915121 -0.000153063 6.05131e-05 0.00856616
internal_weight=487200 209980 277220 241332 44956 35888 196376 34859 26963 1145 393 175121 13320 193942 13735 299 190285 122106 100722 81727 25818 234 25584 161801 151258 116364 10543 5008 31221 108
internal_count=487200 209980 277220 241332 44956 35888 196376 34859 26963 1145 393 175121 13320 193942 13735 299 190285 122106 100722 81727 25818 234 25584 161801 151258 116364 10543 5008 31221 108
is_linear=0
shrinkage=0.05


Tree=17
num_leaves=31
num_cat=0
split_feature=39 23 53 61 53 55 54 39 55 62 47 36 23 28 44 18 0 53 56 58 56 7 51 16 18 17 61 12 53 54
split_gain=12.6703 13.1714 5.67963 5.8464 7.81203 5.57767 4.24129 4.49019 6.37027 5.32307 4.87693 7.31523 3.78489 4.61506 3.8423 3.61017 3.55937 4.56214 3.75554 4.88159 3.4124 5.43831 3.39897 2.99164 3.64701 3.32059 3.68932 3.24664 2.75196 2.74529
threshold=-0.10406309159597336 1.0000000180025095e-35 24.320756163778096 0.91277890466531453 23.784707514649025 18.442106613382503 21.235000000000003 -0.42462883011043434 -2.3657833886729995 0.67799539170506928 0.0177957376566549 0.27379234395257462 0.051847605602440547 -0.18181026635532502 0.84336506866627348 0.026645980452160729 47.480351595566383 23.441788986728316 124.79521463532002 62.69832123650901 -409.40971863725645 0.52873429577273223 -837.45999999999992 -0.16455794581112757 0.066240873027519367 0.046296405562080555 0.60263157894736852 0.43335233826802938 23.866381910845131 -0.75499999999999989
decision_type=2 10 10 8 10 10 10 2 10 10 2 2 10 2 10 2 2 10 10 10 10 2 10 2 2 2 8 2 10 10
left_child=1 6 3 4 20 12 7 8 10 -10 11 -1 13 -5 -14 -6 -15 -18 -19 28 21 -2 -22 24 27 -25 -27 -3 -20 -9
right_child=2 23 -4 5 15 -7 -8 29 9 -11 -12 -13 14 16 -16 -17 17 18 19 -21 22 -23 -24 25 -26 26 -28 -29 -30 -31
leaf_value=0.025381703240896475 0.002021599591190291 -0.010829289677473848 -0.0011659584909582688 0.00087334297314131898 0.00052582031241859867 -0.0015662232858587707 -0.00057155056750041893 0.004721865305885805 -0.00093529593399375478 0.0030049493050791493 0.0032645874468019685 0.0075679577564616261 -0.00076506424675371304 -0.00048683354110604159 -0.0036061758770031026 -0.00051644737040638358 0.00013820901561357614 -0.00062973692457058154 0.0058786412383609286 0.00074174885133941907 0.013172139936702233 0.022107901963072562 0.0010513370762180272 0.00018712830240688811 0.0052344274407065267 0.0023076323153456055 -0.00055309475675354076 0.00082260505445877908 0.019344285496468647 0.001052663379107154
leaf_weight=71 105 60 14559 10129 13431 7926 2916 522 1156 3296 472 315 10249 77169 1348 21775 88196 34085 156 942 58 50 18139 119732 476 1178 25721 9667 51 23250
leaf_count=71 105 60 14559 10129 13431 7926 2916 522 1156 3296 472 315 10249 77169 1348 21775 88196 34085 156 942 58 50 18139 119732 476 1178 25721 9667 51 23250
internal_value=9.41316e-08 0.000320619 -0.000202744 -0.000153314 0.000317176 -0.000262775 0.00124513 0.00142746 0.00274267 0.00198071 0.0066898 0.0108633 -0.000216283 -0.000167859 -0.00109577 -0.000118682 -0.000220458 -5.38783e-05 -0.000534843 0.00227565 0.00115358 0.00854337 0.00109032 0.000131962 0.000959853 7.43204e-05 -0.00042762 0.000750107 0.00922815 0.00113346
internal_weight=487200 188832 298368 283809 53558 230251 31998 29082 5310 4452 858 386 222325 210728 11597 35206 200599 123430 35234 1149 18352 155 18197 156834 10203 146631 26899 9727 207 23772
internal_count=487200 188832 298368 283809 53558 230251 31998 29082 5310 4452 858 386 222325 210728 11597 35206 200599 123430 35234 1149 18352 155 18197 156834 10203 146631 26899 9727 207 23772
is_linear=0
shrinkage=0.05


Tree=18
num_leaves=31
num_cat=0
split_feature=39 23 57 54 32 1 39 37 62 54 28 23 52 54 56 56 59 56 59 52 36 23 44 58 52 58 23 35 62 62
split_gain=11.4885 12.3937 5.04529 4.85777 5.07782 4.33231 5.54449 4.64807 4.27487 4.29132 4.21786 4.66589 3.86372 3.82564 3.87454 5.4928 4.20636 4.44044 4.07887 3.75443 3.35523 3.32963 3.13168 3.47058 3.06628 2.94338 3.39212 2.89247 2.88927 2.86882
threshold=-0.087025840816272834 1.0000000180025095e-35 -22.384999999999994 7.1550000000000011 0.01114845303829126 -0.5345756732848066 -0.32629409924438807 -0.17888002825702401 0.29893617021276603 1.5450000000000002 -0.15112221923800689 0.0033511287328590934 1.8250000000000004 26.220000000000002 14.0512234564855 15.835680083559003 -9.1476743096719986 -3.4421649015089995 2.6333132970560009 2.6550000000000007 0.26492687250613506 0.094604592824859238 0.52792335482690822 8.1364286968010013 1.425 22.380791431933506 0.039203719731395179 2.2826246243533354e-11 0.69732205778717427 0.80196078431372564
decision_type=2 10 10 10 2 2 2 2 10 10 2 10 8 10 10 10 10 10 10 8 2 10 10 10 10 10 10 2 10 10
left_child=1 5 -2 10 12 -1 7 -7 9 27 21 -12 -5 14 16 -16 20 29 -19 -3 -9 24 23 -20 -4 26 -21 -8 -22 -18
right_child=2 19 3 4 -6 6 8 13 -10 -11 11 -13 -14 -15 15 -17 17 18 22 25 28 -23 -24 -25 -26 -27 -28 -29 -30 -31
leaf_value=0.0001047471049384478 -0.0018732518629274244 0.00086275900907236867 0.00045025461487113315 0.0010000631173258567 -0.0013771542022908362 0.015644009533440958 -0.00065139693278009844 0.014164802087250289 0.00079176407516734688 -0.00082466881146600699 0.00045373860577142019 -0.00025286441687612666 -0.00046465019296709385 -0.0013843593778751345 0.012360084512369919 0.0036750209080934184 0.0018200762260474476 -0.00082120581462580527 0.0070448839291087865 1.4821358293642159e-05 0.0097566500505937449 -0.003068223825384301 -0.0030712530806044024 0.00017157477125258666 0.0021055831913519242 0.00057597262835428907 -0.00098925859639460668 0.007545661394463176 0.0020370935562660526 0.0068461814367003831
leaf_weight=8222 4536 14877 15253 4964 14729 67 129 97 18899 315 27731 148196 48229 610 200 2096 662 2173 485 137735 167 587 168 298 3430 21817 8958 617 451 502
leaf_count=8222 4536 14877 15253 4964 14729 67 129 97 18899 315 27731 148196 48229 610 200 2096 662 2173 485 137735 167 587 168 298 3430 21817 8958 617 451 502
internal_value=9.4533e-08 0.00026819 -0.000219793 -0.000191269 -0.000555482 0.00111424 0.00141117 0.00252587 0.000965482 0.00405473 -6.45095e-05 -0.000141455 -0.000327867 0.00241391 0.00273204 0.00443424 0.00194979 0.00135615 0.000372197 0.000101348 0.00550227 0.000637713 0.00310413 0.00443573 0.000754433 3.40965e-05 -4.64606e-05 0.00612161 0.00413245 0.00399239
internal_weight=487200 219545 267655 263119 67922 36158 27936 7976 19960 1061 195197 175927 53193 7909 7299 2296 5003 4288 3124 183387 715 19270 951 783 18683 168510 146693 746 618 1164
internal_count=487200 219545 267655 263119 67922 36158 27936 7976 19960 1061 195197 175927 53193 7909 7299 2296 5003 4288 3124 183387 715 19270 951 783 18683 168510 146693 746 618 1164
is_linear=0
shrinkage=0.05


Tree=19
num_leaves=31
num_cat=0
split_feature=39 23 57 17 54 18 23 54 57 39 58 58 55 35 27 29 59 39 55 18 0 23 20 54 55 58 55 27 54 50
split_gain=10.4605 10.7303 5.08786 4.44555 3.91595 4.92634 4.51928 3.66533 3.90724 4.7566 4.92973 4.66976 6.27409 4.41517 5.70828 4.03489 3.48652 4.06641 3.41107 3.38708 3.64041 3.3025 3.43508 3.26743 13.7915 4.59441 8.1822 4.22016 3.39347 4.92537
threshold=-0.1029164396156647 1.0000000180025095e-35 -22.384999999999994 0.01732246067988169 5.5567000000000002 0.078422819802956512 1.0000000180025095e-35 11.485000000000001 -13.364999999999997 -0.99604019249814335 -10.915673602955499 6.0116796169845017 -4.7227317572569989 2.8335201465351802e-10 1.5249100841550118 0.10654909344419607 9.6345999300065035 -0.39179323652504761 20.485616146764503 0.032590970663860609 51.610733491276257 0.094604592824859238 26.002734224000957 4.785000000000001 -7.0649675369614995 -0.14810890107200023 -2.4666698938494993 1.4609548227740066 0.52500000000000013 0.19872218945167267
decision_type=2 10 10 2 10 2 10 10 10 2 8 10 10 2 10 2 10 2 10 2 2 10 2 10 10 8 10 10 10 2
left_child=1 7 -2 -4 6 19 23 8 -1 11 13 -10 -13 16 -15 -14 17 -11 -12 20 -6 22 -8 28 -25 26 27 -26 29 -5
right_child=2 -3 3 4 5 -7 21 -9 9 10 18 12 15 14 -16 -17 -18 -19 -20 -21 -22 -23 -24 24 25 -27 -28 -29 -30 -31
leaf_value=1.3461947315056023e-05 -0.0017360732426757155 0.00011975940577237394 0.00098713878659917732 0.016209318121716519 -0.00045526486711653259 -0.0034975666648329354 -0.00029323651666163686 0.00036362927531672436 0.0016866823510365636 0.0068724099371082082 0.0010056258035767121 0.023883858825783075 0.0093696643687449822 0.0032762580937011829 0.025553597588679505 -0.00013506892598294444 0.010904280030190616 0.0018851560861051946 0.0062510956326453544 -0.00067708480479636768 0.00046977516502618756 -0.0019303420355957141 0.00017100569704990524 0.028196731858035645 0.027474178285150287 -0.00072269445445264399 0.0026858022250314663 0.0069531445820423636 4.8399919515768888e-05 0.0016269758511518045
leaf_weight=3688 5200 158556 8233 59 26441 1306 99046 10704 560 476 12730 57 352 69 50 162 131 2942 318 52525 17790 2520 66652 51 52 939 1130 50 11303 3108
leaf_count=3688 5200 158556 8233 59 26441 1306 99046 10704 560 476 12730 57 352 69 50 162 131 2942 318 52525 17790 2520 66652 51 52 939 1130 50 11303 3108
internal_value=9.466e-08 0.000288875 -0.000185775 -0.000158074 -0.000191412 -0.000446834 -5.59283e-05 0.00112045 0.00149639 0.00180255 0.00158976 0.00494266 0.0081263 0.00320996 0.0126921 0.00636484 0.00289026 0.00258134 0.0011339 -0.0004056 -8.30944e-05 -0.000133819 -0.000106465 0.000728728 0.00251436 0.00190747 0.00391606 0.0174805 0.000454167 0.00190072
internal_weight=487200 190795 296405 291205 282972 98062 184910 32239 21535 17847 16716 1131 571 3668 119 514 3549 3418 13048 96756 44231 168218 165698 16692 2222 2171 1232 102 14470 3167
internal_count=487200 190795 296405 291205 282972 98062 184910 32239 21535 17847 16716 1131 571 3668 119 514 3549 3418 13048 96756 44231 168218 165698 16692 2222 2171 1232 102 14470 3167
is_linear=0
shrinkage=0.05


Tree=20
num_leaves=31
num_cat=0
split_feature=39 23 54 56 35 35 28 20 50 57 16 1 39 54 57 17 54 59 29 63 56 59 35 58 40 47 52 54 23 1
split_gain=9.50545 9.35034 5.70436 7.31837 4.64716 4.48198 5.34757 4.12943 5.64936 3.71023 3.79727 3.36987 4.03134 3.95344 3.35761 3.25834 3.22248 4.62314 3.22204 3.01592 3.00276 3.63809 2.93733 7.13679 3.49193 5.04512 2.80058 2.92721 2.78034 2.76411
threshold=-0.055344644827398419 1.0000000180025095e-35 5.8950000000000005 -72.532356925854486 5.6772055697997702e-11 7.9347504067966312e-11 -0.20819415494100316 21.762567115078905 0.29816730955644061 -18.609999999999996 -0.13867328589993977 -2.7685028920502046 -0.27665903871137398 0.073000000000000023 8.8498000000000037 0.035403177701236493 10.715000000000002 14.482577313762002 0.13347700669634296 0.17712418300653598 23.381600311427501 -7.2899860386319988 2.8335201465351802e-10 -43.456223586618997 0.22262749891434119 0.042177686958660095 3.7850000000000006 8.1150000000000002 1.0000000180025095e-35 -0.12777742364326938
decision_type=2 10 8 10 2 2 2 2 2 10 2 2 2 10 10 2 10 10 2 10 10 10 2 10 2 2 8 10 10 2
left_child=1 5 18 4 -4 11 7 8 -7 -3 19 -1 13 -13 26 -5 17 20 -2 -11 21 -15 -8 -24 -25 -26 27 -12 -20 -28
right_child=2 9 3 15 -6 6 22 -9 -10 10 14 12 -14 16 -16 -17 -18 -19 28 -21 -22 -23 23 24 25 -27 29 -29 -30 -31
leaf_value=-0.0013821011577493973 -0.00021567356855563822 -0.00094503094059747916 0.02254183201208532 -0.00030418890530815434 0.0042617910981444622 0.02541568050314735 0.0011296578010919791 0.0033300618509863665 0.0070619385747743612 -4.8264138902853648e-06 0.00020264131726240064 0.012620258370801555 0.00037455813563013184 0.0051641347368439859 -0.00091824301579808898 -0.0010427329861221162 0.00059534785534418044 0.012022444109942281 0.0019665003559643551 0.0012115439589786194 0.0045359106379379973 0.00085882379381555071 0.022351899068178208 0.00016577658869027851 0.014700016644616301 -0.0040679539032116427 -0.00032245880104671694 0.0012985223649813948 0.00022535951287578436 0.00012234641012396792
leaf_weight=2010 108209 8846 50 27797 117 52 6642 717 224 8381 20443 80 24779 576 8864 32334 5286 121 2506 12969 1025 3347 53 344 117 51 48128 8690 27113 127329
leaf_count=2010 108209 8846 50 27797 117 52 6642 717 224 8381 20443 80 24779 576 8864 32334 5286 121 2506 12969 1025 3347 53 344 117 51 48128 8690 27113 127329
internal_value=9.88197e-08 0.000182948 -0.00026666 -0.000672293 0.00977499 0.000841552 0.00190003 0.00534158 0.010546 6.01427e-05 9.80333e-05 0.000608243 0.000721997 0.00154654 3.44169e-05 -0.000701407 0.00146038 0.00236143 -8.91647e-05 0.000733823 0.00212392 0.00149235 0.00142508 0.00488839 0.00306687 0.00897382 7.57164e-05 0.000529704 0.000372849 3.07362e-07
internal_weight=487200 289074 198126 60298 167 45424 8200 993 276 243650 234804 37224 35214 10435 213454 60131 10355 5069 137828 21350 4948 3923 7207 565 512 168 204590 29133 29619 175457
internal_count=487200 289074 198126 60298 167 45424 8200 993 276 243650 234804 37224 35214 10435 213454 60131 10355 5069 137828 21350 4948 3923 7207 565 512 168 204590 29133 29619 175457
is_linear=0
shrinkage=0.05


Tree=21
num_leaves=31
num_cat=0
split_feature=39 23 53 61 53 23 44 53 44 54 39 59 36 44 56 56 62 21 62 20 52 52 7 36 33 51 35 36 53 40
split_gain=8.77707 8.84442 4.84168 4.84499 6.28149 3.25168 3.9812 4.25959 3.50035 3.19101 3.19586 4.57021 4.7979 5.06693 4.06605 3.44835 4.14697 3.47981 5.67678 3.38944 3.05691 3.00207 2.98665 2.97806 3.40897 2.94249 2.88721 2.70871 2.72243 2.7016
threshold=-0.099435082191914034 inf 24.320756163778096 0.81980519480519487 23.784707514649025 0.030946390418190004 0.057896617884955377 23.259882730938365 0.7308421985815603 21.235000000000003 -0.42462883011043434 -9.4024974217909989 0.27087137686031382 0.69129981673635854 14.0512234564855 1.9489632311520002 0.70881782945736449 0.15551246201645855 0.83503401360544227 35.424541006210973 6.7350000000000012 2.6550000000000007 0.59539255412555681 0.34184662123340487 0.48547620983667633 -837.45999999999992 2.7251901849760787e-11 0.57664563406777125 22.926125054147722 0.30176590060481517
decision_type=2 8 10 8 10 10 10 10 10 10 2 10 2 10 10 10 10 2 10 2 10 8 2 2 2 8 2 2 10 2
left_child=1 21 3 4 20 6 -5 26 25 10 11 12 13 -3 15 17 -17 18 -13 -18 -2 22 -1 24 -20 -7 -8 28 -23 -28
right_child=2 9 -4 5 -6 8 7 -9 -10 -11 -12 14 -14 -15 -16 16 19 -19 23 -21 -22 27 -24 -25 -26 -27 29 -29 -30 -31
leaf_value=0.00071425989772453248 0.0010546930529427021 0.0053789161103593433 -0.0010728085234073153 -0.00055284287069757036 -9.0957237771551326e-05 0.010242239562956921 -0.00051634098147997542 -0.0003638366970663051 -0.0024036205301339836 -0.00054630559299160327 0.00092055301576505263 0.0015043058515468893 0.0043101631897058514 0.027599009063364589 0.0036229298629336841 -0.0060275992975022639 0.0016249052219840154 -0.00064535504849138952 0.0084454399872622744 -0.0055511285039546339 0.011308903716473997 0.0003860305934126306 0.0045750457697024188 0.0058379633347639473 0.025794476878091034 -0.00056372096988018807 0.00021791988075559843 -0.00047471924538513628 -7.2020498400125036e-05 0.0014000429027233717
leaf_weight=10739 16950 53 14263 47121 31798 63 12729 57674 2776 3011 24718 600 419 51 1851 330 924 590 65 200 73 58951 526 175 52 26901 75094 21236 72099 5168
leaf_count=10739 16950 53 14263 47121 31798 63 12729 57674 2776 3011 24718 600 419 51 1851 330 924 590 65 200 73 58951 526 175 52 26901 75094 21236 72099 5168
internal_value=1.014e-07 0.000258139 -0.000174437 -0.000128051 0.000323867 -0.000225043 -0.000151714 -2.62267e-05 -0.000712544 0.00100432 0.00115998 0.00227352 0.00671443 0.0163394 0.00178716 0.000628014 -0.00109959 0.00232631 0.00429733 0.000343203 0.00109903 0.000107371 0.000895016 0.0100168 0.0162143 -0.00053825 0.000183109 4.9073e-05 0.000133989 0.0002941
internal_weight=487200 196590 290610 276347 48821 227526 197786 150665 29740 33039 30028 5310 523 104 4787 2936 1454 1482 892 1124 17023 163551 11265 292 117 26964 92991 152286 131050 80262
internal_count=487200 196590 290610 276347 48821 227526 197786 150665 29740 33039 30028 5310 523 104 4787 2936 1454 1482 892 1124 17023 163551 11265 292 117 26964 92991 152286 131050 80262
is_linear=0
shrinkage=0.05


Tree=22
num_leaves=31
num_cat=0
split_feature=23 44 16 57 39 55 35 56 18 39 6 51 37 56 62 35 58 17 58 7 55 56 41 16 56 55 57 35 57 9
split_gain=8.16858 5.51757 4.91937 4.4085 4.35822 4.71728 3.81679 3.70169 3.60164 3.34083 3.35109 3.20095 3.19796 3.06912 3.10538 2.9671 2.91554 2.87708 4.34634 11.0651 4.98133 5.85219 3.48889 3.12586 2.81231 3.26648 4.16563 3.82993 2.73097 2.71654
threshold=0.0033511287328590934 0.78184562486463094 -0.16455794581112757 -18.609999999999996 -0.32006248242311935 -2.6469127165239996 1.1351680620892593e-11 -25.715060539882995 0.065129754317230962 -0.039168489431840862 0.0090909090909091512 -837.45999999999992 -0.13874734717386458 -40.409151623838987 0.40161290322580651 2.1991947570177027e-11 -19.346980882791996 0.041851099287835238 -21.587709086629499 0.42617128651236519 -3.7237969735004994 -81.844083076015991 0.27216249560354394 0.270290760744823 -41.962539694104997 -12.904306588690497 -11.254999999999997 9.0013600867058685e-11 -0.56175000000000019 -0.67227749158632322
decision_type=10 8 2 10 2 10 2 10 2 2 2 8 2 10 10 2 8 2 10 2 10 10 2 2 10 10 10 2 10 2
left_child=4 2 8 -4 5 7 -6 -1 -2 29 11 -11 -9 -7 -15 -12 17 -8 20 -20 28 22 -22 -24 25 26 27 -17 -19 -5
right_child=1 -3 3 9 6 13 16 12 -10 10 15 -13 -14 14 -16 24 -18 18 19 -21 21 -23 23 -25 -26 -27 -28 -29 -30 -31
leaf_value=-0.001379890555520312 0.00058180897457544504 -0.0016815454335949904 -0.0011153903987841127 -0.00084309378249871128 -0.00086058806072457383 0.012314718930457885 0.00055910483721823912 0.015414239852957999 0.0036920345710860004 0.011935885399288394 -0.0017631114667781831 -0.00057914024067543229 0.0039920331362924893 -0.001684524870996898 0.0010594345897162604 0.0045143725878832664 0.00023247076547055308 0.001776486259839935 0.028906482212225016 0.0040149843856328036 0.0041223791314472921 0.0016397979552289631 0.0089346815267185766 0.024785720336901611 -9.6722597819462499e-05 0.00047298881775676804 0.0023775716235019066 0.022801071637404892 -0.0052808895261725599 5.7445271121038804e-05
leaf_weight=326 15045 5471 10795 8704 6877 58 9391 64 993 51 2425 59686 1602 1143 10416 69 67663 217 50 420 168 2672 84 51 55042 5376 1068 50 368 220855
leaf_count=326 15045 5471 10795 8704 6877 58 9391 64 993 51 2425 59686 1602 1143 10416 69 67663 217 50 420 168 2672 84 51 55042 5376 1068 50 368 220855
internal_value=9.93676e-08 -0.000104962 -8.22596e-05 -0.00012002 0.000399035 0.00123181 0.000270134 0.0034806 0.000774714 -8.95941e-05 -0.000298986 -0.000568352 0.00443472 0.000845743 0.000787656 -4.76017e-05 0.000366097 0.0010394 0.00215735 0.00667924 0.00155878 0.00238904 0.008977 0.0149738 1.98487e-05 0.000998247 0.00337272 0.0122525 -0.00265462 2.32781e-05
internal_weight=487200 385630 380159 364121 101570 13609 87961 1992 16038 353326 123767 59737 1666 11617 11559 64030 81084 13421 4030 470 3560 2975 303 135 61605 6563 1187 119 585 229559
internal_count=487200 385630 380159 364121 101570 13609 87961 1992 16038 353326 123767 59737 1666 11617 11559 64030 81084 13421 4030 470 3560 2975 303 135 61605 6563 1187 119 585 229559
is_linear=0
shrinkage=0.05


Tree=23
num_leaves=31
num_cat=0
split_feature=39 23 28 17 57 1 17 47 58 50 58 35 27 59 28 58 44 17 28 6 52 6 51 17 56 58 55 35 58 58
split_gain=7.52452 7.83536 3.93931 4.27115 3.87405 3.46482 3.97876 4.97184 5.27289 6.75323 3.74632 5.49315 6.22036 4.16937 3.87872 3.73449 3.38061 3.25075 3.24934 3.25349 2.96112 2.88287 5.10678 4.85249 3.13868 4.59496 4.14586 2.92247 2.7603 2.66532
threshold=-0.087025840816272834 1.0000000180025095e-35 -0.167105290495945 0.01732246067988169 -18.609999999999996 -0.63554405314655671 0.074848080925657853 0.019304486937658256 10.572465516782003 0.29258589293814591 -18.861409193606999 2.6546679210942289e-10 1.5751451412580855 6.0016327704490005 -0.04429788170028779 -41.332471185478987 0.35937860189027199 0.064073677852615321 -0.29716329154612658 0.15145499780092822 2.6550000000000007 0.014288144655616565 -837.45999999999992 0.037082223253248128 141.58391086126105 38.247207081564007 9.4387690880145012 2.1991947570177027e-11 -20.357676128133992 22.380791431933506
decision_type=2 10 2 2 10 2 2 2 10 2 8 2 10 10 2 10 10 2 2 2 8 2 8 2 10 10 10 2 10 10
left_child=1 5 -2 -4 -5 -1 10 8 -8 -10 11 13 -13 14 -7 -15 -12 21 -11 -20 -3 22 -6 -23 27 26 -26 -25 -16 -22
right_child=2 20 3 4 17 6 7 -9 9 18 16 12 -14 15 28 -17 -18 -19 19 -21 29 23 -24 24 25 -27 -28 -29 -30 -31
leaf_value=-7.7582805958064017e-05 0.00055023795869416851 0.00076060662687978153 0.00096059678642785348 -0.0014624123637445811 0.01266423621999567 0.0012715552478871791 0.0027822224705535471 0.00058049576086743047 0.023620323293674715 -0.00094706080285280247 0.00044921505279608379 0.0035432720682629128 0.025477009857772348 0.0016112903533264272 0.004106931845633678 0.017418296178649709 0.0019987034227241566 -0.0015904509977802206 0.01676378950928329 0.0049027046972106511 -5.1977627062860981e-05 0.00032504071757672739 -0.00037618134955076378 -0.0014948238056438357 -0.00020526218184853569 0.00074733420864027465 0.013804302886155207 -0.00028545622672911005 0.015693186416581212 0.00054032852679960705
leaf_weight=7362 17368 14877 7330 6566 75 3315 606 868 76 91 18738 82 54 70 160 82 4339 4318 104 134 146693 52955 125241 5598 84 1332 139 46649 77 21817
leaf_count=7362 17368 14877 7330 6566 75 3315 606 868 76 91 18738 82 54 70 160 82 4339 4318 104 134 146693 52955 125241 5598 84 1332 139 46649 77 21817
internal_value=1.00956e-07 0.000217072 -0.000177852 -0.000228396 -0.000264289 0.000889783 0.00113727 0.00336279 0.00574631 0.0101673 0.000981718 0.00242832 0.0123013 0.00206414 0.00171527 0.0101775 0.000740778 -0.000230988 0.00703824 0.0101116 8.44076e-05 -0.000205671 -0.000368327 -1.46917e-05 -0.000349169 0.00186383 0.00850702 -0.000415132 0.00789736 2.46789e-05
internal_weight=487200 219545 267655 250287 242957 36158 28796 1879 1011 405 26917 3840 136 3704 3552 152 23077 236391 329 238 183387 232073 125316 106757 53802 1555 223 52247 237 168510
internal_count=487200 219545 267655 250287 242957 36158 28796 1879 1011 405 26917 3840 136 3704 3552 152 23077 236391 329 238 183387 232073 125316 106757 53802 1555 223 52247 237 168510
is_linear=0
shrinkage=0.05


Tree=24
num_leaves=31
num_cat=0
split_feature=23 53 52 53 23 53 54 43 31 35 54 31 12 55 56 53 54 56 26 39 28 7 54 55 5 49 43 63 15 39
split_gain=6.96211 5.18369 7.00738 6.66067 5.64733 5.21062 4.76977 3.97716 4.11026 3.55661 6.06815 6.32146 9.75123 3.44317 3.10492 2.96964 2.95436 3.9466 3.2999 3.1788 3.7857 2.90319 3.6599 3.0667 2.82338 3.45565 2.71615 2.71458 3.71494 2.70181
threshold=0.0033511287328590934 24.102200566627669 0.67500000000000016 23.617011614027295 0.062651723406878232 23.419214020310104 -4.8699999999999992 -0.27740397855668852 0.0017030313907036348 2.986201990111515e-11 -7.1549999999999985 0.019241580372783496 1.0306932483912437 -30.846272919037496 -409.40971863725645 23.232015721271988 13.065000000000003 34.944152879285504 -0.70195607913003555 -0.27665903871137398 -0.15365499965007182 0.95136413959571275 5.0250000000000012 4.3340024963240014 0.5924453796481548 1.8805165831061423 -0.41566180316796086 0.938137755102041 -0.022541565870336785 -0.078549178542344375
decision_type=10 10 10 10 10 10 10 2 2 2 8 2 2 10 10 10 10 10 2 2 2 2 10 10 2 2 2 10 2 2
left_child=7 2 4 6 5 24 -4 8 -1 16 11 -11 -13 -7 -8 -16 17 21 -19 20 -20 -9 -23 -24 27 -26 -3 28 29 -2
right_child=1 26 3 -5 -6 13 14 9 -10 10 -12 12 -14 -15 15 -17 -18 18 19 -21 -22 22 23 -25 25 -27 -28 -29 -30 -31
leaf_value=-0.012157831626235377 9.1567003560432737e-05 0.0057390992341203343 0.010825639545471069 0.0002111204547535204 -0.0013002480740852318 0.0054621155507045497 0.010718615364684381 -0.00026019700679750807 0.0014064736616275831 0.0021598431639542922 0.00042349766870664008 0.032977655436657739 0.004817358404943438 -0.00051037423275267376 0.0061356144200399327 0.001240964759824194 -0.0009858618401391993 -0.0018600511560349883 -0.0020318712522653984 0.0021048178418748851 0.010807903462820534 0.00011409190554449204 0.0041525138340116584 0.017765237470861752 0.016863812350696745 -0.0012012352055299305 -0.00064534883937073786 -0.00039794746392243828 0.000345699094934577 -0.00045418737633802736
leaf_weight=56 61393 167 138 46223 10009 242 90 14552 9706 264 65638 50 81 63526 320 10323 8636 412 75 1422 236 265 109 68 55 50 42020 32366 82756 35952
leaf_count=56 61393 167 138 46223 10009 242 90 14552 9706 264 65638 50 81 63526 320 10323 8636 412 75 1422 236 265 109 68 55 50 42020 32366 82756 35952
internal_value=1.03546e-07 -9.6889e-05 -3.26246e-05 0.000473149 -0.000133486 -9.12079e-05 0.00158681 0.000368403 0.00132803 0.00026631 0.000460767 0.00663954 0.0156207 -0.000487622 0.00146746 0.00138866 -0.000231674 0.000148057 0.00215416 0.00311143 0.00769576 -0.000138609 0.00385229 0.00941757 2.76862e-05 0.00822088 -0.000619944 2.36097e-05 9.93958e-05 -0.000109943
internal_weight=487200 385630 343443 57094 286349 276340 10871 101570 9762 91808 66033 395 131 63768 10733 10643 25775 17139 2145 1733 311 14994 442 177 212572 105 42187 212467 180101 97345
internal_count=487200 385630 343443 57094 286349 276340 10871 101570 9762 91808 66033 395 131 63768 10733 10643 25775 17139 2145 1733 311 14994 442 177 212572 105 42187 212467 180101 97345
is_linear=0
shrinkage=0.05


Tree=25
num_leaves=31
num_cat=0
split_feature=16 53 54 53 18 51 18 51 43 56 35 28 1 50 56 28 60 49 58 54 62 62 26 49 55 20 44 52 53 17
split_gain=6.5832 5.75789 4.95263 5.0972 4.52995 5.74208 4.42148 4.45349 3.75272 3.73848 3.90007 4.70071 5.18401 7.1824 3.63815 3.52179 3.48342 4.28092 3.39607 3.37287 3.28483 4.23217 3.28475 3.15634 3.12434 4.28189 3.00827 2.86656 3.21606 2.825
threshold=-0.13867328589993977 24.362025462542487 23.685000000000006 21.283513388566956 0.045509434650159795 189.39000000000001 0.065129754317230962 -643.20499999999993 -0.10344482620634447 31.527987521096005 4.359316812963545e-11 -0.23529411764705871 -0.25541532153571411 0.29816730955644061 25.337085107037502 -0.26739027492462325 0.063508064516129045 2.459412765243528 147.7235689129225 4.6705000000000014 0.05634920634920635 0.037749287749287756 -0.70195607913003555 1.2690526834331235 5.403521539324001 50.283472946857579 0.7308421985815603 5.1350000000000007 23.801638231486638 0.032413313614546642
decision_type=2 10 8 10 2 10 2 8 2 8 2 2 2 2 10 2 10 2 10 10 8 10 2 2 8 2 10 8 10 2
left_child=6 2 3 9 8 19 7 -1 27 10 20 12 -12 -14 29 -11 17 -16 -13 -6 21 -2 26 -23 25 -24 -17 28 -5 -3
right_child=1 14 -4 4 5 -7 -8 -9 -10 15 11 18 13 -15 16 22 -18 -19 -20 -21 -22 23 24 -25 -26 -27 -28 -29 -30 -31
leaf_value=0.015297965980964166 -0.0049650297052143844 -0.00022947397167813176 -0.0011550543406468846 0.00084154147185885528 -0.00021163688477731786 0.0032899702638146595 0.0031322739885185375 0.00052140628048113645 0.00023702457564357769 -0.0058648566482141186 -0.0010845543722505634 0.00055463224119667916 0.022970082992862191 0.0052843819363503622 0.00147128652953658 0.00052448391572065508 -0.0017054710991364335 0.010783592171635532 0.0059133227586530912 -0.00095831848862982605 -0.00013034942888676799 0.019277334126270362 0.003476732226684823 0.0049436656433073153 0.0014365003999417228 0.015155723719453052 -0.0061141299205324786 -0.00023008770044257357 -0.00010083283400483133 -0.0018117103947132875
leaf_weight=51 66 4113 9340 14584 38464 1012 1746 31081 117135 156 241 27473 68 377 1265 852 826 137 299 24949 32382 59 1520 114 3677 83 213 142028 23854 9035
leaf_count=51 66 4113 9340 14584 38464 1012 1746 31081 117135 156 241 27473 68 377 1265 852 826 137 299 24949 32382 59 1520 114 3677 83 213 142028 23854 9035
internal_value=1.03629e-07 -4.93293e-05 -1.60029e-05 8.74966e-06 -6.565e-05 -0.000445786 0.000683338 0.000545823 1.66257e-05 0.000407382 0.000285955 0.000713739 0.00480326 0.0080027 -0.00100038 0.00154744 0.000866597 0.00238553 0.000612526 -0.000505489 -8.70852e-05 0.00575146 0.00173056 0.00986922 0.00224173 0.00408547 -0.000798994 -0.000126401 0.00025659 -0.00131714
internal_weight=487200 454322 438946 429606 362026 64425 32878 31132 297601 67580 61079 28458 686 445 15376 6501 2228 1402 27772 63413 32621 239 6345 173 5280 1603 1065 180466 38438 13148
internal_count=487200 454322 438946 429606 362026 64425 32878 31132 297601 67580 61079 28458 686 445 15376 6501 2228 1402 27772 63413 32621 239 6345 173 5280 1603 1065 180466 38438 13148
is_linear=0
shrinkage=0.05


Tree=26
num_leaves=31
num_cat=0
split_feature=39 23 54 56 18 35 1 39 55 36 16 34 28 23 28 51 37 1 55 54 54 35 6 56 62 55 21 17 11 63
split_gain=6.65453 5.7563 4.846 6.22947 4.05869 3.78538 3.64838 3.3385 3.72258 3.25075 3.31985 3.34449 3.00006 2.98484 2.89997 2.87811 2.81222 2.76393 3.71273 2.74322 4.54472 3.23611 2.71648 2.65027 2.7836 2.56017 2.52434 2.51654 2.78801 2.75129
threshold=-0.055344644827398419 1.0000000180025095e-35 5.6950000000000012 -72.532356925854486 0.078422819802956512 5.6772055697997702e-11 -2.7685028920502046 -0.32629409924438807 -2.5620302005709994 0.57664563406777125 -0.16455794581112757 -0.004455334696851043 -0.15365499965007182 0.0046591123424076803 -0.03066373937972933 27.825000000000003 -0.15384615384615388 -0.10989954595217465 7.6073014628965003 1.1650000000000003 1.0010500000000002 2.2826246243533354e-11 0.89946107461317448 -30.143193167705498 0.67799539170506928 -5.9660584299764992 -0.2559466457567165 0.06314862909163553 -0.09591141736046209 0.53410852713178303
decision_type=2 10 8 10 2 2 2 2 10 2 2 2 2 10 2 10 2 2 10 10 10 2 2 10 10 8 2 2 2 10
left_child=1 6 12 5 14 -4 -1 8 16 10 11 -3 15 -14 -5 27 -8 18 25 20 21 -9 -19 -10 26 -12 -25 28 29 -2
right_child=2 9 3 4 -6 -7 7 19 23 -11 17 -13 13 -15 -16 -17 -18 22 -20 -21 -22 -23 -24 24 -26 -27 -28 -29 -30 -31
leaf_value=-0.0013999471520722688 0.0073051413386714869 0.0025551218312226936 0.020577525929687264 -0.00065835237438297391 -0.0036586743117543439 0.0040695522639349292 0.014623663140013621 -0.0016698742352842741 0.011621723650294527 -0.00041362263179574294 -0.00087066516249637851 0.00050221647536373415 0.00034837778416455358 -0.00025068554119366085 0.00064700516167406691 0.0026943305221714745 0.0033828454928270281 0.00021948607383369739 -0.00095630518576917648 0.00039609707905648877 0.0079149279311239648 0.0025506060211195718 -0.0055952127767559595 0.0033800165538704335 0.0016139834455458258 0.00013406324401511898 -0.0012080824682069238 -0.0011352871200134545 0.00048296306912839441 0.0013703765406981316
leaf_weight=2032 309 2529 50 56551 1076 117 58 637 60 31917 7342 9253 26341 98641 4597 1612 1514 133334 12607 30822 298 1573 201 358 6239 46467 1833 2060 6234 538
leaf_count=2032 309 2529 50 56551 1076 117 58 637 60 31917 7342 9253 26341 98641 4597 1612 1514 133334 12607 30822 298 1573 201 358 6239 46467 1833 2060 6234 538
internal_value=1.01428e-07 0.000153094 -0.000223096 -0.000587837 -0.000613802 0.00905134 0.00066985 0.000766895 0.00156535 5.67336e-05 0.00012766 0.000943314 -5.54039e-05 -0.000124388 -0.000560135 0.000745923 0.00380167 7.95723e-05 -0.00018398 0.000525695 0.00211631 0.00133183 0.000210692 0.00115065 0.00107539 -2.93594e-06 -0.000456005 0.000401752 0.000849622 0.00354199
internal_weight=487200 289074 198126 62391 62224 167 45424 43392 10062 243650 211733 11782 135735 124982 61148 10753 1572 199951 66416 33330 2508 2210 133535 8490 8430 53809 2191 9141 7081 847
internal_count=487200 289074 198126 62391 62224 167 45424 43392 10062 243650 211733 11782 135735 124982 61148 10753 1572 199951 66416 33330 2508 2210 133535 8490 8430 53809 2191 9141 7081 847
is_linear=0
shrinkage=0.05


Tree=27
num_leaves=31
num_cat=0
split_feature=57 16 39 53 55 28 51 18 51 52 55 58 57 40 6 55 12 51 24 29 58 20 6 40 58 29 58 17 55 57
split_gain=6.18344 6.56746 5.28722 4.55938 5.09725 3.9011 3.79934 3.75546 3.94937 3.47693 3.46621 3.31402 3.50185 3.28913 5.60931 3.14863 3.06003 3.04418 3.03849 2.9742 2.97081 3.73012 2.8495 3.38867 3.23406 2.86887 2.42904 2.90519 2.37744 3.76646
threshold=-18.609999999999996 -0.13867328589993977 -0.47182937025915833 24.414180718094613 18.442106613382503 -0.03133903133903132 -36.934999999999995 0.066240873027519367 -643.20499999999993 1.9850000000000001 0.050035844827500002 -226.39429805579599 -24.139999999999997 0.29359060483015448 -0.25175950244540052 -3.8251893736219995 0.43335233826802938 335.35000000000008 0.94166666666666676 0.089796834445605545 -574.39656202604385 25.113956782518908 0.28365979099414568 0.35210347327741143 -37.776005709691496 -0.41967787128081185 217.82841770189052 0.0513711886874035 15.343645181769002 -2.2849999999999997
decision_type=10 2 2 10 10 2 10 2 8 10 8 8 10 2 2 10 2 10 10 2 10 2 2 2 8 2 10 2 10 10
left_child=10 7 13 4 5 15 26 8 -2 28 11 12 20 -3 -15 22 -10 18 -17 -14 -1 -22 23 -4 -25 -24 -6 -28 -5 -30
right_child=1 2 3 9 6 -7 -8 -9 16 -11 -12 -13 19 14 -16 17 -18 -19 -20 -21 21 -23 25 24 -26 -27 27 -29 29 -31
leaf_value=-0.0029421141995624352 0.014505558674189093 0.00059931729398540366 -0.00031567684676873963 -0.00073344054524712493 -0.0013833567349763884 0.000566625390280784 0.0016199408812048379 0.0031677959503970767 -0.0075092137750305561 -0.0022100816433002954 -0.0015553459165684362 -0.0003976601111415114 0.003727316013163904 0.01722732174128706 0.0022832618182135867 6.2529001526988277e-05 0.00062120141881378903 0.0028365444027821634 -0.00062412207678014329 0.01988370118361852 0.012320500767032019 -0.0014528818537726854 0.0073091497962728281 0.0049731187323324875 0.00052723241716368791 -0.0014772089954927295 -0.00085712204420727617 0.0062381647777278578 0.0063779827342004148 -0.00025840875190576227
leaf_weight=189 51 14961 55129 6595 12029 29172 1290 1514 116 4050 9727 6459 61 65 1880 286341 29182 965 17071 55 104 92 94 565 1493 6375 376 233 318 648
leaf_count=189 51 14961 55129 6595 12029 29172 1290 1514 116 4050 9727 6459 61 65 1880 286341 29182 965 17071 55 104 92 94 565 1493 6375 376 233 318 648
internal_value=1.01166e-07 3.36571e-05 -1.58254e-05 -5.05113e-05 -2.29039e-05 1.00511e-05 -0.000963082 0.000738705 0.000613217 -0.00102762 -0.000945749 -9.30727e-05 0.00382305 0.000851214 0.00278611 -3.40521e-05 0.000588814 3.28136e-05 2.3879e-05 0.0114413 0.00151233 0.0058325 -0.000353855 -0.000241234 0.00175041 -0.00134865 -0.00122715 0.00184986 -0.000393561 0.0019215
internal_weight=487200 470513 439650 422744 411133 397205 13928 30863 29349 11611 16687 6960 501 16906 1945 368033 29298 304377 303412 116 385 196 63656 57187 2058 6469 12638 609 7561 966
internal_count=487200 470513 439650 422744 411133 397205 13928 30863 29349 11611 16687 6960 501 16906 1945 368033 29298 304377 303412 116 385 196 63656 57187 2058 6469 12638 609 7561 966
is_linear=0
shrinkage=0.05


Tree=28
num_leaves=31
num_cat=0
split_feature=39 23 57 17 53 52 53 54 55 55 23 53 55 18 28 0 54 1 56 26 39 31 56 59 59 56 18 57 59 56
split_gain=5.88505 5.11006 4.10836 3.57999 3.39498 4.85384 5.00528 4.54969 3.80047 3.49236 3.46373 3.24845 3.12065 2.85132 2.83092 3.42053 2.80338 2.99521 2.95108 4.07612 3.27716 3.33792 4.20481 3.26976 5.32446 4.3368 3.79723 2.83314 3.65673 2.82453
threshold=-0.11406167223712486 1.0000000180025095e-35 -22.384999999999994 0.01732246067988169 24.049813486049114 0.67500000000000016 23.702574453367507 -4.8699999999999992 18.442106613382503 16.332391909495005 0.056617867488629965 23.419214020310104 -30.846272919037496 0.032459910763384392 -0.18181026635532502 46.509144952684508 11.485000000000001 4.4308721262527175 13.343700119514002 -0.72172616812606594 -0.27665903871137398 0.016878048755697962 15.835680083559003 -9.1476743096719986 -14.425279690423496 5.7214664617475011 0.095560005583640223 2.9900000000000002 -2.9565884839484995 -81.844083076015991
decision_type=2 10 8 2 10 10 10 10 10 10 10 10 10 2 2 2 10 2 10 2 2 2 10 8 10 10 2 10 10 10
left_child=1 16 -2 -4 5 8 7 -7 10 -9 11 14 -13 -6 -5 -16 17 18 23 -20 21 -21 27 24 -1 29 -26 28 -23 -25
right_child=2 -3 3 4 13 6 -8 9 -10 -11 -12 12 -14 -15 15 -17 -18 -19 19 20 -22 22 -24 25 26 -27 -28 -29 -30 -31
leaf_value=-0.00011836228721000924 -0.001535970040926572 0.00010975599200428843 0.00087935752403552688 0.00089259019197718064 -9.9929266058782615e-05 0.0080261042248814581 4.1762841516632159e-05 0.00095154740048094806 -0.001275183252736112 0.0071131689173947396 -0.0011054410264637704 0.0060985077849614114 -0.00049489324203807236 -0.00094252002851369712 -0.00034791905506735798 0.00015482612225600407 0.00014603490860741293 -0.0052971979972038985 -0.0010850193929124302 0.0028430170906926385 0.0015201844594758015 0.017022826589168049 0.0047701239290138505 0.0074967752298723328 0.0047284526872717466 -0.0010519249720772864 0.01751343672622804 0.021551824097706607 -0.0011630310357134577 0.00099170033056961257
leaf_weight=735 5105 143430 8953 8810 18380 238 30974 13997 7486 234 8687 180 43214 22167 53579 91792 10046 177 787 1470 2378 59 530 170 792 3057 63 70 51 9589
leaf_count=735 5105 143430 8953 8810 18380 238 30974 13997 7486 234 8687 180 43214 22167 53579 91792 10046 177 787 1470 2378 59 530 170 792 3057 63 70 51 9589
internal_value=9.90133e-08 0.000233878 -0.000129071 -0.000105788 -0.000135231 -6.86526e-05 0.000400582 0.00116836 -0.000168436 0.00105326 -0.000128243 -8.52516e-05 -0.000467414 -0.000560697 2.22753e-05 -3.0435e-05 0.000827648 0.00117101 0.00122925 0.0022332 0.00280725 0.00420878 0.00702865 0.000856399 0.00299572 0.000590576 0.00567829 0.0136446 0.00855239 0.00110561
internal_weight=487200 173404 313796 308691 299738 259191 45443 14469 213748 14231 206262 197575 43394 40547 154181 145371 29974 19928 19751 5345 4558 2180 710 14406 1590 12816 855 180 110 9759
internal_count=487200 173404 313796 308691 299738 259191 45443 14469 213748 14231 206262 197575 43394 40547 154181 145371 29974 19928 19751 5345 4558 2180 710 14406 1590 12816 855 180 110 9759
is_linear=0
shrinkage=0.05


Tree=29
num_leaves=31
num_cat=0
split_feature=39 23 54 56 36 1 18 50 29 44 39 54 56 56 59 59 28 56 55 56 53 62 36 58 55 62 16 34 57 57
split_gain=5.54219 4.68712 4.27818 5.92354 3.65073 3.36392 3.09679 3.01963 2.79663 3.32286 2.75894 3.79959 4.1268 4.73113 4.42054 4.53877 4.08061 3.45121 4.85728 4.01172 2.72206 2.6606 3.88208 7.13188 3.0311 4.43111 2.57864 2.79864 2.67847 2.57818
threshold=-0.051312666031894154 1.0000000180025095e-35 5.8950000000000005 -72.532356925854486 0.44961691371148199 -2.7685028920502046 0.078422819802956512 0.54123503494379699 0.13347700669634296 1.2970861194716481 -0.27665903871137398 10.715000000000002 14.0512234564855 15.835680083559003 -8.5069123651744984 -13.221154958967999 -0.25841316181613599 -3.2761912506669995 5.9624086635315008 -26.916763186297995 21.839785386535301 0.37089947089947095 0.69483648937623899 -2.0390532281529992 -9.7995756512479986 0.66333333333333344 -0.18875595472055548 -0.004455334696851043 8.8498000000000037 -11.514999999999999
decision_type=2 10 8 10 2 2 2 2 2 10 2 10 10 10 10 10 2 10 10 10 10 10 2 10 10 10 2 2 10 10
left_child=1 5 8 4 -4 -1 -5 26 -2 20 11 12 14 -14 15 -7 -17 18 19 -16 21 22 -10 -24 25 -23 27 -3 29 -28
right_child=2 7 3 6 -6 10 -8 -9 9 -11 -12 -13 13 -15 17 16 -18 -19 -20 -21 -22 24 23 -25 -26 -27 28 -29 -30 -31
leaf_value=-0.0013814283988222819 -0.00017688800069367184 0.0029138886263085735 0.017602819795009498 -0.00055175955865220108 0.0022684542867494857 -0.00043536219948893504 -0.0033409132418533044 -0.0003019205383357615 0.0026918703587728342 -0.0047056991851235699 0.00042467160211517928 0.00030488006569495885 0.011015577805633576 0.0030957027087810222 -0.0030644367181444634 0.020907737975921881 0.0059874541033460666 -0.0001801040432865602 0.017532503575554883 0.0033908511207710527 0.00028374652847622462 -0.00074880205480611724 0.0016650001388308943 0.023599753271227625 0.00017666350205969815 0.019721829553019488 -0.00038244327074362619 0.00052555123922852379 -0.00076996354760629877 0.00020591937631419789
leaf_weight=2058 102974 1609 70 55706 89 278 1014 49361 811 317 31019 5777 210 1903 298 51 480 3330 53 1236 25599 55 84 67 1519 50 20957 5194 8447 166584
leaf_count=2058 102974 1609 70 55706 89 278 1014 49361 811 317 31019 5777 210 1903 298 51 480 3330 53 1236 25599 55 84 67 1519 50 20957 5194 8447 166584
internal_value=9.80482e-08 0.00013399 -0.00021231 -0.00057461 0.00905768 0.000594156 -0.000601716 4.87579e-05 -5.55332e-05 0.00038273 0.000685359 0.00127886 0.001996 0.00388567 0.00129775 0.00472363 0.00743356 0.00073298 0.00265194 0.00213345 0.000440154 0.00198644 0.00407125 0.0114399 0.000748214 0.00896103 0.000134141 0.00109119 0.000100894 0.000140145
internal_weight=487200 298845 188355 56879 159 46693 56720 252152 131476 28502 44635 13616 7839 2113 5726 809 531 4917 1587 1534 28185 2586 962 151 1624 105 202791 6803 195988 187541
internal_count=487200 298845 188355 56879 159 46693 56720 252152 131476 28502 44635 13616 7839 2113 5726 809 531 4917 1587 1534 28185 2586 962 151 1624 105 202791 6803 195988 187541
is_linear=0
shrinkage=0.05


Tree=30
num_leaves=31
num_cat=0
split_feature=16 53 54 24 44 61 53 18 35 56 56 28 36 9 59 56 28 54 54 35 54 17 28 35 56 6 56 49 40 40
split_gain=4.80676 4.55352 4.119 3.735 3.89206 3.86824 4.92693 3.64288 3.40827 3.65204 6.06957 4.69737 6.28087 5.54572 3.9565 3.55925 3.94434 3.71167 7.22387 3.3397 3.542 4.81244 6.71836 7.20606 3.22273 6.80598 3.07398 3.62092 3.00194 2.87424
threshold=-0.1600274379564697 24.414180718094613 23.685000000000006 inf 0.78184562486463094 0.88548951048951052 23.801638231486638 0.058306796076219865 7.9347504067966312e-11 13.728941615042002 14.0512234564855 -0.23529411764705871 0.36761660906300114 0.04560529986659128 5.8681217701345014 34.944152879285504 -0.1755357416194703 1.0831500000000003 1.0409500000000003 2.1991947570177027e-11 -1.3149999999999997 0.039267961615634686 -0.11668428378328598 3.6697984559937484e-11 -81.844083076015991 0.11060427957682763 25.337085107037502 2.459412765243528 0.17371263450118701 0.2508896237326752
decision_type=2 10 8 8 10 8 10 2 2 10 10 2 2 2 10 10 2 10 10 2 10 2 2 2 10 2 10 2 2 2
left_child=7 2 3 4 5 6 28 -1 15 11 -11 12 13 -10 -12 17 -17 18 19 -5 21 -21 -23 -24 25 -19 -3 -28 -2 -20
right_child=1 26 -4 8 -6 -7 -8 -9 9 10 14 -13 -14 -15 -16 16 -18 24 29 20 -22 22 23 -25 -26 -27 27 -29 -30 -31
leaf_value=0.00048380709368129682 0.00058137634622525158 -0.0013014715275038275 -0.0010166309598377318 -0.00036919632959099905 -0.0014693900741662876 -9.8693629009696934e-05 6.4297611199386429e-06 0.0024400444694543909 0.024816386162246264 0.017241513611792873 0.0049285212908726115 0.00058970633693111588 0.0005306382579056434 0.0037933978058154122 -0.00037477212612553021 -0.0019445101653415187 0.0019869349230641656 -0.001330660808709047 0.02319420191297631 -0.0017998048722770582 0.0012185527912774964 0.0036758813562673335 0.0074839422887473988 0.028452858750040135 -8.2272748552529167e-05 0.019344939261924269 0.00020393153570022259 0.0080500459896492484 0.0019029031130213111 0.0063061732008242929
leaf_weight=18481 15972 10725 9886 1911 4734 311462 40594 2734 70 76 850 8354 164 58 597 740 4576 99 50 161 1600 302 101 70 44841 66 1824 160 5889 53
leaf_count=18481 15972 10725 9886 1911 4734 311462 40594 2734 70 76 850 8354 164 58 597 740 4576 99 50 161 1600 302 101 70 44841 66 1824 160 5889 53
internal_value=9.74387e-08 -3.34027e-05 -7.21973e-06 1.52754e-05 -4.47176e-05 -2.66667e-05 0.00033245 0.000736156 0.000366245 0.00120675 0.00346533 0.000808291 0.00704246 0.0153398 0.00273717 0.000209524 0.0014387 7.67542e-05 0.00148957 0.00116305 0.00247595 0.0056406 0.00818359 0.0161085 -5.64894e-05 0.006916 -0.000966835 0.000839577 0.00093761 0.0145673
internal_weight=487200 465985 453276 443390 378651 373917 62455 21215 64739 10169 1523 8646 292 128 1447 54570 5316 49254 4248 4145 2234 634 473 171 45006 165 12709 1984 21861 103
internal_count=487200 465985 453276 443390 378651 373917 62455 21215 64739 10169 1523 8646 292 128 1447 54570 5316 49254 4248 4145 2234 634 473 171 45006 165 12709 1984 21861 103
is_linear=0
shrinkage=0.05


Tree=31
num_leaves=31
num_cat=0
split_feature=57 16 39 55 53 23 44 51 55 58 57 31 43 57 54 55 47 21 51 55 31 58 20 29 59 29 48 20 35 55
split_gain=5.23666 5.23007 4.24702 3.76694 4.05112 3.5086 3.60967 3.3276 3.12347 3.03008 3.14925 2.97216 2.96853 2.8387 2.81088 2.76143 3.00027 3.50239 2.91572 2.71524 2.70682 2.68227 3.3747 2.68122 2.67619 2.6229 2.61996 2.56304 2.53211 2.99621
