tree
version=v4
num_class=1
num_tree_per_iteration=1
label_index=0
max_feature_idx=56
objective=regression
feature_names=rsi_14 macd_hist boll_pctb kdj_j vol_price_ratio mom_20d mom_60d volatility_20d rsi_delta macd_hist_delta boll_pctb_delta mom_accel volume_trend close_ma5_dev close_ma20_dev close_ma60_dev ma_alignment atr_14 price_range_10d williams_r adx_14 obv_slope amount_ratio turnover_5d turnover_pctile return_skew_20d return_kurtosis_20d updown_vol_ratio max_drawdown_20d return_autocorr close_position upper_shadow lower_shadow body_ratio gap_5d amihud_illiq volume_volatility mom_5d mom_10d vwap_dev boll_bandwidth vol_price_corr consecutive_days high_distance_60d low_distance_60d vol_ratio_5_60 mfi_14 intraday_intensity cci_20 return_extremes_ratio amount_volatility pe_ttm pb total_mv_log roe revenue_growth profit_growth
feature_infos=[7.679245759107701:98.823722900218868] [-20.04915432949187:29.492655904263543] [-0.55685951330981898:1.5624253704685187] [-24.165474928862849:129.85034330286001] [0.055337597491479644:35.686238205436922] [-0.50177304964539005:3.7999999999999998] [-0.62735361059383399:5.3938618925831197] [0.041387946158642698:1.9119172027060307] [-44.216241292631658:53.821741362976255] [-27.254641567540816:25.164861238264091] [-1.537504037623513:1.5836612645919266] [-3.1897763578274758:0.63628975346022909] [0.074786464831038998:3.5353634401038665] [-0.28595658073270025:0.39318428050822396] [-0.36330518885677565:1.0719424460431655] [-0.51091560674121328:2.5779886924710276] [-0.46566073237805766:2.24171361194812] [0.0078826755431395668:0.15282311319129915] [0.0038961038961038987:0.18432173432380811] [-100:0] [5.6748294727445261:81.798263777438294] [-0.96698650208739589:1.0840531303671601] [0:15.352647618676064] [0.00066250001826237523:0.5322697310201534] [0:0.98333333333333328] [-3.6665268958361521:3.7085585072221954] [-1.8792316926878412:12.893832510614745] [0:407.09569481555616] [-0.49265865792986285:0] [-0.85662173009838194:0.88793380727004811] [0:1] [0:0.08587403898999868] [0:0.088508467471551056] [0:0.93333333333333235] [-0.076315231025233743:0.13186533541681533] [3.2109948670708395e-12:3.5898014256202173e-09] [0.11754719590973282:2.5719314248271035] [-0.39287185826122784:1.0994186046511629] [-0.40271428571428569:1.7039856695029112] [-0.78846931007069698:1.3228154595619133] [0.011199419780690344:2.0004092621613832] [-0.95095020345037029:0.98022263374190577] [-15:19] [-0.68181818181818188:0] [0:6.2102272727272725] [0:3.2003440080057644] [0:100] [-0.63289987226384603:0.82981185783159916] [-595.92326139087936:612.43599122166268] [0.063347418059987018:16.60890410958876] [0.11761355525639842:3.2990106699150892] none none [20.073264994144456:25.423451725320518] [-1290.26:201.97999999999999] [-76.918692963710001:6072.3841915172698] [-42973.206900434299:7267.5874379203897]
tree_sizes=2987 3034 3045 3026 3069 3049 3054 3086 3081 3051 3059 3083 3092 3094 3081 3060 3057 3059 3069 3057 3037 3031 3067 3065 3036 3053 3089

Tree=0
num_leaves=31
num_cat=0
split_feature=53 28 53 35 15 34 26 16 44 28 28 54 14 54 35 43 32 53 20 28 23 35 6 1 55 39 6 53 35 20
split_gain=127.915 66.3583 23.0649 22.0239 18.6072 10.6512 16.5435 10.0104 9.06899 6.78615 6.54792 6.40522 6.25066 6.72647 6.22462 6.18095 5.93605 5.40908 4.7326 4.39568 4.61425 4.13442 4.01638 3.47736 3.47494 5.25788 4.47717 3.38512 4.56675 3.45383
threshold=23.75697464846548 -0.19853312162402798 24.227600329552761 1.3048199743693516e-10 -0.24288191014428015 0.033182141099810672 -0.2123351870265022 -0.11750687988472532 0.47450924286074542 -0.14097257530105059 -0.20547776253455066 39.750000000000007 0.17240003134473417 5.3550000000000013 1.4301791265118305e-10 -0.28062360801781738 0.013420483670898202 24.499955406120993 29.362361850454509 -0.12235774433527805 0.0024101495168301185 4.7130312772679063e-10 0.55537322732793848 -0.23036741162915644 0.74758232757550014 0.0025466796487885195 0.30433956653891897 22.238884270815976 4.7130312772679063e-10 33.906054813870092
decision_type=10 2 10 2 2 2 2 2 2 2 2 8 2 10 2 2 2 10 2 2 2 2 2 2 8 2 2 10 2 2
left_child=1 4 8 9 16 7 -7 21 10 12 -2 24 23 -14 15 -6 -1 22 -16 20 -9 -5 -4 -3 26 -26 -11 28 29 -21
right_child=2 3 17 5 14 6 -8 19 -10 11 -12 -13 13 -15 18 -17 -18 -19 -20 27 -22 -23 -24 -25 25 -27 -28 -29 -30 -31
leaf_value=0.031114518152334271 0.024742635632127818 0.023402231810508614 0.020994456530950282 0.026804357226254818 0.028028454713529338 0.05657624984594041 0.027840544612691271 0.040126415005007479 0.020430304987865005 0.022902282299591962 0.022230227051875329 0.017727220616009481 0.022968290593261581 0.043194986146999938 0.027016627481336934 0.024780220272007054 0.038209660392564286 0.019030292899900204 0.031186456762553515 0.021873059674308609 0.025453093404173677 0.032489301538712552 0.017585249484978187 0.025157498538101768 0.023162995175814778 0.024577597526796766 0.020273374788816315 0.024473422562973308 0.026193914875826899 0.025467496691048211
leaf_weight=842 2683 5560 16736 2573 2739 65 220 54 6942 26118 76538 546 74 91 1322 3162 459 5582 1418 4016 7228 367 913 5746 30060 8409 1727 20827 994 801
leaf_count=842 2683 5560 16736 2573 2739 65 220 54 6942 26118 76538 546 74 91 1322 3162 459 5582 1418 4016 7228 367 913 5746 30060 8409 1727 20827 994 801
internal_value=0.0230359 0.0241258 0.0217864 0.0237883 0.0280455 0.0247911 0.0344213 0.0247164 0.0221634 0.0233127 0.0223154 0.0231199 0.0244363 0.0340988 0.0272052 0.0262888 0.0336225 0.020388 0.0291766 0.0244736 0.0255628 0.027516 0.0208178 0.0242948 0.0231644 0.0234723 0.022739 0.0241757 0.0231077 0.0224718
internal_weight=234812 125418 109394 115476 9942 37145 285 36860 86163 78331 79221 66860 11471 165 8641 5901 1301 23231 2740 33920 7282 2940 17649 11306 66314 38469 27845 26638 5811 4817
internal_count=234812 125418 109394 115476 9942 37145 285 36860 86163 78331 79221 66860 11471 165 8641 5901 1301 23231 2740 33920 7282 2940 17649 11306 66314 38469 27845 26638 5811 4817
is_linear=0
shrinkage=1


Tree=1
num_leaves=31
num_cat=0
split_feature=53 28 53 35 15 34 56 16 44 28 40 28 18 35 55 56 56 16 53 20 56 53 25 35 35 28 23 18 23 20
split_gain=115.448 59.8919 20.8164 19.9436 16.7931 9.79482 16.5942 8.7824 8.18464 6.45531 6.96587 5.90965 5.78063 5.61719 5.337 5.02318 5.01177 4.99219 4.88112 4.09481 3.96258 4.48769 3.84733 3.79131 3.65093 3.56809 4.16489 3.46128 3.34119 4.21143
threshold=23.75697464846548 -0.19853312162402798 24.227600329552761 1.3487408156455836e-10 -0.24288191014428015 0.033182141099810672 -34.936913721037989 -0.11750687988472532 0.47450924286074542 -0.14097257530105059 0.58426177479881758 -0.20547776253455066 0.05118694934180152 1.4301791265118305e-10 0.74758232757550014 30.859400414614502 -28.006053838565997 -0.17896116755335431 24.499955406120993 29.362361850454509 17.210250960739003 22.293730857071616 -1.1640454628594867 4.0470519091696609e-11 4.7130312772679063e-10 -0.12235774433527805 0.0024101495168301185 0.085574284558955618 0.042188949077024716 33.497468548365617
decision_type=10 2 10 2 2 2 10 2 2 2 2 2 2 2 10 10 10 2 10 2 10 10 2 2 2 2 2 2 2 2
left_child=1 4 8 9 12 7 -7 24 11 10 15 -2 -1 -6 -12 -3 -15 -17 -4 -18 21 -11 -14 -19 -5 26 -9 -24 -22 -30
right_child=2 3 18 5 13 6 -8 25 -10 20 14 -13 22 16 -16 17 19 23 -20 -21 28 -23 27 -25 -26 -27 -28 -29 29 -31
leaf_value=0.0060942599086971699 0.0016213815318959276 0.00083925566538411338 -0.0021072491704740757 0.0036167746344217214 0.0030903040506430903 0.034843190067099877 0.0047424599829233808 0.01623754797713373 -0.0024753377551503947 -0.0027656766229000578 0.025147773143826071 -0.00076540995151471326 -0.0004275682468725714 0.0012329987673496828 0.0056284957110756192 0.018090567418637817 0.0046039990876267627 -0.001171648447605292 -0.0038053508351998354 0.0088872810013974797 0.00056225220088502222 -6.3590696075508139e-06 0.012803562594179039 0.0050573515293523838 0.0089808397839498868 0.0011218470712809287 0.00229363272910901 0.026081559723914495 0.00073925827998056815 0.0055341115720828433
leaf_weight=542 2683 10262 17649 2422 5901 58 219 54 6942 1514 50 76538 50 489 120 61 1082 329 5582 1169 9993 55141 655 935 367 25203 6888 54 1034 826
leaf_count=542 2683 10262 17649 2422 5901 58 219 54 6942 1514 50 76538 50 489 120 61 1082 329 5582 1169 9993 55141 655 935 367 25203 6888 54 1034 826
internal_value=0 0.00103544 -0.00118708 0.000714786 0.00475928 0.0017069 0.0110735 0.00163245 -0.000828855 0.000279498 0.00136192 -0.000684511 0.0100576 0.00396088 0.0114103 0.00121397 0.00583379 0.00411205 -0.0025155 0.00683093 9.36631e-05 -8.01897e-05 0.01288 0.00343212 0.00432471 0.0013987 0.00240305 0.0138254 0.000925061 0.00287146
internal_weight=234812 125418 109394 115476 9942 35211 277 34934 86163 80265 11757 79221 1301 8641 170 11587 2740 1325 23231 2251 68508 56655 759 1264 2789 32145 6942 709 11853 1860
internal_count=234812 125418 109394 115476 9942 35211 277 34934 86163 80265 11757 79221 1301 8641 170 11587 2740 1325 23231 2251 68508 56655 759 1264 2789 32145 6942 709 11853 1860
is_linear=0
shrinkage=0.05


Tree=2
num_leaves=31
num_cat=0
split_feature=53 28 53 16 16 34 56 56 18 44 28 53 53 56 16 17 1 53 25 15 40 40 25 36 23 47 28 38 40 17
split_gain=104.265 53.4926 19.2249 15.2726 12.7033 12.1143 10.4932 11.5283 7.79305 7.54876 5.70672 5.63734 5.29502 5.07631 4.64101 6.10919 5.24553 4.40475 4.34313 4.54472 4.13685 3.9179 8.84257 4.74772 4.59061 4.30305 5.34593 4.94765 3.29251 3.46533
threshold=23.748749247704581 -0.19853312162402798 24.227600329552761 -0.18746077376171974 -0.10849444324796108 0.0239451343161181 -37.010748948346993 -64.943570256651483 0.055807601312532602 0.47450924286074542 -0.21727374291230175 23.553868231620765 23.071810608301259 19.389660092102002 0.21139558306586753 0.052167278087514014 0.10793845356616041 24.499955406120993 -1.0969512096862608 -0.27062005418204527 0.5388528396252833 0.31172084120235583 0.32663950555211418 0.55226615719315475 0.010156242214998451 0.13217050483620366 -0.096499477969478373 0.13551598185809791 0.36813252021235321 0.022174441678145727
decision_type=10 2 10 2 2 2 10 10 2 2 2 10 10 10 2 2 2 10 2 2 2 2 2 2 2 2 2 2 2 2
left_child=1 3 9 8 12 11 7 -7 -1 10 -2 13 -3 21 -15 16 -16 -4 -10 -20 -5 24 25 -24 -6 26 27 -23 29 -12
right_child=2 4 17 20 5 6 -8 -9 18 -11 28 -13 -14 14 15 -17 -18 -19 19 -21 -22 22 23 -25 -26 -27 -28 -29 -30 -31
leaf_value=0.0053761850399073313 0.0019406910461518614 0.0041506283312542106 -0.0020018873646423904 0.003074868395300617 0.00097869201994370877 0.0058990287677049905 0.0043977096966984755 0.038775265337285883 -0.0013189691344546854 -0.0023381328224881277 3.413499009644655e-05 -4.8686458874967593e-05 0.0016277092698820347 0.0014367599248512567 0.022477323232621721 0.0029057293273929818 0.005988582802326183 -0.0036150868081462175 0.016265070708211801 0.0093571235858856457 0.00865609472124978 0.0070188796283848446 -0.0019540539382883601 0.0027706252433269065 6.2867650928333593e-05 0.0020788606966388947 0.00051631702668262862 0.01706321628468524 0.001867861101653312 -0.0008877705524214523
leaf_weight=1469 2093 3069 17649 6868 24093 58 682 50 68 7082 12057 33338 6489 10011 84 633 116 5582 359 731 350 358 1136 999 31698 522 179 189 1224 65576
leaf_count=1469 2093 3069 17649 6868 24093 58 682 50 68 7082 12057 33338 6489 10011 84 633 116 5582 359 731 350 358 1136 999 31698 522 179 189 1224 65576
internal_value=1.22131e-08 0.000999882 -0.00111022 0.00453567 0.00069369 0.000533523 0.00670175 0.0211876 0.00780142 -0.000772506 -0.000635471 0.000486321 0.00243836 0.000741128 0.00173585 0.00532377 0.0129466 -0.00238974 0.0108729 0.0116382 0.00334631 0.000558751 0.00221131 0.000254382 0.000458451 0.00555481 0.00804653 0.010501 -0.000703913 -0.000744527
internal_weight=234812 123549 111263 9845 113704 104146 790 108 2627 88032 80950 103356 9558 70018 10844 833 200 23231 1158 1090 7218 59174 3383 2135 55791 1248 726 547 78857 77633
internal_count=234812 123549 111263 9845 113704 104146 790 108 2627 88032 80950 103356 9558 70018 10844 833 200 23231 1158 1090 7218 59174 3383 2135 55791 1248 726 547 78857 77633
is_linear=0
shrinkage=0.05


Tree=3
num_leaves=31
num_cat=0
split_feature=53 16 35 53 18 16 16 7 6 49 56 31 49 41 56 16 54 56 0 6 7 49 53 49 53 14 55 16 53 55
split_gain=94.1401 48.3745 19.8618 16.9393 9.70379 9.2668 9.66456 6.90514 6.5979 6.55502 8.32714 5.67202 6.70662 9.09227 5.03692 4.83409 5.21354 4.7792 4.66165 4.59986 4.53221 10.5501 7.0469 3.94553 3.8441 3.51473 3.38002 3.3372 3.30364 5.88143
threshold=23.75697464846548 -0.17896116755335431 1.3487408156455836e-10 24.227600329552761 0.055807601312532602 -0.11750687988472532 0.24097870139594132 0.69757121474827788 0.26266332414729193 1.5441362248064434 -291.52816582283896 0.0073535252059707176 1.2064861028910576 0.15056926806164175 15.962720445999501 -0.1004467415465861 39.750000000000007 19.389660092102002 28.942914995707444 0.5973738650729804 0.96745103729451476 1.110151358255193 23.071810608301259 0.5686235623880026 24.448590260623057 -0.06537626979634735 0.99511759348350004 -0.16500687692236293 22.687944760076913 -0.92661277192849989
decision_type=10 2 2 8 2 2 2 2 2 2 10 2 2 2 10 2 8 10 2 2 2 2 10 2 10 2 8 2 10 10
left_child=1 4 7 8 -1 -4 28 15 27 10 -9 -8 13 -13 -14 -3 17 -17 -6 24 -12 25 -23 -20 -5 -22 -11 -2 29 -7
right_child=3 2 5 19 18 6 11 9 -10 26 20 12 14 -15 -16 16 -18 -19 23 -21 21 22 -24 -25 -26 -27 -28 -29 -30 -31
leaf_value=0.0045133219866536362 0.0015838599029449696 0.0013604139076319308 0.004225228656712994 -0.0016579700293586038 0.014930372965454712 -0.00099317653875894514 0.022726094628686081 0.019346283754767917 -0.0019310530143570829 -0.0025087772603971099 0.0020733487474313239 0.0021728439258486445 0.001518119162681862 0.026814979697458743 0.011094097901650793 -7.4347157596307665e-05 -0.0047655884213097018 0.0010755757619678467 -5.0109960596942611e-05 -0.0052822963086366099 0.0073267004820865862 0.024600635337503656 0.0083314549433167375 0.0091910893616794272 -0.0030829926376593339 -0.0044128397647463843 0.0012085824101513388 -0.00063745983300120474 0.0017083726241304336 0.0013985051061041289
leaf_weight=2589 1729 8033 3363 15115 326 3702 50 78 10382 902 3238 72 632 79 176 58319 554 10691 130 1204 95 88 281 964 6912 193 1898 74052 20568 8397
leaf_count=2589 1729 8033 3363 15115 326 3702 50 78 10382 902 3238 72 632 79 176 58319 554 10691 130 1204 95 88 281 964 6912 193 1898 74052 20568 8397
internal_value=3.18943e-08 0.000935058 0.000756569 -0.00107191 0.00633904 0.0017218 0.00147164 0.000332765 -0.000748754 0.00186391 0.00316971 0.00629232 0.00542801 0.0151074 0.00361128 0.000199053 6.48699e-05 0.000103727 0.00966369 -0.00227026 0.002844 0.0066336 0.0122305 0.00808848 -0.00210538 -0.000521868 9.22907e-06 -0.000586711 0.00132257 0.000666293
internal_weight=234812 125418 121409 109394 4009 37039 33676 84370 86163 6773 3973 1009 959 151 808 77597 69564 69010 1420 23231 3895 657 369 1094 22027 288 2800 75781 32667 12099
internal_count=234812 125418 121409 109394 4009 37039 33676 84370 86163 6773 3973 1009 959 151 808 77597 69564 69010 1420 23231 3895 657 369 1094 22027 288 2800 75781 32667 12099
is_linear=0
shrinkage=0.05


Tree=4
num_leaves=31
num_cat=0
split_feature=53 28 53 15 28 1 6 43 32 43 56 32 28 6 34 55 53 47 39 36 55 16 56 20 55 53 56 53 56 18
split_gain=85.0047 44.8024 15.688 12.8157 11.2793 6.6637 5.96091 5.90792 5.61581 5.00418 7.11507 4.77851 4.70315 4.40278 4.19486 4.12479 6.5994 4.33464 4.25939 6.75848 4.97703 4.33567 5.51026 6.69903 22.4191 4.32081 3.82767 3.64496 3.46164 3.4278
threshold=23.748749247704581 -0.19853312162402798 24.218976989993305 -0.27062005418204527 -0.12589780062631439 -0.17594064257672673 0.25655449946141823 -0.28062360801781738 0.025162330443056009 -1.0000000180025095e-35 -34.936913721037989 0.013420483670898202 -0.21727374291230175 0.55537322732793848 0.0239451343161181 0.042864118688500007 23.553868231620765 -0.16334252296826182 0.0025466796487885195 0.54835567157638276 31.397616572466504 -0.021146293587588415 -7.8539790597919987 11.684315250507089 2.9951657196430008 22.7841355890661 -291.52816582283896 24.448590260623057 35.586959513964011 0.058482073135410172
decision_type=10 2 10 2 2 2 2 2 2 2 10 2 2 2 2 10 10 2 2 2 10 2 10 2 10 10 10 10 10 2
left_child=1 3 6 11 5 -3 12 29 -7 15 -11 -1 -2 27 -9 17 18 -6 21 25 -21 22 23 24 -17 -20 -23 -4 -24 -5
right_child=2 4 13 7 9 8 -8 14 -10 10 -12 -13 -14 -15 -16 16 -18 -19 19 20 -22 26 28 -25 -26 -27 -28 -29 -30 -31
leaf_value=0.0073882760893663503 0.0018481894662665073 0.00066377496823420039 -0.0015455708202909665 0.0038924623031492303 0.0011850455617626878 0.0021581236390271238 -0.001786017883578401 0.002169300758171649 0.0095265730019321662 0.021468514245485126 0.0031102152853659843 0.015787108132632174 -0.00059819778925395588 -0.0048483594227858124 0.015823370977361962 0.039507882589366147 -0.00020848080499284152 -0.00038667320253206304 -0.00099724425339445927 0.0039071326245598134 0.015946548847672284 0.010846279243474827 0.00071177643025353973 0.0031110759943926121 -0.0008512262896196069 0.0019280711611134708 0.0001540091374680185 -0.0029263216930109463 0.0041910879720337647 0.0067745936422913284
leaf_weight=463 2017 11398 15908 2995 5258 13456 10855 4471 264 61 397 271 74224 1405 57 55 17834 26453 1722 1971 90 84 9059 1519 91 4709 18506 6854 777 1588
leaf_count=463 2017 11398 15908 2995 5258 13456 10855 4471 264 61 397 271 74224 1405 57 55 17834 26453 1722 1971 90 84 9059 1519 91 4709 18506 6854 777 1588
internal_value=4.18039e-08 0.000902854 -0.00100242 0.00413872 0.00062263 0.00155791 -0.000689584 0.00362577 0.00230034 0.000357381 0.00557038 0.0104977 -0.000533409 -0.00212962 0.00234263 0.000330226 0.000586698 -0.000125906 0.000954378 0.0019436 0.00443605 0.000675037 0.00143815 0.00409908 0.014335 0.00114399 0.00020265 -0.00196157 0.000987175 0.00489233
internal_weight=234812 123549 111263 9845 113704 25118 87096 9111 13720 88586 458 734 76241 24167 4528 88128 56417 31711 38583 8492 2061 30091 11501 1665 146 6431 18590 22762 9836 4583
internal_count=234812 123549 111263 9845 113704 25118 87096 9111 13720 88586 458 734 76241 24167 4528 88128 56417 31711 38583 8492 2061 30091 11501 1665 146 6431 18590 22762 9836 4583
is_linear=0
shrinkage=0.05


Tree=5
num_leaves=31
num_cat=0
split_feature=53 28 53 15 28 23 44 40 1 40 1 54 34 56 18 55 41 53 44 17 39 36 53 55 27 54 17 54 12 43
split_gain=76.8034 41.4212 13.7016 11.7534 10.2274 6.64466 6.39113 6.15843 5.86101 5.77182 5.08188 4.83278 5.47032 10.0054 4.73481 4.65263 4.49662 4.39866 4.28891 4.24454 4.13833 4.8212 5.37244 4.86238 3.97542 6.74398 3.65078 3.5341 3.46013 3.43445
threshold=23.760859269797347 -0.19853312162402798 24.311234843706242 -0.24288191014428015 -0.12589780062631439 0.0024101495168301185 0.47450924286074542 0.34533800678729115 -0.058469203772187263 0.42437822901271133 -1.345288533613229 10.895000000000001 0.0239451343161181 -37.010748948346993 0.060415947370636984 1.8744948516175002 0.042256994761602808 22.7841355890661 0.27615210140879937 0.078502206949989981 0.0025466796487885195 0.50843880364551775 21.400853134419023 31.397616572466504 1.7215232005796777 8.4450000000000021 0.023249861671063837 10.310000000000002 0.80059544395952209 -0.24898679221109735
decision_type=10 2 10 2 2 2 2 2 2 2 2 8 2 10 2 10 2 10 2 2 2 2 10 10 10 10 2 10 2 2
left_child=1 3 6 17 5 -3 7 26 29 -10 -5 12 15 -14 -12 18 -11 19 28 -1 -17 27 -23 -24 25 -18 -2 -22 -6 -7
right_child=2 4 -4 10 11 8 -8 -9 9 16 14 -13 13 -15 -16 20 24 -19 -20 -21 21 22 23 -25 -26 -27 -28 -29 -30 -31
leaf_value=0.0099291919884797811 1.8223171173329269e-05 0.017667462728071143 -0.0023352481235288363 0.0008750915869273117 -0.00057478758858544785 0.0020291669081689933 -0.0021268416682016012 0.0017144641406280411 0.001957555293237905 -0.0053829561267286627 0.0029055480054103727 -0.00056385968595518718 0.021841232035629984 0.0026163759962174547 0.0056487162595400178 0.00055118345411917392 0.0078024873262827373 0.0061775914623384848 -0.0010546378006191632 0.022194449172252696 0.00093335203808724032 0.019804246112505617 0.0029790474346127679 0.016466580535919983 0.0032897676483970083 0.025285488226002031 -0.0008515556265096246 0.0097428198322023277 0.00058819530459747248 0.00033029399724875759
leaf_weight=378 14673 63 15833 1779 8423 4072 7661 2736 9451 78 4466 13119 80 443 2441 26500 415 839 6919 88 6269 51 2221 69 382 64 67572 116 26532 11079
leaf_count=378 14673 63 15833 1779 8423 4072 7661 2736 9451 78 4466 13119 80 443 2441 26500 415 839 6919 88 6269 51 2221 69 382 64 67572 116 26532 11079
internal_value=5.58477e-08 0.000837991 -0.000975811 0.00392756 0.000572634 0.00145521 -0.00074342 -0.000618644 0.00141496 0.00232984 0.00326181 0.000323547 0.000473592 0.00557025 0.0038758 0.000438947 0.00607094 0.00835428 8.2567e-05 0.0122604 0.000862441 0.00180711 0.00374892 0.00338832 0.00711489 0.0101536 -0.000696321 0.00109433 0.000307811 0.000787225
internal_weight=234812 126337 108475 9991 116346 25604 92642 84981 25541 10390 8686 90742 77623 523 6907 77100 939 1305 41874 466 35226 8726 2341 2290 861 479 82245 6385 34955 15151
internal_count=234812 126337 108475 9991 116346 25604 92642 84981 25541 10390 8686 90742 77623 523 6907 77100 939 1305 41874 466 35226 8726 2341 2290 861 479 82245 6385 34955 15151
is_linear=0
shrinkage=0.05


Tree=6
num_leaves=31
num_cat=0
split_feature=53 16 35 53 18 44 55 28 40 55 44 15 28 35 53 20 53 55 35 56 6 6 19 50 29 40 56 6 27 3
split_gain=69.3845 36.9688 13.7751 13.4824 10.7348 7.60764 8.42114 7.58682 7.8318 7.56758 5.33004 5.0279 4.88041 4.65998 4.57571 4.07528 4.04942 4.55363 4.04999 3.95969 3.91133 3.9063 5.19976 3.74771 4.39479 3.74331 3.67989 3.46762 4.47028 3.75197
threshold=23.73608273130742 -0.13767458089214765 1.890025298939133e-10 24.218976989993305 0.05632087064654203 0.70094103070887048 -0.47653352802099996 -0.14097257530105059 0.50602558622228933 1.2809605128375001 0.47450924286074542 -0.27062005418204527 -0.16601469851511261 4.7130312772679063e-10 22.293730857071616 18.381045293489404 22.863814480380238 -0.53978164479149993 8.5141164283191425e-11 295.28712996698505 0.5973738650729804 0.64703904869881634 -19.512195121951208 0.65334462992108555 -0.035799723482713118 0.32168004569237785 -291.52816582283896 -0.13691007544016678 0.53238471864860692 115.64009817728957
decision_type=10 2 2 10 2 2 10 2 2 10 2 2 2 2 10 2 8 10 2 10 2 2 2 2 2 2 10 2 10 2
left_child=1 4 7 10 13 14 -7 8 -3 -8 12 -6 -2 -1 15 -4 17 -9 -18 -20 25 22 -11 24 -10 -5 -19 28 -16 -29
right_child=3 2 5 20 11 6 9 16 23 21 -12 -13 -14 -15 27 -17 18 26 19 -21 -22 -23 -24 -25 -26 -27 -28 29 -30 -31
leaf_value=0.002698304437757613 0.00078354674732282774 0.0011003008031925015 -0.0012109653538925761 -0.0019649798015448604 0.012296333143440783 -0.00073065305915414886 0.029941118881478164 -0.0025819581679663449 0.015732346397792984 0.024096435536202616 -0.0019068569239707135 0.0059630151129155436 -0.00060459933210570583 0.0083585834169620336 0.010153088534603727 0.0014370698713674713 -6.7698053369011062e-05 0.0089847660632213881 0.00067143263174044567 0.0083245638816938829 -0.0046844601378872907 0.0030614710228289111 0.006897219524212613 0.0096749510307712963 -0.00049784657288432031 0.00048296521097656209 -0.0003019181960590397 0.001701589793040494 0.0031978010240156386 0.011593776710404305
leaf_weight=6271 6906 15244 2094 21257 394 206 50 2605 50 75 7205 1577 75776 387 260 4736 36723 108 29878 170 1228 152 109 401 246 1682 7964 8825 2136 97
leaf_count=6271 6906 15244 2094 21257 394 206 50 2605 50 75 7205 1577 75776 387 260 4736 36723 108 29878 170 1228 152 109 401 246 1682 7964 8825 2136 97
internal_value=7.37279e-08 0.000835387 0.000592643 -0.000884294 0.00398908 0.00182985 0.00740963 0.000344322 0.0013377 0.0117659 -0.000602334 0.00723213 -0.000488593 0.00302818 0.00164752 0.000624475 0.000139791 -0.000764207 0.00028442 0.000714925 -0.00193281 0.00903832 0.0139442 0.00652172 0.00223124 -0.00178527 -0.000176937 0.00226443 0.00395503 0.00180983
internal_weight=234812 120758 112129 114054 8629 18740 592 93389 15941 386 89887 1971 82682 6658 18148 6830 77448 10677 66771 30048 24167 336 184 697 296 22939 8072 11318 2396 8922
internal_count=234812 120758 112129 114054 8629 18740 592 93389 15941 386 89887 1971 82682 6658 18148 6830 77448 10677 66771 30048 24167 336 184 697 296 22939 8072 11318 2396 8922
is_linear=0
shrinkage=0.05


Tree=7
num_leaves=31
num_cat=0
split_feature=53 28 16 53 18 40 34 26 47 55 23 53 39 36 53 24 55 38 28 17 25 53 17 54 54 26 17 36 47 54
split_gain=62.7539 34.8039 15.2383 11.3861 6.71443 6.39527 5.59371 9.56801 5.37479 5.30304 5.36977 5.26659 5.46853 5.16299 4.22838 4.17031 4.15255 3.97862 3.95407 4.13623 3.70773 3.50058 3.75034 3.29865 4.2223 3.29646 3.29097 3.00115 3.13837 2.9402
threshold=23.760859269797347 -0.15652613314505781 -0.17896116755335431 24.311234843706242 0.055807601312532602 0.5388528396252833 0.0239451343161181 -0.89483240797884933 -0.19795550013541363 0.042864118688500007 0.010773547141604766 23.553868231620765 0.0025466796487885195 0.54835567157638276 22.7841355890661 0.74166666666666681 31.397616572466504 0.20413157420239428 -0.24718866665468384 0.024540601069918618 -0.71001909402342978 23.969939072232084 0.057826496515274536 1.5350000000000004 7.8350000000000009 0.75234023115405935 0.089334721775673726 0.32299283479981733 0.0044008641719661496 11.105000000000002
decision_type=10 2 2 10 2 2 2 2 2 10 2 10 2 2 10 2 10 2 2 2 2 8 2 8 10 2 2 2 2 8
left_child=1 2 4 18 -1 25 8 -8 -3 10 -10 12 29 14 -14 -9 23 -7 -2 -20 -6 -21 -23 -15 -25 -4 -22 -16 -29 -11
right_child=3 6 5 -5 20 17 7 15 9 11 -12 -13 13 16 27 -17 -18 -19 19 21 26 22 -24 24 -26 -27 -28 28 -30 -31
leaf_value=0.0038681752912671399 0.002003935941296216 0.0013367325796757254 0.0022964462988397426 -0.0021212889871439376 -0.00034804940334859678 0.0033257512863678258 0.024834154658070248 0.016843505597485636 0.00036106617683693702 0.00073037991673284466 -0.00091615676564319208 -0.00016805950398155172 -0.00077167536799577067 0.00071389607166008878 0.00024451682161853613 0.0019440051268147939 0.014701326040323258 0.011027245972329737 -2.9822946220171037e-05 -0.00051901549299114037 0.0084754905587151198 -0.0010680800600673397 -0.002948393451756421 0.0067064195763637483 0.00052204338897913615 0.00081512015068673372 0.020348549028333641 0.0047647549845084352 0.0016740923159031234 -0.00059349005476095652
leaf_weight=2289 1361 12290 11189 15833 113 383 55 51 16254 25481 16661 19436 1893 673 1687 603 88 302 17963 35414 1208 35031 2873 998 384 5672 62 1302 2247 5016
leaf_count=2289 1361 12290 11189 15833 113 383 55 51 16254 25481 16661 19436 1893 673 1687 603 88 302 17963 35414 1208 35031 2873 998 384 5672 62 1302 2247 5016
internal_value=8.39455e-08 0.000757513 0.00260472 -0.00088202 0.00553448 0.00199127 0.000384609 0.00481102 0.000354499 0.000223401 -0.000285291 0.000506292 0.000835988 0.00189953 0.00125159 0.00311593 0.0040525 0.00672957 -0.000670167 -0.000710095 0.00828828 -0.000876694 -0.00121074 0.00359336 0.00499182 0.00179844 0.00906061 0.00198403 0.00280946 0.000512471
internal_weight=234812 126337 21218 108475 3672 17546 105119 709 104410 92120 32915 59205 39769 9272 7129 654 2143 685 92642 91281 1383 73318 37904 2055 1382 16861 1270 5236 3549 30497
internal_count=234812 126337 21218 108475 3672 17546 105119 709 104410 92120 32915 59205 39769 9272 7129 654 2143 685 92642 91281 1383 73318 37904 2055 1382 16861 1270 5236 3549 30497
is_linear=0
shrinkage=0.05


Tree=8
num_leaves=31
num_cat=0
split_feature=53 16 53 35 34 26 28 44 23 14 54 53 53 17 28 53 23 40 54 54 44 32 26 28 20 54 35 55 44 55
split_gain=57.1748 26.8212 15.3129 13.3845 9.7549 12.8247 8.09564 6.93875 6.33933 6.08418 5.57414 5.27882 5.15733 5.41244 4.76601 4.45679 5.71648 4.54442 4.13412 7.87181 5.57093 4.38863 4.0421 3.96247 3.66352 3.62506 7.21689 3.70378 3.58937 3.50376
threshold=23.606051090249583 -0.17896116755335431 24.050088275776357 1.2635433529104467e-10 0.033182141099810672 -0.17459088974969902 -0.12332746172606944 0.73598179059180591 0.0024101495168301185 -0.099729104352975759 -8.8999999999999986 24.448590260623057 22.888074711461432 0.078502206949989981 -0.23939536743495268 22.351513527674502 0.08300987317983291 0.15181819619751671 10.415000000000001 11.175000000000002 1.0723776621721173 0.017716793992936276 -0.38299354389562329 -0.20547776253455066 26.397911742796342 6.955000000000001 5.2163871505236628e-11 1.7415979708055003 0.82720555104983351 -0.70447351604999986
decision_type=10 2 10 2 2 2 2 2 2 2 10 10 10 2 2 8 2 2 10 10 2 2 2 2 2 8 2 10 2 10
left_child=1 12 9 10 6 -6 8 11 -5 -2 -3 23 13 -1 -12 -16 -17 -18 20 21 22 -20 -19 -4 -10 27 -27 28 -11 -8
right_child=2 3 7 4 5 -7 29 -9 24 25 14 -13 -14 -15 15 16 17 18 19 -21 -22 -23 -24 -25 -26 26 -28 -29 -30 -31
leaf_value=0.0066272340667606552 0.0020054727730652476 -0.0030544407164309071 0.0017263338799833211 0.01952804779657543 0.031524695814164908 0.0049577868608575628 0.00011644793360431375 -0.0041017756231672125 0.0016950388357566898 -0.00038305500016872656 0.0034335714592919086 -0.0025110201492083923 0.0037342443302499969 0.017286862115005547 -0.0016702318980704311 0.00030305930130257127 0.016082709596593674 0.0072419316113152875 0.0091835716258162718 -0.00068548662255738012 -0.0054471998002090204 0.028256728633714912 0.00086538603045223448 -0.001099597616850348 0.0035489848765754154 -0.0017139640751709156 -0.00012871815352882916 0.00035684556037884592 -0.0046980225586479773 0.0013741111923723012
leaf_weight=1200 2864 1218 1281 55 60 189 8196 2208 6074 34136 1237 6863 2165 133 2738 47975 67 389 71 113 227 54 694 37900 4771 12294 17276 24741 489 17134
leaf_count=1200 2864 1218 1281 55 60 189 8196 2208 6074 34136 1237 6863 2165 133 2738 47975 67 389 71 113 227 54 694 37900 4771 12294 17276 24741 489 17134
internal_value=9.29144e-08 0.000948629 -0.000641656 0.000783873 0.00152595 0.0113896 0.00145799 -0.00136282 0.00259763 -0.000262544 0.000289648 -0.00123136 0.00524549 0.00769577 0.000365787 0.000293165 0.000401673 0.00332778 0.0027715 0.0088371 0.00166509 0.0174791 0.00316083 -0.00100707 0.00251112 -0.000335639 -0.000787971 -0.000110249 -0.000444152 0.00096737
internal_weight=234812 94760 140052 91262 36479 249 36230 48252 10900 91800 54783 46044 3498 1333 53565 52328 49590 1615 1548 238 1310 125 1083 39181 10845 88936 29570 59366 34625 25330
internal_count=234812 94760 140052 91262 36479 249 36230 48252 10900 91800 54783 46044 3498 1333 53565 52328 49590 1615 1548 238 1310 125 1083 39181 10845 88936 29570 59366 34625 25330
is_linear=0
shrinkage=0.05


Tree=9
num_leaves=31
num_cat=0
split_feature=53 15 53 40 44 15 18 53 18 54 54 49 55 49 43 56 36 40 54 56 6 56 32 17 23 53 20 54 56 53
split_gain=51.6033 23.1426 13.8198 9.98226 6.262 5.5988 5.34268 4.76396 4.70373 4.34232 12.8719 6.18869 5.59701 7.09738 4.61792 9.79297 3.4966 3.43173 3.41073 3.61853 4.73377 5.17491 8.53307 5.15719 3.72191 5.23004 14.0484 3.3331 3.37306 3.25755
threshold=23.606051090249583 -0.18976156740705222 24.050088275776357 0.21475101132239482 0.73598179059180591 -0.14320816479112294 0.064364706093742272 24.448590260623057 0.037767662150355076 10.795000000000002 10.655000000000003 1.2126568578410022 0.67056395593850004 1.5204023639440793 -1.0000000180025095e-35 -4.8093894245804991 0.28530042941676254 0.32168004569237785 11.105000000000002 18.760199056559003 -0.06236650380244612 -291.52816582283896 0.0106329083110266 0.029661038005795868 0.006580687520115861 22.937070971400562 13.196341323480242 1.5750000000000004 1.8589627214835003 22.888074711461432
decision_type=10 2 10 2 2 2 2 10 2 8 10 2 10 2 2 10 2 2 8 10 2 8 2 2 2 10 2 10 10 10
left_child=1 6 5 18 7 8 -1 17 -2 10 12 -12 13 -5 16 -16 -14 -4 19 20 23 22 -22 -3 25 26 -25 -26 -29 -8
right_child=2 3 4 9 -6 -7 29 -9 -10 -11 11 -13 14 -15 15 -17 -18 -19 -20 -21 21 -23 -24 24 27 -27 -28 28 -30 -31
leaf_value=0.0040026726641133699 -6.5479661841456641e-05 -6.3766231940923216e-06 -0.0010787007641698252 0.0020639426152690866 -0.0038966961389419099 -0.00033408959984072557 0.012774559470627956 -0.0023854711134908778 0.0033149603199904283 -6.7370180197538098e-05 0.029912193523615516 0.0080524737702383064 7.9812495635750555e-05 -0.0010544677302062508 0.02933614343082246 0.0027521859957815352 0.0027787018030123317 0.00083800388958210593 -0.00041164388999099057 0.0015817427992639043 0.0021294655752805021 -1.4848925000350651e-05 0.022074488524030267 0.032827292209574969 8.2131503308509795e-05 0.002156157716429945 0.0051687378639419055 0.0029546454810968391 0.00074748961690677984 0.0054347408214276936
leaf_weight=2843 2146 7592 36690 4512 2208 87682 310 6863 1972 3054 57 77 1376 3061 50 114 9597 2491 9743 8072 256 30619 68 51 3908 1677 463 3657 3301 302
leaf_count=2843 2146 7592 36690 4512 2208 87682 310 6863 1972 3054 57 77 1376 3061 50 114 9597 2491 9743 8072 256 30619 68 51 3908 1677 463 3657 3301 302
internal_value=9.96312e-08 0.000901237 -0.000609579 0.00074917 -0.00129468 -0.00024942 0.0049183 -0.00116979 0.00155215 0.00168001 0.00196347 0.0174037 0.00185253 0.000802826 0.00256585 0.0109005 0.00244072 -0.000956714 0.000455415 0.000597088 0.000442931 5.15129e-05 0.0063364 0.00102923 0.00163177 0.00351294 0.00792865 0.00125196 0.00190828 0.00916227
internal_weight=234812 94760 140052 91305 48252 91800 3455 46044 4118 21898 18844 134 18710 7573 11137 164 10973 39181 69407 59664 51592 30943 324 20649 13057 2191 514 10866 6958 612
internal_count=234812 94760 140052 91305 48252 91800 3455 46044 4118 21898 18844 134 18710 7573 11137 164 10973 39181 69407 59664 51592 30943 324 20649 13057 2191 514 10866 6958 612
is_linear=0
shrinkage=0.05


Tree=10
num_leaves=31
num_cat=0
split_feature=53 28 53 16 43 38 19 18 1 6 18 53 55 54 56 54 53 16 17 54 53 17 1 28 6 56 18 54 23 23
split_gain=47.0402 27.5741 8.56237 7.98777 7.96485 5.52202 5.11296 4.64654 4.46417 4.25952 4.19395 4.03547 3.71785 3.48063 5.53219 7.41773 4.32544 4.27707 8.9098 5.33377 4.24472 3.9657 3.87944 3.54093 4.61819 4.13081 3.30687 3.27713 3.13394 3.07425
threshold=23.760859269797347 -0.20547776253455066 24.237028537991446 -0.10429568110372175 -0.32825831725596649 0.21738442574687847 -40.259740259740319 0.043153524414169073 -1.0984996208337983 0.17185146546580757 0.036511912754974347 23.071810608301259 -10.176510892545499 10.895000000000001 18.760199056559003 9.8850000000000033 23.380514473695296 0.18814035405542009 0.050964261480012596 6.1450000000000005 22.606915546310187 0.014248983900545464 -0.063541152299950748 -0.12499999999999993 0.14203702808580201 -291.52816582283896 0.081664289124197056 1.5750000000000004 0.0031232384270762944 0.12138431803463519
decision_type=10 2 10 2 2 2 2 2 2 2 2 10 10 8 10 10 10 2 2 10 10 2 2 2 2 8 2 10 2 2
left_child=1 4 9 11 7 13 -7 -1 -6 -2 -8 -3 -4 14 22 16 17 -16 19 -19 -15 -18 -5 25 -25 -24 -9 -12 -27 -29
right_child=2 3 12 5 8 6 10 26 -10 -11 27 -13 -14 20 15 -17 21 18 -20 -21 -22 -23 23 24 -26 28 -28 29 -30 -31
leaf_value=0.0016266229350166109 -0.00035991094565300486 0.0031310534681151117 -0.0050719468897477381 -0.00032211945108351385 -0.00019533071969006968 0.0095396867088356086 0.014797088248524113 0.0057672332265900853 0.0030306921848636957 -0.0012336698692461256 -0.0011252411155723136 0.0010812766507416606 -0.0015152274089093487 -0.0022682924831392216 0.0017537518294211654 0.0081523592146185622 0.012058209260170363 0.028395319990539365 0.0016012629254459542 0.0086334760123503388 -5.7854300281962983e-05 9.7765656834796307e-05 0.012309193645824125 0.00052775988223588888 -0.00084400945438255204 0.013712823970333608 0.012565497951067723 0.0016089951549793187 0.0013753945542128087 0.0065139131534627075
leaf_weight=680 68662 3505 762 23125 1440 234 61 2381 4168 17515 806 7666 21536 2631 5336 389 70 61 260 80 12473 6241 90 40173 7239 52 195 1469 5102 410
leaf_count=680 68662 3505 762 23125 1440 234 61 2381 4168 17515 806 7666 21536 2631 5336 389 70 61 260 80 12473 6241 90 40173 7239 52 195 1469 5102 410
internal_value=1.08751e-07 0.000655888 -0.000763609 0.000452929 0.00334508 0.000319214 0.00244133 0.00531315 0.00220145 -0.000537557 0.0018343 0.00172488 -0.00163702 0.000257958 0.000378068 0.00135552 0.00113558 0.00212933 0.0071129 0.0172324 -0.000443239 0.000231409 0.000217584 0.000454701 0.000318207 0.00168778 0.00628426 0.0015374 0.0015011 0.0026822
internal_weight=234812 126337 108475 117473 8864 106302 2980 3256 5608 86177 2746 11171 22298 103322 88218 12437 12048 5737 401 141 15104 6311 75781 52656 47412 5244 2576 2685 5154 1879
internal_count=234812 126337 108475 117473 8864 106302 2980 3256 5608 86177 2746 11171 22298 103322 88218 12437 12048 5737 401 141 15104 6311 75781 52656 47412 5244 2576 2685 5154 1879
is_linear=0
shrinkage=0.05


Tree=11
num_leaves=31
num_cat=0
split_feature=53 28 53 20 35 18 16 53 6 34 26 15 28 55 53 39 35 53 55 20 54 12 6 28 35 28 47 31 26 35
split_gain=42.7268 20.6956 11.4049 9.38356 7.93927 6.63595 5.14571 4.91199 4.87799 4.84973 12.1253 4.67544 4.67202 4.65694 3.96128 3.79269 3.74723 5.04318 5.54801 5.19036 4.39616 3.9725 4.49129 3.63748 5.10301 3.30738 3.20455 3.29551 3.18518 3.17831
threshold=23.606051090249583 -0.15652613314505781 24.050088275776357 29.362361850454509 1.1897214002995402e-10 0.045957199314494455 -0.16500687692236293 22.7841355890661 0.5973738650729804 0.033182141099810672 -0.17459088974969902 -0.27062005418204527 -0.23299891080581284 -3.3583054165374997 24.499955406120993 -0.008769270699044927 5.4673224822663088e-10 22.687944760076913 -0.92661277192849989 32.927993433321177 6.5950000000000006 0.6731260065189123 0.28915550197804468 -0.14097257530105059 4.9254200074155959e-11 -0.23299891080581284 -0.055006612360469186 0.0061008707764061152 -0.72017192657252405 9.9189189711442318e-12
decision_type=10 2 10 2 2 2 2 8 2 2 2 2 2 10 10 2 2 10 10 2 8 2 2 2 2 2 2 2 2 2
left_child=1 3 6 25 7 -5 -2 -3 12 16 -11 -7 -4 -9 -14 -15 17 18 -6 20 -20 22 -21 24 -17 -1 27 -19 -27 -8
right_child=2 4 8 5 9 11 29 13 -10 10 -12 -13 14 15 -16 23 -18 26 19 21 -22 -23 -24 -25 -26 28 -28 -29 -30 -31
leaf_value=0.0031681946083334696 0.002317244633734191 -0.0014778301033134369 0.0026347330266680634 0.0019172887351785167 -0.0017511559048536266 0.0096739468050158085 -0.0061019205862225543 -0.00099721422523559619 -0.0035800016481527253 0.028527488637841748 0.001495687405808299 0.0044382819634665944 -0.0009743731745698622 0.00013833734257829891 -0.0024605266394769898 -0.0036975350920632763 0.0037158831937692816 0.00059587246956665791 0.0010846673819522687 0.0021865280450738332 -0.0015791059624320836 0.0026896813090604718 0.022504611500769642 0.0011670892415701979 0.010956643735601693 0.0034061979613026769 0.00080768816702995712 0.0026700568263338729 0.00052208928477418415 -0.00026731840900959773
leaf_weight=2099 1944 4799 834 2864 3099 483 234 6576 2025 56 161 3778 40342 24083 5051 82 1228 2724 4416 54 2385 1342 56 8336 211 1117 11560 6503 6748 89622
leaf_count=2099 1944 4799 834 2864 3099 483 234 6576 2025 56 161 3778 40342 24083 5051 82 1228 2724 4416 54 2385 1342 56 8336 211 1117 11560 6503 6748 89622
internal_value=1.16846e-07 0.000820097 -0.000554651 0.00239548 0.000473417 0.00378143 -0.000227463 3.20935e-05 -0.00117702 0.00105261 0.00850459 0.00503315 -0.00107164 0.00021666 -0.00113986 0.000460837 0.00100397 0.000900184 5.21743e-05 0.000729943 0.000149781 0.00344372 0.0125867 0.00136032 0.00683855 0.00140389 0.00136305 0.00205827 0.000932369 -0.000282575
internal_weight=234812 94760 140052 17089 77671 7125 91800 44087 48252 33584 217 4261 46227 39288 45393 32712 33367 32139 11352 8253 6801 1452 110 8629 293 9964 20787 9227 7865 89856
internal_count=234812 94760 140052 17089 77671 7125 91800 44087 48252 33584 217 4261 46227 39288 45393 32712 33367 32139 11352 8253 6801 1452 110 8629 293 9964 20787 9227 7865 89856
is_linear=0
shrinkage=0.05


Tree=12
num_leaves=31
num_cat=0
split_feature=15 54 55 18 6 47 40 6 6 55 18 15 34 55 10 25 15 18 1 18 31 39 55 54 34 49 21 54 18 54
split_gain=27.9844 9.72892 9.19481 8.6132 7.41368 6.24356 5.82935 5.12746 4.91862 4.65026 4.99553 4.51422 3.8043 7.43472 3.79272 3.71234 3.69708 3.54242 3.91493 3.38794 3.21219 2.99199 3.2083 4.46997 2.84555 2.79807 2.78051 2.75944 3.00662 2.72512
threshold=-0.18976156740705222 6.955000000000001 1.9926604860570001 0.044970220681814624 0.70533008096688055 -0.16334252296826182 0.27697626992371321 0.64703904869881634 -0.0099410098693356024 4.6902682944870007 0.099793555734791636 -0.099383521928824811 0.0239451343161181 1.1819119761475003 -0.5380561381745308 -0.6618176463839498 -0.27062005418204527 0.059737689792274722 -0.07449783403466427 0.029088874046256784 0.005966407210828477 -0.056894231106645647 -2.8632046605024994 30.725000000000005 0.033182141099810672 1.7916221420827119 -0.13917183345995129 -15.854999999999999 0.057921855071097733 3.2750000000000004
decision_type=2 8 10 2 2 2 2 2 2 8 2 2 2 10 2 2 2 2 2 2 2 2 10 10 2 2 2 10 2 10
left_child=3 2 4 -1 5 17 8 14 19 10 21 -11 -7 25 -8 -5 -17 18 -2 29 -20 -3 23 -23 -6 -14 -21 -16 -29 -4
right_child=1 9 6 15 24 12 7 -9 -10 11 -12 -13 13 -15 27 16 -18 -19 20 26 -22 22 -24 -25 -26 -27 -28 28 -30 -31
leaf_value=0.0015039338497143057 -0.00022412526541468067 6.6359328889217082e-05 0.00091769041103731885 0.0012285628113714664 -0.0043153803263886615 -0.00038610696654803539 0.0089956235961092448 -0.00085881541112664333 -2.1571649392141278e-05 0.00053779200086664209 0.011069176774510366 -0.0013367067299876823 0.0053464483526698657 0.020901567005152263 -0.0041270870496305382 0.0096497018959700951 0.0050792112815102172 0.0051923493312949981 -4.0813565662116471e-06 0.00030867006157113408 0.0019932062782996797 -0.0020285238880122561 -0.00039657685686419347 0.010678953724214478 0.0048854892097171046 -0.001637901502318483 0.0018525560920208701 0.0014051094228554007 0.0035331379155554275 -0.00061079416742428278
leaf_weight=2753 7666 27802 7055 445 1356 66666 209 1500 30808 3729 97 22998 283 56 170 593 1792 432 3043 4056 5919 4800 17901 70 89 289 10455 3917 2896 4967
leaf_count=2753 7666 27802 7055 445 1356 66666 209 1500 30808 3729 97 22998 283 56 170 593 1792 432 3043 4056 5919 4800 17901 70 89 289 10455 3917 2896 4967
internal_value=1.23421e-07 -8.50417e-05 0.000147499 0.0034977 -0.000193806 -0.000132911 0.000591045 0.00179783 0.000408025 -0.000541289 -0.000259679 -0.00107499 -0.000349549 0.00352275 0.00235261 0.00543533 0.00621806 0.000721333 0.000604844 0.000907025 0.00131449 -0.000281528 -0.000706496 -0.00184463 -0.00374492 0.00180923 0.00142137 0.00215295 0.00231044 0.000285767
internal_weight=234812 229229 151832 5583 85799 84354 66033 8692 57341 77397 50670 26727 67294 628 7192 2830 2385 17060 16628 26533 8962 50573 22771 4870 1445 572 14511 6983 6813 12022
internal_count=234812 229229 151832 5583 85799 84354 66033 8692 57341 77397 50670 26727 67294 628 7192 2830 2385 17060 16628 26533 8962 50573 22771 4870 1445 572 14511 6983 6813 12022
is_linear=0
shrinkage=0.05


Tree=13
num_leaves=31
num_cat=0
split_feature=53 16 35 18 53 16 54 15 28 44 28 26 35 54 28 28 54 35 55 55 23 53 38 54 18 28 53 35 50 39
split_gain=38.1306 22.3447 9.62178 7.65905 6.82422 5.81399 4.86694 4.69471 4.46913 4.31869 4.07462 4.27018 6.33034 3.8488 4.32362 3.59298 3.52771 4.90555 3.92283 3.49416 8.41158 3.49117 3.52523 3.28349 2.98342 2.91165 3.69452 4.88745 2.78302 2.7629
threshold=23.781034370874639 -0.11750687988472532 1.2013157718797051e-10 0.040716249683273177 24.323866385085807 0.18202561663067138 39.750000000000007 -0.27062005418204527 -0.29794915024449659 0.73598179059180591 -0.077316060896293157 -0.31207140639569281 2.7995060361103213e-10 0.64000000000000012 -0.17339718116015179 -0.22702599318748976 3.1350000000000002 3.6029767899392367e-11 3.9211806157685003 4.7785045553995014 0.034122445207951685 22.351513527674502 0.20413157420239428 11.720000000000001 0.023280981311958424 -0.12332746172606944 22.404748157776691 4.7130312772679063e-10 0.34799514815201282 -0.50200708478642231
decision_type=10 2 2 2 10 2 8 2 2 2 2 2 2 10 2 2 8 2 10 10 2 8 2 10 2 2 10 2 2 2
left_child=1 3 6 -1 9 25 8 28 -3 15 11 12 13 -7 -15 -2 18 -18 24 20 -20 29 -23 -9 -17 -4 27 -27 -5 -10
right_child=4 2 5 7 -6 10 -8 23 21 -11 -12 -13 -14 14 -16 16 17 -19 19 -21 -22 22 -24 -25 -26 26 -28 -29 -30 -31
leaf_value=0.0013671474090644052 0.0017621100701468288 0.0067804993049873398 0.0016188549860691832 0.010019299359993189 -0.0017061104670605285 -0.00374761386715536 -0.0044265838790184071 0.0038175473851522418 0.0022963367213185508 -0.0025115075652112923 0.00037466986336708009 0.0032044272134632117 0.024213870010337174 0.019228905920182414 0.0056384497538641658 0.00042522013143073958 -0.0016374975359265452 -0.00051149166104238325 0.0018719411222086514 0.00032630386789606752 0.015406401402694432 3.840125549627219e-05 0.0022353332619990353 0.00050487198929258443 -0.00080217126336512698 -0.00098503843234886974 0.00089408860517649227 0.0026904263558383003 0.0035156009207070907 -0.0024593918271394711
leaf_weight=6928 1738 246 8910 447 14894 71 611 4697 354 2720 715 1025 60 79 233 7001 12796 39732 1419 6544 125 71404 1874 894 16873 5891 23018 1068 265 2180
leaf_count=6928 1738 246 8910 447 14894 71 611 4697 354 2720 715 1025 60 79 233 7001 12796 39732 1419 6544 125 71404 1874 894 16873 5891 23018 1068 265 2180
internal_value=1.25331e-07 0.000567491 0.00034851 0.00251575 -0.000715413 0.000966079 1.76245e-05 0.00377741 5.33978e-05 -0.000549466 0.00347758 0.00498535 0.00909304 0.00670549 0.0091007 -0.000487514 -0.000533851 -0.000785888 -0.000119483 0.000831985 0.00297184 3.14944e-05 9.46565e-05 0.00328876 -0.000442032 0.000824954 0.000588813 -0.000420215 0.00760654 -0.00179298
internal_weight=234812 130970 117739 13231 103842 41070 76669 6303 76058 88948 2183 1468 443 383 312 86228 84490 52528 31962 8088 1544 75812 73278 5591 23874 38887 29977 6959 712 2534
internal_count=234812 130970 117739 13231 103842 41070 76669 6303 76058 88948 2183 1468 443 383 312 86228 84490 52528 31962 8088 1544 75812 73278 5591 23874 38887 29977 6959 712 2534
is_linear=0
shrinkage=0.05


Tree=14
num_leaves=31
num_cat=0
split_feature=35 16 16 35 17 40 17 17 18 55 35 37 49 55 55 16 55 55 26 36 41 31 20 55 45 40 20 44 26 35
split_gain=32.0624 15.4791 9.45675 6.16531 6.02314 6.00825 5.8653 4.90866 4.41396 4.33174 4.27181 3.97434 3.93293 3.24846 3.15086 2.68149 2.64454 7.11327 4.19691 3.30338 3.27655 2.37529 2.36205 3.35265 2.32071 4.93858 2.31474 2.19691 2.18606 2.18324
threshold=1.0878180058538347e-10 -0.11750687988472532 -0.17896116755335431 1.3660582822770337e-11 0.036482764080805578 0.1822000040193156 0.082462598217714289 0.021195899525417453 0.040528603404036669 -3.3583054165374997 5.8345351318639454e-11 -0.13463493079930103 1.4673059237679875 4.6902682944870007 -6.6596712488369993 0.02671417053136171 -2.2119023256974994 -2.1263657773324995 -1.2825448083455957 0.52042839031333932 -0.63548019750386198 0.012696327041460365 37.063949135879263 -10.674910551059998 1.7363058942395824 0.45844860101016022 16.681701889221728 0.30290832108603677 3.9170616647131578 1.890025298939133e-10
decision_type=2 2 2 2 2 2 2 2 2 10 2 2 2 10 10 2 10 10 2 2 2 2 2 8 2 2 2 2 2 2
left_child=2 6 14 4 15 29 8 -5 22 10 26 -11 -10 -8 -1 -4 -7 -18 19 -19 -20 -16 -2 -24 -13 -26 -9 -12 -25 -3
right_child=1 5 3 7 -6 16 13 9 12 11 27 24 -14 -15 21 -17 17 18 20 -21 -22 -23 23 28 25 -27 -28 -29 -30 -31
leaf_value=-0.0014597439268721343 0.0027118344028888236 8.3291722271101041e-05 -0.0015233284406051832 0.00042509738948322111 -0.0037297410163044144 0.00028772470140898997 0.007114247499193602 -0.0030452531089840999 0.0046627214696762362 0.002531376316010585 2.035928963734349e-05 -0.00041807808578312507 -0.00013970614031461439 0.023482441395810946 0.0018519230732257893 0.0065500844312237991 0.017689599671245643 0.0037550697890233217 0.013280414719407302 0.020499426913188481 0.0015665077909873312 0.0049379183420103084 0.0090544676936965413 -0.00091010311168703343 0.00029786112081300978 0.0069009279398484363 -0.0013647513373603742 -0.0019186974760890371 0.0089885856690151353 0.00084688048336818787
leaf_weight=460 2069 28041 190 17016 2362 3747 78 2546 3358 1182 8286 117769 486 51 1668 222 70 70 60 52 12711 1004 98 1363 2986 313 10659 1772 58 14065
leaf_count=460 2069 28041 190 17016 2362 3747 78 2546 3358 1182 8286 117769 486 51 1668 222 70 70 60 52 12711 1004 98 1363 2986 313 10659 1772 58 14065
internal_value=1.33743e-07 0.000930866 -0.000366621 -0.000418217 -0.00275579 0.000656991 0.0030606 -0.000378287 0.00287617 -0.000472268 -0.00109775 -0.000353204 0.00405426 0.0136373 0.00235488 0.00281531 0.00145927 0.00179752 0.00171072 0.0109439 0.00162204 0.00301349 0.00161255 0.000111855 -0.00038141 0.000926048 -0.00168916 -0.000320779 -0.000501953 0.000338479
internal_weight=234812 66377 168435 165303 2774 58816 7561 162529 7432 145513 23263 122250 3844 129 3132 412 16710 12963 12893 122 12771 2672 3588 1519 121068 3299 13205 10058 1421 42106
internal_count=234812 66377 168435 165303 2774 58816 7561 162529 7432 145513 23263 122250 3844 129 3132 412 16710 12963 12893 122 12771 2672 3588 1519 121068 3299 13205 10058 1421 42106
is_linear=0
shrinkage=0.05


Tree=15
num_leaves=31
num_cat=0
split_feature=28 43 54 55 6 16 23 39 44 18 6 1 54 47 29 40 44 50 41 23 55 54 54 36 54 54 55 56 25 36
split_gain=23.8818 8.18058 7.5556 7.67454 6.82759 5.35312 5.07853 4.87516 4.86656 4.87569 4.37653 3.83581 3.74674 3.61612 3.67145 5.18027 3.84465 3.43222 3.30416 4.26292 4.19875 3.54705 5.2919 7.91929 3.52258 6.92214 10.4403 10.6723 5.07064 3.40329
threshold=-0.20547776253455066 -0.34870306830691955 6.955000000000001 2.8423605979425006 0.5973738650729804 -0.11512022500552789 0.0094111214044239489 0.0033827168503938192 0.97106321341034607 0.059128959409349612 -0.073575360688539634 -0.21496673186163004 24.425000000000004 -0.19538842303014661 0.20897757866772682 0.35267015334754098 0.28594838373585546 0.3527461654903874 0.30339203007204862 0.042188949077024716 3.0610048775740006 5.3550000000000013 5.7650000000000006 0.32192723190318645 3.2350000000000008 1.7650000000000003 10.319644693871002 10.092711890341501 0.42717397927275685 0.47817792185649138
decision_type=2 2 8 10 2 2 2 2 2 2 2 2 8 2 2 2 2 2 2 2 10 10 10 2 10 10 10 10 2 2
left_child=1 17 3 4 5 -2 -4 10 9 -3 -5 -7 -8 -13 16 -16 -15 -1 -9 20 29 24 23 -23 25 -21 27 -27 -29 -20
right_child=2 8 6 7 -6 11 12 18 -10 -11 -12 13 -14 14 15 -17 -18 -19 19 21 -22 22 -24 -25 -26 26 -28 28 -30 -31
leaf_value=0.0058522474081828492 0.0013470781031133998 0.00077932227445961957 -6.0616829173283383e-05 0.0010313775813207036 -0.0031228247205557051 -0.0010759083859276199 -0.00075583796897603979 0.00014835048874622511 -0.0033371189227134378 0.0032254179645387934 -0.00010374005237815314 0.00093538753195467376 -0.0025394068270962701 -0.00016273486647397671 0.00025708158229626339 0.0038244747766100849 -0.0012271046262301213 0.0026522401276397201 0.002645370180082751 0.0018104389717043406 0.001050733240573636 0.00012691528187803709 0.0016066443848629878 0.024728911716209834 -0.00014875942611076789 0.0073042500876791538 -0.0031840630259861754 0.038128801650867732 0.01703377649262441 0.012509015727320286
leaf_weight=1633 5770 6006 32695 12539 1942 11497 39329 4331 525 3089 26287 7647 3186 47159 6982 1192 10350 1739 227 873 8334 52 125 90 608 220 121 50 70 144
leaf_count=1633 5770 6006 32695 12539 1942 11497 39329 4331 525 3089 26287 7647 3186 47159 6982 1192 10350 1739 227 873 8334 52 125 90 608 220 121 50 70 144
internal_value=1.42451e-07 0.00208371 -0.000121871 8.71068e-05 -0.000189378 -0.000126439 -0.000529305 0.000560384 0.00134011 0.00161068 0.000262723 -0.000226729 -0.000889619 -9.35217e-05 -0.000213388 0.00077796 -0.00035438 0.00420356 0.00131813 0.00178187 0.00128318 0.00374465 0.00915641 0.0157613 0.0029976 0.00443527 0.00939362 0.0138841 0.0258894 0.00648966
internal_weight=234812 12992 221820 146610 92539 90597 75210 54071 9620 9095 38826 84827 42515 73330 65683 8174 57509 3372 15245 10914 8705 2209 267 142 1942 1334 461 340 120 371
internal_count=234812 12992 221820 146610 92539 90597 75210 54071 9620 9095 38826 84827 42515 73330 65683 8174 57509 3372 15245 10914 8705 2209 267 142 1942 1334 461 340 120 371
is_linear=0
shrinkage=0.05


Tree=16
num_leaves=31
num_cat=0
split_feature=53 16 35 53 34 26 55 44 16 39 14 53 55 44 50 49 7 19 43 53 17 53 12 18 23 47 29 55 55 47
split_gain=32.486 13.2921 8.88249 8.76801 7.04655 10.2189 4.98275 4.47069 4.42934 4.16849 3.91221 3.80301 4.73897 4.73763 6.45845 8.86681 5.15964 3.83739 3.63291 3.59541 3.75961 3.39502 3.29928 3.20303 2.80715 2.60672 2.58186 2.57249 2.52262 2.51908
threshold=23.615839444981066 -0.17896116755335431 1.3487408156455836e-10 24.050088275776357 0.033182141099810672 -0.17459088974969902 -7.0731077508124995 0.77787035577512764 -0.08860265863492213 0.022215523728822632 -0.096542947679624555 22.837964588440475 -0.92661277192849989 0.49559715851747316 0.474783521777073 2.0714285714285774 0.63250949065004236 -28.824576093782703 -0.24898679221109735 22.888074711461432 0.078502206949989981 24.448590260623057 0.87900940495272428 0.065328645274102051 0.065419569974054431 -0.19280233180974837 -0.34101322462551303 -3.9490777341574996 6.237642395901501 0.19137557920118131
decision_type=10 2 2 10 2 2 10 2 2 2 2 10 10 2 2 2 2 2 2 10 2 10 2 2 2 2 2 8 10 2
left_child=1 19 6 10 8 -6 25 21 -4 18 -2 12 27 -14 -15 16 17 -16 -8 20 -1 -5 24 -13 -12 -3 -9 -10 -22 -11
right_child=3 2 4 7 5 -7 9 26 11 29 22 23 13 14 15 -17 -18 -19 -20 -21 28 -23 -24 -25 -26 -27 -28 -29 -30 -31
leaf_value=0.0048763122110087459 0.0015453236786716186 0.0012524199519158932 0.0024157562949833353 -0.00075650261623410806 0.028027630334627043 0.0039571152382451708 0.0012598634685213499 0.0047223385652501206 -0.00011750009303985408 0.0019117283821237199 -0.00061308079801367934 0.0012992289363631267 0.0004958532555779376 0.00014016544944465154 0.030277097553083429 0.0013649072361693513 0.0081886659412845671 0.011913033027426391 1.6936967633500936e-05 0.0024682526165670528 0.0082188545591816153 -0.0019573753024915864 -2.7191124579685643e-05 0.0047200683202986799 -0.004798845881015994 -0.0018312046453569299 -0.0037884609086489595 -0.0027365010423288363 0.022543391064943932 -0.00081741766141884436
leaf_weight=1200 3100 823 5948 39371 58 186 6863 93 2356 5834 31503 13548 7996 541 65 268 158 53 41062 2194 82 6929 54948 722 406 4047 1859 1562 51 986
leaf_count=1200 3100 823 5948 39371 58 186 6863 93 2356 5834 31503 13548 7996 541 65 268 158 53 41062 2194 82 6929 54948 722 406 4047 1859 1562 51 986
internal_value=1.46216e-07 0.000703613 0.000589376 -0.000491515 0.00124138 0.00970842 0.000223333 -0.00103531 0.001179 0.000359744 -0.000199775 0.000909045 0.000289896 0.000917281 0.00401809 0.0078647 0.0141552 0.0220882 0.000195034 0.00371676 0.00576761 -0.00093633 -0.000262119 0.00147269 -0.000666511 -0.00130905 -0.00338019 -0.00116294 0.0137621 0.00151642
internal_weight=234812 96603 93076 138209 33461 244 59615 48252 33217 54745 89957 27269 12999 9081 1085 544 276 118 47925 3527 1333 46300 86857 14270 31909 4870 1952 3918 133 6820
internal_count=234812 96603 93076 138209 33461 244 59615 48252 33217 54745 89957 27269 12999 9081 1085 544 276 118 47925 3527 1333 46300 86857 14270 31909 4870 1952 3918 133 6820
is_linear=0
shrinkage=0.05


Tree=17
num_leaves=31
num_cat=0
split_feature=53 28 43 35 34 17 18 44 55 35 1 35 12 35 6 44 56 26 6 44 3 35 55 14 49 50 55 1 20 55
split_gain=29.7131 16.8209 7.4734 7.42538 5.93178 5.11884 5.08802 4.31193 5.85193 6.41302 7.90901 4.30234 3.81706 3.7813 3.60344 3.58469 3.53176 3.32269 3.21938 4.80559 3.16608 2.79557 2.78518 2.63595 2.51977 3.36296 3.8739 2.48403 2.374 2.31594
threshold=23.8581924221543 -0.15652613314505781 -0.28062360801781738 1.890025298939133e-10 0.0239451343161181 0.027003981556253508 0.039614326054061587 0.66982932449949606 -0.47653352802099996 2.7995060361103213e-10 0.87038089272299934 2.7933661286746338e-11 0.87174689769989777 1.2253628110018358e-10 -0.13691007544016678 0.77787035577512764 -2.0003111677769994 -0.059509567163178449 -0.09735826321211026 0.16651944151336298 115.64009817728957 5.2573943420000763e-11 -4.1999731960209994 -0.17961737153882615 1.4759341374935964 0.43438749560139783 2.8423605979425006 -2.3353066014646964 36.560942209820702 39.34516338072951
decision_type=10 2 2 2 2 2 2 2 10 2 2 2 2 2 2 2 8 2 2 2 2 2 10 2 2 2 10 2 2 8
left_child=1 2 6 12 13 -2 -1 14 -9 -10 -11 15 -3 -4 16 -7 24 23 19 21 -16 -13 -21 -8 25 -5 -27 -25 -19 -15
right_child=5 3 4 7 -6 11 17 8 9 10 -12 18 -14 29 20 -17 -18 28 -20 22 -22 -23 -24 27 -26 26 -28 -29 -30 -31
leaf_value=0.00075283299064765716 -5.4022259136915172e-05 -0.00035732237731389766 0.00028857979962212976 0.0037135798423269238 0.010426728985522632 -0.0014616473512123202 0.0094403315136309847 -0.002192926599940298 0.0028103390075881907 0.026442792989344873 0.0046731956691578539 -0.0014212408172632847 0.00026424955157641213 0.0021419665196426084 0.00056717738932985881 -0.004138949522187285 0.00085743581999999209 0.0017048979531540732 -0.00096215270371885356 -0.0028408029648744958 0.0087937588263582982 0.00024643041777004584 0.0030097285795873323 -0.0014982319038992597 0.00048147795852755823 0.0059710913990101014 0.018423106174887089 0.0047417419143302572 0.0044357934457885063 -0.0048450778671836406
leaf_weight=2243 20783 38466 9749 1067 164 12928 281 162 186 90 79 4340 69005 4940 13185 1387 1770 2600 38976 231 118 5960 1654 170 393 211 90 2309 1154 121
leaf_count=2243 20783 38466 9749 1067 164 12928 281 162 186 90 79 4340 69005 4940 13185 1387 1770 2600 38976 231 118 5960 1654 170 393 211 90 2309 1154 121
internal_value=1.52195e-07 0.000428767 0.00164902 0.000196732 0.000969955 -0.000737938 0.0028096 0.00115651 0.00565592 0.00925134 0.0163048 -0.000954946 4.173e-05 0.000864828 0.001018 -0.00172143 0.00243839 0.00351702 -0.00074038 -3.05861e-05 0.00064059 -0.00045578 0.00229 0.00483605 0.00402444 0.00503851 0.00971577 0.00431177 0.00254582 0.00197384
internal_weight=234812 148553 23731 124822 14974 86259 8757 17351 517 355 169 65476 107471 14810 16834 14315 3531 6514 51161 12185 13303 10300 1885 2760 1761 1368 301 2479 3754 5061
internal_count=234812 148553 23731 124822 14974 86259 8757 17351 517 355 169 65476 107471 14810 16834 14315 3531 6514 51161 12185 13303 10300 1885 2760 1761 1368 301 2479 3754 5061
is_linear=0
shrinkage=0.05


Tree=18
num_leaves=31
num_cat=0
split_feature=53 16 34 53 35 35 54 31 54 17 55 55 44 17 29 18 55 49 14 53 41 20 47 39 53 1 53 54 44 55
split_gain=27.028 10.9089 7.53411 7.40187 5.29751 4.77237 5.71098 3.82843 4.2903 3.76662 3.71516 3.80511 3.70971 3.7079 4.69958 3.65346 3.49609 3.4749 3.41183 3.40767 3.50979 3.49868 3.23583 4.00173 3.00406 2.8099 3.04948 2.85558 2.79155 2.7183
threshold=23.606051090249583 -0.13432081128261081 0.0239451343161181 24.050088275776357 1.4301791265118305e-10 1.890025298939133e-10 -12.219999999999997 0.0074842920902017376 1.5350000000000004 0.082462598217714289 0.62448834552400012 4.0414844830490013 0.77787035577512764 0.057324567696656205 -0.12532241234105546 0.037937021346153892 -11.342384339907499 2.287586381766189 -0.099729104352975759 22.238884270815976 -0.63548019750386198 18.381045293489404 -0.19795550013541363 0.014593671286389444 24.448590260623057 -0.23036741162915644 22.7841355890661 2.0850000000000004 1.2274876151147807 3.2371678187990005
decision_type=10 2 2 10 2 2 10 2 10 2 10 10 2 2 2 2 8 2 2 10 2 2 2 2 10 2 10 10 2 10
left_child=1 4 5 18 16 6 -3 -8 10 -6 -9 13 24 -12 -15 -4 -1 -17 -2 21 -21 -7 25 -24 -5 -10 -27 -28 -20 -23
right_child=3 2 15 12 9 19 7 8 22 -11 11 -13 -14 14 -16 17 -18 -19 28 20 -22 29 23 -25 -26 26 27 -29 -30 -31
leaf_value=-0.0041071196176662023 0.0015208792658856934 -0.0027018534403024722 0.018925826270899192 -0.00068312832892550562 0.0036960225565388764 -0.0014725841480631653 -0.00015630847518719899 -0.0011805902432604279 0.00080250415667249258 0.014200353971233213 0.001442953812081842 -0.00039393860993448506 -0.0030785699298617412 0.018257077080265839 0.0039862723192714633 0.0075329890828467472 0.0016922210131712111 -0.00065342347210698543 -0.00021330789556881738 0.013713256559112152 0.0016826653782734673 8.2591206972043368e-05 0.00042656461017820819 0.001939333353605623 -0.0018127600093368152 -0.00071101275225538549 0.010054694457439749 0.0036023099916588524 -0.0043946959486389561 0.0025485350588850438
leaf_weight=276 2864 1584 50 39371 3167 1949 24958 5328 1858 88 1681 3088 1952 75 256 388 4311 193 88535 61 10530 2867 22614 5424 6929 364 193 1621 401 1836
leaf_count=276 2864 1584 50 39371 3167 1949 24958 5328 1858 88 1681 3088 1952 75 256 388 4311 193 88535 61 10530 2867 22614 5424 6929 364 193 1621 401 1836
internal_value=1.57158e-07 0.00065233 0.000491115 -0.000441071 0.00243852 0.000451241 0.00026532 0.000335069 0.000623733 0.00398197 -0.00025691 0.000707088 -0.000942466 0.00239935 0.00723948 0.00593497 0.0013421 0.00480533 -0.000177473 0.0011954 0.00175256 0.000307564 0.000910206 0.000719397 -0.000852294 0.00223446 0.00345365 0.00429208 -0.000232222 0.00104637
internal_weight=234812 94760 86918 140052 7842 86287 69044 67460 42502 3255 10428 5100 48252 2012 331 631 4587 581 91800 17243 10591 6652 32074 28038 46300 4036 2178 1814 88936 4703
internal_count=234812 94760 86918 140052 7842 86287 69044 67460 42502 3255 10428 5100 48252 2012 331 631 4587 581 91800 17243 10591 6652 32074 28038 46300 4036 2178 1814 88936 4703
is_linear=0
shrinkage=0.05


Tree=19
num_leaves=31
num_cat=0
split_feature=35 28 28 35 17 31 54 55 35 55 23 54 28 15 35 44 1 6 23 41 6 34 17 44 35 54 29 17 26 55
split_gain=22.5206 11.8925 9.28789 5.1361 5.7616 4.95764 4.61451 5.96907 5.02215 4.82775 11.2275 10.6303 18.1734 4.26841 4.09653 7.77582 7.01984 3.90816 3.58329 3.35844 3.33661 3.27704 3.17957 3.12641 2.83945 2.88023 2.71332 2.59621 2.89175 2.43628
threshold=1.0237641943851236e-10 -0.12332746172606944 -0.23299891080581284 1.3660582822770337e-11 0.037727883259417089 0.0086676917176109272 6.955000000000001 3.5148212719840006 3.64425642709414e-11 3.7018868794485003 0.02894418177995452 2.8350000000000004 -0.072059753104781757 -0.22473881602696036 2.6891022439648538e-10 0.77787035577512764 0.78818415828605692 0.70533008096688055 0.041082406053086558 -0.3166922876097984 -0.22537882214020963 0.0239451343161181 0.021195899525417453 0.56215856516646845 5.4673224822663088e-10 1.5750000000000004 0.49567782395347276 0.073362470537279026 -0.58425327196195231 2.7574507731285007
decision_type=2 2 2 2 2 2 8 8 2 8 2 10 2 2 2 2 2 2 2 2 2 2 2 2 2 10 2 2 2 10
left_child=2 5 19 4 18 -2 7 17 -8 10 -9 12 -12 27 -3 20 -17 22 -4 -1 -16 -11 -5 -21 25 -15 29 -7 -29 -22
right_child=1 14 3 6 -6 13 8 9 -10 21 11 -13 -14 24 15 16 -18 -19 -20 23 26 -23 -24 -25 -26 -27 -28 28 -30 -31
leaf_value=-0.00076842562804223886 0.00063665491621320638 0.00015094495139074285 -0.00021501519480467406 0.0004667550190321642 -0.0037273136649052518 0.004019417752751637 -0.0015219472882898805 0.00052135230198577926 -0.00043863450984091013 0.00024963241349871949 0.0033859777120657363 0.0050495875049426158 0.045297795235005732 0.00079547308902237464 0.0058070062933604748 0.027372780263076647 0.0045853768613925905 -0.0034265824250655137 0.0096165316971130593 0.0032942748165840398 4.7223130597680888e-05 0.0062921210826429796 -0.00051591340823341247 -0.00065419230514192535 0.0058238834177479944 0.0024156775061773507 0.011182120831628069 0.020338471138548895 0.0069343069187478013 0.002049180369971568
leaf_weight=918 6856 45013 354 9647 2108 824 14419 786 41554 31010 51 199 53 4096 373 53 95 1064 125 2938 3865 226 55932 602 476 8371 64 53 177 2510
leaf_count=918 6856 45013 354 9647 2108 824 14419 786 41554 31010 51 199 53 4096 373 53 95 1064 125 2938 3865 226 55932 602 476 8371 64 53 177 2510
internal_value=1.55359e-07 0.000730466 -0.000328149 -0.000391867 -0.00260162 0.00173923 -0.000354937 -0.000149666 -0.000717794 0.000407804 0.0036806 0.0118565 0.0248159 0.00227893 0.000325622 0.00145459 0.0127925 -0.000420141 0.00234166 0.00192224 0.00120734 0.000293531 -0.000371281 0.0026214 0.00202911 0.00188378 0.000940029 0.00534147 0.0100523 0.000836249
internal_weight=234812 72826 161986 157528 2587 20853 154941 98968 55973 32325 1089 303 104 13997 51973 6960 148 66643 479 4458 6812 31236 65579 3540 12943 12467 6439 1054 230 6375
internal_count=234812 72826 161986 157528 2587 20853 154941 98968 55973 32325 1089 303 104 13997 51973 6960 148 66643 479 4458 6812 31236 65579 3540 12943 12467 6439 1054 230 6375
is_linear=0
shrinkage=0.05


Tree=20
num_leaves=31
num_cat=0
split_feature=53 16 35 53 17 17 34 26 24 55 35 28 53 55 38 19 6 6 44 20 26 28 16 41 26 49 17 36 41 23
split_gain=23.2953 13.4696 6.42128 4.88747 4.40747 4.31623 3.76816 6.65467 4.3895 3.48143 3.45523 3.31727 3.48963 3.1072 3.05926 2.96748 2.8979 2.8219 4.30514 2.75676 3.07133 2.555 2.85195 2.82355 5.05697 4.17769 5.20303 5.75862 2.84155 2.66407
threshold=23.8581924221543 -0.11750687988472532 1.1785564520482807e-10 23.038803422930155 0.027003981556253508 0.089334721775673726 0.0239451343161181 -0.86148444546951064 0.75833333333333341 23.512796377293004 2.7933661286746338e-11 -0.29794915024449659 22.351513527674502 17.973804418733007 0.20413157420239428 -40.677966101694949 0.5973738650729804 -0.09735826321211026 0.16651944151336298 38.157818039929161 0.082931475777639388 -0.12235774433527805 0.050471969056618597 0.12503087584857372 -0.31207140639569281 1.5441362248064434 0.056822131919904637 0.43610944547636149 0.33281204447492319 0.0024101495168301185
decision_type=10 2 2 10 2 2 2 2 2 8 2 2 8 10 2 2 2 2 2 2 2 2 2 2 2 2 2 2 2 2
left_child=1 3 11 5 -2 9 21 -8 -9 13 16 -3 19 -1 -14 -16 -6 18 -12 20 -13 22 29 -24 25 26 -25 -28 -29 -4
right_child=4 2 6 -5 10 -7 7 8 -10 -11 17 12 14 -15 15 -17 -18 -19 -20 -21 -22 -23 23 24 -26 -27 27 28 -30 -31
leaf_value=0.0031218459768211555 -1.8741975719342134e-05 0.0053080822911603055 0.0091579993386358693 0.0012138714438612998 -0.0013039416636613642 0.016764991148850852 0.021055423694749074 0.017062873701879127 0.0015136577272012056 -0.0026444477715245234 -0.00040035287721925706 -0.00040234116868597899 -3.2103296951855935e-05 0.010848083136345957 0.0086576535176689905 0.0013617635042587166 -0.0036781399835012353 -0.00087005582024259412 0.0021985592946242821 0.0028183159727816088 -0.0041072154069340975 0.00044764824971512627 -5.8452109495237647e-05 0.0034637444321188749 0.0022757418785747758 0.00053180253404005735 0.0074552889464797158 0.033113797829138321 0.016397417714682401 0.00082098855433727295
leaf_weight=4025 20783 291 97 9925 12884 58 56 50 497 254 10300 1021 84489 135 150 2022 1431 38976 1885 279 1246 33658 567 126 1146 120 95 51 55 8140
leaf_count=4025 20783 291 97 9925 12884 58 56 50 497 254 10300 1021 84489 135 150 2022 1431 38976 1885 279 1246 33658 567 126 1146 120 95 51 55 8140
internal_value=1.658e-07 0.000379682 0.00022367 0.00183309 -0.000653368 0.00320619 0.000713376 0.00464019 0.00294697 0.00302652 -0.000854731 -2.06295e-05 -3.80741e-05 0.00337403 1.54713e-05 0.0018683 -0.00154165 -0.000662428 1.29908e-06 -0.00186255 -0.00244093 0.000659504 0.00134485 0.00296298 0.00404148 0.00855571 0.0114839 0.0164824 0.024511 0.000919883
internal_weight=234812 148553 134156 14397 86259 4472 44658 603 547 4414 65476 89498 89207 4160 86661 2172 14315 51161 12185 2546 2267 44055 10397 2160 1593 447 327 201 106 8237
internal_count=234812 148553 134156 14397 86259 4472 44658 603 547 4414 65476 89498 89207 4160 86661 2172 14315 51161 12185 2546 2267 44055 10397 2160 1593 447 327 201 106 8237
is_linear=0
shrinkage=0.05


Tree=21
num_leaves=31
num_cat=0
split_feature=53 28 44 20 53 55 35 44 28 28 23 55 54 20 47 17 49 41 5 47 26 12 15 41 29 26 28 55 50 54
split_gain=21.2667 9.54683 6.77714 6.05144 5.9776 5.16584 4.54851 7.20297 5.9795 4.31399 4.2354 3.73737 6.32288 3.46266 3.32074 3.31655 3.4667 3.59487 3.8685 3.22623 3.78157 3.16693 3.15777 3.08466 2.95081 2.84 2.87914 2.70492 2.68817 3.91113
threshold=23.553868231620765 -0.15652613314505781 1.0723776621721173 29.073273662623532 24.218976989993305 -1.3452393662549997 2.9239422826777527e-10 0.66982932449949606 -0.095925189109162812 -0.20547776253455066 0.009571986456254929 -1.2711621611944997 2.8350000000000004 10.456292990615172 -0.11416275497516316 0.056376800369259676 1.5518718157836686 0.14238739311621756 0.2324523854598696 0.15056563780819227 0.0412931679084323 0.88413449228692165 -0.27062005418204527 0.37986816744986945 0.46138391266866519 0.35332120438513864 -0.25574770407327652 -10.176510892545499 0.41151453231960183 10.895000000000001
decision_type=10 2 2 2 10 10 2 2 2 2 2 10 10 2 2 2 2 2 2 2 2 2 2 2 2 2 2 10 2 8
left_child=1 3 4 25 9 10 11 13 -9 -2 -3 12 -7 -8 23 -5 17 22 -19 20 -20 -11 -17 -13 -15 26 -1 -6 -25 -30
right_child=2 5 -4 15 27 6 7 8 -10 21 -12 14 -14 24 -16 16 -18 18 19 -21 -22 -23 -24 28 -26 -27 -28 -29 29 -31
leaf_value=0.0047552639723155831 0.0012713679313340587 0.00057265866086957736 -0.0034668249484800491 0.0018925192886993605 -0.0038470358302019319 0.00067779916987275842 0.014156349701059855 0.023433301290405495 0.0042182895619253579 -0.00057998177481178529 -0.00095455211888551212 0.00076503428667285163 0.017676869334027033 0.0014628122529866104 0.0002055406409750469 0.0071753151344015071 0.0012764799768062247 0.0057676207138501632 0.027944966299500652 0.0030463737657377343 0.011144904758431448 -4.6007141201761799e-05 0.0013949688349836917 0.0010600546688168705 0.013573981835752903 -0.00013631619691495517 0.001204515917312613 -0.00094918568447273268 0.0053857182495305137 -0.0027130837163038858
leaf_weight=654 4888 7662 1735 3850 836 155 56 71 96 44149 11132 10420 85 3711 33602 342 789 850 54 55 93 74897 774 1264 51 3867 4572 22810 1121 171
leaf_count=654 4888 7662 1735 3850 836 155 56 71 96 44149 11132 10420 85 3711 33602 342 789 850 54 55 93 74897 774 1264 51 3867 4572 22810 1121 171
internal_value=1.71394e-07 0.000629027 -0.000359875 0.00173451 -0.000323312 0.000376395 0.000638434 0.0022604 0.0124266 -0.000184266 -0.000331668 0.000500266 0.00672398 0.00181411 0.000468075 0.00286223 0.004123 0.00515652 0.00725722 0.0134946 0.0173651 -0.000244078 0.00317133 0.00114753 0.00162868 0.000889734 0.00164991 -0.00105187 0.0027048 0.00430982
internal_weight=234812 85497 149315 15900 147580 69597 50803 3985 167 123934 18794 46818 240 3818 46578 6807 2957 2168 1052 202 147 119046 1116 12976 3762 9093 5226 23646 2556 1292
internal_count=234812 85497 149315 15900 147580 69597 50803 3985 167 123934 18794 46818 240 3818 46578 6807 2957 2168 1052 202 147 119046 1116 12976 3762 9093 5226 23646 2556 1292
is_linear=0
shrinkage=0.05


Tree=22
num_leaves=31
num_cat=0
split_feature=53 28 18 53 49 20 9 53 50 43 56 12 46 56 12 12 56 53 29 6 56 23 31 23 55 56 1 41 56 28
split_gain=19.5368 11.6953 5.21694 4.06743 3.67823 4.58361 3.62098 3.4244 3.2552 3.12914 4.95112 3.01059 2.9274 3.85963 2.57783 2.5387 2.50018 2.35379 2.30441 2.26959 3.66658 3.70937 2.61418 3.05809 2.54524 5.83828 4.07126 2.50509 2.45002 2.26374
threshold=23.781034370874639 -0.15652613314505781 0.057360544664630378 24.335543303710818 1.5518718157836686 30.135326106325675 1.8453572663170787 23.439771265267478 0.31699267181242624 -1.0000000180025095e-35 -34.936913721037989 1.0145016449797193 69.899468640094383 -1.8885267870194997 0.80059544395952209 0.88901188613634685 -13.178569606034499 21.040846773098497 0.07506526064740926 0.26266332414729193 15.962720445999501 0.077425115485838344 0.0076142958067356064 0.01209571939496437 0.29212292953900004 -291.52816582283896 0.081548580863535031 0.55480160333549466 -5.5828532637799997 -0.25574770407327652
decision_type=10 2 2 10 2 2 2 10 2 2 10 2 2 10 2 2 10 10 2 2 10 2 2 2 10 10 2 2 10 2
left_child=1 2 8 15 5 6 29 12 -1 14 -11 -9 -7 -14 -3 -2 -5 -10 -17 22 -21 -22 -16 28 -25 26 -26 -23 -24 -4
right_child=3 9 4 16 -6 7 -8 11 17 10 -12 -13 13 -15 19 18 -18 -19 -20 20 21 27 23 24 25 -27 -28 -29 -30 -31
leaf_value=0.0022588668530867111 -0.00073079551660286488 -0.0002542334449969524 0.0050628450266491411 -0.0031580364609064024 0.00056943850907485586 0.0057327900633836922 -0.0031675010807439199 -0.0017035914321261126 0.0061878137448191425 0.016646156807275554 0.0021577859933059507 0.0048733565290389608 0.023115769992927138 0.0042163408773409601 5.8455495452776789e-05 -0.00039117922630330353 -0.0010634209385467712 0.00045531098326151252 0.00030927089014641621 -0.0011239626891118846 0.00033024539246618098 0.0026945887367664447 0.0021536093185645475 -0.00033754950692904413 0.018810891335087288 0.0006066715501666331 0.0011626128216436393 0.011273933434525325 0.00080340833557678785 0.0016287845775860483
leaf_weight=3653 33806 26287 670 1614 1611 1402 307 296 182 68 451 419 58 52 31995 39331 12359 11394 16732 5882 1672 233 4715 9409 75 16456 59 136 11769 1719
leaf_count=3653 33806 26287 670 1614 1611 1402 307 296 182 68 451 419 58 52 31995 39331 12359 11394 16732 5882 1672 233 4715 9409 75 16456 59 136 11769 1719
internal_value=1.80655e-07 0.000406305 0.00146475 -0.000511993 0.00264703 0.00332586 0.0019361 0.0050059 0.00095715 0.000195329 0.00406854 0.00214374 0.00635582 0.0142389 0.000176784 -0.000388522 -0.00130575 0.000545923 -0.000182041 0.000314346 -0.000489905 0.00133491 0.00039997 0.000657054 0.000319004 0.000691669 0.0110843 0.00587237 0.00118993 0.00259414
internal_weight=234812 130970 21763 103842 6534 4923 2696 2227 15229 109207 519 715 1512 110 108688 89869 13973 11576 56063 82401 7923 2041 74478 42483 25999 16590 134 369 16484 2389
internal_count=234812 130970 21763 103842 6534 4923 2696 2227 15229 109207 519 715 1512 110 108688 89869 13973 11576 56063 82401 7923 2041 74478 42483 25999 16590 134 369 16484 2389
is_linear=0
shrinkage=0.05


Tree=23
num_leaves=31
num_cat=0
split_feature=53 16 35 18 34 26 17 22 54 54 20 53 27 40 53 35 44 12 53 20 53 28 35 54 17 16 53 37 28 55
split_gain=17.7484 10.7504 5.49085 4.46853 4.05746 5.88717 3.92422 3.75468 3.02634 7.63252 5.29597 4.63706 7.95639 3.48283 3.28968 3.19284 4.00463 4.31706 3.73136 9.08831 2.95534 2.83395 3.02911 4.20199 4.40431 4.38328 2.76629 2.68936 2.54067 3.34791
threshold=23.8581924221543 -0.11750687988472532 8.5141164283191425e-11 0.037767662150355076 0.0239451343161181 -0.86148444546951064 0.024394546626452577 1.3107082522982159 1.5750000000000004 1.6050000000000002 42.692965647010162 21.040846773098497 1.6903764200161631 0.16994996191957054 22.238884270815976 2.2007154542234583e-10 0.61937509249266398 0.69763165679699035 22.687944760076913 12.37846010777144 22.650389929712102 -0.24718866665468384 2.6515233913687388e-11 3.1850000000000005 0.041312222866515862 0.11693542264487324 22.351513527674502 -0.14859337241198087 -0.20547776253455066 16.721528084220004
decision_type=10 2 2 2 2 2 2 2 10 10 2 10 10 2 10 2 2 2 10 2 8 2 2 10 2 2 8 2 2 10
left_child=1 3 26 -1 8 -6 -2 -7 15 10 -10 12 -11 14 -13 20 18 -18 -17 -20 -4 -8 23 24 25 -23 -3 -5 29 -28
right_child=6 2 4 27 5 7 21 -9 9 11 -12 13 -14 -15 -16 16 17 -19 19 -21 -22 22 -24 -25 -26 -27 28 -29 -30 -31
leaf_value=0.00064664475017128624 0.00018888037691039145 -0.0027076106506358135 -0.0020891441535786661 0.0056796841625610037 0.019735454185201774 0.011509386111686944 0.001669921993049662 0.0013278098067429087 0.016916330040497498 0.0020883245513160791 -0.0017120901811081991 -0.0010905205910413487 0.023009316948948852 0.0012424522076002324 0.0004952587111972859 -0.00043737754784430743 0.019909949464975513 0.003856195691043755 0.018900054792167803 0.001689873737982468 -0.00011828044276986446 0.00048497166250229201 -0.00060577395553649974 -0.0021770096715890484 -0.0015650398525589042 0.0070361022909656351 0.0020667322236177718 0.0021600846946623303 -0.00016150002906600183 -0.0048296127577269893
leaf_weight=6418 14209 1033 2214 588 56 107 1218 598 121 172 55 3679 62 14769 29342 2856 52 221 80 1860 13550 1833 57797 7873 3032 297 2176 7391 60962 191
leaf_count=6418 14209 1033 2214 588 56 107 1218 598 121 172 55 3679 62 14769 29342 2856 52 221 80 1860 13550 1833 57797 7873 3032 297 2176 7391 60962 191
internal_value=1.86511e-07 0.000331454 0.000192073 0.0016299 0.000499266 0.00413083 -0.000570256 0.0028816 0.000459155 0.000676808 0.0110689 0.000638596 0.00766031 0.000604094 0.000318427 -4.41767e-05 0.00104712 0.00693853 0.000710585 0.00240309 -0.00039541 -0.000720035 -0.000761205 -0.00144999 -0.000340158 0.00140107 -0.00014097 0.00242015 -9.90209e-05 0.00150795
internal_weight=234812 148553 134156 14397 69794 761 86259 705 69033 48200 176 48024 234 47790 33021 20833 5069 273 4796 1940 15764 72050 70832 13035 5162 2130 64362 7979 63329 2367
internal_count=234812 148553 134156 14397 69794 761 86259 705 69033 48200 176 48024 234 47790 33021 20833 5069 273 4796 1940 15764 72050 70832 13035 5162 2130 64362 7979 63329 2367
is_linear=0
shrinkage=0.05


Tree=24
num_leaves=31
num_cat=0
split_feature=35 28 28 18 35 28 15 56 41 55 44 35 44 55 1 41 6 43 16 43 56 56 56 26 36 1 49 35 55 55
split_gain=15.2094 8.26092 6.5368 4.19643 3.91529 4.69753 3.40871 3.63214 8.19897 3.31752 3.62897 3.1849 6.00297 5.67797 5.16052 3.03129 2.85375 2.82202 2.78392 2.77785 2.74963 2.2723 5.41861 5.00666 6.18168 3.91456 3.135 2.62803 2.20397 6.3604
threshold=1.0237641943851236e-10 -0.12332746172606944 -0.23299891080581284 0.040716249683273177 1.3660582822770337e-11 -0.080729166666666644 -0.22473881602696036 -291.52816582283896 0.20939626800221339 -5.249977777659999 0.17890014146907587 2.7995060361103213e-10 0.70094103070887048 1.1819119761475003 0.87038089272299934 -0.32682412713436992 -0.23015985081785698 -0.11864701650094954 -0.16500687692236293 -0.28731070414076793 -49.382468479071996 -8.4734815455399985 -1.8885267870194997 -0.58425327196195231 0.47600321586865807 -1.345288533613229 1.0920387080221372 4.2181244725768009e-10 2.1026848479630007 3.9211806157685003
decision_type=2 2 2 2 2 2 2 8 2 10 2 2 2 10 2 2 2 2 2 2 10 10 10 2 2 2 2 2 10 10
left_child=2 3 15 -2 5 -4 -5 8 -8 10 -6 -3 16 -14 -15 -1 -13 -7 20 -17 -11 25 23 24 -23 -9 -26 -27 -18 -30
right_child=1 11 4 6 9 17 7 21 -10 18 -12 12 13 14 -16 19 28 -19 -20 -21 -22 22 -24 -25 26 27 -28 -29 29 -31
leaf_value=-0.0010048607587104224 0.00059012118875252509 0.00011718786017295767 -0.0036322857169728616 0.0046323861373894926 -0.00037786046441572359 -0.0027254299899215489 -0.00050102844018942694 -0.0036828931302875277 0.025398787452111771 0.01103226210619416 -0.0018822375731874796 0.0055485716233757794 -0.0035974974439656193 0.026893616167910386 0.006485251055117114 0.0034361103543170896 -4.6398881419548119e-05 0.0034881955983757963 -0.00023680770934349284 0.00060206275638693399 0.0012695283220126405 0.0040908149150431289 0.0014682569797838906 0.0034831383929576076 0.026670506728109358 0.00072329317474063186 0.01017135972027332 0.0054014976509804968 0.0062058307220798584 0.00042171938767083243
leaf_weight=881 8558 45654 1823 1146 10575 301 73 462 52 75 6467 334 51 59 67 2098 3328 463 135887 1479 1937 147 6050 1303 67 2602 53 340 642 1838
leaf_count=881 8558 45654 1823 1146 10575 301 73 462 52 75 6467 334 51 59 67 2098 3328 463 135887 1479 1937 147 6050 1303 67 2602 53 340 642 1838
internal_value=1.88324e-07 0.000600361 -0.000269608 0.00144112 -0.000323067 -0.00225243 0.00203305 0.00176538 0.010245 -0.00029082 -0.000949034 0.000262927 0.00131506 0.0103938 0.0160949 0.00161827 0.00105246 0.00103358 -0.000209439 0.00226575 0.00163646 0.00166868 0.00214872 0.00476742 0.0110125 0.000592599 0.0194396 0.00126581 0.000792945 0.00192126
internal_weight=234812 72826 161986 20853 157528 2587 12295 11149 125 154941 17042 51973 6319 177 126 4458 6142 764 137899 3577 2012 11024 7620 1570 267 3404 120 2942 5808 2480
internal_count=234812 72826 161986 20853 157528 2587 12295 11149 125 154941 17042 51973 6319 177 126 4458 6142 764 137899 3577 2012 11024 7620 1570 267 3404 120 2942 5808 2480
is_linear=0
shrinkage=0.05


Tree=25
num_leaves=31
num_cat=0
split_feature=53 28 44 35 53 35 34 1 53 23 47 26 35 55 25 54 54 25 55 49 46 53 44 50 53 39 47 31 1 55
split_gain=15.5913 6.7068 5.9785 4.94845 5.85067 4.96812 5.14729 10.8785 4.63656 4.61755 3.95453 5.74253 5.96833 3.80852 3.48976 3.36212 7.48571 4.93416 2.9861 4.41055 3.03533 3.40265 3.00216 3.04992 3.80635 2.89494 2.86888 3.11204 3.21175 3.13552
threshold=23.553868231620765 -0.23299891080581284 1.2274876151147807 4.7130312772679063e-10 22.404748157776691 1.3803345035487336e-10 0.033182141099810672 1.4561419554191153 24.039993058227047 0.097281527844444562 0.16465913103611596 -0.24908803637469965 2.6030144938768371e-11 -14.829351884351498 -0.82551658571460274 10.795000000000002 10.655000000000003 0.3458722580837183 6.237642395901501 4.1673389437571702 60.740344227807732 21.040846773098497 0.49559715851747316 0.26385782979425815 22.238884270815976 -0.29977011692742522 -0.10623719185407508 0.0082478551310018883 -0.12896767631905479 8.4285185102035012
decision_type=10 2 2 2 8 2 2 2 10 2 2 2 2 10 2 8 10 2 10 2 2 10 2 2 10 2 2 2 2 10
left_child=1 14 8 4 15 9 -7 -8 -2 13 11 12 -11 -6 -1 16 18 -18 20 -20 21 -3 23 24 -23 -15 27 -27 -29 -30
right_child=2 3 -4 -5 5 6 7 -9 -10 10 -12 -13 -14 25 -16 -17 17 -19 19 -21 -22 22 -24 -25 -26 26 -28 28 29 -31
leaf_value=-0.0010862083865335504 -8.2429994050574513e-05 0.0053708484543412947 -0.0039361980846170002 0.0026772991530637576 -0.0027125420743181658 0.0011615390966253989 0.024652905747082589 -0.00083235577932971525 -0.00067558526987945193 0.0017462025822479598 -0.0017173075513689275 0.0018354326545171051 0.016191051470066546 -0.00084309735826902155 0.0030826595514757598 -0.0023171976138587976 0.024357293168256643 0.0029038625995450465 0.00068119196292049924 0.014961018687715844 -0.0023607675944556845 0.0010694883246756249 0.0038305912432083367 -0.001303127410498785 0.01446481944983124 0.0001894756658116774 0.00011798343001819079 0.00049616109372164162 0.0020386236089302164 0.0058851742806879624
leaf_weight=582 98723 260 1127 2396 1088 18930 72 99 49465 116 257 449 190 5079 3575 2350 50 59 3043 55 2424 292 366 3825 65 6247 26229 3156 3620 623
leaf_count=582 98723 260 1127 2396 1088 18930 72 99 49465 116 257 449 190 5079 3575 2350 50 59 3043 55 2424 292 366 3825 65 6247 26229 3156 3620 623
internal_value=1.92332e-07 0.000538642 -0.000308088 0.000438452 0.000370435 0.000559731 0.00123988 0.00987719 -0.000280459 0.000283525 0.00362457 0.00544954 0.0107339 0.000209973 0.00249778 -0.00060836 -0.000223173 0.012804 -0.00036124 0.000936796 -0.000917982 -0.000189513 -0.000508598 -0.000889633 0.00352578 0.000280822 0.000424106 0.00101213 0.00170602 0.00260472
internal_weight=234812 85497 149315 81340 78944 66155 19101 171 148188 47054 1012 755 306 46042 4157 12789 10439 109 10330 3098 7232 4808 4548 4182 357 44954 39875 13646 7399 4243
internal_count=234812 85497 149315 81340 78944 66155 19101 171 148188 47054 1012 755 306 46042 4157 12789 10439 109 10330 3098 7232 4808 4548 4182 357 44954 39875 13646 7399 4243
is_linear=0
shrinkage=0.05


Tree=26
num_leaves=31
num_cat=0
split_feature=53 28 44 20 28 54 35 55 55 34 55 43 18 23 1 47 17 7 35 27 17 54 55 54 35 55 55 54 20 53
split_gain=14.0727 6.14884 5.47494 4.57544 4.5029 4.94483 7.23071 4.38635 4.10287 4.00937 7.73245 3.67141 3.41323 3.40426 3.30255 3.09174 2.95794 2.95465 3.03944 3.98689 3.8831 2.86916 2.75023 6.20989 2.76737 2.57144 8.68467 5.32981 3.70695 2.51871
threshold=23.553868231620765 -0.15652613314505781 1.0723776621721173 28.928832799476911 -0.20547776253455066 3.2750000000000004 4.9254200074155959e-11 -1.3452393662549997 1.8198200181715003 0.0239451343161181 1.2283910038395003 -0.37935948181943602 0.056822690098016375 0.0094922113771477145 -0.08948100531398194 -0.40552527659009724 0.038436380897778705 0.92577347376968921 4.0074661294856128e-11 0.96970080634568845 0.014828788181648634 10.895000000000001 -1.2711621611944997 2.8350000000000004 1.0969878261717544e-10 4.8661641415705015 3.9211806157685003 1.5350000000000004 25.353304033921464 22.687944760076913
decision_type=10 2 2 2 2 8 2 10 10 2 10 2 2 2 2 2 2 2 2 10 2 8 10 10 2 10 10 10 2 10
left_child=1 3 4 -1 -2 8 16 13 14 21 -11 -10 -5 -3 -6 -16 -7 18 19 -13 -20 22 23 -9 -24 26 -21 -28 -29 -23
right_child=2 7 -4 12 5 6 -8 9 11 10 -12 17 -14 -15 15 -17 -18 -19 20 25 -22 29 24 -25 -26 -27 27 28 -30 -31
leaf_value=0.00065542851055007346 0.0011125240309745933 0.0004747690101616989 -0.003085233698516095 0.001456020915635793 -0.0012152731265272698 -0.00069934999882723646 -0.00016867981127944372 0.00067984727834512714 0.012284077437186472 0.019810057939535542 0.0017136586692943403 -0.0007596451255641386 0.0037281233309690038 -0.00089675849853145049 0.011400784603469768 -4.8027882125349423e-05 -0.0016180649349715624 0.0074889935878975954 0.0050483770603032422 0.0015537944622986254 -3.5057879997321865e-05 -0.0017242640342745948 0.00024790578902120469 0.019074998083475094 0.0010549751433424875 0.0010297896953780402 0.0035002116894921166 0.0042912616050426863 0.01656671461443051 0.00023012106394505239
leaf_weight=8999 5743 7578 1735 4134 7444 20375 51221 152 67 78 245 1616 2767 11216 59 26231 15411 153 386 1769 13850 2381 21545 66 20988 2673 274 87 221 5348
leaf_count=8999 5743 7578 1735 4134 7444 20375 51221 152 67 78 245 1616 2767 11216 59 26231 15411 153 386 1769 13850 2381 21545 66 20988 2673 274 87 221 5348
internal_value=1.93572e-07 0.000511748 -0.000292687 0.00139897 -0.000259821 -0.000315423 -0.000549788 0.000308983 5.6388e-05 0.00055045 0.00610394 0.000603401 0.0023678 -0.000343474 -0.000285546 -2.2101e-05 -0.00109513 0.00056589 0.000514875 0.00139832 0.000102459 0.000514805 0.000675125 0.00627814 0.000646275 0.00209343 0.00330054 0.00860003 0.013118 -0.000371315
internal_weight=234812 85497 149315 15900 147580 141837 87007 69597 54830 50803 323 21096 6901 18794 33734 26290 35786 21029 20876 6640 14236 50480 42751 218 42533 5024 2351 582 308 7729
internal_count=234812 85497 149315 15900 147580 141837 87007 69597 54830 50803 323 21096 6901 18794 33734 26290 35786 21029 20876 6640 14236 50480 42751 218 42533 5024 2351 582 308 7729
is_linear=0
shrinkage=0.05


end of trees

feature_importances:
total_mv_log=93
revenue_growth=70
max_drawdown_20d=55
amihud_illiq=55
roe=53
profit_growth=35
low_distance_60d=33
ma_alignment=32
price_range_10d=30
atr_14=29
mom_60d=27
turnover_5d=23
adx_14=22
return_kurtosis_20d=21
macd_hist=19
gap_5d=18
boll_bandwidth=17
close_ma60_dev=16
return_extremes_ratio=16
intraday_intensity=15
vol_price_corr=13
high_distance_60d=13
volume_volatility=11
vwap_dev=11
volume_trend=9
return_skew_20d=8
upper_shadow=8
amount_volatility=8
return_autocorr=7
close_ma20_dev=6
lower_shadow=5
mom_10d=5
volatility_20d=4
williams_r=4
updown_vol_ratio=4
kdj_j=2
turnover_pctile=2
mom_5d=2
mfi_14=2
rsi_14=1
mom_20d=1
macd_hist_delta=1
boll_pctb_delta=1
obv_slope=1
amount_ratio=1
vol_ratio_5_60=1

parameters:
[boosting: gbdt]
[objective: regression]
[metric: l1]
[tree_learner: serial]
[device_type: cpu]
[data_sample_strategy: bagging]
[data: ]
[valid: ]
[num_iterations: 1000]
[learning_rate: 0.05]
[num_leaves: 31]
[num_threads: 0]
[seed: 0]
[deterministic: 0]
[force_col_wise: 0]
[force_row_wise: 0]
[histogram_pool_size: -1]
[max_depth: -1]
[min_data_in_leaf: 50]
[min_sum_hessian_in_leaf: 0.001]
[bagging_fraction: 0.8]
[pos_bagging_fraction: 1]
[neg_bagging_fraction: 1]
[bagging_freq: 0]
[bagging_seed: 3]
[bagging_by_query: 0]
[feature_fraction: 0.8]
[feature_fraction_bynode: 1]
[feature_fraction_seed: 2]
[extra_trees: 0]
[extra_seed: 6]
[early_stopping_round: 0]
[early_stopping_min_delta: 0]
[first_metric_only: 0]
[max_delta_step: 0]
[lambda_l1: 0.1]
[lambda_l2: 0.1]
[linear_lambda: 0]
[min_gain_to_split: 0]
[drop_rate: 0.1]
[max_drop: 50]
[skip_drop: 0.5]
[xgboost_dart_mode: 0]
[uniform_drop: 0]
[drop_seed: 4]
[top_rate: 0.2]
[other_rate: 0.1]
[min_data_per_group: 100]
[max_cat_threshold: 32]
[cat_l2: 10]
[cat_smooth: 10]
[max_cat_to_onehot: 4]
[top_k: 20]
[monotone_constraints: ]
[monotone_constraints_method: basic]
[monotone_penalty: 0]
[feature_contri: ]
[forcedsplits_filename: ]
[refit_decay_rate: 0.9]
[cegb_tradeoff: 1]
[cegb_penalty_split: 0]
[cegb_penalty_feature_lazy: ]
[cegb_penalty_feature_coupled: ]
[path_smooth: 0]
[interaction_constraints: ]
[verbosity: -1]
[saved_feature_importance_type: 0]
[use_quantized_grad: 0]
[num_grad_quant_bins: 4]
[quant_train_renew_leaf: 0]
[stochastic_rounding: 1]
[linear_tree: 0]
[max_bin: 255]
[max_bin_by_feature: ]
[min_data_in_bin: 3]
[bin_construct_sample_cnt: 200000]
[data_random_seed: 1]
[is_enable_sparse: 1]
[enable_bundle: 1]
[use_missing: 1]
[zero_as_missing: 0]
[feature_pre_filter: 1]
[pre_partition: 0]
[two_round: 0]
[header: 0]
[label_column: ]
[weight_column: ]
[group_column: ]
[ignore_column: ]
[categorical_feature: ]
[forcedbins_filename: ]
[precise_float_parser: 0]
[parser_config_file: ]
[objective_seed: 5]
[num_class: 1]
[is_unbalance: 0]
[scale_pos_weight: 1]
[sigmoid: 1]
[boost_from_average: 1]
[reg_sqrt: 0]
[alpha: 0.9]
[fair_c: 1]
[poisson_max_delta_step: 0.7]
[tweedie_variance_power: 1.5]
[lambdarank_truncation_level: 30]
[lambdarank_norm: 1]
[label_gain: ]
[lambdarank_position_bias_regularization: 0]
[eval_at: ]
[multi_error_top_k: 1]
[auc_mu_weights: ]
[num_machines: 1]
[local_listen_port: 12400]
[time_out: 120]
[machine_list_filename: ]
[machines: ]
[gpu_platform_id: -1]
[gpu_device_id: -1]
[gpu_use_dp: 0]
[num_gpu: 1]

end of parameters

pandas_categorical:null
