tree
version=v4
num_class=1
num_tree_per_iteration=1
label_index=0
max_feature_idx=63
objective=regression
feature_names=rsi_14 macd_hist boll_pctb kdj_j vol_price_ratio mom_20d mom_60d volatility_20d rsi_delta macd_hist_delta boll_pctb_delta mom_accel volume_trend close_ma5_dev close_ma20_dev close_ma60_dev ma_alignment atr_14 price_range_10d williams_r adx_14 obv_slope amount_ratio turnover_5d turnover_pctile return_skew_20d return_kurtosis_20d updown_vol_ratio max_drawdown_20d return_autocorr close_position upper_shadow lower_shadow body_ratio gap_5d amihud_illiq volume_volatility mom_5d mom_10d vwap_dev boll_bandwidth vol_price_corr consecutive_days high_distance_60d low_distance_60d vol_ratio_5_60 mfi_14 intraday_intensity cci_20 return_extremes_ratio amount_volatility pe_ttm pb total_mv_log roe revenue_growth profit_growth roe_qoq profit_growth_accel revenue_growth_accel pe_ind_rank pb_ind_rank roe_ind_rank mom_20d_ind_rank
feature_infos=[2.7605009739617685:98.387751917623476] [-30.771282183921038:34.484388742298954] [-0.53208470553166665:1.5558073316154197] [-26.176770209780003:128.19838332142331] [0.010005500137101461:251.6262702667149] [-0.68944478340451498:2.3363095238095242] [-0.80267558528428096:17.000000000000004] [0.021603106886197425:3.6897955874868584] [-52.467249399148457:53.821741362975501] [-27.919116629451899:33.453880159581715] [-1.488198070395204:1.6213139484338983] [-2.1907859078590786:1.0826172574292876] [0.010722816293106235:3.9550700417909521] [-0.2244148692060578:0.54684095860566462] [-0.50329283830100313:0.98932628706029657] [-0.69918265314720673:1.830853876766112] [-0.67289273375839131:1.4889559573729336] [0.006946656664685219:0.25659470581477095] [0:0.24835501663021908] [-100:0] [5.6984516136135079:85.889219093241735] [-1.0741629250461198:1.4340402962585999] [0.0085895262741454773:15.352647618676064] [0.00038193291511591325:3.1979999999999995] [0:0.98333333333333328] [-3.7230434451012275:3.7128248206683132] [-1.906027997011541:12.984580428856095] [0.00094046599704379489:287.02500117728215] [-0.69939024390243898:0] [-0.85662173009838194:0.87701349616893765] [0:1] [0:0.10634406774393393] [0:0.072769247228845119] [0:0.93843043445017216] [-0.10005755845969495:0.10038595454724486] [8.1011943262741411e-13:1.1062050560640314e-07] [0.098288111961247857:4.1824664201794279] [-0.41005291005291:1.5877192982456143] [-0.59174041297935109:1.6030150753768844] [-0.99920335574166153:0.95671110022984207] [0.0078000805481764765:1.7187650903375575] [-0.94789454096527948:0.98743104534229553] [-15:16] [-0.8084763948497854:0] [0:26] [0:3.1882641144591841] [0:100] [-0.880344523922858:0.92725892623919226] [-535.58212354113095:579.09604519773586] [0.020746271822826921:23.633903133903019] [0.10001159081067376:3.2990106699150892] [-2762.4699999999998:9731.5799999999999] [-74.400000000000006:34.479999999999997] [19.899098393948062:26.082920930847433] [-93.459999999999994:130.74000000000001] [-125.903093464919:1983.34666651731] [-144364.74348736901:47154.854950655099] [-140.60999999999999:125.53999999999999] [-144264.60461670198:144305.16280707432] [-1806.223094004936:1986.2519413291341] [0.029411764705882353:1] [0.029411764705882353:1] [0.019607843137254902:1] [0.019230769230769232:1]
tree_sizes=3105 3113 3109 3082 3151 3126 3113 3093 3117 3154 3089 3154 3124 3160 3170 3089 3140 3150 3083 3089 3111 3125 3131 3125

Tree=0
num_leaves=31
num_cat=0
split_feature=24 39 52 35 53 35 54 6 16 39 35 57 31 7 54 55 58 58 58 1 39 39 28 56 56 55 28 53 58 7
split_gain=41.5408 17.9519 14.1341 11.6904 7.76289 6.81533 10.5282 6.37234 6.0358 5.15787 6.57241 4.64047 4.42198 4.41056 3.91808 4.43077 3.70541 3.58199 3.76166 3.33047 3.22301 3.15975 3.08343 2.95625 3.20344 3.74045 3.57401 2.92196 2.80602 2.79684
threshold=inf -0.18061703758097067 2.5450000000000004 6.9054971062999307e-11 23.685654033703258 2.9544576557915087e-11 -11.769999999999998 0.6812247366114188 -0.13653142389643069 -0.4107374968547795 1.343767788477491e-10 10.300000000000002 1.0000000180025095e-35 0.18048062678613216 -5.3249999999999993 -2.55353297496 6.0907020994635008 43.915231120339008 -12.195564055615497 0.074149408990929769 -0.12197902418711508 -0.07626893769270586 -0.031746031746031737 -3.6268859876794997 14.037093564973501 9.6497126942660021 -0.15957446808510631 24.383511529591363 -60.787774833648484 0.59108833342159406
decision_type=8 2 8 2 10 2 10 2 2 2 2 10 2 2 8 10 10 10 10 2 2 2 2 10 10 10 2 10 8 2
left_child=2 9 4 7 14 -3 -7 20 12 10 11 17 -5 -6 15 -1 -12 18 22 -18 -4 -10 -2 -11 28 26 -26 -22 -25 -16
right_child=1 5 3 8 13 6 -8 -9 21 23 16 -13 -14 -15 29 -17 19 -19 -20 -21 27 -23 -24 24 25 -27 -28 -29 -30 -31
leaf_value=0.013097402736579474 0.0031971661549348562 -0.0014858918099555374 -0.0016401615260488072 -0.015153323267156748 -0.00039519322168152151 0.0095914291918034154 -0.00057623172419223739 -0.0041030497414649139 -0.0014398699113805698 0.0014593196033933081 0.0021341592399873443 -0.0030327138206733811 -0.0008504562338654437 -0.0014054847064132571 -0.00044152524653837512 0.0010443230180280988 0.010672963900006289 0.0073956880473832632 0.00065063499041143925 0.0014803525798119579 -0.0020488299875822732 -0.0017170975845806245 0.015345835502804675 0.0074492436200193773 -0.00057469748767790933 -0.00025601234093235083 0.0032915264144423844 -0.0029729661854794153 -0.00068568616749394148 0.0017401228062236557
leaf_weight=115 1158 30136 48710 54 12824 256 46030 3600 220595 3573 453 622 33682 68608 21397 230 390 247 5090 134 90278 192524 55 107 858 3878 1997 9459 11670 1580
leaf_count=115 1158 30136 48710 54 12824 256 46030 3600 220595 3573 453 622 33682 68608 21397 230 390 247 5090 134 90278 192524 55 107 858 3878 1997 9459 11670 1580
internal_value=-0.00141233 -0.000492779 -0.0015517 -0.00164543 -0.0010159 -0.00090087 -0.000519864 -0.00202414 -0.00151656 0.000538642 0.00161439 0.00108913 -0.000873539 -0.00124632 -0.000211583 0.00507955 0.00546444 0.00148133 0.00124864 0.00833272 -0.00197369 -0.00156908 0.00375347 0.000141434 -0.000113242 0.000757125 0.00213145 -0.00213653 -0.000611277 -0.000291275
internal_weight=810310 106654 703656 598902 104754 76422 46286 152047 446855 30232 8149 7172 33736 81432 23322 345 977 6550 6303 524 148447 413119 1213 22083 18510 6733 2855 99737 11777 22977
internal_count=810310 106654 703656 598902 104754 76422 46286 152047 446855 30232 8149 7172 33736 81432 23322 345 977 6550 6303 524 148447 413119 1213 22083 18510 6733 2855 99737 11777 22977
is_linear=0
shrinkage=1


Tree=1
num_leaves=31
num_cat=0
split_feature=23 39 52 23 53 53 44 35 17 35 28 59 53 17 20 56 57 35 44 59 62 52 53 51 56 26 18 17 1 27
split_gain=37.493 16.2112 12.7567 11.9867 8.79079 7.00641 6.23284 6.13511 5.78202 7.91843 5.1326 4.76285 4.47327 4.40452 4.13254 4.00703 4.09391 3.2976 3.27846 3.35877 3.15229 3.10722 6.28664 3.06615 3.03887 2.99221 2.92153 2.87845 2.77983 2.69614
threshold=1.0000000180025095e-35 -0.17767395936571465 2.5450000000000004 0.052347639595260752 23.229587256817229 23.685654033703258 0.8367301100080059 2.9544576557915087e-11 0.074539317817428785 1.3316029266393651e-10 -0.18174331904106997 6.0733487429290012 24.412140926959861 0.02478586534040823 22.346937685565994 39.750176830363507 9.2200000000000024 2.2596434834200161e-10 0.3519215595030955 -5.449845893957499 0.091966173361522213 8.1200000000000028 23.770465278470805 -830.30499999999995 -4.9946335687724988 -0.95643822009596524 0.024572765548747207 0.044279589552443745 -0.38050831252673117 1.9858896177592376
decision_type=10 2 8 10 8 10 10 2 2 2 2 10 10 2 2 10 10 2 10 10 8 8 10 8 10 2 2 2 2 10
left_child=1 8 5 4 10 27 23 -3 15 11 17 18 21 -7 -11 24 -17 -4 -10 25 -9 22 -6 -5 -1 -20 28 -2 -19 -13
right_child=2 7 3 6 12 13 -8 20 9 14 -12 29 -14 -15 -16 16 -18 26 19 -21 -22 -23 -24 -25 -26 -27 -28 -29 -30 -31
leaf_value=0.0027371486664818485 0.0009664222862741656 -7.3434640409131461e-05 0.00018803278243605635 0.0079642687717841817 0.0010404223557136142 0.00066377827309306722 -0.0035944546855260114 0.0047252754645053241 0.0039007787561907495 0.013575967863608186 -6.6516264397357129e-05 0.0055599638458869362 -0.0012809172051255963 -0.00010942202027071067 0.0054583664870520516 0.0048531763075172797 -6.1391919095858755e-05 -0.011448448578770814 -0.0067634532395786737 -0.0020353844999525489 0.00080089443890160551 -0.00044092675708162614 -0.00030932145181553365 -0.0010756002514300071 0.0012090560588885664 0.0064921111659263127 0.001422625210837582 0.0029156326186551358 -0.00065521818188896434 0.016278701286114514
leaf_weight=3840 21239 30033 16560 94 11316 28140 2686 518 813 269 298795 336 13635 53292 384 1707 561 81 51 778 45475 187192 36301 20794 21570 247 11218 2083 230 72
leaf_count=3840 21239 30033 16560 94 11316 28140 2686 518 813 269 298795 336 13635 53292 384 1707 561 81 51 778 45475 187192 36301 20794 21570 247 11218 2083 230 72
internal_value=0 0.0008736 -0.000132408 -0.000221449 -0.00017616 0.000376615 -0.00132653 0.000482248 0.00184486 0.00395032 -5.75426e-06 0.00256583 -0.000400346 0.000157708 0.00881159 0.00162026 0.00363538 0.000640418 0.0015042 -0.000302151 0.000845212 -0.000349191 1.13366e-05 -0.00103464 0.00144019 0.00420526 0.00128977 0.00114074 -0.00348517 0.00746728
internal_weight=810310 106654 703656 598902 575328 104754 23574 76026 30628 2950 326884 2297 248444 81432 653 27678 2268 28089 1889 1076 45993 234809 47617 20888 25410 298 11529 23322 311 408
internal_count=810310 106654 703656 598902 575328 104754 23574 76026 30628 2950 326884 2297 248444 81432 653 27678 2268 28089 1889 1076 45993 234809 47617 20888 25410 298 11529 23322 311 408
is_linear=0
shrinkage=0.05


Tree=2
num_leaves=31
num_cat=0
split_feature=23 39 44 16 60 23 17 35 17 44 35 35 54 28 20 54 31 54 20 54 6 59 57 35 7 35 23 59 15 39
split_gain=33.8386 14.9561 11.5097 7.53053 7.36933 7.75837 6.61827 7.97296 6.42672 5.75736 5.17648 5.07282 9.03766 4.41531 3.95748 3.86942 3.81837 3.71863 3.53686 3.50373 3.48085 3.27947 3.19445 3.08853 4.62933 2.91166 2.89113 2.84226 2.81361 2.6942
threshold=1.0000000180025095e-35 -0.10779760337188797 0.75901958179650342 -0.16598465449160565 0.030776515151515155 0.038582419433910005 0.069446587361959147 1.3316029266393651e-10 0.020290471661533509 0.35849504560196394 5.2995729615794951e-11 2.9544576557915087e-11 -11.769999999999998 -0.1660479914174495 22.908139467166134 10.705000000000002 1.0000000180025095e-35 4.245000000000001 20.838181890206929 1.2342500000000001 -0.23436151974645761 6.0733487429290012 8.8498000000000037 3.3264488786641036e-10 0.32955966747370519 1.123656282644772e-11 0.052347639595260752 0.72802989262450002 -0.064397372698271879 -0.14650793983078605
decision_type=10 2 10 2 10 10 2 2 2 10 2 2 10 2 2 10 2 8 2 10 2 10 10 2 2 2 10 8 2 2
left_child=1 6 3 16 5 10 9 20 -6 -1 29 -3 18 -10 19 22 -2 -15 -13 -9 -8 27 -11 -12 -25 -17 -4 -22 -29 -5
right_child=2 11 26 4 8 -7 7 14 13 15 23 12 -14 17 -16 25 -18 -19 -20 -21 21 -23 -24 24 -26 -27 -28 28 -30 -31
leaf_value=0.0010425217202237015 -0.013030496207131398 -0.00022142749975141972 -0.0010911059925506536 -0.00010614961577854686 0.0010338780803918995 -0.00095497660299395768 0.0069330018972250905 0.00057051833783133723 0.00097581742654882493 0.003274150605985484 -0.00016548525785527049 0 0.00064051671186007159 0.00023369878967335477 0.0046670697242202491 -0.0019952058353473038 0.00078166445032324056 -0.00030615439104868887 0.014551092692834151 0.014124148964840724 0.00234805897751382 0.0048302048970343681 0.014806894429710902 -0.00022035567701509542 0.00075003862764406657 0.002089668961542565 -0.0030592999207083062 0.0025855405212897339 -0.0027329310036077665 -0.00085986679257325392
leaf_weight=34249 50 25497 3742 17116 18654 34272 380 58 11686 4667 374313 56 35113 63004 427 634 24604 64605 163 290 1814 758 61 25026 24140 1393 3743 381 713 38701
leaf_count=34249 50 25497 3742 17116 18654 34272 380 58 11686 4667 374313 56 35113 63004 427 634 24604 64605 163 290 1814 758 61 25026 24140 1393 3743 381 713 38701
internal_value=0 0.000829937 -0.000125788 -0.000104812 -0.000136327 -0.000228189 0.00151214 0.00326523 0.000162327 0.00130589 -0.00017621 0.000315923 0.000703838 4.55748e-05 0.00791365 0.00264044 0.000753397 -3.95752e-05 0.0108287 0.0118804 0.00237343 0.00189926 0.00342431 -0.000116539 0.000255997 0.00080951 -0.00207603 0.00113342 -0.000876066 -0.000628833
internal_weight=810310 106654 703656 696171 671517 513568 45825 4821 157949 41004 479296 60829 35332 139295 775 6755 24654 127609 219 348 4046 3666 4728 423479 49166 2027 7485 2908 1094 55817
internal_count=810310 106654 703656 696171 671517 513568 45825 4821 157949 41004 479296 60829 35332 139295 775 6755 24654 127609 219 348 4046 3666 4728 423479 49166 2027 7485 2908 1094 55817
is_linear=0
shrinkage=0.05


Tree=3
num_leaves=31
num_cat=0
split_feature=23 52 23 17 35 54 35 6 35 17 16 20 6 17 58 58 29 36 56 57 57 56 55 62 56 58 54 50 54 44
split_gain=30.6019 10.4905 9.67548 8.25156 7.24773 7.90294 6.72777 5.2551 4.81985 5.06157 4.6752 4.18953 3.80103 3.6786 3.5827 3.49137 3.27813 2.99478 2.82524 5.0474 2.80774 2.6416 2.68885 2.58813 2.54198 2.45768 2.42287 2.4269 2.40751 2.35542
threshold=0.0016894506624210608 2.5050000000000003 0.052347639595260752 0.071696993882852764 1.3316029266393651e-10 -11.769999999999998 6.9705286554685531e-11 0.79579554708959666 3.865434914825034e-11 0.04682378782792767 -0.13653142389643069 23.499879649926161 -0.25262861768073591 0.018223384012076072 -27.702621982279997 31.435395479079503 0.14078908787522815 0.87903421470405652 39.750176830363507 6.9650000000000016 1.3218000000000003 44.749557984778512 4.0347367470885009 0.56350806451612911 69.858611608669023 47.018291154449507 11.205000000000002 0.31316000172827135 -11.769999999999998 0.75901958179650342
decision_type=10 8 8 2 2 10 2 2 2 2 2 2 2 2 10 10 2 2 10 10 10 10 10 10 10 10 10 2 10 10
left_child=3 13 6 8 5 -5 25 -4 17 -10 -8 -6 -7 -2 -14 21 -13 18 -1 23 -17 28 -23 -20 26 -3 27 -25 -11 -15
right_child=1 2 7 4 11 12 10 -9 9 15 -12 16 14 29 -16 20 -18 -19 19 -21 -22 22 -24 24 -26 -27 -28 -29 -30 -31
leaf_value=0.00016447731477464114 0.0012745230673885952 -0.00053002469100458464 -0.00098660120827069142 0.011527588137544453 0.011184598604186835 0.0070501655546128961 0.0005064879098166064 -0.0038435082229917685 0.00074299560976042584 0.0096865188592314081 -0.00011359981221480604 0.0068649043287397505 -0.0028447891631164643 0.00026557894508257121 0.0016468799079532366 0.00080325099455757706 -0.0028733742835693929 0.0035453166988012874 -0.00022723241844990012 -0.0009403235673640124 0.0063958223975284613 0.014192723243995087 0.0016158223223384097 0.010114285001968039 0.0013999780273057328 0.0001983748571552856 0.0021623990796018912 0.0044734787312934133 0.0014672692963948126 -0.0029491264444531182
leaf_weight=48080 9588 128182 21894 205 356 286 32927 1739 44350 90 395338 262 507 92419 3531 328 128 712 672 1527 726 84 88 279 1097 12720 627 623 10372 573
leaf_count=48080 9588 128182 21894 205 356 286 32927 1739 44350 90 395338 262 507 92419 3531 328 128 712 672 1527 726 84 88 279 1097 12720 627 623 10372 573
internal_value=1.81546e-09 -0.00012491 -0.000205701 0.000755818 0.00268774 0.00193395 -0.000164529 -0.00119705 0.000662834 0.00098713 -6.59128e-05 0.00725646 0.00147771 0.000341925 0.00108162 0.00191305 0.00365602 0.000323801 0.000280345 0.00143387 0.00466042 0.00164023 0.00779176 0.00253466 0.00324332 -0.000464232 0.0045624 0.00622472 0.00153855 0.000245714
internal_weight=810310 695380 592800 114930 5275 4529 569167 23633 109655 56038 428265 746 4324 102580 4038 11688 390 53617 52905 4825 1054 10634 172 3298 2626 140902 1529 902 10462 92992
internal_count=810310 695380 592800 114930 5275 4529 569167 23633 109655 56038 428265 746 4324 102580 4038 11688 390 53617 52905 4825 1054 10634 172 3298 2626 140902 1529 902 10462 92992
is_linear=0
shrinkage=0.05


Tree=4
num_leaves=31
num_cat=0
split_feature=23 39 44 61 35 54 39 35 17 39 1 58 35 16 31 58 15 17 5 47 57 54 18 54 23 62 17 57 17 44
split_gain=27.6823 13.0837 9.62835 8.5735 6.97438 5.39312 5.20371 4.84016 4.52898 4.51388 4.17998 3.59947 3.30732 3.27489 3.38697 2.93953 2.92005 2.90637 2.8911 2.72837 2.66386 2.63614 3.28429 2.61585 2.35285 2.274 2.25796 2.17785 2.16044 2.07717
threshold=1.0000000180025095e-35 -0.33422656713151738 0.75901958179650342 0.77346041055718484 1.483774879266804e-10 -11.769999999999998 -0.095846339946934686 2.3476636692121285e-11 0.074539317817428785 -0.081568280093988241 -0.28502296992120407 158.54909880727504 2.7390777788803721e-11 -0.11424385121454984 1.0000000180025095e-35 239.14971058681954 0.092535132631125908 0.01694013941737026 -0.14364135407136328 0.10580423890248496 -3.6549999999999994 4.6922500000000005 0.049278151803879941 1.8550000000000002 0.052347639595260752 0.096006144393241177 0.06602513170885714 -18.214999999999996 0.067535708083092852 0.75901958179650342
decision_type=10 2 8 8 2 10 2 2 2 2 2 10 2 2 2 10 2 2 2 2 8 8 2 10 10 10 2 10 2 10
left_child=1 8 3 17 9 7 25 26 11 27 29 16 -8 14 -6 28 -1 -2 -19 -12 -16 -11 -23 -18 -4 -7 -3 -5 -14 -10
right_child=2 5 24 4 13 6 12 -9 10 21 19 -13 15 -15 20 -17 23 18 -20 -21 -22 22 -24 -25 -26 -27 -28 -29 -30 -31
leaf_value=0.0012967515467269593 0.0014008542359845938 -0.0046928993497073529 -0.0010087716014761147 -0.00094819541077034979 -0.011529771043524699 0.0057580894653444931 -0.00028281970498146201 0.0084346350827277927 0.0028095537678338497 -0.00032955127336677028 0.0076871570241917216 0.012279582977063511 0.00050611197734477451 -2.6368991731474062e-05 -0.00012176138850208192 0.0051617548362252299 0.0073853302958070592 0.0013539092290780754 0.00018733058962945581 0.0021356813980311445 0.00086932413296092752 -0.00058300714548043366 -0.0015690366434592555 0.0025958974516902349 -0.0027846284802460486 0.0009409632364228628 0.0049518474440930667 -9.3784046044513819e-05 -0.0030543548460434961 -0.0039180463188551598
leaf_weight=8655 5801 138 3742 7789 58 247 21431 405 528 111244 884 82 33956 189607 9992 336 321 5617 98077 299 21037 60579 9823 2658 3743 36029 108 176547 431 146
leaf_count=8655 5801 138 3742 7789 58 247 21431 405 528 111244 884 82 33956 189607 9992 336 321 5617 98077 299 21037 60579 9823 2658 3743 36029 108 176547 431 146
internal_value=5.93294e-09 0.000750661 -0.000113765 -9.45791e-05 -0.000170388 0.000539116 0.000507113 0.00507461 0.00220101 -0.000304262 0.00449696 0.00183664 0.000205463 5.15953e-05 0.000527277 0.000506974 0.0017625 0.000311561 0.000250572 0.00628856 0.000550013 -0.000481164 -0.000720658 0.00311389 -0.00189751 0.000973916 -0.000438012 -0.000129914 0.000461332 0.00134446
internal_weight=810310 106654 703656 696171 586676 93081 92430 651 13573 365982 1857 11716 56154 220694 31087 34723 11634 109495 103694 1183 31029 181646 70402 2979 7485 36276 246 184336 34387 674
internal_count=810310 106654 703656 696171 586676 93081 92430 651 13573 365982 1857 11716 56154 220694 31087 34723 11634 109495 103694 1183 31029 181646 70402 2979 7485 36276 246 184336 34387 674
is_linear=0
shrinkage=0.05


Tree=5
num_leaves=31
num_cat=0
split_feature=23 52 23 53 17 53 35 54 6 35 6 40 35 54 20 54 55 53 17 6 61 53 56 57 60 53 57 44 62 56
split_gain=25.0162 8.91308 8.55027 7.52791 6.73469 6.2295 6.00343 6.70171 5.10869 4.52458 4.5038 3.92127 4.25798 3.75847 3.77402 3.58333 3.4087 3.3441 3.33799 3.32554 2.85247 3.74636 2.81002 4.94216 2.74932 5.12113 2.69756 2.58383 2.51832 2.49861
threshold=0.0015109299672368159 2.5250000000000004 0.038582419433910005 23.368023293727308 0.071696993882852764 23.651254893453288 1.3316029266393651e-10 -11.769999999999998 0.60246517885406781 4.1483243739877612e-11 0.34197682237076305 0.26187163211857595 2.5738226886776518e-10 2.0173000000000005 20.233650894153431 -5.3249999999999993 -2.55353297496 24.383511529591363 0.025549638773712625 -0.25262861768073591 0.36515151515151517 23.754807123272659 39.750176830363507 6.9650000000000016 0.11437908496732027 23.826124565716025 -17.184999999999995 0.069308352942598753 0.05634920634920635 54.365153689954006
decision_type=10 8 10 10 2 10 2 10 2 2 2 2 2 10 2 8 10 10 2 2 10 10 8 10 8 8 8 10 8 10
left_child=4 5 3 11 9 15 7 -6 24 22 -11 27 -13 -8 -15 16 -2 20 -7 -9 26 -22 28 -24 25 -4 -5 -3 -1 -21
right_child=1 2 8 17 6 18 13 19 -10 10 -12 12 -14 14 -16 -17 -18 -19 -20 29 21 -23 23 -25 -26 -27 -28 -29 -30 -31
leaf_value=0.0064781760333071127 0.013705138888733013 -0.00021072548213120626 0.018190036415918553 -0.0015470848080179321 0.010586000719291137 0.00053494701912346608 0.0010991883726052566 0.0065433771322552618 -0.0024717605171354108 0.00083364633496016145 0.002790521467071433 0.00013537067715299999 0.0014133679552257097 0.015350544190465687 0.0060797501070460787 0.0010360263386851192 0.0023155421359018326 -0.0011200711764506397 -0.00011595909666146114 0.0013980111604955901 0.00095491446251446332 -0.00020914295456202624 0.002467232027970544 -0.00087972576355310316 -0.00070030715199200519 -0.0013753023914390384 -0.00039867619589729745 7.0986139541022144e-05 0.00017704750999314684 -0.0025782559183445907
leaf_weight=159 108 141228 55 5337 205 31565 221 286 4398 46187 3143 20058 9662 159 366 19402 171 14465 52362 3595 8629 34730 3532 1601 39789 84 124022 192084 52264 443
leaf_count=159 108 141228 55 5337 205 31565 221 286 4398 46187 3143 20058 9662 159 366 19402 171 14465 52362 3595 8629 34730 3532 1601 39789 84 124022 192084 52264 443
internal_value=6.46363e-09 -0.00011134 -0.000185924 -0.000132095 0.000693132 0.000316603 0.00243747 0.0017513 -0.00085399 0.000606996 0.000958433 6.92309e-07 0.00055102 0.00659576 0.00889939 0.00111725 0.00674566 -0.000389656 0.000128788 0.00133106 -0.000328455 2.24058e-05 0.0003057 0.00142233 -0.000675664 0.00633794 -0.000446096 -4.83632e-05 0.000196267 0.000960492
internal_weight=810310 698149 594541 550215 112161 103608 5275 4529 44326 106886 49330 363032 29720 746 525 19681 279 187183 83927 4324 172718 43359 57556 5133 39928 139 129359 333312 52423 4038
internal_count=810310 698149 594541 550215 112161 103608 5275 4529 44326 106886 49330 363032 29720 746 525 19681 279 187183 83927 4324 172718 43359 57556 5133 39928 139 129359 333312 52423 4038
is_linear=0
shrinkage=0.05


Tree=6
num_leaves=31
num_cat=0
split_feature=23 39 52 23 35 44 17 6 35 54 35 39 54 58 54 28 17 16 20 58 58 57 57 59 36 58 57 7 60 60
split_gain=22.6412 11.5921 8.21476 7.86514 4.91351 4.76613 5.65303 4.64392 3.82235 6.68107 3.6613 3.62554 3.59091 3.46397 3.18642 3.1643 3.54461 2.97436 2.95498 2.57176 3.02136 2.55818 2.55513 2.52754 3.33206 2.42349 2.31981 2.29027 2.28385 2.16898
threshold=inf -0.10779760337188797 2.5450000000000004 0.038582419433910005 1.4705462875291298e-10 0.35849504560196394 0.074539317817428785 0.6812247366114188 2.8113643608908561e-11 -11.769999999999998 1.123656282644772e-11 -0.053615016989712931 6.7350000000000012 9.421128311619503 5.8450000000000006 -0.18174331904106997 0.018223384012076072 -0.124319666749008 20.838181890206929 7.0033955639889998 6.5399063067685015 -13.764999999999997 -2.6149999999999998 -7.4015216775719992 0.36798609876162697 239.14971058681954 -25.189999999999994 0.74718968955104759 0.11437908496732027 0.8729838709677421
decision_type=8 2 8 8 2 8 2 2 2 10 2 2 10 10 8 2 2 2 2 10 10 10 8 10 2 8 8 2 8 10
left_child=2 5 15 4 11 6 21 28 -3 18 12 26 27 19 -13 -1 -17 22 -10 20 -12 -2 -6 24 -15 -11 -4 -7 -5 -30
right_child=1 8 3 7 17 10 -8 -9 9 25 13 14 -14 23 -16 16 -18 -19 -20 -21 -22 -23 -24 -25 -26 -27 -28 -29 29 -31
leaf_value=0.0015669645060983823 -0.00030110265710665075 -0.00026561539856940325 -0.001488044947043317 0.0055231404883169513 -9.4824562871946954e-05 0.0055732939216454058 0.0042187608804037545 -0.0026303924731121402 -0.00061144855036921223 0.00045058601684967069 0.0021760704732969038 -0.00028829633150562802 -0.0013795890209627095 0.013249602482601942 -0.00084084548910493863 0.0011337970944386429 0.00014580948194996193 -4.4398834844591878e-06 0.012366443864178199 -0.00210318981195681 0.01091871938359478 0.0010490710108727918 0.00095200837604387145 0.0038228568233903328 0.0002754607846270653 0.0044707883452077572 -9.983533925851559e-05 -0.0014086664251381537 -0.00078348575445739456 0.00078173660642392995
leaf_weight=4748 3949 23934 3053 148 9124 393 1330 3267 58 36287 5105 83733 1170 164 37934 10101 89905 191274 171 345 101 31040 16101 1990 72 379 213408 166 38515 2345
leaf_count=4748 3949 23934 3053 148 9124 393 1330 3267 58 36287 5105 83733 1170 164 37934 10101 89905 191274 171 345 101 31040 16101 1990 72 379 213408 166 38515 2345
internal_value=9.10576e-09 0.000678884 -0.000102882 -0.000174336 -0.000123131 0.00127948 0.00101835 -0.000815663 0.000226346 0.00054562 0.00227662 -0.000242217 0.000192369 0.00273934 -0.000460615 0.000305589 0.000245651 6.28361e-05 0.00905881 0.00206934 0.00234685 0.000896542 0.000573167 0.0044077 0.00931436 0.000492289 -0.000119439 0.00349111 -0.00067096 -0.000693532
internal_weight=810310 106654 703656 598902 554627 45825 36319 44275 60829 36895 9506 338128 1729 7777 121667 104754 100006 216499 229 5551 5206 34989 25225 2226 236 36666 216461 559 41008 40860
internal_count=810310 106654 703656 598902 554627 45825 36319 44275 60829 36895 9506 338128 1729 7777 121667 104754 100006 216499 229 5551 5206 34989 25225 2226 236 36666 216461 559 41008 40860
is_linear=0
shrinkage=0.05


Tree=7
num_leaves=31
num_cat=0
split_feature=53 53 52 53 35 17 53 58 35 60 18 43 62 62 51 6 59 58 56 56 17 58 36 7 56 27 59 18 49 15
split_gain=20.4344 7.45597 8.7638 7.47892 6.12715 7.77516 5.38319 4.25588 3.27574 4.33142 2.9965 2.8516 3.05817 2.88008 2.7948 3.06389 2.59909 3.68383 3.44182 3.55914 2.51873 3.05187 2.49591 2.6191 2.44934 2.83142 2.52312 2.4071 2.88337 2.78541
threshold=inf 24.357015700032417 3.8050000000000002 23.677099941592278 4.1483243739877612e-11 0.04813494519788155 23.368023293727308 9.421128311619503 9.1671392917063629e-11 0.98529411764705899 0.026022664964464887 -0.26706954144280864 0.05634920634920635 0.037749287749287756 161.94000000000003 0.79579554708959666 -7.4015216775719992 -254.25595857895948 12.637920450051501 1.6036699136455004 0.044901702841874315 -304.56375022349442 0.96544062628626126 0.59649969175264583 0.63341730487600012 0.72435391062425192 -9.3173911270774976 0.025065302127675704 0.68586810997618464 -0.23059677598765868
decision_type=8 10 8 10 2 2 10 10 2 10 2 2 8 10 10 2 8 8 10 10 2 10 2 2 10 8 10 2 2 2
left_child=1 2 3 20 11 -6 8 16 9 -4 -5 -2 13 -13 15 -8 18 -18 19 -7 -1 -22 -14 -24 25 -9 -26 29 -29 -10
right_child=4 -3 6 10 5 7 14 24 27 -11 -12 12 22 -15 -16 -17 17 -19 -20 -21 21 -23 23 -25 26 -27 -28 28 -30 -31
leaf_value=0.00088123653149156222 0.0011627328417613074 -0.00094930914269499814 -0.00032337840618166722 0.00042219650518262062 0.0007067997244064357 0.0044756336552177877 -0.00039647274149166883 0.015469399260484618 -0.0064390504552089244 0.0094231174295262028 -0.00013803139189319795 -0.0045730069066277686 0.00011396898654116348 0.0086459598265664715 0.0012530065937129548 -0.0025341165859702631 0.0078210045760230846 0.0010302068790177803 0.0085506318594757366 -0.0010070696801357346 0.014212593115916109 0.0022074798682829152 0.0074989498856898942 0.00063302513789908847 0.010907960591683967 0.0053119713016464599 0.002686626415774726 0.0004684917733352452 2.2258086085305709e-05 -0.0001450484325235366
leaf_weight=23921 8541 24799 92327 42700 34473 777 158675 78 176 114 54103 52 51424 190 2537 1695 206 6734 278 476 54 2906 234 346 98 613 2134 48901 139487 111261
leaf_count=23921 8541 24799 92327 42700 34473 777 158675 78 176 114 54103 52 51424 190 2537 1695 206 6734 278 476 54 2906 234 346 98 613 2134 48901 139487 111261
internal_value=9.61557e-09 -9.7738e-05 -6.66221e-05 0.000313978 0.000644951 0.00108128 -0.000151423 0.00221382 -5.10727e-05 -0.000311295 0.000109035 0.000315638 0.00017706 0.00578415 -0.000393027 -0.000419099 0.00164511 0.00123261 0.00351151 0.00238891 0.00105182 0.00242865 0.00015086 0.00341251 0.00386012 0.00646785 0.00305031 2.91414e-05 0.000138116 -0.00015504
internal_weight=810310 703656 678857 123684 106654 45867 555173 11394 392266 92441 96803 60787 52246 242 162907 160370 8471 6940 1531 1253 26881 2960 52004 580 2923 691 2232 299825 188388 111437
internal_count=810310 703656 678857 123684 106654 45867 555173 11394 392266 92441 96803 60787 52246 242 162907 160370 8471 6940 1531 1253 26881 2960 52004 580 2923 691 2232 299825 188388 111437
is_linear=0
shrinkage=0.05


Tree=8
num_leaves=31
num_cat=0
split_feature=23 44 52 16 35 17 35 54 53 26 54 35 6 54 53 58 7 57 17 17 35 7 21 36 56 57 57 54 56 54
split_gain=18.5686 7.13985 6.56051 5.8509 5.42021 5.1045 5.00958 5.66308 4.97823 3.56527 3.30857 3.28326 3.64045 3.26791 3.24853 3.09936 2.84008 2.76938 2.69683 2.54655 2.52235 2.93711 2.39706 2.39151 2.33463 2.81368 2.29592 2.48901 4.24368 2.24761
threshold=0.0016894506624210608 0.75901958179650342 2.5050000000000003 -0.16598465449160565 4.3198779174860446e-11 0.071696993882852764 1.3316029266393651e-10 -11.769999999999998 23.634232533683043 -1.0552169076274127 2.0173000000000005 3.865434914825034e-11 0.29568283310648052 -5.3249999999999993 24.412140926959861 -27.702621982279997 0.30850071724322331 -23.069999999999997 0.020290471661533509 0.058234054309760544 2.2596434834200161e-10 0.32489609015370785 -0.061014410129715743 0.87903421470405652 44.749557984778512 6.3350000000000017 -20.384999999999994 12.275 30.991688961125501 3.5008000000000004
decision_type=10 10 8 2 2 2 2 10 10 2 10 2 2 8 8 10 2 10 2 2 2 2 2 2 10 10 8 10 10 10
left_child=5 2 8 -4 -5 11 7 -7 13 -9 22 23 -13 16 17 -11 -2 -6 -10 -20 -19 -22 -8 26 -14 -26 -1 28 -28 -30
right_child=1 -3 3 4 14 6 10 9 18 15 -12 12 24 -15 -16 -17 -18 20 19 -21 21 -23 -24 -25 25 -27 27 -29 29 -31
leaf_value=-0.0010270116817681033 0.0023181610956020423 -0.0016335422596329063 0.00063949211918126032 -0.00063427514636000052 -0.0011483283012681299 0.0096026189877619402 0.01002653190969593 -0.0038948259978305168 0.00076422910740557332 -0.0022369926526112412 0.0080679437287924372 0.00066452707723221459 0.0018413020412885598 0.00096687209372901838 -0.0014757010880632833 0.0020266088569003715 0.013453751505759233 -0.00015626858580148012 -3.1955853171290487e-05 0.0026715865412410174 -0.0001388694866167094 0.0003999401733621926 -0.0021520722442773211 0.0031145341757291382 0.0025397496083784743 0.012433712876119527 0.00034446658240521068 -0.00017237863699980148 0.00046471624961702654 0.003058784387899114
leaf_weight=3571 143 7482 22838 58082 6369 205 53 330 13905 484 525 51571 4161 17692 4408 3510 97 392976 69288 882 51900 49318 168 712 188 118 27134 18514 1289 2397
leaf_count=3571 143 7482 22838 58082 6369 205 53 330 13905 484 525 51571 4161 17692 4408 3510 97 392976 69288 882 51900 49318 168 712 188 118 27134 18514 1289 2397
internal_value=1.33749e-08 -9.72865e-05 -8.05697e-05 -0.000145005 -0.000176834 0.000588766 0.00210832 0.00148142 0.000289472 0.00109502 0.00590688 0.00051562 0.000783277 0.00104584 -0.000124209 0.00150864 0.00684335 -0.000112297 0.000128089 1.95876e-06 -9.89345e-05 0.000123614 0.000749188 0.000235782 0.00215307 0.00637422 0.000196939 0.000285637 0.000560935 0.00215303
internal_weight=810310 695380 687898 585891 563053 114930 5275 4529 102007 4324 746 109655 56038 17932 504971 3994 240 500563 84075 70170 494194 101218 221 53617 4467 306 52905 49334 30820 3686
internal_count=810310 695380 687898 585891 563053 114930 5275 4529 102007 4324 746 109655 56038 17932 504971 3994 240 500563 84075 70170 494194 101218 221 53617 4467 306 52905 49334 30820 3686
is_linear=0
shrinkage=0.05


Tree=9
num_leaves=31
num_cat=0
split_feature=53 39 53 52 53 39 55 39 18 35 28 16 28 54 56 60 31 17 56 53 56 57 56 35 54 18 51 57 35 56
split_gain=16.732 10.1191 6.35732 7.35949 6.26879 4.69997 4.06951 3.90532 3.26008 2.98432 3.35208 2.8718 2.82874 2.67288 6.7783 2.66258 2.65509 2.63017 2.68992 2.58707 2.52381 4.55317 3.63593 3.02537 2.41005 2.33899 2.26359 2.13883 2.1085 2.10196
threshold=1.0000000180025095e-35 -0.33422656713151738 24.357015700032417 3.8050000000000002 23.746480657911007 -0.080723672057673987 -2.55353297496 -0.086177707376358256 0.030048133557593799 4.3198779174860446e-11 -0.17124638926964506 -0.16133187219449877 -0.1660479914174495 6.0650000000000004 -60.416956328970493 0.10263157894736843 0.0012575459876254982 0.044279589552443745 -407.15620230344092 23.406569315985269 14.037093564973501 11.855000000000002 15.897031490230502 5.121728857673129e-11 1.1530000000000002 0.066900494107544881 178.55500000000004 -23.069999999999997 8.2605279037672731e-12 24.755280290263503
decision_type=10 2 8 8 10 2 10 2 2 2 2 2 2 10 10 8 2 2 10 10 10 10 10 2 10 2 10 10 2 10
left_child=1 6 3 4 17 11 -1 24 -6 15 26 16 -10 -9 -15 -7 -5 -2 -19 -13 -8 22 23 -22 -3 -18 -11 -24 -16 -4
right_child=2 7 29 5 8 9 20 13 12 10 -12 19 -14 14 28 -17 25 18 -20 -21 21 -23 27 -25 -26 -27 -28 -29 -30 -31
leaf_value=0.0040211724419797002 0.00068144484250374105 0.0022754561508606676 -0.0010611371667055721 -0.0090177198701521643 0.00030939574361137632 0.0077085038910811093 0.00093424862682440352 0.00047914024883634619 0.00074440985107496617 0.00049060787826533383 -0.00028173050332707853 3.8765150682774159e-05 -0.00050509633484075236 0.012204379786436995 -0.0020807704361130888 -0.00085019633370542148 0.0005475234209227609 0.010912696031907351 0.0018161801031842219 -0.00033640336270670461 0.0042637089016498318 -0.0013023877614187732 -0.0052371432679092387 0.01365882610634377 0.00066904243030626665 0.0036592920066300045 0.0065534718243503961 0.002817638750671514 -0.00017378991414681268 0.00026134333046204291
leaf_weight=1878 32352 2492 21308 71 51910 91 7241 25779 5341 12068 223758 219074 29724 109 1538 24358 16827 83 4274 58143 227 683 84 140 37759 627 156 3320 25404 3491
leaf_count=1878 32352 2492 21308 71 51910 91 7241 25779 5341 12068 223758 219074 29724 109 1538 24358 16827 83 4274 58143 227 683 84 140 37759 627 156 3320 25404 3491
internal_value=1.49344e-08 0.000583614 -8.84348e-05 -5.97022e-05 0.000289073 -0.000137413 0.0018591 0.000397567 5.77544e-05 -0.00029218 -0.00023767 -6.45583e-07 -0.000314631 0.000114762 -0.000232298 -0.000818105 0.000620071 0.000837001 0.00199086 -3.99041e-05 0.00151145 0.00244867 0.0031294 0.00786404 0.000768628 0.000659614 0.000568443 0.00261726 -0.000282844 -0.000874767
internal_weight=810310 106654 703656 678857 123684 555173 13573 93081 86975 260431 235982 294742 35065 52830 27051 24449 17525 36709 4357 277217 11695 4454 3771 367 40251 17454 12224 3404 26942 24799
internal_count=810310 106654 703656 678857 123684 555173 13573 93081 86975 260431 235982 294742 35065 52830 27051 24449 17525 36709 4357 277217 11695 4454 3771 367 40251 17454 12224 3404 26942 24799
is_linear=0
shrinkage=0.05


Tree=10
num_leaves=31
num_cat=0
split_feature=23 39 53 61 23 53 53 54 35 6 40 55 35 54 55 43 56 57 56 35 61 55 58 17 58 55 58 53 20 54
split_gain=15.2272 8.42679 6.31514 7.45993 6.51597 6.27288 4.43977 3.76745 3.93614 3.59224 3.37976 3.20474 3.06588 3.01394 2.9149 2.87311 2.77938 4.0317 3.00616 2.4282 2.38667 2.34847 2.31389 2.34278 2.25372 2.20924 2.12245 2.47014 2.11949 2.09899
threshold=0.0023098790780548824 -0.33422656713151738 24.335237248155313 0.85504201680672276 0.035515681631586006 23.677099941592278 23.216011214738717 -11.769999999999998 2.3476636692121285e-11 0.79579554708959666 0.27468214644263822 -2.55353297496 8.2605279037672731e-12 -5.3249999999999993 -2.55353297496 -0.27712996239288767 14.037093564973501 11.855000000000002 15.897031490230502 2.2596434834200161e-10 0.96651785714285732 14.327620749905002 -19.718988544562496 0.04682378782792767 -6.7360944668019993 17.064377574331505 -12.474518585962498 23.711924191471329 46.421616984401403 12.905000000000003
decision_type=10 2 8 8 8 10 10 8 2 2 2 10 2 8 10 2 10 10 10 2 10 10 10 2 10 10 8 10 2 10
left_child=1 11 3 5 6 13 10 8 -3 20 -5 22 29 14 -2 -14 -13 18 21 -12 -6 24 -1 -24 -18 -15 27 -22 -28 -9
right_child=2 7 -4 4 9 -7 -8 12 -10 -11 19 16 15 25 -16 -17 17 -19 -20 -21 26 -23 23 -25 -26 -27 28 -29 -30 -31
leaf_value=0.00085430949036039761 0.013112235390611203 -0.00089171873773601453 -0.00085047816636498906 -6.4521546856155283e-06 -0.00068653451737739162 0.00011682176328436328 -0.00026346186105719315 -8.3251807189300812e-05 0.0070623104282921227 -0.0029005800283315466 0.0001794231057334626 0.00076388412057323309 0.0012146508909828689 0.00092778454913451213 0.0029851905264666545 0.00030620388420733339 0.012200775528003045 -0.0012372778956430941 0.0024558711658990186 0.0012820719814913856 0.0092946494252641298 0.016796976708860416 0.001864691050323878 0.0059948052303647401 0.0029897933837416645 0.0064027774301387598 -0.00065948295780785026 0.0018196260279814483 0.0081637871464270064 -0.002200535382515835
leaf_weight=624 93 246 26523 277922 44050 81522 204425 3121 418 1778 11436 8163 9553 22611 310 98458 92 683 3523 8879 136 54 545 948 247 186 1209 605 72 1878
leaf_count=624 93 246 26523 277922 44050 81522 204425 3121 418 1778 11436 8163 9553 22611 310 98458 92 683 3523 8879 136 54 545 948 247 186 1209 605 72 1878
internal_value=1.76112e-08 0.00049917 -9.40959e-05 -6.34708e-05 -0.00013706 0.00032333 -8.39746e-05 0.000352654 0.00410827 -0.00069461 3.90372e-05 0.00161819 0.000330539 0.00104876 0.00533728 0.000386599 0.00131867 0.00230225 0.00292088 0.000661604 -0.000609363 0.00707501 0.00342133 0.00449074 0.00550713 0.000972702 0.00106933 0.00319938 -0.00015906 -0.000879691
internal_weight=810310 128553 681757 655234 550512 104722 502662 113674 664 47850 298237 14879 113010 23200 403 108011 12762 4599 3916 20315 46072 393 2117 1493 339 22797 2022 741 1281 4999
internal_count=810310 128553 681757 655234 550512 104722 502662 113674 664 47850 298237 14879 113010 23200 403 108011 12762 4599 3916 20315 46072 393 2117 1493 339 22797 2022 741 1281 4999
is_linear=0
shrinkage=0.05


Tree=11
num_leaves=31
num_cat=0
split_feature=23 39 44 61 53 16 39 1 7 39 47 35 18 18 53 28 56 55 23 53 18 28 55 56 55 35 28 55 7 18
split_gain=13.7821 7.74286 6.13378 4.93091 5.8569 4.11043 3.20915 3.19911 3.05231 2.99627 2.91987 2.87421 2.8262 2.38969 2.30295 2.26046 2.11011 2.55422 2.06644 2.0511 1.96408 3.09744 1.96369 2.1117 2.24848 1.92717 3.25488 1.85432 1.77466 1.76348
threshold=0.0016894506624210608 -0.33422656713151738 0.47282692214580596 0.64400921658986188 23.794546116467064 -0.16598465449160565 -0.10107732280766001 -0.58120213266350806 0.80301927379916938 -0.10107732280766001 0.14067573613053963 2.7390777788803721e-11 0.078362060736986552 0.065569716590662921 24.412140926959861 -0.1660479914174495 94.404373261766011 30.291747432887004 0.039765509187440283 23.236354589108071 0.030048133557593799 -0.16945974697631791 17.064377574331505 163.58514935447653 18.633164040152504 4.4498676753185401e-10 -0.12926052905672467 6.7778257697510007 1.098639205018699 0.04121572915683875
decision_type=10 2 10 8 10 2 2 2 2 2 2 2 2 2 10 2 10 10 10 10 2 2 10 10 10 2 2 10 2 2
left_child=1 7 3 4 15 13 18 -1 -9 29 27 -11 16 -5 22 -2 -4 -18 -7 -17 -6 -22 25 -24 -25 -8 -27 -10 -29 -3
right_child=2 9 12 5 20 6 14 8 10 11 -12 -13 -14 -15 -16 19 17 -19 -20 -21 21 -23 23 24 -26 26 -28 28 -30 -31
leaf_value=0.0002052526565197152 0.0020820960508129301 0.00043421023148707889 -0.00069811462840502778 0.00043516150448253804 0.00023957644600764577 3.6579087020211197e-05 -0.00021490242105942647 0.0016896032630837829 0.0043253396144352094 -0.00031370004120871486 0.00044817648399439729 0.00039338549036420405 -0.0020521308009631457 0.0027428452617301591 -0.0010284532435177935 0.004598541199892804 0.0004652451978360778 0.0068252226228044457 -0.00072521843201897541 0.00064928074388519857 0.001065922213251338 -0.00059795720553981963 -0.0010764750799580399 0.010909356666584881 0.00089524336234522196 0.001831268204763294 -6.7460834144958382e-05 0.0064677111447171923 0.015586501089724859 0.0011321980029431753
leaf_weight=3152 3281 23570 25626 21389 32331 228846 285829 9424 780 22331 386 40301 3791 1185 8914 333 1250 181 9262 28269 3253 19885 9695 62 596 3097 8305 181 78 14727
leaf_count=3152 3281 23570 25626 21389 32331 228846 285829 9424 780 22331 386 40301 3791 1185 8914 333 1250 181 9262 28269 3253 19885 9695 62 596 3097 8305 181 78 14727
internal_value=2.03517e-08 0.000507246 -8.3805e-05 -5.18021e-05 0.000298285 -0.000104794 -0.000131721 0.00160922 0.00201665 0.000354328 0.00417574 0.000141199 -0.00077305 0.000556534 -0.000236043 0.00083831 -0.000593645 0.0012736 6.92516e-06 0.000695451 -1.20268e-05 -0.000363811 -0.000213062 -0.000890111 0.00184793 -0.000189462 0.000447843 0.00555558 0.00923816 0.000702752
internal_weight=810310 114930 695380 664532 87352 577180 554606 14001 10849 100929 1425 62632 30848 22574 316498 31883 27057 1431 238108 28602 55469 23138 307584 10353 658 297231 11402 1039 259 38297
internal_count=810310 114930 695380 664532 87352 577180 554606 14001 10849 100929 1425 62632 30848 22574 316498 31883 27057 1431 238108 28602 55469 23138 307584 10353 658 297231 11402 1039 259 38297
is_linear=0
shrinkage=0.05


Tree=12
num_leaves=31
num_cat=0
split_feature=23 44 53 61 53 43 23 53 44 31 44 54 54 56 56 6 7 28 51 56 26 57 28 57 56 57 57 17 49 53
split_gain=12.5148 5.57921 4.90636 5.86186 5.30514 4.04246 3.8229 3.73602 3.18988 2.98066 2.95121 2.77854 2.62741 2.69075 2.62411 2.52719 2.45907 2.41696 2.90046 2.15271 3.65287 2.41033 2.45999 2.56909 2.41179 2.05872 2.16631 2.21346 2.0438 2.02011
threshold=0.002511543404800452 0.8367301100080059 24.357015700032417 0.85504201680672276 23.677099941592278 -0.28571428571428559 0.023507403632663175 23.368023293727308 0.082058768904030535 0.0015745494335277633 0.36505963362328947 -16.680899999999998 -5.3249999999999993 -16.970063140228497 -5.3402538743049996 0.1656074258194811 0.54020199866648633 -0.17124638926964506 46.545000000000009 39.750176830363507 -0.78646348720055681 9.7550000000000026 -0.16945974697631791 6.3350000000000017 54.365153689954006 -19.014999999999997 4.6250000000000018 0.074539317817428785 1.1315795063488348 23.222704668588207
decision_type=10 10 10 8 10 2 10 10 10 2 8 10 8 10 10 2 2 2 10 10 2 10 2 10 10 8 8 2 2 10
left_child=5 2 3 4 12 9 7 8 -5 -1 25 -12 13 -2 -15 -3 -11 18 -8 -13 -21 22 -22 -24 -25 -7 27 28 -27 -14
right_child=1 15 -4 6 -6 10 17 -9 -10 16 11 19 29 14 -16 -17 -18 -19 -20 20 21 -23 23 24 -26 26 -28 -29 -30 -31
leaf_value=-0.0099578222978808847 0.00061795131432116929 0.0077140225327710574 -0.0007940449079372416 -0.00011465686313498522 0.0001039409617372105 -0.00080283192261490033 -5.468046916711973e-06 -0.00027309960693232483 0.0002048291428230287 0.00079320876809961874 0.010699787319782508 0.000672757086406745 0.0045288468595796579 0.015610926458774335 0.0041673352833569736 -0.0018302612232811617 0.0022788157432547997 -0.00052749109164159009 0.0033816101250364588 -0.002475723124308164 -0.00066463373700284263 -0.0016658072029137839 0.0033316096996128912 0.012782925826910575 0.0041867506131682726 0.00016426528913494583 -0.00015375417220962108 0.0051248294188958252 0.00068640681007962217 0.00083034526358700999
leaf_weight=58 188 70 22901 160766 81541 4484 17171 136276 151980 7009 72 18434 376 86 124 5232 4640 76325 656 354 288 245 1318 157 175 41198 21216 249 34432 22289
leaf_count=58 188 70 22901 160766 81541 4484 17171 136276 151980 7009 72 18434 376 86 124 5232 4640 76325 656 354 288 245 1318 157 175 41198 21216 249 34432 22289
internal_value=2.33843e-08 -8.75644e-05 -7.47847e-05 -4.93488e-05 0.000293382 0.000440827 -0.000115361 -5.46074e-05 4.05825e-05 0.00132869 0.000356019 0.000895039 0.000962943 0.00499247 0.00888276 -0.00170317 0.0013854 -0.000405047 0.000118908 0.000861087 0.00222745 0.0029925 0.00358403 0.00432864 0.00826949 0.000244306 0.000292717 0.000417618 0.000402047 0.000891942
internal_weight=810310 675981 670679 647778 104604 134329 543174 449022 312746 11707 122622 21043 23063 398 210 5302 11649 94152 17827 20971 2537 2183 1938 1650 332 101579 97095 75879 75630 22665
internal_count=810310 675981 670679 647778 104604 134329 543174 449022 312746 11707 122622 21043 23063 398 210 5302 11649 94152 17827 20971 2537 2183 1938 1650 332 101579 97095 75879 75630 22665
is_linear=0
shrinkage=0.05


Tree=13
num_leaves=31
num_cat=0
split_feature=23 39 23 53 61 53 53 44 60 54 35 28 55 35 62 20 6 44 43 56 28 63 57 39 54 55 18 53 56 55
split_gain=11.2948 6.67213 5.10152 4.57369 4.70032 4.82024 3.88414 3.33977 3.31509 3.2556 3.43046 2.86754 2.76238 2.70563 2.51789 2.48218 3.15026 2.38656 2.3568 2.31888 2.26932 2.25006 2.2322 2.213 2.20306 2.58604 2.19214 2.15909 2.65112 1.94225
threshold=0.002511543404800452 -0.33422656713151738 0.055245917876997085 24.315159660807428 0.81980519480519487 23.685654033703258 23.222704668588207 0.94462702138758492 0.089572192513368995 -11.769999999999998 2.3476636692121285e-11 -0.18174331904106997 -2.55353297496 8.2605279037672731e-12 0.70412457912457926 38.27165239118019 0.21439949254678084 0.05678099770090362 -0.27712996239288767 94.404373261766011 -0.1660479914174495 0.15849282296650721 1.3931500000000003 -0.040214010344167044 -5.3249999999999993 -2.55353297496 0.057933641333079919 23.719922682639616 -49.622281239669498 17.064377574331505
decision_type=10 2 8 8 8 10 8 10 10 8 2 2 10 2 10 2 2 10 2 10 2 2 10 2 8 10 2 10 10 10
left_child=1 12 3 4 5 24 11 8 -4 10 -3 21 -1 -11 -14 16 -8 23 -15 -18 -5 -6 -17 -13 25 -2 -22 28 -10 -26
right_child=2 9 7 20 6 -7 15 -9 27 13 -12 17 14 18 -16 22 19 -19 -20 -21 26 -23 -24 -25 29 -27 -28 -29 -30 -31
leaf_value=0.0030526420501869652 0.011886687792545519 -0.00091058310400722999 -0.00093427516353553693 0.00055665467199806859 -0.00018823232683469384 9.0425985935770243e-05 -0.00025230514594817345 -0.0028242917766232428 0.012054782144608483 -0.00086507793626825499 0.0064946240463683432 -0.00014160757414890344 8.5560572857644568e-05 0.0010682597844901773 0.0015907275276919109 0.00069051437783996346 -0.0011142722681688319 7.481854182551619e-05 0.00025333804220143633 0.001598639941950513 -0.0007336549406087398 0.00079574602836391664 -0.00029764487107742266 -0.0008822457298559253 0.00080100104890612445 0.002367170733004631 -0.0027680235137979613 0.00025527039603021094 0.0021548946314928789 0.0058408359379750197
leaf_weight=2180 93 246 16800 3239 8233 75922 171453 1914 82 5000 424 82394 4020 9708 9049 12387 15601 193604 103702 828 23084 19679 10602 11498 23129 315 1407 3127 397 193
leaf_count=2180 93 246 16800 3239 8233 75922 171453 1914 82 5000 424 82394 4020 9708 9049 12387 15601 193604 103702 828 23084 19679 10602 11498 23129 315 1407 3127 397 193
internal_value=2.44268e-08 0.000418792 -8.31845e-05 -5.77943e-05 -2.99479e-05 0.000284913 -8.9577e-05 -0.00082653 -0.00063889 0.000292637 0.00376851 2.14745e-05 0.0014036 0.000272924 0.00112813 -0.000255705 -0.000315722 -2.54842e-05 0.000323141 -0.000977232 -0.000686171 0.00050533 0.000234581 -0.00023236 0.000906943 0.00455169 -0.000850744 0.000735882 0.00386225 0.000842947
internal_weight=810310 134329 675981 653661 625931 99652 526279 22320 20406 119080 670 315408 15249 118410 13069 210871 187882 287496 113410 16429 27730 27912 22989 93892 23730 408 24491 3606 479 23322
internal_count=810310 134329 675981 653661 625931 99652 526279 22320 20406 119080 670 315408 15249 118410 13069 210871 187882 287496 113410 16429 27730 27912 22989 93892 23730 408 24491 3606 479 23322
is_linear=0
shrinkage=0.05


Tree=14
num_leaves=31
num_cat=0
split_feature=23 39 44 52 53 16 53 18 44 17 1 1 35 54 20 18 18 23 44 57 62 57 54 59 56 59 17 31 15 57
split_gain=10.2422 7.43589 4.92813 3.95514 4.25326 3.66056 3.75975 3.24822 3.12408 3.91427 3.19001 2.63292 2.59831 4.68405 2.64719 2.36495 2.22934 2.2261 2.98507 2.20468 2.12729 2.11451 2.0169 1.9929 1.99231 2.23928 1.94602 1.94213 1.93273 1.9089
threshold=1.0000000180025095e-35 -0.10779760337188797 0.45972290861982118 3.8050000000000002 23.794546116467064 -0.16598465449160565 23.414392648815834 0.030947103299548678 0.35849504560196394 0.074539317817428785 -0.6672579323809803 -0.25553539672132569 2.9544576557915087e-11 -11.769999999999998 20.838181890206929 0.078362060736986552 0.064329587535706084 0.023862975781560363 0.071018373776748814 -13.764999999999997 0.19292803970223329 -17.184999999999995 7.3750000000000009 22.124306344228504 94.404373261766011 22.124306344228504 0.043269159741357449 0.0012575459876254982 0.050378571580190663 3.0837500000000007
decision_type=10 2 10 8 10 2 8 2 8 2 2 2 2 8 2 2 2 10 10 10 10 10 10 10 10 10 2 2 2 10
left_child=1 8 3 4 26 16 17 28 9 19 29 -11 -3 14 -14 24 27 18 -7 -1 -19 -8 -23 -12 -4 -26 -2 -5 -6 -10
right_child=2 12 15 5 7 6 21 -9 10 11 23 -13 13 -15 -16 -17 -18 20 -20 -21 -22 22 -24 -25 25 -27 -28 -29 -30 -31
leaf_value=-0.00048714252424647184 0.00048744394774955153 -0.00029039591206057592 -0.00060628059514500267 -0.0073587659786015771 0.00011642473118792197 -0.00015936210298839835 -0.001221109106859073 -0.00041612851525217652 0.0014733211153877385 0.0014058168322953236 0.0021207804725153719 0.0058984220217616467 -0.0016384434457760431 0.00032621048398530654 0.010885418607661493 -0.0018231029653855641 0.0025502602761856342 -0.0013123514556357221 0.00014536570687557682 0.00076644539839072605 -0.00023814639112296426 -0.00015559026959768743 -0.00055561822115121476 0.010550044360799839 0.00053850399427182467 0.0064515652070624959 0.0015151560399139005 0.00043876743721255659 0.00099733615202028366 -0.001711237412231317
leaf_weight=3949 38479 25497 27864 80 46590 147228 6558 29847 953 744 7553 586 56 35113 163 3884 1292 5088 176958 31040 49266 86395 49646 71 1351 182 5240 20517 7191 929
leaf_count=3949 38479 25497 27864 80 46590 147228 6558 29847 953 744 7553 586 56 35113 163 3884 1292 5088 176958 31040 49266 86395 49646 71 1351 182 5240 20517 7191 929
internal_value=2.53031e-08 0.000456628 -6.91755e-05 -3.96847e-05 0.000211092 -9.85042e-05 -0.000125117 2.10401e-06 0.000937647 0.000726199 0.00174497 0.00338932 9.41737e-05 0.000371836 0.00766086 -0.000663054 0.000534878 -4.26741e-05 6.95915e-06 0.000624817 -0.000338795 -0.000343934 -0.000301611 0.00220007 -0.00050961 0.00124415 0.000610739 0.000408203 0.000234305 -9.60036e-05
internal_weight=810310 106654 703656 670375 127347 543028 521139 83628 45825 36319 9506 1330 60829 35332 219 33281 21889 378540 324186 34989 54354 142599 136041 7624 29397 1533 43719 20597 53781 1882
internal_count=810310 106654 703656 670375 127347 543028 521139 83628 45825 36319 9506 1330 60829 35332 219 33281 21889 378540 324186 34989 54354 142599 136041 7624 29397 1533 43719 20597 53781 1882
is_linear=0
shrinkage=0.05


Tree=15
num_leaves=31
num_cat=0
split_feature=23 53 61 23 53 17 35 20 53 56 58 26 36 40 35 55 26 17 59 51 58 59 27 60 17 23 56 52 49 55
split_gain=9.33302 4.42033 4.57261 4.61909 4.26506 3.00852 3.61349 3.24829 2.92318 2.84651 3.13189 3.0168 2.47638 2.44847 3.23189 2.39898 2.27267 2.2342 2.21075 2.11996 2.21601 2.11196 3.4636 2.07792 2.30703 2.29093 2.03947 2.46379 2.19643 2.68424
threshold=0.002511543404800452 24.357015700032417 0.85504201680672276 0.031401105972155528 23.794546116467064 0.071696993882852764 1.3316029266393651e-10 23.693742377306698 23.346960746261278 -87.962876698502996 -27.702621982279997 -1.0757742654329447 0.27160866211685447 0.26187163211857595 2.5738226886776518e-10 -0.46104859371949997 1.0277125346372962 0.044279589552443745 -1.6944250067634996 200.22000000000003 -384.93555862062698 6.8891568719074998 1.9858896177592376 0.92582417582417598 0.054309638935917816 0.067850986353731324 24.755280290263503 2.2450000000000006 2.3402162260590607 15.288475796177503
decision_type=10 10 8 8 8 2 2 2 10 10 10 2 2 2 2 10 2 2 10 10 10 8 10 10 2 10 10 10 2 10
left_child=5 2 4 8 17 -1 9 16 13 -7 -11 12 -12 -4 -15 -13 -8 -2 -9 20 -19 -17 -23 25 -25 -5 -3 28 -28 -30
right_child=1 26 3 23 -6 6 7 18 -10 10 11 15 -14 14 -16 21 -18 19 -20 -21 -22 22 -24 24 -26 -27 27 -29 29 -31
leaf_value=0.00033278291549290241 0.00052104828921247827 -0.00093205478335830073 -1.4130093166839275e-05 -0.00042784561081145051 1.0986253291792903e-05 0.0096275932027381338 0.010761480906411797 -0.0029262522781014141 -0.00023790795591599936 -0.0027622739314382555 -0.0083944805667766891 0.0042771638169254124 0.0014503128288260003 8.6952816970301065e-05 0.0012652798362669442 0.00033314145648978734 0.0021220877129468452 0.010216273611428725 0.0047490883968976964 0.0056309931261135111 0.0012506159720875882 0.0019094966645232169 0.011658980033350272 -0.00044450233159600824 0.0027725051670989469 -0.0012273945060919719 0.00070690821473087058 -0.0019449346305201428 -0.00032546980221594113 0.010293541190900302
leaf_weight=129050 32834 20443 306759 46483 67135 94 254 160 154671 532 140 722 116 16898 8884 2274 111 70 225 313 4816 541 110 1270 990 11112 2230 832 103 138
leaf_count=129050 32834 20443 306759 46483 67135 94 254 160 154671 532 140 722 116 16898 8884 2274 111 70 225 313 4816 541 110 1270 990 11112 2230 832 103 138
internal_value=2.48304e-08 -7.56128e-05 -5.12082e-05 -0.000109261 0.000250723 0.000380691 0.00155088 0.00476708 -5.83253e-05 0.00101709 0.000833246 0.00132467 -0.00391521 2.51869e-05 0.00049318 0.00169395 0.00814915 0.000673768 0.00154642 0.00163727 0.00138029 0.00105449 0.00356609 -0.000523782 0.000962566 -0.000582194 -0.000745723 0.000406006 0.00119965 0.00573613
internal_weight=810310 675981 652235 547067 105168 134329 5279 750 487212 4529 4435 3903 256 332541 25782 3647 365 38033 385 5199 4886 2925 651 59855 2260 57595 23746 3303 2471 241
internal_count=810310 675981 652235 547067 105168 134329 5279 750 487212 4529 4435 3903 256 332541 25782 3647 365 38033 385 5199 4886 2925 651 59855 2260 57595 23746 3303 2471 241
is_linear=0
shrinkage=0.05


Tree=16
num_leaves=31
num_cat=0
split_feature=23 39 39 44 54 52 1 56 56 54 18 16 53 54 53 56 56 59 43 56 56 56 39 40 54 54 18 43 54 44
split_gain=8.43678 5.75387 4.61461 3.89611 3.53872 3.4383 3.13349 3.40346 3.38668 3.16999 3.04046 2.99872 2.60441 2.382 2.35996 2.35639 2.3493 2.32975 2.58122 2.32005 2.28458 2.54629 2.1156 2.09626 2.00616 2.00434 1.94291 1.90873 1.89647 2.9182
threshold=0.0016894506624210608 -0.27461441897098421 -0.038630781163724863 0.8367301100080059 4.6922500000000005 3.8050000000000002 -0.62100034532000892 14.037093564973501 15.897031490230502 23.795000000000005 0.033747780073661283 -0.16133187219449877 23.174401086643829 0.56500000000000006 23.737662140950189 39.750176830363507 2.4950412530125008 4.0261311985555013 -0.43053476580045613 -1.4004102065909998 -9.8487975696679992 -4.9946335687724988 -0.085229216286885554 0.19853214262576654 3.0150000000000001 8.6750000000000025 0.078362060736986552 -0.20748147878920045 5.0550000000000006 0.75901958179650342
decision_type=10 2 2 10 8 8 2 10 10 10 2 2 10 8 10 10 10 10 2 10 10 10 2 2 10 10 2 2 10 8
left_child=1 6 5 4 -4 14 -1 16 -9 15 -6 -7 19 20 23 -10 17 18 -8 -13 -3 -22 -15 -2 -18 -16 -24 -28 29 -26
right_child=2 13 3 -5 10 11 7 8 9 -11 -12 12 -14 22 25 -17 24 -19 -20 -21 21 -23 26 -25 28 -27 27 -29 -30 -31
leaf_value=-3.3096921357008066e-05 0.00054457870267882571 0.00040846110806694585 -8.9485470194092836e-05 -0.0019473629142120403 -0.00017637043872473679 0.00053529774809069281 0.0071655129109976477 0.0069449411973778775 0.0019989173983499899 -0.0008810478720203042 -0.00083978787918786166 -0.00015894059356532498 -0.0002314952479182227 0.00044948709139440505 -1.7743797856170755e-05 0.0048307088549283317 -0.0027235209871060355 0.0045718947940861301 0.0011346594360458621 0.00016632451372440742 0.006107575781372665 0.0016399151882985628 -7.3619430647613701e-06 0.0018437496026174804 0.0014665667740264266 0.00064913732725811139 0.0042453490894507747 -0.0030301262822869644 5.7205535822212411e-06 0.0097538373801324147
leaf_weight=4420 16100 4424 145273 3354 33007 21629 184 406 2810 714 36277 91288 150500 36280 41401 1001 514 625 5192 137224 371 2328 49682 3854 1091 15473 100 866 3804 118
leaf_count=4420 16100 4424 145273 3354 33007 21629 184 406 2810 714 36277 91288 150500 36280 41401 1001 514 625 5192 137224 371 2328 49682 3854 1091 15473 100 866 3804 118
internal_value=2.6432e-08 0.000396883 -6.55575e-05 -0.000256219 -0.000229759 2.14477e-05 0.0011478 0.00146523 0.00256522 0.00217101 -0.000523808 -3.7297e-05 -6.99864e-05 0.000230127 0.000327853 0.00274414 0.000994268 0.00167941 0.00134213 3.63628e-05 0.00110928 0.00225609 0.00015803 0.000795765 0.000249443 0.000163599 -5.06473e-05 -0.00227143 0.000555317 0.00228029
internal_weight=810310 114930 695380 217911 214557 477469 20879 16459 4931 4525 69284 400641 379012 94051 76828 3811 11528 6001 5376 228512 7123 2699 86928 19954 5527 56874 50648 966 5013 1209
internal_count=810310 114930 695380 217911 214557 477469 20879 16459 4931 4525 69284 400641 379012 94051 76828 3811 11528 6001 5376 228512 7123 2699 86928 19954 5527 56874 50648 966 5013 1209
is_linear=0
shrinkage=0.05


Tree=17
num_leaves=31
num_cat=0
split_feature=23 39 39 44 54 18 28 16 60 54 35 35 53 55 53 62 18 62 39 54 51 58 18 9 50 20 55 47 46 28
split_gain=7.67545 5.04215 4.17261 3.52924 3.12171 3.23679 2.90728 2.84324 2.44767 2.43748 2.79508 2.4193 2.40072 2.31567 2.18761 2.18427 2.15614 2.04284 1.997 1.86569 1.82621 1.81256 2.04225 1.80086 1.77752 1.75125 1.70381 1.69566 1.69083 1.68592
threshold=0.002511543404800452 -0.33422656713151738 -0.052027863725712491 0.8367301100080059 4.245000000000001 0.040808269991521116 -0.15356452711885227 -0.16598465449160565 0.62132352941176483 -11.769999999999998 2.3476636692121285e-11 8.2605279037672731e-12 23.311897010821323 -2.55353297496 23.802396719030465 0.70412457912457926 0.065569716590662921 0.913664596273292 -0.45057423132510016 12.905000000000003 31.555000000000003 -19.718988544562496 0.04121572915683875 -0.66655926987622938 0.5465354931972809 45.154074221624732 13.490249706431003 0.043311607511627451 50.72268253532058 -0.077380111886607109
decision_type=10 2 2 10 8 2 2 2 8 8 2 2 10 10 10 10 2 8 2 10 10 10 2 2 2 2 10 2 2 2
left_child=1 13 7 4 6 -6 20 16 14 10 26 19 -7 21 -9 -15 -2 -13 -10 -11 -4 25 -23 -20 -25 -1 -3 28 -24 -16
right_child=2 9 3 -5 5 12 -8 8 18 11 -12 17 -14 15 29 -17 -18 -19 23 -21 -22 22 27 24 -26 -27 -28 -29 -30 -31
leaf_value=0.0012428172811169834 0.00049050777369958893 -0.0035159879925303721 0.00042240940518207333 -0.0017993766159914893 -0.00023999835449863929 -0.00015068808796445184 -0.00012942970652077333 0.00094864941829782875 0.00040026495679944762 -0.00010682197004985008 0.0057043562464722808 0.0003860601497687429 -0.001168748656679385 -1.9490400946768463e-05 -0.00017692025415615744 0.0013799430608882734 0.0030082224349473078 -0.00010895838946874418 -0.00073490349126219972 -0.0021030163999363658 0.0021525742328288703 0.0010469477548600155 0.0038227896590075274 4.8973462245924645e-06 -0.00029057234716657734 -0.0082440543767212139 0.0058589115490891757 0.0025333425969291091 0.0091944921941151982 0.00060941412156366014
leaf_weight=573 20029 180 9557 3515 65547 8111 151267 11604 23782 3122 424 85912 20347 4020 17224 9049 889 27498 9999 1878 1818 517 284 257590 63427 53 66 440 313 11275
leaf_count=573 20029 180 9557 3515 65547 8111 151267 11604 23782 3122 424 85912 20347 4020 17224 9049 889 27498 9999 1878 1818 517 284 257590 63427 53 66 440 313 11275
internal_value=2.72339e-08 0.000345239 -6.8565e-05 -0.000225617 -0.000204043 -0.000433424 -7.1432e-05 2.96843e-05 -3.94402e-07 0.000235566 0.00324319 0.000218503 -0.000878762 0.00120135 0.00036985 0.000949101 0.000597762 0.000265991 -4.22575e-05 -0.00085762 0.000699388 0.00271118 0.00362663 -7.4066e-05 -5.34665e-05 0.000430441 -0.000979095 0.0049077 0.00664855 0.000134001
internal_weight=810310 134329 675981 260162 256647 94005 162642 415819 394901 119080 670 118410 28458 15249 40103 13069 20918 113410 354798 5000 11375 2180 1554 331016 321017 626 246 1037 597 28499
internal_count=810310 134329 675981 260162 256647 94005 162642 415819 394901 119080 670 118410 28458 15249 40103 13069 20918 113410 354798 5000 11375 2180 1554 331016 321017 626 246 1037 597 28499
is_linear=0
shrinkage=0.05


Tree=18
num_leaves=31
num_cat=0
split_feature=39 23 57 52 23 28 44 54 39 1 57 35 17 59 56 56 20 57 58 36 54 32 28 36 23 36 35 60 25 52
split_gain=7.23649 8.15881 3.54846 3.0793 2.96391 3.66293 2.82089 2.595 3.05003 3.12005 2.59715 3.58358 2.55546 2.40835 3.54516 2.54181 2.47117 2.97429 2.93685 2.04753 1.95069 2.64381 1.96795 1.87904 1.82468 1.81599 2.00714 1.78774 1.77313 1.60957
threshold=-0.10323731541161323 inf -23.069999999999997 2.6650000000000005 0.058687734741730668 -0.18174331904106997 0.69885375710306696 21.235000000000003 -0.46909579561044951 -1.3461959025129022 14.150000000000002 2.1721779629142271e-11 0.017218247849079285 -9.3173911270774976 15.063065492006503 10.652465628303002 35.6757516266401 1.4247000000000003 -10.874028227574497 0.55351159262220417 4.245000000000001 0.017005202604422356 -0.037299282358333762 0.57717843349906939 0.08274019777930329 0.3039639715229196 7.0312121219368457e-11 0.089572192513368995 0.22685688839128104 1.175
decision_type=2 8 10 8 10 2 10 10 2 2 10 2 2 10 10 10 2 10 10 2 8 2 2 2 10 2 2 10 2 8
left_child=1 3 -2 24 5 -4 27 8 9 -3 -10 -12 29 25 15 16 17 -15 19 -19 -14 22 -22 -5 -1 26 -11 -6 -18 -7
right_child=2 7 4 23 6 12 -8 -9 10 13 11 -13 20 14 -16 -17 28 18 -20 -21 21 -23 -24 -25 -26 -27 -28 -29 -30 -31
leaf_value=0.0006830253122947444 -0.0012446123574570481 -0.0019819914379986124 0.00057945252314702878 8.9300802520855151e-05 -0.00075579547306232312 0.0014282499169738564 -0.0021353941705931924 -0.00040525296682679906 0.00070195230807045352 0.0054071361850759198 -0.0019506287725106191 0.0097893079461630998 -4.5363073368837406e-05 0.00014419373690962447 0.0036205166107597837 -0.0042021063934200732 -0.0050505532478065888 0.017058439585123483 0.0029350965586839614 0.0036128939929233558 -0.00028639383609296734 -0.0012516764620642941 0.00022172324878563188 -0.00030489016931064389 0.0089502918304620125 0.0035819844801200798 0.016995229032160577 0.00085924902485115518 0.00082855291620866989 0.00023675768322353928
leaf_weight=17796 6928 460 19950 220856 8700 3506 3165 4134 37043 99 101 179 245683 1086 1908 229 234 67 994 51 156103 6494 21694 35023 67 400 62 2131 281 14886
leaf_count=17796 6928 460 19950 220856 8700 3506 3165 4134 37043 99 101 179 245683 1086 1908 229 234 67 994 51 156103 6494 21694 35023 67 400 62 2131 281 14886
internal_value=2.66158e-08 0.000184479 -0.000121012 7.96559e-05 -0.000104862 -8.34227e-05 -0.000821878 0.000790661 0.000905236 0.0019651 0.000738378 0.00553751 -0.000112929 0.0023016 0.00194116 0.000850242 0.00127868 0.0020102 0.00382791 0.0112975 -0.000137625 -0.000260595 -0.000224367 3.53269e-05 0.000714364 0.00540795 0.00990845 -0.000437569 -0.00183349 0.000464166
internal_weight=810310 321070 489240 273742 482312 468316 13996 47328 43194 5871 37323 280 448366 5411 4850 2942 2713 2198 1112 118 429974 184291 177797 255879 17863 561 161 10831 515 18392
internal_count=810310 321070 489240 273742 482312 468316 13996 47328 43194 5871 37323 280 448366 5411 4850 2942 2713 2198 1112 118 429974 184291 177797 255879 17863 561 161 10831 515 18392
is_linear=0
shrinkage=0.05


Tree=19
num_leaves=31
num_cat=0
split_feature=39 23 57 52 18 23 54 39 1 16 51 1 54 18 40 0 54 59 58 35 25 36 35 35 58 18 57 47 16 31
split_gain=6.54634 7.40438 3.08746 2.86384 2.53552 2.43378 2.3636 3.00879 2.81669 2.48148 2.33158 2.29675 2.19788 3.0943 3.04238 2.74614 2.63077 2.07295 2.20222 1.98399 2.63504 1.8677 1.91611 1.84853 3.60218 1.976 1.95406 2.32965 1.8348 2.1294
threshold=-0.088088624865436935 1.0000000180025095e-35 -23.069999999999997 3.6550000000000007 0.057228251926208847 0.058687734741730668 21.235000000000003 -0.46909579561044951 -1.3461959025129022 -0.15681491484465035 83.230000000000004 3.9630044111239875 5.8450000000000006 0.032662214842710112 0.26187163211857595 53.583220855917141 -11.769999999999998 -9.3173911270774976 21.446026291705504 4.545290180814624e-11 -0.21623816945285002 0.3039639715229196 6.286433277304421e-11 1.3087165077231793e-10 -10.874028227574497 0.070232002066165158 -3.4549999999999996 0.20417990734502087 -0.16133187219449877 0.0012575459876254982
decision_type=2 10 10 8 2 10 10 2 2 2 10 2 8 2 2 2 10 10 10 2 2 2 2 2 10 2 10 2 2 2
left_child=1 6 -2 4 -3 12 7 8 -1 -9 -6 17 14 15 -4 -14 -16 21 19 -19 -21 22 -10 24 26 -26 -22 -28 29 -5
right_child=2 3 5 28 10 -7 -8 9 11 -11 -12 -13 13 -15 16 -17 -18 18 -20 20 23 -23 -24 -25 25 -27 27 -29 -30 -31
leaf_value=-0.0018829133958531486 -0.0012496363760101871 0.00044702640243616214 -6.71952482414849e-05 -0.0081777447857196116 0.0023502451542632211 -0.00077747668660400231 -0.00037596885240703777 0.0020577667278421606 0.0035330807423126103 0.00055447794876745398 0.011080894388089312 -0.0055410820212141955 -0.00025572468884261514 -0.00051091047908875722 0.0033794487006222722 0.00041713604300766061 0.00041017246711546408 0.0030101878360150047 0.0045915283954164081 -0.0025562833792857581 0.00097816232010168569 0.0034277186718311165 0.01503961911462646 0.0039876106191747227 8.7499606344115335e-05 -0.006052388136301972 0.013872426244788301 0.0025032705097972532 -1.8092484313259109e-05 0.00055030370562771525
leaf_weight=460 6070 30009 264713 70 721 13402 4632 2953 66 39585 86 94 44406 64225 769 23026 25447 1473 696 498 154 396 84 547 1070 149 99 85 267181 17144
leaf_count=460 6070 30009 264713 70 721 13402 4632 2953 66 39585 86 94 44406 64225 769 23026 25447 1473 696 498 154 396 84 547 1070 149 99 85 267181 17144
internal_value=2.74961e-08 0.000155742 -0.000129677 6.37538e-05 0.0005216 -0.000114073 0.000702309 0.000805587 0.00186709 0.000658959 0.0032881 0.00218684 -9.30216e-05 -0.00026253 -1.62948e-05 -2.58886e-05 0.000497474 0.00232451 0.00198876 0.00154288 0.000710226 0.00524828 0.0100158 0.00148584 0.000603521 -0.000659321 0.00517161 0.00865174 1.41255e-05 0.000514474
internal_weight=810310 368252 442058 315211 30816 435988 53041 48409 5871 42538 807 5411 422586 131657 290929 67432 26216 5317 4771 4075 2602 546 150 2104 1557 1219 338 184 284395 17214
internal_count=810310 368252 442058 315211 30816 435988 53041 48409 5871 42538 807 5411 422586 131657 290929 67432 26216 5317 4771 4075 2602 546 150 2104 1557 1219 338 184 284395 17214
is_linear=0
shrinkage=0.05


Tree=20
num_leaves=31
num_cat=0
split_feature=23 39 6 28 1 51 23 35 15 58 54 39 35 54 17 56 59 1 60 55 47 57 0 57 17 57 54 7 58 55
split_gain=6.11169 3.79346 3.50779 3.29273 3.45027 3.2963 3.50625 3.27314 2.43177 2.87504 2.29001 2.28615 2.21684 4.09803 2.20552 2.15847 2.93289 2.0967 2.07915 2.03058 2.47053 2.19513 1.94681 1.93726 2.09536 1.8814 2.24039 2.65369 2.24788 1.99194
threshold=0.002511543404800452 -0.27461441897098421 0.6812247366114188 -0.1660479914174495 0.37949600230605751 16.395000000000003 0.026335946049720407 2.6221474152359642e-10 0.090043715297493679 31.435395479079503 9.5850000000000026 -0.088088624865436935 2.9544576557915087e-11 -11.769999999999998 0.069446587361959147 36.268552523147505 -1.995176827139 -0.052658383877488397 0.89087301587301593 22.561194991347005 0.34115268735226129 -21.814999999999994 47.530931414441959 -1.1149999999999995 0.078754612285590928 -21.814999999999994 13.435 1.098639205018699 -512.50477810957841 6.8852053265785012
decision_type=10 2 2 2 2 10 10 2 2 10 10 2 2 8 2 10 10 2 8 10 2 10 2 10 2 10 10 2 10 10
left_child=1 8 3 5 11 7 -7 -2 14 10 19 -5 25 -14 -1 -4 -17 -16 -13 21 -21 -10 -20 24 -9 -3 27 28 -27 -28
right_child=2 12 15 4 -6 6 -8 23 9 -11 -12 18 13 -15 17 16 -18 -19 22 20 -22 -23 -24 -25 -26 26 29 -29 -30 -31
leaf_value=0.00041888143801299292 -5.2517298888860695e-05 -0.0016588700001933443 -0.001708576277241835 5.9855608511088756e-05 -0.0005346088271832209 0.00052484120078268969 0.0025918712868843018 0.0001912010744160811 0.0070010925924781781 0.0059181312070558248 0.00014378653882795339 9.1330935774289364e-05 0.0060082510431123176 0.00031159791613580127 0.0010198002402840927 0.0058488496805234741 -0.00084078825515529639 0.0046321009577567933 -0.00038571896237165628 0.015796781188020338 0.0015284004584464714 0.0016981163364054681 -9.8648078668357915e-05 0.0012580064385430173 -0.0060574858716159995 -0.0063957829677645144 2.0762711579847023e-05 0.0047565827857528331 0.00019538112989051943 -0.001400347871595228
leaf_weight=15702 52111 1947 4795 236548 40729 7563 2820 4698 211 398 1926 71664 317 77309 1162 231 560 618 99205 61 62 2721 146099 8820 138 130 4957 318 21597 4893
leaf_count=15702 52111 1947 4795 236548 40729 7563 2820 4698 211 398 1926 71664 317 77309 1162 231 560 618 99205 61 62 2721 146099 8820 138 130 4957 318 21597 4893
internal_value=2.82477e-08 0.000308074 -6.11785e-05 -5.07737e-05 -9.04474e-05 0.000258759 0.00108674 0.000127963 0.00089485 0.00182498 0.0014968 -5.77559e-05 0.000187687 0.000334933 0.000608367 -0.00130897 0.00110699 0.00227696 -0.000145543 0.00234813 0.00865229 0.00208167 -0.000214765 0.000817033 1.17332e-05 -0.000149916 -5.76413e-05 0.000222301 0.000155685 -0.000684675
internal_weight=810310 134329 675981 670395 594245 76150 10383 65767 22861 5379 4981 553516 111468 77626 17482 5586 791 1780 316968 3055 123 2932 245304 13656 4836 33842 31895 22045 21727 9850
internal_count=810310 134329 675981 670395 594245 76150 10383 65767 22861 5379 4981 553516 111468 77626 17482 5586 791 1780 316968 3055 123 2932 245304 13656 4836 33842 31895 22045 21727 9850
is_linear=0
shrinkage=0.05


Tree=21
num_leaves=31
num_cat=0
split_feature=23 39 44 52 53 54 53 54 59 17 35 54 6 39 56 59 60 62 56 20 39 3 23 25 6 43 56 60 54 39
split_gain=5.56838 4.37136 3.35408 2.7593 3.38145 2.92499 2.61384 2.4669 2.63694 2.46198 2.25836 3.1167 2.14634 2.13523 2.58791 3.46022 2.12141 2.06166 2.98997 2.50729 2.25165 1.98586 2.0796 1.94137 3.58173 1.91354 2.19899 2.10292 1.84929 1.82103
threshold=inf -0.18061703758097067 0.47282692214580596 3.8650000000000007 23.61694787113019 -5.3249999999999993 23.414392648815834 10.705000000000002 22.124306344228504 0.020290471661533509 2.9544576557915087e-11 -11.769999999999998 0.049474046431771897 -0.46909579561044951 15.063065492006503 -7.4015216775719992 0.79128856624319432 0.83156028368794332 1.8878803219235001 35.913796922213216 -0.99550685065077327 93.155651346267206 0.073993194501003112 0.89944806952921497 0.3058937418142475 -0.33619456830498984 106.05500305370801 0.093841642228739017 8.9650000000000016 -0.080723672057673987
decision_type=8 2 10 8 10 8 8 10 10 2 2 10 2 2 10 10 10 10 10 2 2 2 10 2 2 2 10 8 10 2
left_child=2 7 3 4 5 -1 16 8 13 -6 -3 -12 -11 14 15 -2 21 18 -17 20 -19 22 29 -16 -25 27 -27 -8 -14 -5
right_child=1 10 -4 6 9 -7 25 -9 -10 12 11 -13 28 -15 23 17 -18 19 -20 -21 -22 -23 -24 24 -26 26 -28 -29 -30 -31
leaf_value=0.0059976734925390532 0.0049321857451668913 -0.00020145357594479271 -0.00056071583158938897 5.5160802700997035e-05 0.00064337677785637119 0.00071630828071146148 0.0095090252069912548 0.00026197151818610937 0.012127525096306217 -0.00019896298994399764 0.0058563656579486353 0.0003239301353260512 9.1213789824025988e-05 0.00089553251192170619 0.0054631972090474316 0.00059019811295264214 0.0037995854039272556 0.0063360190796397904 -0.0050923812038072549 -0.0030278940772452585 0.00093481378895088471 0.00032721982373096702 -0.0012458138657641543 0.0061707597955204209 -0.0059249332138844417 -0.00032869221441796733 0.00078014582097688022 0.00053356628363546578 0.00097986838827838585 -0.00017610590200947316
leaf_weight=266 553 30136 30859 211025 16110 19125 66 11336 55 61370 256 46030 24202 15048 828 892 365 364 312 183 416 38599 3601 128 117 137391 4619 5683 7729 142646
leaf_count=266 553 30136 30859 211025 16110 19125 66 11336 55 61370 256 46030 24202 15048 828 892 365 364 312 183 416 38599 3601 128 117 137391 4619 5683 7729 142646
internal_value=3.01725e-08 0.000336703 -5.09927e-05 -2.76059e-05 0.000180478 0.000789045 -7.68833e-05 0.000845672 0.00119558 7.25754e-05 0.000135292 0.00035465 -2.59302e-05 0.00116333 0.00222441 0.0014013 -9.94152e-06 0.00049776 -0.000878512 0.00222356 0.00346227 -1.34676e-05 -5.02889e-05 0.00430597 0.000373989 -0.000256363 -0.000292591 0.00063764 0.000306474 -3.81018e-05
internal_weight=810310 106654 703656 672797 128802 19391 543995 30232 18896 109411 76422 46286 93301 18841 3793 2720 396236 2167 1204 963 780 395871 357272 1073 245 147759 142010 5749 31931 353671
internal_count=810310 106654 703656 672797 128802 19391 543995 30232 18896 109411 76422 46286 93301 18841 3793 2720 396236 2167 1204 963 780 395871 357272 1073 245 147759 142010 5749 31931 353671
is_linear=0
shrinkage=0.05


Tree=22
num_leaves=31
num_cat=0
split_feature=39 23 57 17 28 23 62 36 16 18 31 63 17 35 6 44 44 17 1 58 57 56 55 28 56 7 58 35 27 28
split_gain=5.20522 5.65298 2.84284 2.49915 3.10421 2.5112 1.83578 1.82265 2.15597 2.10834 1.96225 1.81113 1.79891 1.75344 1.8203 1.90214 1.72068 2.77332 2.42702 2.0625 2.00277 1.88651 1.7371 1.97651 1.71803 1.80453 1.718 2.77434 1.74866 1.66566
threshold=-0.10323731541161323 1.0000000180025095e-35 -23.069999999999997 0.063443501294264251 -0.1660479914174495 0.0087311227464444054 0.096006144393241177 0.56099086863628955 -0.16598465449160565 0.064329587535706084 1.0000000180025095e-35 0.19292803970223329 0.017218247849079285 2.4297581440942493e-11 0.010101010101010057 0.28140458866875778 0.35849504560196394 0.074539317817428785 -0.6672579323809803 6.0907020994635008 -13.764999999999997 -25.056190004228998 1.563061324203 -0.2434015172839398 134.43503757663353 0.4954891400558516 -18.759611863335994 2.8449996166895375e-10 1.3783766947118508 -0.039322426820548144
decision_type=2 10 8 2 2 10 10 2 2 2 2 2 2 2 2 10 8 2 2 10 10 10 10 2 10 2 8 2 10 2
left_child=1 6 -2 4 -4 12 -1 8 9 11 -9 -3 -6 24 15 -15 17 20 -18 -19 -8 -20 -21 -24 -7 -26 27 29 -29 -22
right_child=2 7 3 -5 5 13 16 10 -10 -11 -12 -13 -14 14 -16 -17 18 19 21 22 26 -23 23 -25 25 -27 -28 28 -30 -31
leaf_value=0.0046085892013871584 -0.0011755933046913429 -8.4737730924393302e-05 0.00044565213036697204 -0.00081675334155816579 0.00051635629591002873 -0.0009943979737635849 -0.00064357650215021364 -0.010030154331629175 8.6922881652855031e-05 0.0035666856367835239 -0.00022376174117468516 0.0011437616987049119 -2.6827602587154039e-05 -0.00029341033594366403 -4.7659279707516099e-05 -0.0012481448910021886 -0.000354195510199774 0.0010260609213747298 -0.0024982300640935158 0.0098301180203794747 0.0010502800453838195 0.001779205841615127 0.00082167371036294574 0.0082168708260972542 8.2515483783343439e-06 0.0092028286856766384 0.00039655367200862915 0.0033337572941751874 0.015191010962177882 0.0063476713558468763
leaf_weight=293 6097 5315 27353 11519 16419 9323 4062 51 219427 634 41448 6867 212619 96275 103882 5520 1921 729 266 144 3691 7425 263 139 149 84 28112 70 58 155
leaf_count=293 6097 5315 27353 11519 16419 9323 4062 51 219427 634 41448 6867 212619 96275 103882 5520 1921 729 266 144 3691 7425 263 139 149 84 28112 70 58 155
internal_value=3.26774e-08 0.000156471 -0.000102622 -8.90707e-05 -7.12869e-05 -0.000103125 0.000661051 6.92139e-05 0.000123766 0.000754174 -0.000235958 0.000607361 1.20899e-05 -0.000225753 -0.000194961 -0.000345233 0.000636344 0.000482856 0.0012334 0.00277529 0.000401852 0.00163059 0.00510102 0.00339256 -0.000887986 0.00334701 0.000534358 0.00150789 0.00875327 0.00126523
internal_weight=810310 321070 489240 483143 471624 444271 47328 273742 232243 12816 41499 12182 229038 215233 205677 101795 47035 37423 9612 1275 36148 7691 546 402 9556 233 32086 3974 128 3846
internal_count=810310 321070 489240 483143 471624 444271 47328 273742 232243 12816 41499 12182 229038 215233 205677 101795 47035 37423 9612 1275 36148 7691 546 402 9556 233 32086 3974 128 3846
is_linear=0
shrinkage=0.05


Tree=23
num_leaves=31
num_cat=0
split_feature=39 23 52 28 17 6 56 58 59 58 35 28 57 17 23 39 16 63 23 6 21 59 62 56 57 35 62 50 17 59
split_gain=4.7448 5.03681 2.41872 2.30327 2.60241 2.9866 2.53195 2.21284 3.09668 2.84236 2.16602 2.7571 2.06288 2.05843 1.95278 1.8773 1.94955 2.16188 1.82326 1.80276 2.2318 1.81905 3.31999 2.03734 2.63699 2.40011 2.53223 2.18066 2.13821 2.10089
threshold=-0.055165816844142006 inf 3.8050000000000002 -0.15655286437653157 0.036965471963611746 0.016458300776162841 119.75183594745802 56.280774546609507 4.7339709922255011 39.122350811194003 7.8719024068607245e-11 -0.21488915651902399 -18.214999999999996 0.06236001523478537 0.096901434199079373 -0.46909579561044951 -0.13653142389643069 0.12632978723404256 0.0046730358061141042 -0.23436151974645761 -0.10020601744377415 -7.0239201317749993 0.35825892857142866 26.654149860588003 4.531200000000001 2.8856489875665691e-11 0.74754901960784326 0.21309222952418985 0.048715314415111448 22.124306344228504
decision_type=2 8 8 2 2 2 10 10 10 10 2 2 10 2 10 2 2 2 8 2 2 8 10 10 10 2 10 2 2 10
left_child=1 2 -1 14 5 18 -6 8 9 -8 19 -12 -4 -10 -2 -14 17 -17 -5 -3 -21 22 -22 29 27 28 -27 -25 -26 -23
right_child=3 10 12 4 6 -7 7 -9 13 -11 11 -13 15 -15 -16 16 -18 -19 -20 20 21 23 -24 24 25 26 -28 -29 -30 -31
leaf_value=0.00032611831527785474 0.00043164485003343786 0.0012645137095486064 -0.00064803669718112474 0.00012960996495744203 -0.0004325413014418591 0.00018557584576958325 -0.00084191870096090356 0.00035645852845988895 0.011004144645222284 0.011331637125668148 0.0034242757359534736 0.00085378968047454388 0.00046107419777956498 -0.00026218223572313618 -0.0022954053966856643 -0.00036365895939327868 -6.07662194741375e-05 0.00060894538578402783 -0.00033126433333010414 -0.0001587742279788065 0.0073016205809258265 0.00016229382221307425 0.0011838204933173734 -0.0039998905710933374 0.0011383067206901154 -0.0012356261028816386 0.0040918516471916758 0.0029036175672060354 -0.0023856010162246113 0.0085405294331868074
leaf_weight=60505 21043 5030 12440 27802 101830 69154 327 3015 171 56 1149 11517 21389 52 677 7658 300129 22441 93865 18821 238 22555 3326 120 757 341 638 2195 994 75
leaf_count=60505 21043 5030 12440 27802 101830 69154 327 3015 171 56 1149 11517 21389 52 677 7658 300129 22441 93865 18821 238 22555 3326 120 757 341 638 2195 994 75
internal_value=3.25809e-08 9.72773e-05 3.33753e-05 -0.000150507 -0.000186953 -7.67599e-05 -0.000386307 0.000912491 0.00367012 0.000927469 0.000497615 0.00108739 -1.52639e-05 0.00835567 0.000346404 7.10921e-06 -2.22793e-05 0.000361322 -0.000225909 0.000361925 0.000271131 0.000530301 0.00159396 0.000393137 0.00130189 0.000247179 0.00223117 0.00254345 -0.000859296 0.000190319
internal_weight=810310 492318 424562 317992 296272 190821 105451 3621 606 383 67756 12666 364057 223 21720 351617 330228 30099 121667 55090 50060 31239 3564 27675 5045 2730 979 2315 1751 22630
internal_count=810310 492318 424562 317992 296272 190821 105451 3621 606 383 67756 12666 364057 223 21720 351617 330228 30099 121667 55090 50060 31239 3564 27675 5045 2730 979 2315 1751 22630
is_linear=0
shrinkage=0.05


end of trees

feature_importances:
amihud_illiq=56
roe=55
profit_growth=49
total_mv_log=47
turnover_5d=43
vwap_dev=41
atr_14=39
roe_qoq=38
profit_growth_accel=32
low_distance_60d=26
max_drawdown_20d=24
price_range_10d=23
revenue_growth=23
revenue_growth_accel=20
mom_60d=19
pb=17
ma_alignment=15
roe_ind_rank=14
macd_hist=13
adx_14=13
pe_ind_rank=13
volatility_20d=12
volume_volatility=10
upper_shadow=8
pe_ttm=8
pb_ind_rank=8
high_distance_60d=7
close_ma60_dev=5
return_kurtosis_20d=5
boll_bandwidth=5
intraday_intensity=5
updown_vol_ratio=4
return_skew_20d=3
return_extremes_ratio=3
amount_volatility=3
mom_20d_ind_rank=3
rsi_14=2
obv_slope=2
kdj_j=1
mom_20d=1
macd_hist_delta=1
turnover_pctile=1
return_autocorr=1
lower_shadow=1
mfi_14=1

parameters:
[boosting: gbdt]
[objective: regression]
[metric: l1]
[tree_learner: serial]
[device_type: cpu]
[data_sample_strategy: bagging]
[data: ]
[valid: ]
[num_iterations: 1000]
[learning_rate: 0.05]
[num_leaves: 31]
[num_threads: 0]
[seed: 42]
[deterministic: 0]
[force_col_wise: 0]
[force_row_wise: 0]
[histogram_pool_size: -1]
[max_depth: -1]
[min_data_in_leaf: 50]
[min_sum_hessian_in_leaf: 0.001]
[bagging_fraction: 0.8]
[pos_bagging_fraction: 1]
[neg_bagging_fraction: 1]
[bagging_freq: 0]
[bagging_seed: 43]
[bagging_by_query: 0]
[feature_fraction: 0.8]
[feature_fraction_bynode: 1]
[feature_fraction_seed: 44]
[extra_trees: 0]
[extra_seed: 12879]
[early_stopping_round: 0]
[early_stopping_min_delta: 0]
[first_metric_only: 0]
[max_delta_step: 0]
[lambda_l1: 0.1]
[lambda_l2: 0.1]
[linear_lambda: 0]
[min_gain_to_split: 0]
[drop_rate: 0.1]
[max_drop: 50]
[skip_drop: 0.5]
[xgboost_dart_mode: 0]
[uniform_drop: 0]
[drop_seed: 17869]
[top_rate: 0.2]
[other_rate: 0.1]
[min_data_per_group: 100]
[max_cat_threshold: 32]
[cat_l2: 10]
[cat_smooth: 10]
[max_cat_to_onehot: 4]
[top_k: 20]
[monotone_constraints: ]
[monotone_constraints_method: basic]
[monotone_penalty: 0]
[feature_contri: ]
[forcedsplits_filename: ]
[refit_decay_rate: 0.9]
[cegb_tradeoff: 1]
[cegb_penalty_split: 0]
[cegb_penalty_feature_lazy: ]
[cegb_penalty_feature_coupled: ]
[path_smooth: 0]
[interaction_constraints: ]
[verbosity: -1]
[saved_feature_importance_type: 0]
[use_quantized_grad: 0]
[num_grad_quant_bins: 4]
[quant_train_renew_leaf: 0]
[stochastic_rounding: 1]
[linear_tree: 0]
[max_bin: 255]
[max_bin_by_feature: ]
[min_data_in_bin: 3]
[bin_construct_sample_cnt: 200000]
[data_random_seed: 175]
[is_enable_sparse: 1]
[enable_bundle: 1]
[use_missing: 1]
[zero_as_missing: 0]
[feature_pre_filter: 1]
[pre_partition: 0]
[two_round: 0]
[header: 0]
[label_column: ]
[weight_column: ]
[group_column: ]
[ignore_column: ]
[categorical_feature: ]
[forcedbins_filename: ]
[precise_float_parser: 0]
[parser_config_file: ]
[objective_seed: 16083]
[num_class: 1]
[is_unbalance: 0]
[scale_pos_weight: 1]
[sigmoid: 1]
[boost_from_average: 1]
[reg_sqrt: 0]
[alpha: 0.9]
[fair_c: 1]
[poisson_max_delta_step: 0.7]
[tweedie_variance_power: 1.5]
[lambdarank_truncation_level: 30]
[lambdarank_norm: 1]
[label_gain: ]
[lambdarank_position_bias_regularization: 0]
[eval_at: ]
[multi_error_top_k: 1]
[auc_mu_weights: ]
[num_machines: 1]
[local_listen_port: 12400]
[time_out: 120]
[machine_list_filename: ]
[machines: ]
[gpu_platform_id: -1]
[gpu_device_id: -1]
[gpu_use_dp: 0]
[num_gpu: 1]

end of parameters

pandas_categorical:null
