tree
version=v4
num_class=1
num_tree_per_iteration=1
label_index=0
max_feature_idx=63
objective=regression
feature_names=rsi_14 macd_hist boll_pctb kdj_j vol_price_ratio mom_20d mom_60d volatility_20d rsi_delta macd_hist_delta boll_pctb_delta mom_accel volume_trend close_ma5_dev close_ma20_dev close_ma60_dev ma_alignment atr_14 price_range_10d williams_r adx_14 obv_slope amount_ratio turnover_5d turnover_pctile return_skew_20d return_kurtosis_20d updown_vol_ratio max_drawdown_20d return_autocorr close_position upper_shadow lower_shadow body_ratio gap_5d amihud_illiq volume_volatility mom_5d mom_10d vwap_dev boll_bandwidth vol_price_corr consecutive_days high_distance_60d low_distance_60d vol_ratio_5_60 mfi_14 intraday_intensity cci_20 return_extremes_ratio amount_volatility pe_ttm pb total_mv_log roe revenue_growth profit_growth roe_qoq profit_growth_accel revenue_growth_accel pe_ind_rank pb_ind_rank roe_ind_rank mom_20d_ind_rank
feature_infos=[6.2312152261198719:98.591896791320849] [-40.700733096573948:31.28574880094056] [-0.55685951330981898:1.5558073316154197] [-27.414595182808739:129.25790416582021] [0.0028196469890109234:345.08940569756777] [-0.6422535211267606:4.4903943377148625] [-0.85079365079365077:17.000000000000004] [0.018307570293210198:3.4297662684674211] [-55.466418825462256:58.145365080303407] [-39.792345194171567:42.833252893125163] [-1.5705568987991558:1.6525703438214996] [-4.4283955111942293:0.71768408724930488] [0.0028311073735106831:3.9607287591963716] [-0.3074119076549211:0.54684095860566462] [-0.4524639123942259:1.3949222076012076] [-0.67996473440599514:2.5083123425692695] [-0.67274508736595717:2.412124265323258] [0.005291641762174345:0.33241457626258047] [0:0.23467727651846876] [-100:0] [5.7950993173888525:81.133287804604123] [-1.0979750682115199:1.4193876568575852] [0.0010067312041592759:14.247746679691518] [0.0002137669675732196:3.7920000000000003] [0:0.98333333333333328] [-4.1107504054589077:4.1085979113369229] [-1.9409985022827958:14.955273745122955] [0.0024322186315994376:725.30507940764119] [-0.62396694214876025:0] [-0.81143948152597778:0.90002290925541928] [0.01052631578947393:1] [0:0.084370173763094913] [0:0.079397566326317129] [0:0.96704563569699853] [-0.12896749439985983:0.20795731510044008] [8.3908933457844325e-13:7.437411050895681e-08] [0.098288111961247857:4.1824664201794279] [-0.41943734015345269:1.5719035743973402] [-0.50021177467174915:2.5847632120796153] [-0.99924171036670417:1.4494151049287969] [0.011654899874268952:2.7500420247644883] [-0.94789454096527948:0.97666883023900497] [-28:21] [-0.86435786435786433:0] [0:26] [0:3.1217410502874268] [0:100] [-0.8384641022444419:0.9428967425282706] [-595.92326139087936:579.09604519773586] [-0.90708661417323011:19.408861572332693] [0.10001159081067376:3.3981063218463565] [-7159.9700000000003:9731.5799999999999] [-78:1650.72] [19.460075441305538:26.695119338405277] [-381.31:247.19] [-797.92349967492203:20238.869956644801] [-8303997.5854256898:47154.854950655099] [-446.52000000000004:384.5] [-8303993.1009503743:8303998.6237557875] [-20233.810947637394:20248.167456230927] [0.029411764705882353:1] [0.029411764705882353:1] [0.019230769230769232:1] [0.019230769230769232:1]
tree_sizes=3083 3166 3208 3178 3186 3157 3196 3186 3183 3172 3174 3175 3156 3163 3179 3168 3166 3159 3185 3162 3164 3147 3138 3156 3169 3176 3184 3182 3156 3149 3137 3175 3161 3184 3161 3128 3182 3116 3178 3138 3132 3152 3135 3137 3141 3128 3117 3177 3164 3124 3191 3107 3054 3150 3076 3183 3145 3125 3102 3114 3103 3141 3102 3143 3168 3120 3124 3121 3168 3133 3102 3164 3052 3134 3115 3107 3132 3100 3118 3131 3099 3017 3080 3106 3104 3130 3073 3103 3147 3009 3121 3116 3129 3182 3141 3123 3104 3127 3077 3058 3089 3074 3093 3064 3062 3093 3012 3091 2996 2967 3051 3128 3069 3146 3061 3069 3138 3094 3079 3054 3022 3066 3024 2998 3083 3091 3008 3064 3122 3149 2991 3021 3031 3127 3002 3082 3013 3020 3061 3015 3035 3062 2971 3008 3093 3115 3023 3039 3115 3028 3048 3031 3034 3061 3080 3014 3140 2972 3107 3069 3087 3196 3095 3023 2967 3044 3006 3071 3105 3100 3030 2983 3065 3064 3053 3044 3087 3036 3020 3087 2997 3024 2989 3150 3025 3050 3042 3078 3142 3022 2971 3075 3072 2933 3060 3155 3050 3040 3081 3004 3003 3020 3007 3055 3083 3024 2947 3092 3132 2993 3045 2978 3003 3019 3113 2982 3092 3107 3066 3049 2992 3124 3054 3006 3026 2987 3125

Tree=0
num_leaves=31
num_cat=0
split_feature=53 52 53 39 35 35 7 51 53 39 35 7 16 53 60 16 56 57 35 7 16 43 54 15 16 28 56 57 59 6
split_gain=83.874 35.2257 67.3606 32.7226 25.0251 22.5899 14.9 14.5852 13.0877 12.9908 12.9915 12.1939 11.6049 11.1587 11.1112 10.3797 9.32739 6.99436 6.94926 6.65012 6.43803 6.40648 6.1534 6.15191 6.04914 6.02555 5.91799 11.6233 5.7403 7.954
threshold=22.98924803064638 6.3050000000000006 23.800132766013153 -0.17804181772165042 4.4363144578243168e-11 4.1510927902144097e-10 0.38407932645466686 42.135000000000012 23.618502246186402 -0.52880755565169602 1.4079081373194243e-10 0.49270389895059447 -0.14680764494447276 23.383602987903867 0.56458333333333344 -0.18470496542774686 99.26415609341251 9.5450000000000035 2.7391820543171819e-11 0.18065532888658065 -0.26936123550858393 -0.3130636279273219 0.42200000000000004 0.27523865124287344 -0.18470496542774686 -0.14147492756929955 82.156451113361513 4.0099999999999998 6.6638869071525004 0.21808939180754175
decision_type=10 8 10 2 2 2 2 8 10 2 2 2 2 10 8 2 10 10 2 2 2 2 10 2 2 2 10 10 10 2
left_child=3 2 8 9 21 7 19 -5 23 10 16 18 -13 -6 -11 -16 17 22 -9 -4 -7 -3 -1 25 -15 -2 -23 28 -28 -30
right_child=1 4 6 5 13 20 -8 11 -10 14 -12 12 -14 24 15 -17 -18 -19 -20 -21 -22 26 -24 -25 -26 -27 27 -29 29 -31
leaf_value=0.0013387551523393448 0.010554972843577278 0.006610883606277769 0.0079410362035283906 0.012430164680428762 0.0066564057107903543 0.013989779848830292 0.0053463190209508604 0.0062272032133207532 0.0076672736369545243 0.019216914197972897 0.01232183532345562 0.0089737268319203759 0.0063752448905482631 0.0088969308840525247 0.010746034211051126 0.0079100415888540589 0.018931653315876866 0.0035964230845122493 0.0073652649771461329 0.006458735673397718 0.0082251998691246671 0.0047043576589035161 0.0092374978238139172 0.014932001414479885 0.0057980846983335275 0.0087380413642417724 0.0072666213659051439 0.0036087791299903205 0.0068380574388408888 0.017217598379286207
leaf_weight=254 5934 5978 8999 1265 103522 490 32138 14585 25385 225 3846 4562 73693 1607 3438 52773 224 647 166618 47486 44463 42258 7969 470 75750 19879 1246 1573 320 433
leaf_count=254 5934 5978 8999 1265 103522 490 32138 14585 25385 225 3846 4562 73693 1607 3438 52773 224 647 166618 47486 44463 42258 7969 470 75750 19879 1246 1573 320 433
internal_value=0.00694753 0.00641661 0.00704237 0.00747551 0.00603931 0.00725299 0.00620585 0.00707449 0.00847729 0.00845586 0.00988499 0.00704836 0.00652679 0.00631686 0.00812809 0.00808359 0.00885381 0.00859862 0.00727363 0.00669498 0.00828816 0.00507038 0.00899284 0.00925944 0.00586253 0.00915593 0.00486955 0.00682529 0.00935388 0.0128006
internal_weight=748030 372978 140291 375052 232687 305676 88623 260723 51668 69376 12940 259458 78255 180879 56436 56211 9094 8870 181203 56485 44953 51808 8223 26283 77357 25813 45830 3572 1999 753
internal_count=748030 372978 140291 375052 232687 305676 88623 260723 51668 69376 12940 259458 78255 180879 56436 56211 9094 8870 181203 56485 44953 51808 8223 26283 77357 25813 45830 3572 1999 753
is_linear=0
shrinkage=1


Tree=1
num_leaves=31
num_cat=0
split_feature=53 52 53 23 53 39 18 35 40 39 15 39 23 56 28 17 57 17 6 53 18 56 35 6 53 59 44 55 43 15
split_gain=76.471 36.9062 73.5869 39.0499 28.9973 25.3638 24.1152 17.6145 12.7108 11.6114 10.9858 10.5002 8.85006 10.24 8.69081 8.53626 8.88455 7.72096 7.63143 7.20509 7.01348 6.46173 6.38921 5.37909 4.97996 4.58401 5.55041 4.55525 4.42657 4.33579
threshold=23.904653599897475 19.160000000000004 23.170151513512327 0.050765015181891991 23.618502246186402 -0.48504241578269541 0.033006108892904902 4.0415094848705185e-10 0.20504212775860561 -0.26305150643050823 -0.12174891850809048 -0.14163871060613922 0.033504592349566757 75.711122708984519 -0.046950290430115039 0.089294068439476321 7.8750000000000009 0.023869861769701458 -0.41798677398197032 23.195567630705103 0.053896008013269429 28.127673124220003 3.0239753304305714e-11 0.61534757971926968 23.439463292224335 4.756512534865502 0.3432735216334179 12.260305496054002 -0.34070149710171116 -0.18898347294093007
decision_type=10 8 10 10 10 2 2 2 2 2 2 2 10 10 2 2 8 2 2 10 2 10 2 2 10 10 10 10 2 2
left_child=1 4 3 5 8 15 17 11 -1 -5 -8 21 24 23 22 16 -3 -2 -9 -10 -12 28 -13 -14 -4 -15 -27 -23 -7 -11
right_child=6 2 12 9 -6 7 10 18 19 29 20 14 13 25 -16 -17 -18 -19 -20 -21 -22 27 -24 -25 -26 26 -28 -29 -30 -31
leaf_value=0.0017589643984789777 0.00057439219917751678 0.0028639893438837734 -0.00046996539534325046 0.0014548912604915943 0.00043654858159077129 0.001957938519028085 0.00027974490879766257 0.0067168164054624644 0.0064626569814779482 0.0031091065021242072 -0.0016988898936516146 -0.00076271981764811591 -0.001805061449214835 -0.0012364443300098089 0.0007770628595011929 0.0075548462784282471 -0.00096305383233898079 -0.00078055058644867182 0.0012344920302101293 0.0031724732595364499 -0.0029140971231978912 0.0030074568788477519 0.00012724925208912783 -0.0038285204945516858 -0.0011639216219250651 -0.00052953346478110239 0.0060036129799602459 0.00066631774721467006 0.00053136392466734386 -0.0016384776516555966
leaf_weight=22866 14770 10916 58081 3564 47169 6074 5500 643 2202 488 40074 22576 17621 1010 48068 835 1759 36462 51765 6873 16901 5542 188936 4045 46643 563 765 3334 52212 29773
leaf_count=22866 14770 10916 58081 3564 47169 6074 5500 643 2202 488 40074 22576 17621 1010 48068 835 1759 36462 51765 6873 16901 5542 188936 4045 46643 563 765 3334 52212 29773
internal_value=0 0.000214044 7.00715e-05 0.000386326 0.00122441 0.000526758 -0.00119404 0.000450886 0.00238773 -0.00124374 -0.00185345 0.000314377 -0.000977663 -0.00184375 0.000170177 0.00265568 0.00233249 -0.000389828 0.00130186 0.00397143 -0.00205946 0.000871631 3.22333e-05 -0.00218308 -0.000779095 0.0012986 0.00323032 0.00212866 0.000680117 -0.00156174
internal_weight=748030 634323 555213 426485 79110 392660 113707 379150 31941 33825 62475 326742 128728 24004 259580 13510 12675 51232 52408 9075 56975 67162 211512 21666 104724 2338 1328 8876 58286 30261
internal_count=748030 634323 555213 426485 79110 392660 113707 379150 31941 33825 62475 326742 128728 24004 259580 13510 12675 51232 52408 9075 56975 67162 211512 21666 104724 2338 1328 8876 58286 30261
is_linear=0
shrinkage=0.05


Tree=2
num_leaves=31
num_cat=0
split_feature=35 23 39 39 23 17 43 22 35 35 39 60 44 57 39 56 23 54 54 44 16 32 28 56 35 57 57 23 16 59
split_gain=51.3505 31.8543 23.3441 22.3413 20.2415 17.6172 16.7281 11.4111 10.2668 9.04465 8.63158 6.7454 6.69625 6.41082 6.41062 6.5503 6.00046 10.8895 5.54654 5.3843 6.4607 5.29949 4.89696 4.88063 5.42476 4.69844 4.62835 4.59605 4.58276 4.35541
threshold=1.7572465120198416e-10 0.061944626819377971 -0.52880755565169602 -0.10436031616146456 0.061944626819377971 0.026330289735378858 -0.3836654429352504 2.7712677264429399 3.6526737452019559e-11 4.8938506083195295e-10 -0.16574027128852295 0.60303030303030314 0.77331943549701365 -7.4749999999999988 -0.52880755565169602 146.07130605010801 1.0000000180025095e-35 -10.579999999999998 21.435000000000006 0.35754624811195229 -0.15929611733688598 0.012073031071344041 -0.052582788510556221 13.605309344799503 6.6751859677090393e-11 -10.774999999999997 3.5449999999999995 0.0042440276477909962 -0.26936123550858393 -5.5949341615234989
decision_type=2 10 2 2 8 2 2 2 2 2 2 8 10 8 2 10 10 10 10 10 2 2 2 8 2 10 10 10 2 8
left_child=1 3 -2 4 11 13 28 9 27 -8 -3 -1 -12 -5 15 -13 17 -10 19 20 -6 -9 -15 24 -18 -16 -27 -7 -4 -21
right_child=2 10 6 5 18 8 7 21 16 -11 12 14 -14 22 25 -17 23 -19 -20 29 -22 -23 -24 -25 -26 26 -28 -29 -30 -31
leaf_value=0.0010735649659275696 0.0050889240784154121 0.00041282775608732973 0.0058289884139361174 -0.00084998690460838912 0.0036800054073732112 -0.00065518397875539741 0.00044461515242506593 -0.00031213637149640262 0.010898234192221412 0.0013189878618114158 -0.0015194873056984574 0.0012727081033582248 -0.0031421630071188848 -3.2568641022065207e-06 -0.0011793659398103829 0.011123334070819743 -0.0010542538114363593 0.00031256240919582279 -0.00053341960916070304 0.0053109932103976376 0.00096963817158830876 -0.0028461301191230861 0.00088125987190686064 -2.463280889484539e-05 -0.00041657796977903855 0.00018681175473280934 -0.00064457596848864582 -0.0015631866789103917 0.0024906940189213557 0.002192272994827423
leaf_weight=13426 2940 4403 1416 10063 2435 25732 155493 5860 246 36535 24391 4795 8613 27092 11243 175 47032 19202 3393 1354 22828 3189 37007 47345 114839 51321 24841 30469 3794 6558
leaf_count=13426 2940 4403 1416 10063 2435 25732 155493 5860 246 36535 24391 4795 8613 27092 11243 175 47032 19202 3393 1354 22828 3189 37007 47345 114839 51321 24841 30469 3794 6558
internal_value=0 -0.000258147 0.000664802 -0.000153128 0.000376872 -0.000363308 0.000601722 0.000529216 -0.000542024 0.000610999 -0.00166567 2.63223e-05 -0.00194311 0.000323091 -0.000125833 0.00162078 -0.000393177 0.000446774 0.00139097 0.00158794 0.00123109 -0.00120573 0.000507334 -0.00047128 -0.000601888 -0.000225208 -8.42885e-05 -0.00114754 0.00339905 0.00272668
internal_weight=748030 538803 209227 501396 142369 359027 206287 201077 284865 192028 37407 105801 33004 74162 92375 4970 228664 19448 36568 33175 25263 9049 64099 209216 161871 87405 76162 56201 5210 7912
internal_count=748030 538803 209227 501396 142369 359027 206287 201077 284865 192028 37407 105801 33004 74162 92375 4970 228664 19448 36568 33175 25263 9049 64099 209216 161871 87405 76162 56201 5210 7912
is_linear=0
shrinkage=0.05


Tree=3
num_leaves=31
num_cat=0
split_feature=35 23 43 23 35 52 22 35 54 35 61 43 35 52 58 43 57 35 16 32 35 6 56 62 57 44 5 56 57 60
split_gain=46.344 28.7517 17.2573 17.0419 17.5518 14.5874 10.6017 9.50069 8.58724 8.50577 8.14383 6.50199 6.1222 5.93574 5.49449 4.99509 4.95096 4.88649 4.85762 4.84469 4.62503 4.48438 4.39469 5.57188 5.03581 4.62014 4.39247 4.36056 4.33655 4.283
threshold=1.7572465120198416e-10 0.060002516170619642 -0.3836654429352504 0.0021643270097212236 6.6068665452223825e-11 2.5450000000000004 2.7712677264429399 3.8988897059978604e-11 -10.579999999999998 4.5505488508366393e-10 0.73431372549019625 -0.35266170385030587 3.8387461444026951e-11 12.675000000000002 717.28695981225553 -0.26721355265867736 -1.7349999999999997 1.5217586527344639e-11 -0.17706665913394135 0.012545081429966848 2.1921891479885914e-11 0.50829837274345313 42.971417285729011 0.39791666666666675 -2.6264499999999988 0.77331943549701365 -0.043021691073216177 18.755772090332005 -4.714999999999999 0.50757575757575768
decision_type=2 10 2 10 2 8 2 2 8 2 8 2 2 8 10 2 8 2 2 2 2 2 8 10 8 10 2 10 8 8
left_child=1 3 -2 7 5 -5 9 15 -9 -4 -6 29 -13 17 18 -1 -12 -3 -10 -8 -15 -20 25 -24 -25 28 -19 -14 -22 -7
right_child=2 13 6 4 10 11 19 8 14 -11 16 12 27 20 -16 -17 -18 26 21 -21 22 -23 23 24 -26 -27 -28 -29 -30 -31
leaf_value=0.001232766746879786 0.003404227516707463 -0.0031806474601111866 0.00046015760714570041 0.00014799560755541068 0.00062787305235553563 0.0070550767764154827 -0.0002952310196388155 0.0091132035054842207 0.0040458101109899546 0.0012593452007517219 -0.00050932116879613329 -0.0015938662625588627 -0.0010062484381931876 -0.0034692823462815895 0.0079348713574448632 -0.00020475954928546216 7.3036965355572662e-06 0.0031951101802817844 0.00070181277597668992 -0.0027419706880367654 -0.0032287527931753007 0.00311279251977657 -0.0030760576296994897 0.0093589288308266443 0.00057282318348959415 -0.0031816784435592469 -0.00033581247256859944 -2.6858727559433543e-05 -0.0011648340055511802 0.00034042449890544103
leaf_weight=7065 5466 1261 151977 37190 39742 248 6105 326 1206 42649 66701 37871 54613 3878 281 41770 152115 1042 38093 3030 3052 2033 1102 174 2615 5297 5683 14365 15451 5629
leaf_count=7065 5466 1261 151977 37190 39742 248 6105 326 1206 42649 66701 37871 54613 3878 281 41770 152115 1042 38093 3030 3052 2033 1102 174 2615 5297 5683 14365 15451 5629
internal_value=0 -0.000245239 0.000631564 -0.00014242 -0.000280138 -0.000710571 0.00055716 0.000477246 0.00102923 0.000635312 -3.05474e-05 -0.000993869 -0.00108294 -0.00154286 0.000965753 3.10829e-06 -0.000150155 -0.000324307 0.000918233 -0.00110736 -0.00185096 0.000824098 -0.00162413 -6.49543e-05 0.00112308 -0.00187882 0.00021058 -0.000802359 -0.00150556 0.000624738
internal_weight=748030 538803 209227 499248 408474 149916 203761 90774 41939 194626 258558 112726 106849 39555 41613 48835 218816 7986 41332 9135 31569 40126 27691 3891 2789 23800 6725 68978 18503 5877
internal_count=748030 538803 209227 499248 408474 149916 203761 90774 41939 194626 258558 112726 106849 39555 41613 48835 218816 7986 41332 9135 31569 40126 27691 3891 2789 23800 6725 68978 18503 5877
is_linear=0
shrinkage=0.05


Tree=4
num_leaves=31
num_cat=0
split_feature=35 39 23 39 23 17 16 12 61 35 35 35 57 39 58 51 59 23 54 57 7 39 57 39 17 58 58 61 16 18
split_gain=41.8253 27.1521 25.0716 20.9724 17.4149 15.1335 13.748 10.1612 8.58289 8.07498 6.91446 6.36663 5.66661 5.38566 5.37989 4.85797 4.68531 4.62892 8.83408 4.56179 4.50439 4.47565 4.45417 4.45044 4.41902 4.34058 4.64179 4.2794 4.23755 4.74249
threshold=1.7572465120198416e-10 -0.10436031616146456 0.056552476140348876 -0.52880755565169602 1.0000000180025095e-35 0.026330289735378858 -0.26936123550858393 1.791550667697084 0.85960591133004927 3.7143736405627276e-11 4.4056268991994062e-10 2.0193216147722061e-11 -7.4749999999999988 -0.52880755565169602 34.074198680608006 92.385000000000005 1.8366128892795006 1.0000000180025095e-35 -10.579999999999998 7.365000000000002 0.51341778895425094 -0.44429952803862488 -10.774999999999997 -0.99607806227802309 0.070808103848153392 -12.028321470736499 0.96424817140400065 0.21651785714285718 -0.16425390515091165 0.067623518028602309
decision_type=2 2 10 2 10 2 2 2 8 2 2 2 8 2 10 8 10 10 10 8 2 2 10 2 2 8 8 8 2 2
left_child=1 4 5 -2 14 12 -5 10 -6 -7 -8 -4 -3 -10 19 -13 -16 18 -11 21 -9 25 -15 -18 -17 -1 -27 -19 29 -24
right_child=3 2 11 6 8 9 7 20 13 17 -12 15 -14 22 16 24 23 27 -20 -21 -22 -23 28 -25 -26 26 -28 -29 -30 -31
leaf_value=0.0053197720765052704 0.0047933453952058846 -0.00079372862913333641 -0.0034290335812470936 0.0052331318498330922 0.0010379448402541166 -0.0010286113034371706 0.0004297575700396327 0.0001530659587094009 0.0013632213459132121 0.0098974731751727864 0.0011391523861776253 7.8813536164037328e-05 0.00048238005003406004 -0.001144673832768882 0.0063332093128986786 -0.0013646906264720808 0.011192647221137912 0.00079780719708797017 0.0002644816198461217 -0.00039646923065643979 -0.0017322563788914908 0.001051282149043972 0.00078405763886279102 0.0010355551902745334 -0.0029171633051832692 0.00027085826004708647 0.0035244525277377224 -0.00047125935364504892 -0.00021632424075511327 0.0062658895208611582
leaf_weight=1179 2940 10063 4734 1549 17870 56438 147170 5874 5491 241 44828 4399 64091 12038 937 20330 117 6871 18773 4297 6866 24252 5401 1394 5930 2196 2196 197593 71546 426
leaf_count=1179 2940 10063 4734 1549 17870 56438 147170 5874 5491 241 44828 4399 64091 12038 937 20330 117 6871 18773 4297 6866 24252 5401 1394 5930 2196 2196 197593 71546 426
internal_value=3.65261e-10 -0.000232976 -0.000452773 0.000599986 0.000340199 -0.000325919 0.000540196 0.000504663 3.26905e-05 -0.000494174 0.000595415 -0.00172166 0.000309139 -0.000156547 0.00128838 -0.00145786 0.00355344 -0.000359182 0.000386893 0.00112572 -0.000862609 0.00134521 -0.000249937 0.00182604 -0.00171547 0.0026238 0.00189884 -0.000428588 -0.000110665 0.00118578
internal_weight=748030 538803 389463 209227 149340 354070 206287 204738 112772 279916 191998 35393 74154 94902 36568 30659 2448 223478 19014 34120 12740 29823 89411 1511 26260 5571 4392 204464 77373 5827
internal_count=748030 538803 389463 209227 149340 354070 206287 204738 112772 279916 191998 35393 74154 94902 36568 30659 2448 223478 19014 34120 12740 29823 89411 1511 26260 5571 4392 204464 77373 5827
is_linear=0
shrinkage=0.05


Tree=5
num_leaves=31
num_cat=0
split_feature=53 52 53 23 53 18 53 17 15 40 17 53 6 54 50 17 23 56 6 41 53 16 18 57 53 55 6 53 22 59
split_gain=61.0528 33.7575 57.1854 28.4244 25.5708 19.1783 13.1486 9.30256 9.27579 7.9614 7.871 7.35882 6.81808 6.12211 6.74293 6.08105 5.91275 9.20712 5.68964 5.77604 5.68019 5.6491 5.60152 5.53458 5.18589 4.60251 4.21931 4.15806 4.1461 4.10206
threshold=23.904653599897475 19.160000000000004 23.170151513512327 0.050765015181891991 23.420237671977887 0.033006108892904902 21.830342439094242 0.081853645198333561 -0.12174891850809048 0.20934750449966397 0.05831444131982292 21.561512073330693 0.81266025641025652 20.505000000000006 0.57288231856285521 0.023130146977973508 0.033011572484805719 75.711122708984519 -0.19319062945557949 -0.026441826185934915 23.629747252536259 -0.26936123550858393 0.053896008013269429 -0.63539999999999996 22.886106102475349 7.7774196633480006 0.61534757971926968 23.439463292224335 2.0713913258091003 4.756512534865502
decision_type=10 8 10 10 10 2 8 2 2 2 2 10 2 10 2 2 10 10 2 2 10 2 2 8 10 8 2 10 2 10
left_child=1 4 3 6 9 15 12 13 -7 -1 20 -5 21 14 24 -2 27 26 -9 -20 -6 -3 -10 -11 -8 -15 -18 -4 -13 -19
right_child=5 2 16 11 10 8 7 18 22 23 -12 28 -14 25 -16 -17 17 29 19 -21 -22 -23 -24 -25 -26 -27 -28 -29 -30 -31
leaf_value=0.002262276864341791 0.00058471294748335722 0.0060542899559241532 -0.00042260853696032781 0.0014604448727436213 0.0013468271732459984 0.0003051624910198199 0.00060235056833732 0.0074004737436457807 -0.0015219765451722116 0.0023231935720043292 0.0028142067706170724 -0.00098767855134959171 0.010671965397642121 0.00018141263823278953 -7.0924184534077649e-05 -0.00066725398110919858 -0.0015583817283379329 -0.00099790397689656501 -0.0012244022967386982 0.0034323051286343047 0.00028224396636722116 0.0013022963178322381 -0.0026080706733417748 0.0060230091106026626 8.3701505493283235e-05 -0.0018223203816461907 -0.0033427457054863714 -0.0010582604385176995 -0.0024369690050778645 0.003200343734990431
leaf_weight=9540 12991 640 57822 2669 17687 5500 219798 582 40074 1516 4268 24998 200 5889 66560 38241 18063 1020 956 2184 43033 28513 16901 3066 61763 5575 4066 46407 6158 1350
leaf_count=9540 12991 640 57822 2669 17687 5500 219798 582 40074 1516 4268 24998 200 5889 66560 38241 18063 1020 956 2184 43033 28513 16901 3066 61763 5575 4066 46407 6158 1350
internal_value=3.99839e-09 0.000191261 5.35665e-05 0.000332359 0.00115757 -0.00106689 0.000452173 0.000369913 -0.00165494 0.00308606 0.000738422 -0.00105836 0.00147015 0.000344156 0.000381604 -0.000349692 -0.000870053 -0.00156917 0.0028569 0.00201294 0.000592428 0.00140681 -0.00184425 0.00480006 0.000488598 -0.000792584 -0.00188648 -0.000705675 -0.0012743 0.00139143
internal_weight=748030 634323 555213 426485 79110 113707 392660 363307 62475 14122 64988 33825 29353 359585 348121 51232 128728 24499 3722 3140 60720 29153 56975 4582 281561 11464 22129 104229 31156 2370
internal_count=748030 634323 555213 426485 79110 113707 392660 363307 62475 14122 64988 33825 29353 359585 348121 51232 128728 24499 3722 3140 60720 29153 56975 4582 281561 11464 22129 104229 31156 2370
is_linear=0
shrinkage=0.05


Tree=6
num_leaves=31
num_cat=0
split_feature=35 39 23 39 23 28 43 52 24 35 39 35 17 56 32 35 57 18 58 55 59 44 57 52 23 54 57 44 59 18
split_gain=35.0753 24.1076 22.1064 16.4213 15.2382 14.5052 12.6458 9.39484 8.19807 8.18548 6.47729 5.96592 5.81236 5.43875 5.23272 5.02815 4.94885 6.32856 4.73349 4.53729 4.36743 4.33964 4.26564 4.07036 4.19635 7.8741 4.60152 4.04014 4.70003 4.85411
threshold=1.8853070371613063e-10 -0.10299411093628756 0.06880495799098911 -0.58550436975864972 1.0000000180025095e-35 -0.046950290430115039 -0.3836654429352504 7.8950000000000005 0.94166666666666676 6.6068665452223825e-11 -0.52880755565169602 4.8938506083195295e-10 0.063683188803062188 146.07130605010801 0.012073031071344041 1.3936610002924407e-10 0.12000000000000056 0.030701703716734523 34.074198680608006 -7.0042581283019993 1.8366128892795006 0.73925360266042639 5.8550000000000013 2.5450000000000004 0.0019534336538394705 0.55500000000000016 22.340000000000003 0.36243976765590796 -5.8478251474394991 0.057869772644285077
decision_type=2 2 10 2 10 2 2 8 10 2 2 2 2 10 2 2 8 2 10 10 10 10 8 8 10 10 10 10 8 2
left_child=1 4 5 -2 18 9 -5 12 11 19 13 -8 -6 15 -10 -9 -7 -18 22 -3 -20 -4 27 -21 25 26 -25 -1 -29 -30
right_child=3 2 21 6 7 16 8 10 14 -11 -12 -13 -14 -15 -16 -17 17 -19 20 23 -22 -23 -24 24 -26 -27 -28 28 29 -31
leaf_value=0.0010152609323197139 0.0050450733335523357 -0.0017015003581869496 -0.0013840140519836286 0.00303775986615427 0.00067869531281621184 -0.00016567799320736686 0.00041873867751005206 0.0004542195731981032 -1.3047617595904924e-06 -0.00023514421094833916 -0.00028723994611488355 0.0011508307685119496 0.0034613411364685987 0.0096019047385631478 -0.0019527494419825616 0.0044269740392475559 0.0010721281050282477 -0.00025637766196363637 0.0059783512528268808 -7.5864459192663175e-06 0.0016632344957511873 -0.002783948476691377 -3.1475657058897186e-05 0.0018956352250688768 -0.0010370324949242533 -0.00056488479528024333 0.012644058908268765 0.0054959704862953445 0.0034913321702769564 0.00038914460341391911
leaf_weight=21507 2041 11678 17782 4920 23339 30036 133238 4473 10959 172139 87929 35192 2042 198 5007 970 29780 12817 952 19495 1539 8058 7142 2406 64275 31874 104 1063 2365 2710
leaf_count=21507 2041 11678 17782 4920 23339 30036 133238 4473 10959 172139 87929 35192 2042 198 5007 970 29780 12817 952 19495 1539 8058 7142 2406 64275 31874 104 1063 2365 2710
internal_value=5.35012e-09 -0.000200728 -0.000406254 0.00058398 0.000326043 -0.000308668 0.000535857 4.95608e-05 0.000469073 -0.000461266 -0.000181823 0.000571733 0.00090278 0.00146044 -0.000613607 0.00116319 0.000325688 0.000672277 0.00120814 -0.000761032 0.00331455 -0.00182078 0.00105715 -0.000668035 -0.000798489 -0.000352426 0.00234347 0.00133858 0.00247059 0.00183582
internal_weight=748030 556673 400444 191357 156229 374604 189316 118951 184396 301971 93570 168430 25381 5641 15966 5443 72633 42597 37278 129832 2491 25840 34787 118154 98659 34384 2510 27645 6138 5075
internal_count=748030 556673 400444 191357 156229 374604 189316 118951 184396 301971 93570 168430 25381 5641 15966 5443 72633 42597 37278 129832 2491 25840 34787 118154 98659 34384 2510 27645 6138 5075
is_linear=0
shrinkage=0.05


Tree=7
num_leaves=31
num_cat=0
split_feature=53 52 53 53 17 16 17 35 50 17 53 40 34 56 6 57 35 18 50 15 18 53 35 53 36 16 17 0 29 57
split_gain=53.5176 33.7594 48.0297 21.0987 17.1324 13.7708 10.3406 9.8386 10.0283 7.76153 7.70117 7.0652 6.05186 5.55448 7.20474 5.0386 5.01153 4.74436 4.70546 4.4329 4.9183 4.30057 4.29007 6.83645 4.84934 3.88692 3.88112 6.09638 3.80229 3.69449
threshold=23.876134067481797 17.535000000000004 23.170151513512327 23.420237671977887 0.027120909653685146 -0.16425390515091165 0.064956865078992593 4.1510927902144097e-10 0.57288231856285521 0.058740913684341249 24.32378356630198 0.20934750449966397 -0.0034662472276557701 70.569419485713013 0.61534757971926968 -0.63539999999999996 3.7143736405627276e-11 0.058358198304982824 1.3378302983657422 -0.1396483854816882 0.045866272936102105 23.629747252536259 3.9567119716338659e-11 21.770640121468514 0.78073791591104802 -0.074772287795678863 0.039350600028032472 45.215348669511279 0.31581516079312705 -1.7349999999999997
decision_type=10 8 10 10 2 2 2 2 2 2 10 2 2 10 2 8 2 2 2 2 2 10 2 10 2 2 2 2 2 8
left_child=1 3 5 11 -2 6 29 8 12 21 19 -1 -7 14 16 28 -4 -12 -9 -6 -21 -5 24 -24 -14 -19 27 -25 -13 -3
right_child=4 2 13 9 10 7 -8 18 -10 -11 17 15 22 -15 -16 -17 -18 25 -20 20 -22 -23 23 26 -26 -27 -28 -29 -30 -31
leaf_value=0.0021548420393506114 0.00018590540629186134 -0.00023833095035350881 -0.0017942137517053655 0.0012755074102249386 0.00046830808829800922 -0.00018401450070991743 0.0038328296889441546 0.00097581057743299749 -0.00035636114156414417 0.0029809979348224915 -0.0017304668282464781 0.0016019512948907437 -0.00017402099917705855 0.00051866960315484316 -0.0026978086527197874 0.0057177412271340157 -0.00069153103870543448 0.0028841009056122017 -0.0026994856575218275 -0.00080898331156687212 -0.0017241523439032566 0.00033203801950805277 0.0011336037776423227 6.6433278676132306e-05 0.0048343636213150579 -0.00401855348335395 -1.1561604705884204e-05 0.00082022069895977372 0.013012529629610007 0.0015788765599154921
leaf_weight=9522 25679 4144 11466 17710 4758 53915 4263 48528 75153 3754 20602 1439 34681 7472 5249 3057 102325 215 886 44568 21922 38054 34577 44484 490 3676 49166 67622 77 8576
leaf_count=9522 25679 4144 11466 17710 4758 53915 4263 48528 75153 3754 20602 1439 34681 7472 5249 3057 102325 215 886 44568 21922 38054 34577 44484 490 3676 49166 67622 77 8576
internal_value=6.7678e-09 0.000186182 5.22708e-05 0.00119208 -0.000960741 0.000306071 0.00170126 0.000248197 0.000157392 0.000780027 -0.00126834 0.00293165 0.000292914 -0.000803276 -0.000886295 0.00454797 -0.000802687 -0.00203337 0.000909805 -0.00100527 -0.0011108 0.000631764 0.00040424 0.000495553 -0.000104089 -0.00363579 0.000358722 0.00052116 0.00218563 0.000986465
internal_weight=748030 626610 552997 73613 121420 426485 16983 409502 360088 59518 95741 14095 284935 126512 119040 4573 113791 24493 49414 71248 66490 55764 231020 195849 35171 3891 161272 112106 1516 12720
internal_count=748030 626610 552997 73613 121420 426485 16983 409502 360088 59518 95741 14095 284935 126512 119040 4573 113791 24493 49414 71248 66490 55764 231020 195849 35171 3891 161272 112106 1516 12720
is_linear=0
shrinkage=0.05


Tree=8
num_leaves=31
num_cat=0
split_feature=53 52 53 23 53 17 28 53 17 53 53 54 17 57 56 16 28 53 28 23 17 16 2 57 26 23 56 23 57 53
split_gain=48.3116 27.6879 44.281 23.5538 20.5879 15.1914 9.77996 8.64134 7.6571 6.73112 6.26312 6.23529 6.99887 5.45954 5.41934 6.7513 5.1823 5.01748 4.88575 5.39195 4.49807 4.2151 4.20231 4.01668 4.00667 3.90989 3.89934 4.79433 3.79589 3.90605
threshold=23.904653599897475 19.160000000000004 23.170151513512327 0.044207146753477311 23.557996171235718 0.02786779610480555 -0.26784489290692765 21.830342439094242 0.055074843612331198 21.561512073330693 24.394606628273518 20.505000000000006 0.081853645198333561 -0.75195000000000001 25.739183325474002 0.1956847658861002 -0.031082065552682395 23.383602987903867 -0.35200334448160531 0.071357968044700307 0.063089193185428424 0.098633413307577897 0.41355053634261157 -56.089999999999989 -0.31120354726457305 0.058254618535194445 174.74358378471052 0.045160268413143446 -1.6299999999999994 22.902804718701763
decision_type=10 8 10 10 10 2 2 8 2 10 10 10 2 10 10 2 2 10 2 10 2 2 2 8 2 10 10 10 10 10
left_child=1 4 3 6 8 -2 -3 14 28 -5 22 12 13 21 23 -16 -15 -4 -11 -20 -6 -9 -7 -8 -10 -12 27 -19 -1 -30
right_child=5 2 17 9 20 10 7 11 24 18 25 -13 -14 16 15 -17 -18 26 19 -21 -22 -23 -24 -25 -26 -27 -28 -29 29 -31
leaf_value=0.00098658353391769095 0.00010399124642821709 0.0020684092582026726 -0.00042045225769940905 0.001356980983510805 0.00040448608564995535 -0.00059327550498591386 -0.004319679904080523 -5.3321987359379044e-05 0.0064383862817597344 0.0030091193360936015 -0.0018747009959955722 -0.00085816342624518238 0.0033802903541771457 0.00041832201131743337 0.0024884075021254161 0.012133355371138421 0.0014214024261356819 -0.00094653740021911805 -0.00058135633591068251 -0.0017808433943026513 0.0027445117256535219 0.00079990516445080069 -0.0013812230156379092 0.0010298067654265013 0.0030689122343200157 -0.0045031681130560212 0.0013944638089668799 -0.0021974251815075705 0.0054581852070655313 0.0021350554543669194
leaf_weight=7857 26314 8735 57631 3258 51982 29071 356 105365 1387 742 16182 11072 1892 199526 3721 191 13770 60727 22332 16163 2139 16779 40586 22583 2454 1554 1595 8775 955 12336
leaf_count=7857 26314 8735 57631 3258 51982 29071 356 105365 1387 742 16182 11072 1892 199526 3721 191 13770 60727 22332 16163 2139 16779 40586 22583 2454 1554 1595 8775 955 12336
internal_value=7.94584e-09 0.000170142 4.54386e-05 0.000290768 0.00104528 -0.000949054 0.000414387 0.000375872 0.00223238 -0.000826157 -0.00126618 0.000309243 0.000347575 0.000330454 0.00124022 0.00296089 0.000483103 -0.000767314 -0.00100756 -0.00108512 0.000497067 6.3846e-05 -0.00105245 0.000946549 0.00428708 -0.00210531 -0.00104841 -0.00110454 0.00185894 0.00237425
internal_weight=748030 634323 555213 426485 79110 113707 383990 375255 24989 42495 87393 348404 337332 335440 26851 3912 213296 128728 39237 38495 54121 122144 69657 22939 3841 17736 71097 69502 21148 13291
internal_count=748030 634323 555213 426485 79110 113707 383990 375255 24989 42495 87393 348404 337332 335440 26851 3912 213296 128728 39237 38495 54121 122144 69657 22939 3841 17736 71097 69502 21148 13291
is_linear=0
shrinkage=0.05


Tree=9
num_leaves=31
num_cat=0
split_feature=53 52 53 39 53 17 53 35 32 39 35 57 56 18 17 57 16 15 55 15 57 24 35 28 50 53 7 55 53 56
split_gain=43.7238 27.6297 39.5171 18.7375 17.7039 14.0749 10.478 9.27288 8.38802 7.10115 7.13845 7.06814 6.67189 6.57492 6.51087 6.06091 5.78203 5.68119 5.59115 5.3724 5.01231 4.87115 4.84707 4.67035 4.66389 4.5948 4.47978 4.88971 4.39981 4.30083
threshold=23.876134067481797 17.535000000000004 22.886106102475349 -0.18761260519574677 23.356776566332282 0.027120909653685146 23.383602987903867 4.1510927902144097e-10 0.010894704419375989 -0.48504241578269541 1.4079081373194243e-10 9.5450000000000035 99.26415609341251 0.053896008013269429 0.058740913684341249 -0.63539999999999996 -0.12042129354464604 -0.080157432224452083 -15.984160340278498 0.14723996622746452 2.4000000000000017 0.89166666666666672 2.6653355643521146e-11 -0.25999999999999995 0.46100700082982343 23.629747252536259 0.63417335208387404 -0.30804689520849993 22.310661624003597 28.127673124220003
decision_type=10 8 10 2 10 2 10 2 2 2 2 8 10 2 2 10 2 2 8 2 8 10 2 2 2 10 2 10 10 10
left_child=1 4 3 9 15 -2 26 8 22 10 11 12 18 -7 25 23 -11 -15 -3 -17 -19 -10 -5 -1 -24 -6 -4 -28 -9 -18
right_child=5 2 6 7 14 13 -8 28 21 16 -12 -13 -14 17 -16 19 29 20 -20 -21 -22 -23 24 -25 -26 -27 27 -29 -30 -31
leaf_value=0.0084974312062727608 0.00017090112612063216 -0.008152360374987502 -0.00013327292156364412 -0.00056678052009858325 0.0012224718398179183 -0.00094015086386570646 -0.00099681903808891237 0.0011830644443671125 -0.00026294582099470998 0.0022272545574119574 0.0038429745247875132 -0.0022316548255353129 0.010577559714258465 0.00065004349570913368 0.0026770468960188604 0.0034187339059143524 0.00043163650217902189 -0.0015875349064757181 0.0018433954762880245 0.0080444816458612924 -0.0033421534303525527 -0.0016159549439132609 0.00054289676375364113 0.0011470253364828863 -1.0513288626966608e-05 0.00029521190191650375 -0.0018619216059484701 -0.00026638655347993898 6.8798694728991716e-05 0.0018639443473680813
leaf_weight=228 25679 142 122775 16458 20605 76631 68854 31720 49885 6772 4325 1175 216 1855 4123 5679 34569 10646 8387 708 6609 7679 100723 4216 61177 38054 8373 11279 12306 6182
leaf_count=228 25679 142 122775 16458 20605 76631 68854 31720 49885 6772 4325 1175 216 1855 4123 5679 34569 10646 8387 708 6609 7679 100723 4216 61177 38054 8373 11279 12306 6182
internal_value=9.76269e-09 0.00016829 4.7144e-05 0.000379505 0.0010783 -0.00086839 -0.000490377 0.000205568 8.12335e-05 0.00116775 0.00214719 0.00140731 0.00189685 -0.00114719 0.000756122 0.0029453 0.00087405 -0.00197716 0.0016763 0.0039324 -0.00225989 -0.000443526 0.000250625 0.00152545 0.000333749 0.000621015 -0.00024551 -0.000946446 0.000871723 0.000649047
internal_weight=748030 626610 552997 341716 73613 121420 211281 279948 235922 61768 14245 9920 8745 95741 62782 10831 47523 19110 8529 6387 17255 57564 178358 4444 161900 58659 142427 19652 44026 40751
internal_count=748030 626610 552997 341716 73613 121420 211281 279948 235922 61768 14245 9920 8745 95741 62782 10831 47523 19110 8529 6387 17255 57564 178358 4444 161900 58659 142427 19652 44026 40751
is_linear=0
shrinkage=0.05


Tree=10
num_leaves=31
num_cat=0
split_feature=53 61 53 23 39 53 18 16 17 15 57 35 40 55 56 17 23 56 57 43 57 17 55 57 47 53 50 17 39 32
split_gain=39.5317 22.1482 36.8181 19.7558 17.3769 17.2826 13.5351 9.17059 7.18965 7.11884 6.87453 6.7966 6.19351 5.82531 5.73741 5.70467 5.46136 6.90424 5.05652 4.89921 4.59325 4.55867 4.5573 4.52297 4.46868 4.36729 4.33405 4.27182 4.25633 4.55923
threshold=23.913474661587426 0.063508064516129045 23.121468432619672 0.071357968044700307 -0.48504241578269541 23.383602987903867 0.033161127094702911 -0.16425390515091165 0.063089193185428424 -0.11747230558882342 6.7400000000000011 2.6257024288759145e-10 0.20934750449966397 -4.2377165252479996 146.07130605010801 0.060046286250463994 0.071357968044700307 75.711122708984519 -20.159999999999993 -0.4779933669310813 -9.4749999999999961 0.089294068439476321 18.082570441373502 -0.63539999999999996 0.090342588896497114 23.670035143929585 0.33536618526504408 0.020393795430965502 -0.099217194712878973 0.010894704419375989
decision_type=10 10 10 10 2 10 2 2 2 2 8 2 2 10 10 2 10 10 10 2 8 2 10 8 2 10 2 2 2 2
left_child=1 2 3 4 10 12 27 8 -6 -8 14 13 -3 -9 21 25 20 -18 -15 -5 -4 -1 -12 -14 -19 -7 -23 -2 -20 -30
right_child=6 5 16 19 7 15 9 11 -10 -11 22 -13 23 18 -16 -17 17 24 28 -21 -22 26 -24 -25 -26 -27 -28 -29 29 -31
leaf_value=0.0022271210415276896 0.00084657315965962199 0.0018606452309409235 -0.0013941128108536985 0.0079404664214617043 0.00084781404930472058 0.0010286054415332457 0.00030650506798505584 -0.00037668261341403933 0.0033279708038571458 -0.0015478358122289681 0.0011563915013811424 0.00059766391710746594 0.0019222528341069187 -0.0011087884472754841 0.011966952620145108 0.0024486487711468706 -0.0024947080032222285 -0.0010383066980119296 0.00058995245964182062 -0.0014422161885641242 -0.00047205420974397156 0.0117499609271182 -0.0032704420470977408 0.0054461593491407848 0.0060347430076640894 0.00018104486648471874 0.0034145289154179194 -0.00045541159447919446 0.00025488868884908144 -0.00043981398359621224
leaf_weight=10529 7372 8082 15205 140 11264 24560 5709 50130 3950 54950 1973 97034 1383 6919 162 4007 6761 491 68124 17294 121452 247 824 2696 408 39924 430 43247 112902 29861
leaf_count=10529 7372 8082 15205 140 11264 24560 5709 50130 3950 54950 1973 97034 1383 6919 162 4007 6761 491 68124 17294 121452 247 824 2696 408 39924 430 43247 112902 29861
internal_value=1.07919e-08 0.000151968 3.96574e-05 0.000280517 0.000353346 0.000926295 -0.000869471 0.000289264 0.00149208 -0.00137323 0.00207291 0.00023911 0.00266341 0.000109239 0.0026193 0.000617784 -0.000647558 -0.00194699 0.000221102 -0.00136654 -0.000574684 0.00248361 -0.000146042 0.00425267 0.00216646 0.000503934 0.00646434 -0.000265694 0.000264758 0.000109546
internal_weight=748030 636752 556100 411783 394349 80652 111278 380184 15214 60659 14165 364970 12161 267936 11368 68491 144317 7660 217806 17434 136657 11206 2797 4079 899 64484 677 50619 210887 142763
internal_count=748030 636752 556100 411783 394349 80652 111278 380184 15214 60659 14165 364970 12161 267936 11368 68491 144317 7660 217806 17434 136657 11206 2797 4079 899 64484 677 50619 210887 142763
is_linear=0
shrinkage=0.05


Tree=11
num_leaves=31
num_cat=0
split_feature=53 16 23 53 61 61 53 18 18 53 39 53 35 57 39 16 28 56 44 57 61 53 59 57 19 39 59 28 43 55
split_gain=35.8916 20.1223 18.2367 17.2172 17.0788 15.0381 12.1145 11.7072 11.6241 11.5934 10.9108 8.13886 7.9971 7.0922 6.73835 6.06391 5.09986 4.86441 5.24108 4.85769 4.60425 4.28121 5.30288 4.16856 4.14542 3.94386 3.67891 3.53411 3.52081 3.51532
threshold=24.053199914335966 -0.17706665913394135 0.044207146753477311 22.721885611801032 0.041958041958041967 0.10566188197767147 23.618502246186402 0.036624972140286517 0.066773712151398365 23.366032606345854 -0.48504241578269541 23.670035143929585 4.2001131634539713e-11 9.5450000000000035 -0.44429952803862488 -0.095925953754550264 -0.24665624295760744 75.711122708984519 0.85756130208185033 -2.1549999999999994 0.70156250000000009 22.920020278566291 22.299875222476004 -2.3949999999999991 -76.923076923076835 -0.098050022844485871 -22.479097863074998 -0.04425225543761345 -0.11647578221883047 -11.807686312142998
decision_type=10 2 10 10 10 10 10 2 2 10 2 10 2 8 2 2 2 8 10 10 8 10 10 8 2 2 8 2 2 8
left_child=1 8 3 10 9 14 -6 28 23 27 13 19 25 -3 16 -9 -4 18 -16 -7 -14 29 -23 -1 -22 -12 -27 -5 -2 -19
right_child=7 2 5 4 6 11 -8 15 -10 -11 12 -13 20 -15 17 -17 -18 21 -20 -21 24 22 -24 -25 -26 26 -28 -29 -30 -31
leaf_value=-3.3103937579790754e-05 -0.00091414837436327328 0.0024196257968025409 -0.0043513297181871358 -0.00018206542728771075 0.0013897414403710657 0.0001592348334714276 0.00012709489739321482 0.00018330952804932084 0.004684278424719893 -0.00084329110935225503 0.00044543426937827422 -5.5939321516973833e-05 0.0051371774091874501 -0.0017961665427584984 -0.0010613647014596508 -0.0019232538778421729 0.0025906958118233239 0.009011696671089215 -0.0025755494521529057 0.0040956416134268533 0.00016115282098003975 0.0010592154632666096 0.0084255256967364286 0.0017045749549079961 0.0006657262719679299 0.0036384659712762066 -0.00057224713307694813 0.00044983008023432506 1.576802934430511e-06 -0.0015246351416063298
leaf_weight=4857 21025 9976 305 132440 26616 1113 66398 3829 2795 71446 16628 5654 542 1107 44828 31361 1972 82 6557 2671 56971 2091 277 11878 142834 527 31610 26563 20940 2137
leaf_count=4857 21025 9976 305 132440 26616 1113 66398 3829 2795 71446 16628 5654 542 1107 44828 31361 1972 82 6557 2671 56971 2091 277 11878 142834 527 31610 26563 20940 2137
internal_value=1.32595e-08 0.000117474 7.0049e-05 0.000160153 -8.33956e-05 -0.000706834 0.000488457 -0.00102126 0.00169888 -0.000314229 0.000462941 0.00114439 0.000394622 0.00199808 -0.00100687 -0.0016939 0.00165848 -0.00111539 -0.00125468 0.00293917 0.000534394 0.000443897 0.00192333 0.00119995 0.000521881 -0.000179518 -0.000503031 -7.64695e-05 -0.000457095 -0.00113264
internal_weight=748030 670875 651345 583658 323463 67687 93014 77155 19530 230449 260195 9438 249112 11083 58249 35190 2277 55972 51385 3784 200347 4587 2368 16735 199805 48765 32137 159003 41965 2219
internal_count=748030 670875 651345 583658 323463 67687 93014 77155 19530 230449 260195 9438 249112 11083 58249 35190 2277 55972 51385 3784 200347 4587 2368 16735 199805 48765 32137 159003 41965 2219
is_linear=0
shrinkage=0.05


Tree=12
num_leaves=31
num_cat=0
split_feature=53 61 53 23 53 17 53 43 53 40 16 26 17 23 43 23 57 17 54 27 18 15 56 56 54 17 18 56 54 54
split_gain=32.6703 20.8799 30.1413 17.1031 13.3859 11.2245 9.27776 9.58946 6.38871 5.39154 5.28142 5.31206 5.18203 4.80967 4.5423 4.37692 4.23413 4.20078 6.12389 4.4351 3.94456 5.50025 3.92896 4.84928 4.59636 3.80662 3.79244 3.78335 5.25197 3.75619
threshold=23.876134067481797 0.063508064516129045 23.238296085890557 0.064077038678457279 23.356776566332282 0.025143319451602624 22.684038645275596 -0.42133405578052813 24.394606628273518 0.20934750449966397 0.15095844950658813 -0.15717960920534432 0.056394779823582632 0.029279513393316595 -0.4779933669310813 0.12126147035604927 1.8799999999999999 0.056055372379936207 0.10250000000000002 0.46855971779104655 0.04657433686827097 -0.099114826728612535 13.605309344799503 15.678974165245501 10.355000000000002 0.079548965866440752 0.067623518028602309 70.569419485713013 11.185 21.435000000000006
decision_type=10 10 10 10 10 2 10 2 10 2 2 2 2 10 2 10 10 2 10 8 2 2 10 10 8 2 2 10 10 8
left_child=1 2 3 6 9 -2 7 -1 20 -3 13 17 -6 25 -5 27 -11 19 -19 -12 -7 -22 24 -24 -13 -9 -10 -4 -29 -8
right_child=5 4 15 14 12 8 29 10 26 16 11 22 -14 -15 -16 -17 -18 18 -20 -21 21 -23 23 -25 -26 -27 -28 28 -30 -31
leaf_value=0.0027171438329422377 0.00034819895186248887 0.0017540366543993919 -0.00074828254462961036 0.0065006633713170269 0.00051977760965692674 -0.00054980915152033052 1.498031048830394e-05 0.00042028803336032703 -0.0015720691094821913 0.0026770480817680607 0.015493173333480541 0.0017904274235194398 0.0021746829833865357 -0.00028182613114356258 -0.0011568115628327383 -0.0032096189616788681 0.0061116034161242082 0.0022942716728040903 -0.0017322472111813735 0.0011075610343621158 0.00096568364737277589 -0.0015569220074880643 0.0076053857233839509 0.0024847740558783405 -0.0014423794733398818 0.0030054192857532202 -0.0040971610275540036 0.0012690722993468687 -0.0022482718635811541 -0.0017651086828525207
leaf_weight=4660 19501 7155 98916 195 57519 58697 147711 216687 17314 2169 54 6562 5157 26016 23269 1729 1541 1265 3717 6284 2395 21883 537 3388 1319 1434 1630 4952 1350 3024
leaf_count=4660 19501 7155 98916 195 57519 58697 147711 216687 17314 2169 54 6562 5157 26016 23269 1729 1541 1265 3717 6284 2395 21883 537 3388 1319 1434 1630 4952 1350 3024
internal_value=1.48049e-08 0.000145478 4.02215e-05 0.000220955 0.000936998 -0.000750634 0.000293908 0.000468323 -0.000960932 0.00255733 0.000429093 0.00115137 0.000656027 0.000360654 -0.00109293 -0.00071365 0.00410511 0.000376918 -0.000708828 0.00123116 -0.000771672 -0.00130786 0.0018935 0.0031868 0.00124872 0.000437308 -0.00178962 -0.000672584 0.000514778 -2.06993e-05
internal_weight=748030 626610 553069 446122 73541 121420 422658 271923 101919 10865 267263 23126 62676 244137 23464 106947 3710 11320 4982 6338 82975 24278 11806 3925 7881 218121 18944 105218 6302 150735
internal_count=748030 626610 553069 446122 73541 121420 422658 271923 101919 10865 267263 23126 62676 244137 23464 106947 3710 11320 4982 6338 82975 24278 11806 3925 7881 218121 18944 105218 6302 150735
is_linear=0
shrinkage=0.05


Tree=13
num_leaves=31
num_cat=0
split_feature=53 39 23 53 28 35 60 18 61 53 51 53 58 43 53 56 54 56 44 15 57 57 39 56 54 62 62 28 39 60
split_gain=29.8776 16.8051 16.4375 11.4376 9.0755 8.73245 8.64231 8.41785 8.14783 8.0783 7.53733 7.25558 7.11271 6.80352 5.79217 5.40447 5.1089 5.02143 5.1282 4.83337 4.65355 4.58608 4.93377 4.57756 4.12387 4.67889 6.01051 4.09386 4.01328 3.87593
threshold=24.100119295073235 -0.14163871060613922 0.05206322830356009 22.731733140588613 -0.04425225543761345 2.0298126742356245e-10 0.71651785714285732 0.036624972140286517 0.93440860215053767 23.477390662705343 -422.93499999999995 23.790157167444232 78.028369121592007 -0.42133405578052813 23.383602987903867 13.893696410630001 20.505000000000006 75.711122708984519 0.81127466541382021 -0.10589798786009978 0.21000000000000008 -28.629999999999999 -0.52880755565169602 13.893696410630001 4.7350000000000012 0.938137755102041 0.92052631578947375 -0.19413919413919409 -0.28582226754515727 0.95804195804195824
decision_type=10 2 10 10 2 2 8 2 8 10 10 10 8 2 10 10 8 10 10 2 8 8 2 8 10 10 10 2 2 10
left_child=1 3 4 13 5 8 9 -2 11 -4 12 -3 28 -1 -10 -15 21 18 -8 -9 -6 -17 24 27 -23 26 -26 -12 -5 -20
right_child=7 2 6 10 20 -7 17 19 14 -11 23 -13 -14 15 -16 16 -18 -19 29 -21 -22 22 -24 -25 25 -27 -28 -29 -30 -31
leaf_value=0.0033290785972265461 -0.00049079514488719169 0.00096105887482329398 0.0064813319365723933 -0.0010914278622441696 0.00010890897277717521 0.00033602279208630529 -0.0010198089645729628 0.00026150528148679534 -0.00015128807833278272 0.00028821011552539796 0.0025137902022821013 -0.00018525617091886496 0.0030515570492729883 0.00065151272265543401 -0.00069956093132351571 -0.005458369257309084 -0.00035658514878347651 0.00070969844782782748 -0.0028097135265794833 -0.0018254127997772854 0.00087914917810363738 0.0072131179510219997 0.0015868033747183864 0.0030728952884209321 0.0024606110662584472 0.0055026523296894175 -0.005905547807206056 0.00013452840643557215 -3.4232697798396241e-05 0.0023972089028959486
leaf_weight=3064 36168 27173 661 12815 34394 116891 31760 3079 188336 2597 2350 28045 1593 51002 64744 205 2760 3419 6523 27674 45670 671 12643 2495 1717 1091 245 7860 30008 377
leaf_count=3064 36168 27173 661 12815 34394 116891 31760 3079 188336 2597 2350 28045 1593 51002 64744 205 2760 3419 6523 27674 45670 671 12643 2495 1717 1091 245 7860 30008 377
internal_value=1.63307e-08 9.90734e-05 -2.18397e-05 0.000609179 5.99872e-05 -3.19574e-05 -0.000933859 -0.00100809 -0.000171493 0.0015464 7.85116e-05 0.00037876 -0.000228579 0.0010221 -0.00029157 0.000921519 0.00163359 -0.00112602 -0.00128849 -0.00161631 0.000548331 0.00196535 0.00205867 0.00115247 0.00365923 0.00287629 0.00141311 0.000682664 -0.000350722 -0.00252446
internal_weight=748030 681109 550590 130519 505253 425189 45337 66921 308298 3258 57121 55218 44416 73398 253080 70334 19332 42079 38660 30753 80064 16572 16367 12705 3724 3053 1962 10210 42823 6900
internal_count=748030 681109 550590 130519 505253 425189 45337 66921 308298 3258 57121 55218 44416 73398 253080 70334 19332 42079 38660 30753 80064 16572 16367 12705 3724 3053 1962 10210 42823 6900
is_linear=0
shrinkage=0.05


Tree=14
num_leaves=31
num_cat=0
split_feature=53 52 53 23 39 53 17 35 53 39 35 57 56 16 35 57 40 34 39 17 51 18 54 23 21 56 23 54 54 43
split_gain=27.0554 19.8971 25.3236 14.3645 12.8801 10.9038 9.87446 7.57342 6.02045 5.71362 5.57723 5.61102 6.14208 5.16278 4.97627 4.81234 5.57956 4.6418 4.6048 4.52674 4.38437 4.38285 4.22319 4.19236 4.05145 4.01195 5.06292 4.9062 4.29533 3.93067
threshold=23.848292414087503 17.535000000000004 23.238296085890557 0.071357968044700307 -0.48504241578269541 23.356776566332282 0.024441350367732585 3.9365576638417671e-10 24.394606628273518 -0.10171403181918452 1.4079081373194243e-10 9.5450000000000035 146.07130605010801 -0.26936123550858393 2.8148791662164108e-11 -0.63539999999999996 0.17302001431427397 -0.0039487928617856658 -0.07891935166483742 0.056394779823582632 41.695000000000007 0.04169727821134743 13.250400000000001 0.015312086757526593 0.2440089549231225 70.569419485713013 0.033011572484805719 11.185 0.18020000000000003 -0.44349894018507985
decision_type=10 8 10 10 2 10 2 2 10 2 2 8 10 2 2 10 2 2 2 2 10 2 8 10 2 10 10 10 10 2
left_child=1 5 3 4 10 15 -2 9 18 23 11 12 -3 -9 22 -1 -17 -16 -8 -7 -18 -20 -11 -6 -19 26 -4 28 -27 -5
right_child=6 2 25 29 7 19 8 13 -10 14 -12 -13 -14 -15 17 16 20 24 21 -21 -22 -23 -24 -25 -26 27 -28 -29 -30 -31
leaf_value=0.0011323306638888386 0.00040165114385307186 0.0013177336722655234 -0.00057159144280529513 0.0047339113197106195 0.0006463721528504571 0.00053576137186017866 -0.00012643585459028609 0.0046212518999116867 -0.0016436237256786672 -0.00031999086254802517 0.0032806288058700867 -0.0021931114619854375 0.0099297108026028189 0.00068930414524832949 -0.00049080424319117852 0.001883352684854887 0.0064913094047873744 2.882498902429328e-05 -0.00056506474070362202 0.0021601307784186378 0.0026159246052462185 -0.0014127886304774063 -0.001920629155171692 -1.8937367316155748e-05 0.00056932265923347665 -0.0033499751270373171 -0.0014994795434973009 -0.0021300919840360065 0.0017300058972376398 -0.0012297642232739076
leaf_weight=4444 18761 9054 80153 280 72482 52815 27355 848 19208 15972 4126 1145 212 55510 32542 3386 1727 149323 38374 4671 1274 25334 5559 35145 45164 457 18016 1345 4581 18767
leaf_count=4444 18761 9054 80153 280 72482 52815 27355 848 19208 15972 4126 1145 212 55510 32542 3386 1727 149323 38374 4671 1274 25334 5559 35145 45164 457 18016 1345 4581 18767
internal_value=1.76657e-08 0.000137315 3.7459e-05 0.000201609 0.000261535 0.00094215 -0.000658594 0.000209977 -0.000839024 0.000124744 0.00172434 0.00110705 0.00151541 0.000748564 -7.01043e-06 0.00239759 0.00327712 6.1866e-05 -0.000669253 0.000667839 0.00484792 -0.000902249 -0.000733492 0.000429073 0.000154366 -0.00066293 -0.00074193 0.000551279 0.00126815 -0.00114181
internal_weight=748030 618998 550681 446129 427082 68317 129032 412545 110271 356187 14537 10411 9266 56358 248560 10831 6387 227029 91063 57486 3001 63708 21531 107627 194487 104552 98169 6383 5038 19047
internal_count=748030 618998 550681 446129 427082 68317 129032 412545 110271 356187 14537 10411 9266 56358 248560 10831 6387 227029 91063 57486 3001 63708 21531 107627 194487 104552 98169 6383 5038 19047
is_linear=0
shrinkage=0.05


Tree=15
num_leaves=31
num_cat=0
split_feature=53 15 23 53 18 60 52 53 53 18 53 35 57 61 17 56 53 41 57 19 15 25 28 17 56 62 35 56 59 59
split_gain=24.767 15.3355 13.97 12.0807 11.6664 11.6532 9.58584 7.53896 7.50857 7.19319 6.47861 6.29432 6.09535 5.83895 5.75717 5.38458 5.63158 4.68713 4.67783 4.59557 4.55001 4.33527 4.25124 4.00436 3.8909 4.72899 3.84186 4.432 3.39337 3.89253
threshold=24.100119295073235 -0.16985971983759282 0.035829038482609619 22.886106102475349 0.064576433215174353 0.030776515151515155 12.675000000000002 23.629747252536259 23.670035143929585 0.04610239863656778 23.420237671977887 3.0239753304305714e-11 -2.1549999999999994 0.78679653679653694 0.089294068439476321 -1.0144623576214997 23.356776566332282 -0.026441826185934915 -2.6264499999999988 -75.728155339805781 -0.053828084186210039 -0.61555174683669756 -0.16658817327260561 0.020393795430965502 75.711122708984519 0.47140522875816998 4.2703916259309923e-10 2.6863109012610003 28.623263001061002 40.571949887720002
decision_type=10 2 10 10 2 10 8 10 10 2 10 2 10 8 2 8 10 2 8 2 2 2 2 2 10 8 2 8 10 10
left_child=1 4 3 11 18 10 8 -7 12 -2 -5 -3 -4 -13 19 -8 26 -16 -1 -15 -11 -21 -10 -9 25 -18 -17 -28 -26 -30
right_child=9 2 6 5 -6 7 15 23 22 20 -12 13 -14 14 17 16 24 -19 -20 21 -22 -23 -24 -25 28 -27 27 -29 29 -31
leaf_value=-0.00024425913441598668 -0.00060546732357639999 -0.00025691815826071987 -0.00047497574707463104 -0.0001294363130997296 0.0040128900301064432 0.0010803004930232027 -0.001215359193172609 0.0011249090321294062 0.0019052348184157193 0.00017142707556570629 -0.0007694366382981064 0.0043721873153604552 0.0033554027155147889 8.3014688726223122e-05 -0.0026998914187569487 -0.00019167801586524272 -0.00033322768446384163 0.0061349997600830541 0.0012826738425504968 0.0012615436267344165 -0.0021058608552837871 0.00047228598660581015 -0.00084578271408221643 -6.1676023792989128e-05 -1.6138876396571813e-05 -0.0027461467116054903 0.0073761980185875591 0.00088012454088779173 0.012362508878494828 -0.0031491549025458622
leaf_weight=6936 49108 35682 1461 122765 3323 25675 33475 8048 1816 2557 58348 947 3574 70763 187 34527 3252 746 18070 19593 15256 156078 6188 60965 1636 5429 346 1098 121 60
leaf_count=6936 49108 35682 1461 122765 3323 25675 33475 8048 1816 2557 58348 947 3574 70763 187 34527 3252 746 18070 19593 15256 156078 6188 60965 1636 5429 346 1098 121 60
internal_value=1.76188e-08 9.02064e-05 4.07738e-05 0.00013505 0.00122909 -0.000100635 -0.000526757 0.000348831 0.000730102 -0.00091783 -0.000335649 0.000363953 0.00224297 0.00045319 0.000438165 -0.000731816 -0.000383375 0.00435878 0.000858944 0.000423299 -0.00177868 0.000560343 -0.000220973 7.66274e-05 -0.00140229 -0.00184283 -8.58667e-05 0.00244053 0.000699703 0.00719401
internal_weight=748030 681109 652780 559797 28329 275801 92983 94688 13039 66921 181113 283996 5035 248314 247367 79944 46469 933 25006 246434 17813 175671 8004 69013 10498 8681 35971 1444 1817 181
internal_count=748030 681109 652780 559797 28329 275801 92983 94688 13039 66921 181113 283996 5035 248314 247367 79944 46469 933 25006 246434 17813 175671 8004 69013 10498 8681 35971 1444 1817 181
is_linear=0
shrinkage=0.05


Tree=16
num_leaves=31
num_cat=0
split_feature=53 39 53 52 53 23 53 60 57 43 17 40 52 56 39 18 32 16 23 56 62 57 39 1 52 54 19 57 57 62
split_gain=22.4693 12.7204 12.656 14.0516 17.264 9.2897 7.52313 7.20102 6.08141 5.309 5.15572 4.99097 4.77159 4.38623 4.31271 4.41506 4.25424 4.18234 3.99964 5.16201 4.14592 4.15053 3.96871 3.99645 3.96378 3.93675 3.85175 3.80753 3.73188 3.70843
threshold=22.886106102475349 -0.14938189557882917 24.32378356630198 16.260000000000002 23.670035143929585 0.06880495799098911 23.383602987903867 0.56458333333333344 22.340000000000003 -0.42133405578052813 0.020393795430965502 0.20504212775860561 6.245000000000001 25.739183325474002 -0.079833221502952509 0.04169727821134743 0.010894704419375989 -0.18470496542774686 0.015459015810548838 66.339287854651516 0.45401691331923894 7.6550000000000011 -0.48504241578269541 -1.125221607906344 3.7450000000000006 9.6850000000000005 -70.583938266254762 -13.944999999999999 -2.0549999999999993 0.69883720930232573
decision_type=10 2 10 8 10 10 10 8 8 2 2 2 8 10 2 2 2 2 10 10 10 10 2 2 10 8 2 10 10 10
left_child=1 7 3 4 11 8 18 -1 12 -9 -6 -2 -3 22 -12 -16 26 -8 -5 -20 21 -21 23 -11 -7 27 -14 -15 -17 -27
right_child=2 5 -4 6 10 24 17 9 -10 13 14 -13 16 25 15 28 -18 -19 19 20 -22 -23 -24 -25 -26 29 -28 -29 -30 -31
leaf_value=0.010152782452424092 0.00080522203611727472 0.0036856642400606328 -0.0012618845250045307 4.5315113390218299e-05 0.00093881940852075002 -0.0013046052865284805 0.0013656194218434024 0.0028290447170216705 0.0012479170118563951 -0.0013472036954241789 0.00032220172089981016 0.002129063881677609 -7.7248285523512592e-05 0.0077175691781827998 -0.00018585458707759731 0.00024066804391717467 -0.00027578620716825405 -0.00081192341150762874 -0.00061875013652118221 -0.0014372421359463701 0.0023363011624819986 0.012071846608961295 0.00039811298732697099 0.0017862554549913602 0.0066585242495070061 -0.0032192028862075943 0.00039945548014265649 0.0020941856550593988 -0.0014679834874119797 0.0010204169825726069
leaf_weight=208 26540 946 28853 82118 10572 12245 2258 3207 13098 1136 25809 9742 64180 315 48173 4090 51368 91130 56055 1465 2763 59 51214 9621 158 596 124627 7133 14536 3815
leaf_count=208 26540 946 28853 82118 10572 12245 2258 3207 13098 1136 25809 9742 64180 315 48173 4090 51368 91130 56055 1465 2763 59 51214 9621 158 596 124627 7133 14536 3815
internal_value=1.62698e-08 0.000297113 -0.000252745 -0.000175151 0.000222682 0.000133405 -0.00041042 0.000862111 0.000198612 0.000836948 -0.000107158 0.00116083 0.000141591 0.000750345 -0.00022662 -0.000438742 0.000127609 -0.000759218 -0.000181733 -0.0004908 0.00118103 -0.000910214 0.000581629 0.00145487 -0.00120271 0.00163156 0.000237386 0.00233279 -0.00109252 0.00044638
internal_weight=748030 343867 404163 375310 139462 266622 235848 77245 254219 77037 103180 36282 241121 73830 92608 66799 240175 93388 142460 60342 4287 1524 61971 10757 12403 11859 188807 7448 18626 4411
internal_count=748030 343867 404163 375310 139462 266622 235848 77245 254219 77037 103180 36282 241121 73830 92608 66799 240175 93388 142460 60342 4287 1524 61971 10757 12403 11859 188807 7448 18626 4411
is_linear=0
shrinkage=0.05


Tree=17
num_leaves=31
num_cat=0
split_feature=53 16 39 23 18 61 53 35 61 53 53 18 54 55 53 58 17 56 58 54 39 25 54 18 22 16 6 51 25 50
split_gain=20.6104 15.0746 12.3247 12.5158 9.18948 8.83976 7.81788 7.29213 6.90399 6.82768 6.40516 6.38421 5.32479 5.14226 5.0555 4.93081 4.83786 4.1386 4.06123 3.79673 3.79261 3.78218 3.72469 3.60197 3.52483 4.38706 3.4771 3.7657 3.29787 3.28288
threshold=24.100119295073235 -0.16425390515091165 -0.52880755565169602 0.035829038482609619 0.066773712151398365 0.10566188197767147 22.684038645275596 1.4079081373194243e-10 0.82555780933062894 23.238296085890557 23.670035143929585 0.053896008013269429 21.435000000000006 -10.947414985436998 23.618502246186402 41.613897178868008 0.060487793408116573 40.424757305005009 9.9857661763185011 16.455000000000002 -0.082644327214431421 1.2540923122182261 -14.344999999999997 0.017139063616395157 3.6493678517279728 0.16352665906845235 -0.020282393445839205 22.565000000000001 -0.39079283191633668 0.46662766594154542
decision_type=10 2 2 10 2 10 8 2 8 10 10 2 8 10 10 10 2 8 10 10 2 2 10 2 2 2 2 8 2 2
left_child=1 4 7 6 22 16 26 13 14 12 -7 -2 20 -3 -8 19 17 24 -9 -15 -10 -6 -1 -24 25 -5 29 -28 -27 -4
right_child=11 2 3 5 21 10 8 18 9 -11 -12 -13 -14 15 -16 -17 -18 -19 -20 -21 -22 -23 23 -25 -26 28 27 -29 -30 -31
leaf_value=0.0032770348090614288 -0.00062158048323096592 -0.0084230053338871808 0.00039712137214104569 -0.00081320277640009771 0.0042317173891423254 0.0020356969571623594 0.0011368487842593415 0.0025504228395729972 0.00038149148388938459 -0.00040991836737588818 -0.00020778947664982424 -0.0019439015320124606 -0.0012188581817270075 0.0011984420623709366 0.00017272647343248693 0.0057421373442109701 -0.0012704472338554659 0.00072748686211927317 0.0065725307271212487 -0.0013796831936195672 -6.1603106189449391e-05 -0.0033570859981792247 -0.011578520002673008 0.000777810904970849 -0.0024459231960208931 0.0030851077575731515 0.010604310476033363 0.00064458087522277724 8.7364608662389179e-05 -0.00029945614174090929
leaf_weight=1560 56009 148 52634 30232 2964 5112 18806 2867 78099 122777 8415 10912 7857 7277 49149 511 28010 6504 807 1775 126502 173 59 20642 2506 1022 95 70687 9003 24916
leaf_count=1560 56009 148 52634 30232 2964 5112 18806 2867 78099 122777 8415 10912 7857 7277 49149 511 28010 6504 807 1775 126502 173 59 20642 2506 1022 95 70687 9003 24916
internal_value=1.84402e-08 8.22923e-05 3.599e-05 4.69006e-06 0.0012775 -0.000539241 9.42534e-05 0.00153764 -1.99162e-05 -0.000113082 0.000639688 -0.000837273 5.84328e-05 0.000819111 0.000439614 0.000962754 -0.000745673 -0.000447217 0.0034354 0.000692337 0.000107508 0.00381152 0.000920164 0.000742297 -0.000626 -0.00051258 0.000404618 0.000658034 0.000393496 0.000173254
internal_weight=748030 681109 655711 642326 25398 90804 551522 13385 403190 335235 13527 66921 212458 9711 67955 9563 77277 49267 3674 9052 204601 3137 22261 20701 42763 40257 148332 70782 10025 77550
internal_count=748030 681109 655711 642326 25398 90804 551522 13385 403190 335235 13527 66921 212458 9711 67955 9563 77277 49267 3674 9052 204601 3137 22261 20701 42763 40257 148332 70782 10025 77550
is_linear=0
shrinkage=0.05


Tree=18
num_leaves=31
num_cat=0
split_feature=39 23 35 43 28 39 24 35 58 56 57 52 57 56 31 39 56 57 62 54 44 28 57 57 44 28 35 57 58 35
split_gain=14.4156 14.468 10.1632 7.84511 6.52668 6.01083 5.92437 6.05071 5.46765 5.68704 5.41333 5.07328 4.99747 7.56449 4.71432 4.29104 3.95472 6.17616 5.03192 4.20574 3.67303 3.59142 3.56981 3.50705 3.46253 3.45366 3.41818 3.41485 3.34978 3.33189
threshold=-0.12266823635057426 0.06880495799098911 6.6751859677090393e-11 -0.39379932208140273 -0.04425225543761345 -0.52880755565169602 0.94166666666666676 4.8938506083195295e-10 9.9857661763185011 29.082035695842503 -3.8649999999999993 2.5450000000000004 3.5449999999999995 32.014706018286006 0.014326652994232915 -0.17804181772165042 35.710543666130008 7.365000000000002 0.81322674418604668 2.5650000000000004 0.77331943549701365 -0.038997712787956954 -34.404999999999994 -1.5199999999999996 1.73614288481673 -0.17798496074246087 1.3651183766481692e-10 40.280000000000008 17.087357856605003 7.0190875701963679e-11
decision_type=2 10 2 2 2 2 10 2 10 10 10 8 10 10 2 2 10 8 8 10 10 2 10 8 10 2 2 10 8 2
left_child=3 2 11 14 6 8 7 25 9 21 -7 -2 13 -12 -1 -15 22 18 -18 -19 -3 -5 -13 -6 29 -4 -10 -27 -9 -14
right_child=1 20 4 5 23 10 -8 28 26 -11 12 16 24 15 -16 -17 17 19 -20 -21 -22 -23 -24 -25 -26 27 -28 -29 -30 -31
leaf_value=0.00091665382931023325 0.00016956704828214567 -0.0008278569506794492 0.00058535227690792858 0.001036282794012408 -1.5502325064507573e-07 -0.00025491619325970847 -0.00081563252167424433 0.00042375928814090947 0.0021783309311103182 -0.0022747486960168544 0.00051795468474287096 -0.0033479900075126358 -0.00047598062206080167 0.0033755719973157794 0.0033378051066934155 0.00082228004658378955 2.8705895146425398e-05 0.0049459110669739931 0.002161714544537252 -0.0021564879370699645 -0.0020400484388803245 0.0058034966625867563 -0.00058023365520633817 0.00080526538932487962 0.0081441108142022191 -9.0562516840560372e-05 0.0060271095167552628 0.001703531663720486 0.0016889520070233089 0.00042532416579967708
leaf_weight=4931 34096 21913 21798 9352 19687 40382 21088 18317 2007 1305 55524 1177 20533 3880 3404 2868 8174 223 4182 3097 8758 413 121494 43029 130 244959 814 2681 7333 20481
leaf_count=4931 34096 21913 21798 9352 19687 40382 21088 18317 2007 1305 55524 1177 20533 3880 3404 2868 8174 223 4182 3097 8758 413 121494 43029 130 244959 814 2681 7333 20481
internal_value=1.82501e-08 -0.000117208 -5.83998e-05 0.000410991 8.64144e-05 0.000331932 -5.99366e-06 5.18492e-05 0.00132523 0.000823847 0.000235943 -0.000376615 0.000427663 0.000710188 0.00190608 0.00229115 -0.000511259 0.00023633 0.000751058 -0.00167779 -0.00117416 0.00123848 -0.000606833 0.000552359 0 -1.79901e-05 0.00329084 -7.11184e-05 0.000785661 -2.57777e-05
internal_weight=748030 582006 551335 166024 378892 157689 316176 295088 13891 11070 143798 172443 103416 62272 8335 6748 138347 15676 12356 3320 30671 9765 122671 62716 41144 269438 2821 247640 25650 41014
internal_count=748030 582006 551335 166024 378892 157689 316176 295088 13891 11070 143798 172443 103416 62272 8335 6748 138347 15676 12356 3320 30671 9765 122671 62716 41144 269438 2821 247640 25650 41014
is_linear=0
shrinkage=0.05


Tree=19
num_leaves=31
num_cat=0
split_feature=16 23 35 39 18 17 55 54 39 58 45 23 57 39 59 57 35 52 51 25 55 39 57 1 15 26 18 59 57 58
split_gain=14.956 13.1235 9.2204 8.3678 8.16174 7.78772 5.80006 5.91918 6.30411 6.01368 4.91336 4.57505 4.4799 4.27723 4.1225 4.10971 4.05679 4.53251 3.95112 3.87968 3.82797 3.80505 3.70278 3.64989 3.84103 4.45238 5.21559 3.50602 3.28621 3.19094
threshold=-0.16425390515091165 0.047219667691478506 1.7572465120198416e-10 -0.58550436975864972 0.064576433215174353 0.020922060679707481 -5.9236904835164994 24.320000000000004 -0.11442344419720878 141.66876048552555 1.7763549647888286 1.0000000180025095e-35 -20.159999999999993 -0.27052825995535679 -15.857502529587999 -7.4749999999999988 1.5217586527344639e-11 7.1450000000000005 81.930000000000021 1.2540923122182261 -17.066089722231997 -0.20445542111384959 -1.0672999999999997 3.3621762680164466 0.1767887520026962 -0.81080843241422451 0.0725576358574056 -1.9735742909229999 -4.714999999999999 -88.279622636762994
decision_type=2 10 2 2 2 2 10 8 2 10 2 10 10 2 10 8 2 8 10 2 10 2 8 2 2 2 2 10 10 10
left_child=4 2 5 -4 22 15 14 8 9 11 -5 23 -10 -3 -7 -2 -15 -18 -9 -6 -16 -11 -1 24 27 26 -26 -8 -19 -29
right_child=1 13 3 10 19 6 7 18 12 21 -12 -13 -14 16 20 -17 17 28 -20 -21 -22 -23 -24 -25 25 -27 -28 29 -30 -31
leaf_value=-7.3308801397170911e-05 -0.00069987575521989398 0.00074655239013371813 0.0037153056481565487 0.00034194046935598224 0.0037154062070293803 0.00043188140378381477 -0.00019924003635829338 -0.0013766091744876578 -0.0014884248503968008 0.0053448086043293664 -0.00090202745049014141 9.5247447730578949e-06 -0.00014768335205816898 -0.0024774096711263002 -0.0022147539088836397 0.00082296164117302427 0.00037530345071918296 -0.0017235243850962406 0.011166986524940671 -0.0033960540888668352 -0.00069807697954107851 0.0010279782699839498 0.0012612523984273092 -0.0033360242584600528 0.0030616082423092386 0.0030951841401736391 -0.0066858704764899291 0.0082507806095052302 -0.00069855713689014217 0.0010124520038529909
leaf_weight=7862 5158 4723 1797 179475 3528 7056 8271 9841 6379 925 8303 65995 269197 3462 4730 31274 8199 9624 63 202 34802 1147 15296 527 275 3124 273 154 41965 14403
leaf_count=7862 5158 4723 1797 179475 3528 7056 8271 9841 6379 925 8303 65995 269197 3462 4730 31274 8199 9624 63 202 34802 1147 15296 527 275 3124 273 154 41965 14403
internal_value=2.02265e-08 -4.31437e-05 2.56572e-05 0.000319435 0.00115787 -9.44651e-05 -0.000154323 -8.98449e-05 -5.75982e-05 0.000293402 0.000286909 0.000234 -0.000178737 -0.000704341 -0.000680928 0.000607222 -0.000812762 -0.000716284 -0.0012962 0.00332886 -0.000879679 0.00295771 0.000807963 0.000781939 0.000864033 0.0023654 -0.00178556 0.000622301 -0.000889866 0.00108943
internal_weight=748030 721142 653169 189575 26888 463594 427162 380574 370670 95094 187778 93022 275576 67973 46588 36432 63250 59788 9904 3730 39532 2072 23158 27027 26500 3672 548 22828 51589 14557
internal_count=748030 721142 653169 189575 26888 463594 427162 380574 370670 95094 187778 93022 275576 67973 46588 36432 63250 59788 9904 3730 39532 2072 23158 27027 26500 3672 548 22828 51589 14557
is_linear=0
shrinkage=0.05


Tree=20
num_leaves=31
num_cat=0
split_feature=16 23 28 35 17 39 39 35 56 47 57 57 58 57 39 59 23 17 51 39 56 55 24 54 59 58 26 54 56 55
split_gain=13.4976 11.9382 7.99299 8.35135 7.65149 7.52365 5.4325 4.5668 4.38957 4.51715 4.31505 4.2003 4.072 4.18257 4.15632 3.64536 3.53054 3.47319 4.11547 3.8605 3.68881 3.38038 3.24259 3.23888 3.32331 3.22922 3.19571 3.19116 3.52579 3.40382
threshold=-0.16425390515091165 0.039965153388335097 -0.04425225543761345 1.7572465120198416e-10 0.063089193185428424 -0.58550436975864972 -0.10705818514792396 1.626741987603773e-11 -4.9200308064174996 -0.14490157081669655 0.53999999999999992 -25.214999999999996 141.66876048552555 9.9750000000000032 -0.24663053191449893 15.164270881404002 1.0000000180025095e-35 0.073081555903269646 89.370000000000019 -0.44429952803862488 -4.6670659791004994 -1.2733736435259997 0.95833333333333337 7.4450000000000012 -24.796542947378498 5.0412618972870007 -1.4247407152262899 3.3450000000000002 117.14696510717602 -3.1083751582864996
decision_type=2 10 2 2 2 2 2 2 10 2 8 8 10 8 2 10 10 2 8 2 10 10 10 8 8 8 2 8 10 10
left_child=4 2 3 6 -1 -5 12 -3 9 -9 -4 -8 13 16 15 -14 -2 19 -19 25 21 -21 -7 24 -20 -10 -25 29 -29 -13
right_child=1 7 10 5 -6 22 11 8 17 -11 -12 27 14 -15 -16 -17 -18 18 23 20 -22 -23 -24 26 -26 -27 -28 28 -30 -31
leaf_value=0.00060710639625510614 0.00062773566183134746 -0.0020337064000520602 9.2850375121004687e-05 0.003653451945887138 0.0025446208234781234 0.00027883005947075437 -0.0020730467764801383 0.00076899985882314371 -8.3747899218220375e-05 -0.001228175261862181 0.00075632636686866846 -0.00049128801555413024 0.0080007637302581397 -0.0012672223524658427 0.00080475996381501743 0.00065508698772446562 -2.9532050524751681e-05 0.0020857496967262683 0.0080155431428864006 -0.0033839594882615859 -0.00017875323958583018 0.011987092023800407 -0.00082159450290661916 0.0079729242488107786 -0.0010809973622318693 0.0042706599793567992 -0.0036187060307775218 -0.00047882848445053578 0.0010480563612540398 7.6883430568478985e-05
leaf_weight=20051 28332 5147 45762 1621 6837 148613 3264 3188 784 25094 52807 37166 461 5456 1748 269 73221 880 102 51 43523 116 7008 61 5675 926 1929 133418 3889 90631
leaf_count=20051 28332 5147 45762 1621 6837 148613 3264 3188 784 25094 52807 37166 461 5456 1748 269 73221 880 102 51 43523 116 7008 61 5675 926 1929 133418 3889 90631
internal_value=1.93379e-08 -4.09857e-05 3.45933e-05 -4.16145e-05 0.00109997 0.000264577 -0.000169047 -0.000588528 -0.000498116 -0.00100287 0.00044835 -0.000290147 0.00012774 8.12885e-05 0.00213157 0.00530124 0.000153789 -0.000233891 -0.00115234 -5.88484e-05 -0.000150174 0.0072638 0.000229243 -0.00151988 -0.000919385 0.00227144 -0.00326049 -0.000268176 -0.000435545 -8.83137e-05
internal_weight=748030 721142 633666 535097 26888 157242 377855 87476 82329 28282 98569 268368 109487 107009 2478 730 101553 54047 8647 45400 43690 167 155621 7767 5777 1710 1990 265104 137307 127797
internal_count=748030 721142 633666 535097 26888 157242 377855 87476 82329 28282 98569 268368 109487 107009 2478 730 101553 54047 8647 45400 43690 167 155621 7767 5777 1710 1990 265104 137307 127797
is_linear=0
shrinkage=0.05


Tree=21
num_leaves=31
num_cat=0
split_feature=53 53 52 53 39 53 23 35 40 6 54 56 17 52 38 56 62 59 59 54 35 35 54 6 54 53 25 5 6 17
split_gain=17.0604 10.0289 14.4359 12.9987 8.6336 7.886 5.30904 5.90143 5.24023 5.02073 4.82272 4.2806 4.06006 3.92225 3.71704 3.7754 5.24448 5.36469 4.6942 4.38034 4.50467 4.24717 3.774 3.68517 3.41314 3.39531 3.36472 3.35024 3.32267 3.23223
threshold=24.124175597339299 22.585360427661907 17.535000000000004 23.618502246186402 -0.32612318068061497 23.383602987903867 0.056552476140348876 3.0239753304305714e-11 0.20504212775860561 0.61534757971926968 13.250400000000001 35.710543666130008 0.039057985631103374 3.7450000000000006 0.39389361467079104 37.398482796370011 0.25245098039215691 6.190326473752001 9.2135205534525006 10.735000000000001 5.3088052555005848e-11 5.1771259389224999e-11 1.885 -0.37648586211505036 8.820800000000002 23.195567630705103 -0.15314335118146746 0.21658008599597015 0.0077152263413854403 0.026330289735378858
decision_type=10 10 8 10 2 10 10 2 2 2 8 10 2 10 2 10 10 10 10 10 2 2 10 2 10 10 2 2 2 2
left_child=1 4 3 8 -1 12 7 10 -3 29 11 -6 28 -8 15 21 -17 -18 -19 20 -20 -14 -22 -9 -5 -10 -23 -24 -4 -2
right_child=9 2 5 24 6 -7 13 23 25 -11 -12 -13 14 -15 -16 16 17 18 19 -21 22 26 27 -25 -26 -27 -28 -29 -30 -31
leaf_value=0.0011529946721256402 5.8854553101047604e-05 0.00086906685079038675 -0.00011019954023438874 -9.6998594835419482e-05 -0.00020591416093438514 -0.00066504246798313718 -0.00081699530087757973 0.0024754615585354627 0.0042305017563945028 -0.0026332098450652036 -0.0012882140864905784 0.0018605124527912291 -0.0012990946346717401 0.011673997567078062 -0.0027671383760307401 -0.0015514214048138488 0.00016415783033313545 0.0050370684043220823 0.0085093363403989878 -0.0022771105676164419 -0.0028258976452222788 0.00029337031584217641 0.0016501927277953639 0.00036068657473297875 0.0006509519278547353 0.0018053015974686154 -0.00048159183243246738 0.0093922304793002623 0.00041998970002627556 -0.00087152249907648284
leaf_weight=27544 11662 22209 79655 64924 20706 85377 13138 2084 1835 3509 9543 2851 11854 63 1556 2425 6149 1276 271 635 372 18996 722 184901 19934 6847 53257 174 46971 46590
leaf_count=27544 11662 22209 79655 64924 20706 85377 13138 2084 1835 3509 9543 2851 11854 63 1556 2425 6149 1276 271 635 372 18996 722 184901 19934 6847 53257 174 46971 46590
internal_value=1.99589e-08 7.16601e-05 -7.79917e-05 0.000398398 0.000315776 -0.000256062 0.000216904 0.000275338 0.0012766 -0.00079594 -0.000339961 4.39709e-05 -0.000100376 -0.000756917 -0.000342573 -0.000303274 0.000525265 0.00105043 0.00262855 0.00121244 0.00265555 -0.000421782 0.00139995 0.000384284 7.86442e-05 0.0023185 -0.000277778 0.00316013 8.6431e-05 -0.000685176
internal_weight=748030 686269 425439 115749 260830 309690 233286 220085 30891 61761 33100 23557 224313 13201 97687 96131 12024 9599 3450 2174 1539 84107 1268 186985 84858 8682 72253 896 126626 58252
internal_count=748030 686269 425439 115749 260830 309690 233286 220085 30891 61761 33100 23557 224313 13201 97687 96131 12024 9599 3450 2174 1539 84107 1268 186985 84858 8682 72253 896 126626 58252
is_linear=0
shrinkage=0.05


Tree=22
num_leaves=31
num_cat=0
split_feature=16 18 39 57 17 23 58 15 57 55 39 58 1 55 35 39 41 62 57 57 56 49 18 62 35 62 9 56 57 28
split_gain=12.0645 10.619 10.2831 8.92574 8.26314 5.75051 5.64968 5.17802 5.10992 4.3182 4.29376 4.56518 5.10428 4.81226 4.16189 4.0826 4.64687 3.71989 3.71614 3.57592 4.05281 3.23753 3.95728 3.18696 3.14706 3.08576 3.07408 3.9014 5.702 4.07391
threshold=-0.15065986116713523 0.036165114407825112 -0.13929078940684483 -10.774999999999997 0.057528429228797487 0.07782390556011394 118.77313808281703 -0.015791162156552681 9.5450000000000035 2.8199181059205007 -0.87090930461974203 8.1631882646425034 3.3621762680164466 19.255579661035501 3.6526737452019559e-11 0.09207879574521928 0.10681885109337312 0.37089947089947095 -3.8649999999999993 2.3242000000000007 57.994780069245508 1.4367768874862548 0.067623518028602309 0.99038461538461553 4.0415094848705185e-10 0.38956639566395673 1.6988089601846499 25.739183325474002 4.6150000000000011 -0.24134404556482481
decision_type=2 2 2 8 2 10 10 2 8 10 2 8 2 10 2 2 2 10 8 8 10 2 2 10 2 8 2 8 10 2
left_child=4 3 6 -2 18 9 8 -5 10 24 11 12 13 -3 19 -16 -17 -8 -1 20 -11 22 -6 -22 -4 -10 27 -12 -29 -30
right_child=1 2 5 7 21 -7 17 -9 25 14 26 -13 -14 -15 15 16 -18 -19 -20 -21 23 -23 -24 -25 -26 -27 -28 28 29 -31
leaf_value=-0.00064480411378451102 -0.00064166228589197316 0.0017326518167846017 -0.00057580989397419257 2.9284544997265781e-05 0.0016773346565380827 -0.0011338220430965648 0.0001080125221334715 0.00041807325819217742 0.0036683907671804165 -0.00035473326720049798 9.7368307053114698e-05 0.0044479297250064392 -0.01402981846883645 -0.0057091935077032445 1.4204023996267164e-05 0.0052665125759093177 0.00087904214469224399 0.003644323789365197 0.00074683748159995109 -0.0013402904865558608 0.0016988253629681661 -0.00075974583304182935 0.0038899897277384597 0.0091878328938581472 0.00021808184865244743 -0.0016437919835264687 -0.0013352002780961823 0.0020842855941426565 -0.0046223932263443008 0.00026573894435548889
leaf_weight=6598 33536 2454 127768 181385 8008 24206 1191 162292 289 9502 51383 1208 57 238 67005 696 4580 1993 17549 10372 856 981 2711 171 13825 4871 3149 6178 515 2463
leaf_count=6598 33536 2454 127768 181385 8008 24206 1191 162292 289 9502 51383 1208 57 238 67005 696 4580 1993 17549 10372 856 981 2711 171 13825 4871 3149 6178 515 2463
internal_value=1.98469e-08 -4.50236e-05 -0.000249912 0.000136906 0.000895048 -0.000399981 0.000261481 0.000212894 0.000171245 -0.000324298 0.000286999 0.00188527 0.000757208 0.00107267 -5.9905e-05 0.000119725 0.00145887 0.00232315 0.000366373 -0.000681349 -3.17509e-05 0.00198571 0.00223745 0.00295142 -0.00049826 -0.00134523 0.000187616 0.000266911 0.00121782 -0.000578037
internal_weight=748030 712183 334970 377213 35847 258981 75989 343677 72805 234775 67645 3957 2749 2692 93182 72281 5276 3184 24147 20901 10529 11700 10719 1027 141593 5160 63688 60539 9156 2978
internal_count=748030 712183 334970 377213 35847 258981 75989 343677 72805 234775 67645 3957 2749 2692 93182 72281 5276 3184 24147 20901 10529 11700 10719 1027 141593 5160 63688 60539 9156 2978
is_linear=0
shrinkage=0.05


Tree=23
num_leaves=31
num_cat=0
split_feature=16 24 35 17 55 6 39 34 35 56 55 57 5 58 28 56 62 57 23 39 59 7 39 35 57 52 24 62 56 15
split_gain=10.8881 9.82486 10.3414 7.45743 7.43858 5.81992 5.31606 5.57534 5.34341 5.1892 6.00637 6.98379 7.08943 5.79834 4.20373 4.05115 4.45767 4.4527 5.10987 4.48581 4.17377 3.95139 3.75095 3.68225 3.46435 3.39666 3.92583 4.00425 4.43962 5.3668
threshold=-0.15065986116713523 0.94166666666666676 6.9472629571457641e-11 0.057528429228797487 -7.0042581283019993 0.36041931089159979 -0.52880755565169602 -0.0035274650660272115 1.4079081373194243e-10 146.07130605010801 19.255579661035501 -0.55999999999999972 0.22333447723633051 193.68940803795954 -0.064858172027467589 29.082035695842503 0.40161290322580651 2.370000000000001 0.010494897989937491 -0.17804181772165042 -8.0153933869634972 0.66994307984943291 -0.44429952803862488 1.1895238916978388e-11 53.690000000000005 3.1350000000000002 0.025000000000000005 0.20185185185185187 -78.659066065948494 0.25328944834656436
decision_type=2 10 2 2 8 2 2 2 2 10 10 8 2 10 2 8 10 10 10 2 8 2 2 2 10 8 10 10 10 2
left_child=3 2 4 -1 5 -2 8 -8 -4 10 15 12 -12 -13 -9 25 -17 19 20 -18 23 -3 -11 -19 -16 -6 27 -27 29 -29
right_child=1 21 6 -5 9 -7 7 14 -10 22 11 13 -14 -15 24 16 17 18 -20 -21 -22 -23 -24 -25 -26 26 -28 28 -30 -31
leaf_value=0.00034804394538739882 -0.00082734055838235314 -0.00053323759870088378 0.00031728626402813774 0.0018864283885382924 0.00019927416395706206 -0.0032137729627027024 -0.00027221666653956121 8.134057503907055e-05 0.0029093221125176486 0.007256175816844475 -0.00046608213978561016 -0.0022520953908785894 0.0054894852136412736 0.0079268455929926551 0.00042675096418056784 -0.00089716933626047461 0.0040905848549119611 -0.00085035000040500344 -0.0010731170253540294 0.0011289027031689562 0.00086467457404469097 -0.0017360194618786817 0.0010697607202115325 0.0099943497225822298 0.0045528310850462671 0.0020107313212954143 -0.00056161892826330048 0.0021907152311803077 -0.00015718860597556297 0.015627484441767623
leaf_weight=24147 15128 36550 4697 11700 36622 3077 72421 225854 3454 258 2756 8307 610 142 123377 4534 1574 114 4588 6864 3611 8405 4981 244 511 2308 83568 485 57055 88
leaf_count=24147 15128 36550 4697 11700 36622 3077 72421 225854 3454 258 2756 8307 610 142 123377 4534 1574 114 4588 6864 3611 8405 4981 244 511 2308 83568 485 57055 88
internal_value=2.09085e-08 -4.27699e-05 5.42737e-06 0.000850296 -0.000259855 -0.00123098 0.000151493 0.00012706 0.0014163 -0.000178996 -0.000217171 -0.00131293 0.000611855 -0.00208034 0.000209753 -0.000152945 0.000495213 0.000866976 6.26911e-05 0.001682 0.00137689 -0.00075823 0.0013755 0.00652777 0.000443814 -0.000230442 -0.000340139 -3.1249e-05 -0.00011312 0.00426539
internal_weight=748030 712183 667228 35847 236914 18205 430314 422163 8151 218709 213470 11815 3366 8449 349742 201655 21529 16995 8557 8438 3969 44955 5239 358 123888 180126 143504 59936 57628 573
internal_count=748030 712183 667228 35847 236914 18205 430314 422163 8151 218709 213470 11815 3366 8449 349742 201655 21529 16995 8557 8438 3969 44955 5239 358 123888 180126 143504 59936 57628 573
is_linear=0
shrinkage=0.05


Tree=24
num_leaves=31
num_cat=0
split_feature=53 60 53 39 53 18 23 51 53 35 39 54 51 18 56 1 43 28 54 23 55 55 35 58 59 53 51 54 54 17
split_gain=14.8423 9.32585 13.495 7.41935 7.41827 6.83143 6.06896 5.28037 6.05573 4.61149 4.42542 4.16842 3.70701 3.6365 3.61152 3.53528 3.49979 3.45779 3.4455 3.34126 3.32575 3.29976 3.59439 3.36089 3.28958 3.35538 3.35676 3.15451 3.06991 4.56279
threshold=23.974807993690419 0.93440860215053767 22.721885611801032 -0.32612318068061497 23.356776566332282 0.032866990467878499 0.056552476140348876 29.915000000000003 23.40160197809486 2.9542915943192646e-11 -0.086604536348211567 13.250400000000001 28.695000000000004 0.056581630752506142 35.710543666130008 -0.7590141122768207 -0.42133405578052813 -0.25999999999999995 3.6044500000000004 0.01621855202209925 13.035475026686502 -4.0284527724974994 1.8853070371613063e-10 inf 22.299875222476004 23.800132766013153 -1005.3799999999999 6.035000000000001 4.6150000000000011 0.034020075011417288
decision_type=10 8 10 2 10 2 10 10 10 2 2 10 8 2 10 2 2 2 8 10 10 10 2 8 10 10 10 8 10 2
left_child=1 4 3 15 17 -2 9 8 19 11 -7 14 -11 -13 -5 -3 27 -1 -12 20 -4 22 -18 -23 25 26 -6 -14 -19 -30
right_child=5 2 7 6 24 10 -8 -9 -10 12 18 13 16 -15 -16 -17 21 28 -20 -21 -22 23 -24 -25 -26 -27 -28 -29 29 -31
leaf_value=0.0059287716331214158 -0.00011221270251882796 -0.00022340113679113823 0.00011138468511834978 -0.00019758088831135632 0.0073833115465740187 -0.00019645937786101739 -0.00076641009393313333 0.00075359217900680057 -0.00064214705556069019 0.013527286336616932 -0.00069239192843848288 -0.00081116562060545578 0.001230891802995312 -0.0036287459726271859 0.0017140080560354239 0.0012580316734298852 -0.00059919422076100599 0.00098865279919877597 -0.0016434701978041769 -0.00037042051549941621 -0.0011859697391536357 0.00041799938287813621 0.00025249422935457632 -0.0028198356284463689 0.0045501298370281924 -5.3550629710298229e-05 0.00066620535619579032 0.0053907303621071245 0.00046005524918190857 0.0043907551663857694
leaf_weight=519 42866 4819 108076 20043 187 13927 16152 13115 79035 53 16705 7982 2520 1339 2818 24338 19184 5358 22223 79746 5176 160623 34964 805 481 24600 36631 558 1169 2018
leaf_count=519 42866 4819 108076 20043 187 13927 16152 13115 79035 53 16705 7982 2520 1339 2818 24338 19184 5358 22223 79746 5176 160623 34964 805 481 24600 36631 558 1169 2018
internal_value=2.22405e-08 8.53466e-05 1.92856e-05 0.000255659 0.000626463 -0.000581384 0.000172948 -0.00022623 -0.000273487 0.000233443 -0.000961792 -0.000325303 0.000315683 -0.00121649 3.78421e-05 0.00101301 0.000312452 0.00196255 -0.00123547 -0.00012249 5.2046e-05 0.000288521 -4.91572e-05 0.00040182 0.000430733 0.000398383 0.000700478 0.00198679 0.001721 0.00295059
internal_weight=748030 652309 581346 296198 70963 95721 267041 285148 272033 250889 52855 32182 218707 9321 22861 29157 218654 9064 38928 192998 113252 215576 54148 161428 61899 61418 36818 3078 8545 3187
internal_count=748030 652309 581346 296198 70963 95721 267041 285148 272033 250889 52855 32182 218707 9321 22861 29157 218654 9064 38928 192998 113252 215576 54148 161428 61899 61418 36818 3078 8545 3187
is_linear=0
shrinkage=0.05


Tree=25
num_leaves=31
num_cat=0
split_feature=53 16 24 43 17 32 56 35 34 35 60 53 55 54 18 53 53 58 53 44 18 28 54 54 54 52 49 53 35 55
split_gain=13.6401 8.37186 7.56365 6.63834 6.37979 6.13254 5.68803 5.10535 4.71646 4.71334 5.94008 5.37863 4.92769 5.16611 4.3501 4.17162 4.16678 3.66435 3.49355 3.3464 3.52126 3.28346 3.22791 2.98792 2.9803 2.8627 2.80576 2.74127 2.72528 2.69123
threshold=24.124175597339299 -0.15065986116713523 0.94166666666666676 -0.1032863849765258 0.064956865078992593 0.016569948256365163 61.917312427481512 1.9625543965348889e-09 -0.0034662472276557701 1.6986255338024672e-10 0.063508064516129045 23.1788056404468 -4.2377165252479996 22.360000000000003 0.054268538845765345 21.561512073330693 23.800132766013153 inf 22.525435700285712 0.70717912318395748 0.091169660004854228 -0.15400108778321872 -17.169999999999998 -17.169999999999998 28.535000000000004 1.885 1.4367768874862548 24.394606628273518 3.5318456759421564e-11 10.405569758585001
decision_type=10 2 10 2 2 2 8 2 2 2 10 10 10 8 2 10 10 8 8 10 2 2 10 8 8 10 2 10 2 8
left_child=1 4 3 9 -1 -4 8 19 -5 10 11 12 -3 17 25 23 21 22 -10 -8 -21 -12 -14 -11 -20 -2 -6 -27 -13 -25
right_child=14 2 5 6 26 -7 7 -9 18 15 16 28 13 -15 -16 -17 -18 -19 24 20 -22 -23 -24 29 -26 27 -28 -29 -30 -31
leaf_value=0.00049372035033507585 -0.00016772097506644729 -0.00072803833530363368 -0.00038943846811176374 -0.00036347865870101147 0.0025380070257283891 -0.0021696559078092951 0.00095733285389248794 0.017053242970199677 0.00079438917267668897 -0.0012612480101900148 0.0017894568883420076 -0.0013450396109044103 -0.0023566894903112937 -0.0014862262660851507 -0.0016711372251400341 0.00011672883132788714 -0.00012768783037016016 -0.0032146063123534609 0.00023894192129504427 0.0044549500093464794 -0.0038228943008099051 0.00044620307379254038 0.00014601029560076543 0.0017754172045982754 -0.0022251475528144351 -0.00057970454156518528 -0.0012338202506652707 -0.0017357317825758599 -0.00050765829274149871 -0.0008859722774170255
leaf_weight=27251 26737 26787 35479 28893 6034 5604 12575 51 32416 1127 5711 11661 1303 5422 9921 115070 30039 831 134015 1210 143 22463 112619 8121 1238 17903 535 7200 58598 1073
leaf_count=27251 26737 26787 35479 28893 6034 5604 12575 51 32416 1127 5711 11661 1303 5422 9921 115070 30039 831 134015 1210 143 22463 112619 8121 1238 17903 535 7200 58598 1073
internal_value=2.13626e-08 6.40796e-05 2.43115e-05 6.84499e-05 0.000831127 -0.000632399 0.000295784 0.00127039 0.000226447 -5.09493e-05 -0.000166645 -0.00028686 -0.000114789 2.18633e-05 -0.000711691 0.000203149 0.000281848 9.31643e-05 0.000328134 0.00121211 0.00357614 0.00071867 0.000117339 0.00116616 0.000216349 -0.000527976 0.00223004 -0.000911479 -0.000646713 0.00146427
internal_weight=748030 686269 652449 611366 33820 41083 210541 13979 196562 400825 275434 217221 146962 120175 61761 125391 58213 114753 167669 13928 1353 28174 113922 10321 135253 51840 6569 25103 70259 9194
internal_count=748030 686269 652449 611366 33820 41083 210541 13979 196562 400825 275434 217221 146962 120175 61761 125391 58213 114753 167669 13928 1353 28174 113922 10321 135253 51840 6569 25103 70259 9194
is_linear=0
shrinkage=0.05


Tree=26
num_leaves=31
num_cat=0
split_feature=53 16 24 39 57 28 18 32 35 61 53 53 40 39 35 54 55 35 6 6 56 18 51 25 57 55 11 17 59 57
split_gain=12.3106 7.56586 7.3433 5.83651 6.01752 7.52793 5.83125 5.67899 5.44247 5.28666 6.43404 6.28911 4.57581 4.42665 4.38227 4.52628 4.13156 4.11019 4.06078 4.04411 3.96877 3.92812 3.72993 3.70569 3.6561 3.72969 5.88523 4.32914 4.27983 3.51409
threshold=24.124175597339299 -0.17706665913394135 0.94166666666666676 -0.52880755565169602 -0.97999999999999954 -0.031082065552682395 0.060289404613450052 0.013803939475367401 5.0906071893884349e-10 0.80707196029776684 23.311991811485004 23.679796291960052 0.44924903831965096 -0.10299411093628756 1.4079081373194243e-10 0.42200000000000004 -1.1374115296579996 1.4217346944640003e-10 0.61534757971926968 0.3228483874070715 174.74358378471052 0.076587235142940815 55.82500000000001 1.3294163665575149 -13.554999999999998 6.4500412005385011 -0.16976275927896015 0.041205823849318944 9.792192566593501 9.5450000000000035
decision_type=10 2 10 2 8 2 2 2 2 8 10 10 2 2 2 10 8 2 2 2 10 2 8 2 10 10 2 2 8 10
left_child=1 6 3 14 12 8 -1 -4 9 11 21 19 16 -13 15 -3 17 -5 -2 -6 -12 -11 -23 -8 -18 27 -27 -26 -28 -17
right_child=18 2 7 4 5 -7 23 -9 -10 10 20 13 -14 -15 -16 29 24 -19 -20 -21 -22 22 -24 -25 25 26 28 -29 -30 -31
leaf_value=0.00057306393957813921 -0.0005764956509974299 -0.0057609313730961594 -0.00030234003497462862 -0.00084069502307073686 0.0012040321219166971 0.0010606546915899616 0.0029710120892225429 -0.001717659871049923 0.00093222159367428769 0.00016326809667298564 -0.00045783071068189891 0.0016151578843450047 0.0012249305359970141 -0.00011535934086494429 0.002605465867038536 0.0010092709975172264 -0.00062339579749899252 -0.00010534610737493401 -0.0023284571820240034 0.0048848266970723357 0.0016716490823002923 0.0092024509110563771 -0.0010799823325641281 -0.004289185777225174 0.00015725965968063104 0.0031073575420314478 0.0008031241047079037 -0.00067298882657903679 -0.00063037508647159103 -0.0027803885172630188
leaf_weight=15471 58252 275 32530 40596 14772 22158 4096 9067 19243 233103 75824 4347 5739 24629 3588 8751 21429 35758 3509 787 2252 89 7894 183 53623 2150 17683 22199 7376 657
leaf_count=15471 58252 275 32530 40596 14772 22158 4096 9067 19243 233103 75824 4347 5739 24629 3588 8751 21429 35758 3509 787 2252 89 7894 183 53623 2150 17683 22199 7376 657
internal_value=1.76518e-08 6.08742e-05 3.22885e-05 7.51138e-05 5.25973e-05 0.000164589 0.00102532 -0.000610964 0.000112727 6.9354e-05 -1.8396e-06 0.000579677 -0.00016702 0.000144086 0.0011125 0.000558747 -0.000206826 -0.000496384 -0.000676119 0.00139056 -0.000396343 0.0001259 -0.000964607 0.00265925 -2.91472e-05 9.44001e-05 0.000596607 -8.57533e-05 0.00038098 0.000744065
internal_weight=748030 686269 666519 624922 611651 405098 19750 41597 382940 363697 319162 44535 206553 28976 13271 9683 200814 76354 61761 15559 78076 241086 7983 4279 124460 103031 27209 75822 25059 9408
internal_count=748030 686269 666519 624922 611651 405098 19750 41597 382940 363697 319162 44535 206553 28976 13271 9683 200814 76354 61761 15559 78076 241086 7983 4279 124460 103031 27209 75822 25059 9408
is_linear=0
shrinkage=0.05


Tree=27
num_leaves=31
num_cat=0
split_feature=53 52 53 39 17 17 17 57 17 1 59 53 55 6 55 36 57 47 53 51 39 54 18 58 32 54 51 58 52 17
split_gain=11.1295 12.1636 10.2561 6.66553 5.80133 5.42645 4.80221 4.02525 4.11356 4.01139 3.42823 3.34719 3.85084 3.26822 5.32254 3.20799 3.18984 3.15528 3.60983 3.33608 3.10445 3.51224 3.10101 3.13386 3.04608 3.02364 3.01535 2.86804 2.84282 2.82368
threshold=23.848292414087503 1.5550000000000004 22.721885611801032 -0.22387452190586007 0.024441350367732585 0.056747800770402375 0.018280728644894887 22.340000000000003 0.068864169457526936 -0.94710292807766605 20.580450509471508 24.394606628273518 11.372366116853003 0.38267970362573306 -1.0881882088214998 0.40011202204269919 -3.1849999999999992 -0.093034164636363534 22.911856282726479 -66.109999999999985 -0.07891935166483742 3.3939500000000007 0.046819337208175008 -196.28618639040295 0.010492746610694105 21.435000000000006 156.65000000000003 41.613897178868008 6.245000000000001 0.063089193185428424
decision_type=10 10 10 2 2 2 2 8 2 2 8 10 10 2 10 2 8 2 10 10 2 8 2 8 2 8 10 10 10 2
left_child=1 2 3 9 -2 16 -4 10 15 -1 24 20 -13 25 29 -9 -3 28 19 -19 -6 -22 -23 -24 -5 -8 -27 -17 -18 -15
right_child=4 5 6 7 11 -7 13 8 -10 -11 -12 12 -14 14 -16 27 17 18 -20 -21 21 22 23 -25 -26 26 -28 -29 -30 -31
leaf_value=-0.00054035805495308397 0.00039025221390368096 -1.2262681844651668e-05 0.0007486854704144779 0.0002203796722396226 1.1246907408402839e-05 0.0022038731460138836 -0.00015958106290189097 0.0022652316108895186 -0.002109728803504885 0.00092020553114529181 -0.00097415903192095063 -0.0014868774933572237 0.00037484363343815667 -0.0011247217098358147 -0.00028955450104499626 -0.00019968965008107555 0.0018195718760063489 0.014265362807246343 0.00037159314739016055 0.0029256226306544923 -0.00020195692275988601 -0.00065428741834501849 0.0025745479562783117 -0.0018542745987509006 -0.00019356642823120565 -0.0013853719850821843 0.010921133283949542 0.0017248104870798771 -0.00085006544556354841 -0.0031530502968226287
leaf_weight=5266 18761 12791 12826 165495 27355 6445 233887 4568 1008 43505 7545 15845 3363 4248 15089 4642 10602 77 16392 424 27705 25566 415 10022 60746 6086 50 3316 1098 2892
leaf_count=5266 18761 12791 12826 165495 27355 6445 233887 4568 1008 43505 7545 15845 3363 4248 15089 4642 10602 77 16392 424 27705 25566 415 10022 60746 6086 50 3316 1098 2892
internal_value=1.68415e-08 8.80783e-05 2.39305e-05 0.000228156 -0.000422397 0.000854019 -0.000195877 0.000122784 0.000961176 0.000762399 7.42269e-05 -0.000560702 -0.00116066 -0.000242093 -0.000822165 0.00120871 0.000643672 0.000937276 0.000499719 0.00468093 -0.000434097 -0.000625397 -0.000951102 -0.00167767 0.000109212 -0.00018835 -0.0012841 0.000601609 0.0015686 -0.00194701
internal_weight=748030 618998 571169 296091 129032 47829 275078 247320 13534 48771 233786 110271 19208 262252 22229 12526 41384 28593 16893 501 91063 63708 36003 10437 226241 240023 6136 7958 11700 7140
internal_count=748030 618998 571169 296091 129032 47829 275078 247320 13534 48771 233786 110271 19208 262252 22229 12526 41384 28593 16893 501 91063 63708 36003 10437 226241 240023 6136 7958 11700 7140
is_linear=0
shrinkage=0.05


Tree=28
num_leaves=31
num_cat=0
split_feature=53 53 52 53 35 39 56 57 36 40 35 23 57 17 6 56 28 28 58 36 23 53 51 59 39 58 39 35 58 56
split_gain=10.2044 6.32201 9.6461 9.4919 5.9279 5.5664 4.51808 5.40508 4.45685 4.17823 3.75677 3.80481 4.11733 3.49313 3.38111 3.09287 3.04064 3.1218 2.9185 2.8915 2.8584 2.83611 2.89506 2.7748 2.73441 2.71799 2.73592 2.59598 2.59124 3.76689
threshold=24.148783272990087 22.575263010262326 15.155000000000003 23.618502246186402 3.7765865163258589e-11 -0.32612318068061497 174.74358378471052 2.6900000000000013 0.70946148764297312 0.20504212775860561 9.4153040624480197e-12 0.081658148136679251 22.340000000000003 0.018280728644894887 0.61534757971926968 106.87200059323752 -0.064858172027467589 -0.32100517462686379 453.24674419973149 0.42602546317885071 0.090634258794070666 23.195567630705103 55.82500000000001 25.631102279421501 -0.10299411093628756 16.715297834480502 -0.026375163844161328 1.0494960599387715e-10 9.9857661763185011 29.904644209128005
decision_type=10 10 8 10 2 2 10 10 2 2 2 10 8 2 2 8 2 2 10 2 10 10 10 8 2 10 2 2 10 10
left_child=1 5 3 9 6 28 -4 -8 16 -3 -7 12 15 -5 -2 23 17 -6 21 -14 -19 22 -11 -12 -15 -21 -27 -24 29 -1
right_child=14 2 4 13 8 10 7 -9 -10 18 11 -13 19 24 -16 -17 -18 20 -20 25 -22 -23 27 -25 -26 26 -28 -29 -30 -31
leaf_value=0.00085150182348097325 -0.00054915428382210768 0.00071230168044911137 -0.0010725932048557135 0.0012709321473047769 0.0020775357845774474 -0.0010305711165722257 0.007831536265508407 -0.00056959871659825994 -0.0008474204204283255 0.0050252839422691492 0.00017890490667877459 -0.0010007348082829513 0.002064775353693728 0.00058657703854255458 -0.0022102503757568562 0.0012372397140474991 0.00016157482244424633 -0.00019321782201210788 0.012042275838936252 -0.00049405993665514768 -0.0015966077822400278 0.0014523500325560263 -0.0043945275741540581 -0.0010652317798651402 -0.00016010781556492467 -0.00010817587670557423 0.0027883273178217318 0.002982531894503487 0.0018117032297433836 -0.0016260929919953105
leaf_weight=19470 53516 22183 24088 5544 1488 6349 316 483 20973 1248 194890 6380 4969 14959 3252 6768 82688 180094 72 3495 3704 6721 173 4586 67968 1458 1840 382 6309 1664
leaf_count=19470 53516 22183 24088 5544 1488 6349 316 483 20973 1248 194890 6380 4969 14959 3252 6768 82688 180094 72 3495 3704 6721 173 4586 67968 1458 1840 382 6309 1664
internal_value=1.55084e-08 5.2944e-05 -6.37949e-05 0.000318996 -0.000209263 0.000248788 -0.000949743 0.00274731 -0.000145468 0.0010753 0.000168694 0.00020265 0.000237891 5.58218e-05 -0.000644403 0.00018597 -9.05106e-05 -0.000203036 0.00201145 0.00114787 -0.000221528 0.001926 0.00368864 0.000150276 -2.53543e-05 0.000476407 0.00150634 0.000673631 0.000922019 0.000656183
internal_weight=748030 691262 433084 119250 313834 258178 24887 799 288947 30779 230735 224386 218006 88471 56768 206244 267974 185286 8596 11762 183798 8524 1803 199476 82927 6793 3298 555 27443 21134
internal_count=748030 691262 433084 119250 313834 258178 24887 799 288947 30779 230735 224386 218006 88471 56768 206244 267974 185286 8596 11762 183798 8524 1803 199476 82927 6793 3298 555 27443 21134
is_linear=0
shrinkage=0.05


Tree=29
num_leaves=31
num_cat=0
split_feature=53 51 53 61 53 39 32 58 55 54 39 58 54 28 55 43 44 57 58 52 56 56 28 57 39 57 56 45 1 54
split_gain=9.3266 7.37287 6.45746 7.43954 6.74978 5.19934 4.87779 3.92234 5.33836 4.23882 3.87366 3.67852 4.18335 3.59577 3.82914 4.84733 4.04427 3.92772 3.50305 3.39715 3.45937 5.86362 3.28924 3.28407 3.0979 2.94281 2.94173 2.91033 2.84316 2.87424
threshold=22.886106102475349 38.355000000000011 24.394606628273518 0.73606811145510853 23.800132766013153 -0.14163871060613922 0.010894704419375989 -14.496350922809496 -4.2377165252479996 12.295000000000002 -0.014642734523369337 9.3861645005585004 0.06370000000000002 -0.064858172027467589 0.82752672398250005 -0.3836654429352504 0.42787873801015613 -14.489999999999998 -14.910875599188499 1.925 25.739183325474002 26.801515874150503 -0.17798496074246087 -20.159999999999993 -0.99607806227802309 -56.089999999999989 9.3545826263520002 0.14029588918253957 2.6337714580430447 2.2050000000000005
decision_type=10 8 8 8 10 2 2 8 10 8 2 10 8 2 10 2 10 10 10 10 10 10 2 8 2 8 10 2 2 10
left_child=1 -1 3 4 22 7 23 8 -3 18 -6 25 27 14 16 -16 -5 -17 -10 20 -4 -22 -2 -7 -14 -9 -26 -13 -27 -30
right_child=2 5 19 13 10 6 -8 11 9 -11 -12 12 24 -15 15 17 -18 -19 -20 -21 21 -23 -24 -25 26 28 -28 -29 29 -31
leaf_value=0.0040229541287675639 0.0022682773136332318 -0.00030171631207553956 -0.00087736696350542657 -0.00044536905270605169 0.00022559099753399086 -0.00095572080389827495 -0.00031792069042273441 -0.0086683501302420654 0.0019890926651316143 1.4078079637524599e-05 -0.00069697349510456611 -0.01169193470325687 0.0040195405523295513 3.6508579340475858e-05 0.0017452784717993106 -0.0013298181017381322 -0.001357628027869073 -0.00013198458701725669 0.0083556517957061472 -0.0017987007402683549 0.012347455426893875 0.00069930777821916026 0.00065446634642569459 0.00022544722744467449 6.2872869615931027e-05 0.00015374662060640008 0.0014684837720887666 -0.00072733266668479853 0.0046864535062984712 -0.0036287009532317521
leaf_weight=1251 3497 4644 10442 79696 34254 6068 62124 96 10630 3073 17035 62 901 85849 3261 7322 14344 105077 221 8362 114 2070 32840 193293 5542 41105 11384 2514 118 841
leaf_count=1251 3497 4644 10442 79696 34254 6068 62124 96 10630 3073 17035 62 901 85849 3261 7322 14344 105077 221 8362 114 2070 32840 193293 5542 41105 11384 2514 118 841
internal_value=1.49075e-08 0.000191427 -0.000162829 -0.00011604 0.00028855 0.000177422 6.89043e-05 0.00052711 0.00116537 0.00165504 -8.07305e-05 0.0003376 0.000888746 -0.000236012 -0.000347602 -0.000154886 -0.000584571 -0.000210061 0.0021193 -0.00101681 -0.000498576 0.00131014 0.00080992 0.00018947 0.00116103 7.07567e-05 0.00100855 -0.000993617 9.08409e-05 -0.00259997
internal_weight=748030 343867 404163 383175 87626 342616 261485 81131 18568 13924 51289 62563 20403 295549 209700 115660 94040 112399 10851 20988 12626 2184 36337 199361 17827 42160 16926 2576 42064 959
internal_count=748030 343867 404163 383175 87626 342616 261485 81131 18568 13924 51289 62563 20403 295549 209700 115660 94040 112399 10851 20988 12626 2184 36337 199361 17827 42160 16926 2576 42064 959
is_linear=0
shrinkage=0.05


Tree=30
num_leaves=31
num_cat=0
split_feature=53 52 61 53 24 35 6 43 56 56 17 54 17 14 18 56 56 28 62 54 58 32 35 58 54 28 43 58 63 21
split_gain=8.58671 10.8653 6.24417 6.13858 4.98003 4.95859 4.01691 3.56008 3.66804 5.04394 3.82578 3.73985 3.38358 3.24914 3.1985 3.32721 5.84415 3.18376 3.16074 3.0968 3.4223 2.83606 2.70203 3.43816 2.99091 3.04351 2.69497 2.68559 2.80195 2.59723
