tree
version=v4
num_class=1
num_tree_per_iteration=1
label_index=0
max_feature_idx=63
objective=regression
feature_names=rsi_14 macd_hist boll_pctb kdj_j vol_price_ratio mom_20d mom_60d volatility_20d rsi_delta macd_hist_delta boll_pctb_delta mom_accel volume_trend close_ma5_dev close_ma20_dev close_ma60_dev ma_alignment atr_14 price_range_10d williams_r adx_14 obv_slope amount_ratio turnover_5d turnover_pctile return_skew_20d return_kurtosis_20d updown_vol_ratio max_drawdown_20d return_autocorr close_position upper_shadow lower_shadow body_ratio gap_5d amihud_illiq volume_volatility mom_5d mom_10d vwap_dev boll_bandwidth vol_price_corr consecutive_days high_distance_60d low_distance_60d vol_ratio_5_60 mfi_14 intraday_intensity cci_20 return_extremes_ratio amount_volatility pe_ttm pb total_mv_log roe revenue_growth profit_growth roe_qoq profit_growth_accel revenue_growth_accel pe_ind_rank pb_ind_rank roe_ind_rank mom_20d_ind_rank
feature_infos=[2.7605009739617685:98.387751917623476] [-30.771282183921038:34.484388742298954] [-0.53208470553166665:1.5558073316154197] [-26.176770209780003:128.19838332142331] [0.010005500137101461:251.6262702667149] [-0.68944478340451498:2.3363095238095242] [-0.80267558528428096:17.000000000000004] [0.021603106886197425:3.6897955874868584] [-52.467249399148457:53.821741362975501] [-27.919116629451899:33.453880159581715] [-1.488198070395204:1.6213139484338983] [-2.1907859078590786:1.0826172574292876] [0.010722816293106235:3.9550700417909521] [-0.2244148692060578:0.54684095860566462] [-0.50329283830100313:0.98932628706029657] [-0.69918265314720673:1.830853876766112] [-0.67289273375839131:1.4889559573729336] [0.006946656664685219:0.25659470581477095] [0:0.24835501663021908] [-100:0] [5.6984516136135079:85.889219093241735] [-1.0741629250461198:1.4340402962585999] [0.0085895262741454773:15.352647618676064] [0.00038193291511591325:3.1979999999999995] [0:0.98333333333333328] [-3.7230434451012275:3.7128248206683132] [-1.906027997011541:12.984580428856095] [0.00094046599704379489:287.02500117728215] [-0.69939024390243898:0] [-0.85662173009838194:0.87701349616893765] [0:1] [0:0.10634406774393393] [0:0.072769247228845119] [0:0.93843043445017216] [-0.10005755845969495:0.10038595454724486] [8.1011943262741411e-13:1.1062050560640314e-07] [0.098288111961247857:4.1824664201794279] [-0.41005291005291:1.5877192982456143] [-0.59174041297935109:1.6030150753768844] [-0.99920335574166153:0.95671110022984207] [0.0078000805481764765:1.7187650903375575] [-0.94789454096527948:0.98743104534229553] [-15:16] [-0.8084763948497854:0] [0:26] [0:3.1882641144591841] [0:100] [-0.880344523922858:0.92725892623919226] [-535.58212354113095:579.09604519773586] [0.020746271822826921:23.633903133903019] [0.10001159081067376:3.2990106699150892] [-2762.4699999999998:9731.5799999999999] [-74.400000000000006:34.479999999999997] [19.899098393948062:26.082920930847433] [-93.459999999999994:130.74000000000001] [-125.903093464919:1983.34666651731] [-144364.74348736901:47154.854950655099] [-140.60999999999999:125.53999999999999] [-144264.60461670198:144305.16280707432] [-1806.223094004936:1986.2519413291341] [0.029411764705882353:1] [0.029411764705882353:1] [0.019607843137254902:1] [0.019230769230769232:1]
tree_sizes=3075

Tree=0
num_leaves=31
num_cat=0
split_feature=24 35 39 28 52 35 54 7 58 50 53 6 54 35 15 52 57 56 12 58 54 53 57 57 58 53 28 28 57 52
split_gain=57.8155 50.3306 30.0647 27.3039 21.7926 19.4365 22.0754 17.6154 20.4534 29.3404 17.329 17.0396 11.8224 11.4981 11.2016 11.2912 10.9998 9.66522 9.63872 9.62133 12.3766 9.49512 9.47796 8.05991 7.53935 7.37513 6.8499 6.66017 6.50729 6.23045
threshold=inf 8.7858893166666122e-11 -0.18061703758097067 -0.18174331904106997 3.9250000000000003 3.4565045500435959e-11 -11.769999999999998 1.098639205018699 10.680903227112003 0.297648218681211 23.590841742603484 0.38780405781703836 11.335000000000003 6.0533347882746725e-11 -0.19828270589143857 1.8150000000000002 0.040350000000000004 -407.15620230344092 0.81622303939813101 -14.519696809007998 -0.49499999999999994 23.339763363877804 -1.0049999999999997 -0.68009999999999982 19.027573708990506 24.294882909077362 -0.07448538499553807 -0.13424802340061978 -2.2011499999999993 2.3250000000000006
decision_type=8 2 2 2 8 2 10 2 10 2 10 2 10 2 2 8 8 10 2 8 10 10 10 10 10 10 2 2 10 8
left_child=1 11 7 18 10 -4 13 12 -9 -10 17 14 19 -7 -1 16 -16 26 -3 20 -2 -6 -12 -19 -21 -17 -5 -18 -20 -30
right_child=2 3 5 4 21 6 -8 8 9 -11 22 -13 -14 -15 15 25 27 23 28 24 -22 -23 -24 -25 -26 -27 -28 -29 29 -31
leaf_value=0.003147413849767557 0.026086418446696777 0.0016345203229559293 0.0010348518223287895 0.03208790855728591 0.0013525101452837533 0.035549962220298686 0.0025381685180820906 0.0048615221949572397 0.049492708291287463 0.012607067465537414 0.00070236098735282923 -0.00090067910011463114 0.0021902919342601289 0.010954384825510984 0.00035272355612526562 0.0006211802710185799 0.0042054913631609341 0.0023766536019650089 0.0020903370531570593 0.0033337654776968203 0.0062808963570736669 0.00067345842192008669 0.002422639054056536 0.005174432441091145 0.0065518438972953369 -0.00039809229425953174 0.0068647274647050602 0.0017214501089249327 0.0076538634903859162 0.0036859252621863495
leaf_weight=4679 81 11375 36893 52 275138 66 39290 498 71 226 11961 17208 10624 173 16188 196919 3011 4463 6684 13533 3093 63326 24202 6102 2106 19514 57 26087 1058 15632
leaf_count=4679 81 11375 36893 52 275138 66 39290 498 71 226 11961 17208 10624 173 16188 196919 3011 4463 6684 13533 3093 63326 24202 6102 2106 19514 57 26087 1058 15632
internal_value=0.00130339 0.00113896 0.00238821 0.00148642 0.00136534 0.00186012 0.00263048 0.00372296 0.0110686 0.0214549 0.0023762 0.000624323 0.00352438 0.0177789 0.00072285 0.000679484 0.00139735 0.00414653 0.00282876 0.00427748 0.00678867 0.00122548 0.00185351 0.00399305 0.00376747 0.000529257 0.0189608 0.00197867 0.00340972 0.00393779
internal_weight=810310 703656 106654 420050 385301 76422 39529 30232 795 297 46837 283606 29437 239 266398 261719 45286 10674 34749 18813 3174 338464 36163 10565 15639 216433 109 29098 23374 16690
internal_count=810310 703656 106654 420050 385301 76422 39529 30232 795 297 46837 283606 29437 239 266398 261719 45286 10674 34749 18813 3174 338464 36163 10565 15639 216433 109 29098 23374 16690
is_linear=0
shrinkage=1


end of trees

feature_importances:
roe_qoq=4
max_drawdown_20d=3
amihud_illiq=3
pb=3
total_mv_log=3
roe=3
profit_growth_accel=3
mom_60d=1
volatility_20d=1
volume_trend=1
close_ma60_dev=1
turnover_pctile=1
vwap_dev=1
amount_volatility=1
profit_growth=1

parameters:
[boosting: gbdt]
[objective: regression]
[metric: l1]
[tree_learner: serial]
[device_type: cpu]
[data_sample_strategy: bagging]
[data: ]
[valid: ]
[num_iterations: 1000]
[learning_rate: 0.05]
[num_leaves: 31]
[num_threads: 0]
[seed: 42]
[deterministic: 0]
[force_col_wise: 0]
[force_row_wise: 0]
[histogram_pool_size: -1]
[max_depth: -1]
[min_data_in_leaf: 50]
[min_sum_hessian_in_leaf: 0.001]
[bagging_fraction: 0.8]
[pos_bagging_fraction: 1]
[neg_bagging_fraction: 1]
[bagging_freq: 0]
[bagging_seed: 43]
[bagging_by_query: 0]
[feature_fraction: 0.8]
[feature_fraction_bynode: 1]
[feature_fraction_seed: 44]
[extra_trees: 0]
[extra_seed: 12879]
[early_stopping_round: 0]
[early_stopping_min_delta: 0]
[first_metric_only: 0]
[max_delta_step: 0]
[lambda_l1: 0.1]
[lambda_l2: 0.1]
[linear_lambda: 0]
[min_gain_to_split: 0]
[drop_rate: 0.1]
[max_drop: 50]
[skip_drop: 0.5]
[xgboost_dart_mode: 0]
[uniform_drop: 0]
[drop_seed: 17869]
[top_rate: 0.2]
[other_rate: 0.1]
[min_data_per_group: 100]
[max_cat_threshold: 32]
[cat_l2: 10]
[cat_smooth: 10]
[max_cat_to_onehot: 4]
[top_k: 20]
[monotone_constraints: ]
[monotone_constraints_method: basic]
[monotone_penalty: 0]
[feature_contri: ]
[forcedsplits_filename: ]
[refit_decay_rate: 0.9]
[cegb_tradeoff: 1]
[cegb_penalty_split: 0]
[cegb_penalty_feature_lazy: ]
[cegb_penalty_feature_coupled: ]
[path_smooth: 0]
[interaction_constraints: ]
[verbosity: -1]
[saved_feature_importance_type: 0]
[use_quantized_grad: 0]
[num_grad_quant_bins: 4]
[quant_train_renew_leaf: 0]
[stochastic_rounding: 1]
[linear_tree: 0]
[max_bin: 255]
[max_bin_by_feature: ]
[min_data_in_bin: 3]
[bin_construct_sample_cnt: 200000]
[data_random_seed: 175]
[is_enable_sparse: 1]
[enable_bundle: 1]
[use_missing: 1]
[zero_as_missing: 0]
[feature_pre_filter: 1]
[pre_partition: 0]
[two_round: 0]
[header: 0]
[label_column: ]
[weight_column: ]
[group_column: ]
[ignore_column: ]
[categorical_feature: ]
[forcedbins_filename: ]
[precise_float_parser: 0]
[parser_config_file: ]
[objective_seed: 16083]
[num_class: 1]
[is_unbalance: 0]
[scale_pos_weight: 1]
[sigmoid: 1]
[boost_from_average: 1]
[reg_sqrt: 0]
[alpha: 0.9]
[fair_c: 1]
[poisson_max_delta_step: 0.7]
[tweedie_variance_power: 1.5]
[lambdarank_truncation_level: 30]
[lambdarank_norm: 1]
[label_gain: ]
[lambdarank_position_bias_regularization: 0]
[eval_at: ]
[multi_error_top_k: 1]
[auc_mu_weights: ]
[num_machines: 1]
[local_listen_port: 12400]
[time_out: 120]
[machine_list_filename: ]
[machines: ]
[gpu_platform_id: -1]
[gpu_device_id: -1]
[gpu_use_dp: 0]
[num_gpu: 1]

end of parameters

pandas_categorical:null
