tree
version=v4
num_class=1
num_tree_per_iteration=1
label_index=0
max_feature_idx=63
objective=regression
feature_names=rsi_14 macd_hist boll_pctb kdj_j vol_price_ratio mom_20d mom_60d volatility_20d rsi_delta macd_hist_delta boll_pctb_delta mom_accel volume_trend close_ma5_dev close_ma20_dev close_ma60_dev ma_alignment atr_14 price_range_10d williams_r adx_14 obv_slope amount_ratio turnover_5d turnover_pctile return_skew_20d return_kurtosis_20d updown_vol_ratio max_drawdown_20d return_autocorr close_position upper_shadow lower_shadow body_ratio gap_5d amihud_illiq volume_volatility mom_5d mom_10d vwap_dev boll_bandwidth vol_price_corr consecutive_days high_distance_60d low_distance_60d vol_ratio_5_60 mfi_14 intraday_intensity cci_20 return_extremes_ratio amount_volatility pe_ttm pb total_mv_log roe revenue_growth profit_growth roe_qoq profit_growth_accel revenue_growth_accel pe_ind_rank pb_ind_rank roe_ind_rank mom_20d_ind_rank
feature_infos=[2.5141524303529508:97.619013599124045] [-21.211088721236145:23.978969111797504] [-0.55685951330981898:1.5681818181818208] [-26.488833683292818:127.47601039883202] [0.0010652002232918738:398.77232469199635] [-0.68944478340451498:2.8695652173913042] [-0.78712871287128716:5.9661016949152552] [0.021609054949972232:4.2824095481178377] [-65.340243848529553:57.97590553334534] [-24.06473353866231:25.159305615777864] [-1.5141778864853666:1.6213139484338983] [-2.5942325664189396:1.0826172574292876] [0.002325151935330178:3.9619221358367822] [-0.3074119076549211:0.55529953917050712] [-0.53236615361955963:1.2149302707136993] [-0.65469719010795502:2.0027033341120717] [-0.65206244563475713:1.5619597503587761] [0.005291641762174345:0.33241457626258047] [0:0.32407751408899438] [-100:0] [5.1284151119469366:85.2610060007746] [-1.0281918318736314:1.4415423909947105] [0.0014386491002332364:14.022694851280932] [3.2548615775224872e-05:3.1520000000000001] [0:0.98333333333333328] [-3.7758509281941879:3.7792431952974215] [-1.9538933259689:13.164578224860296] [0:739.74866587288011] [-0.71219512195121959:0] [-0.84542332910905116:0.9690736447653634] [0:1] [0:0.10530389442239578] [0:0.081728806454601927] [0:1] [-0.10011055148351086:0.10069159158957224] [4.3890327829510106e-12:1.1091858445084288e-07] [0.098288111961247857:4.1047035646737093] [-0.40985130111524171:1.5877192982456143] [-0.61256863941427708:1.5244107744107742] [-0.99929531687868278:1.0580550565445201] [0.0083008135175221716:1.7974896721421185] [-0.93638173438313022:0.98743104534229553] [-16:13] [-0.79238197424892709:0] [0:10.754716981132075] [0:3.1496605242391205] [0:100] [-0.7029704220810381:0.90097492647263289] [-595.92326139087936:573.45971563980879] [0:23.14738110891853] [0.10001159081067376:2.9976255602638169] [-2762.4699999999998:7337.1599999999999] [-74.400000000000006:34.479999999999997] [19.888578133273882:25.241621692270115] [-93.459999999999994:130.74000000000001] [-125.903093464919:1073.14390919327] [-144364.74348736901:47154.854950655099] [-140.60999999999999:125.53999999999999] [-144264.60461670198:144305.16280707432] [-1806.223094004936:1016.01940145055] [0.029411764705882353:1] [0.029411764705882353:1] [0.019607843137254902:1] [0.019230769230769232:1]
tree_sizes=3031

Tree=0
num_leaves=31
num_cat=0
split_feature=23 35 28 39 35 36 55 6 61 53 28 61 18 35 59 6 57 58 62 57 45 62 57 50 48 57 43 59 59 58
split_gain=76.6836 41.0407 22.6706 21.5999 17.5329 22.7429 29.5799 17.0051 15.7222 13.5692 10.2086 14.1422 13.2435 9.57664 8.47625 8.22577 8.12245 7.99923 9.23942 7.80804 7.7223 6.24975 8.82267 13.5412 5.7112 5.64679 5.58917 5.34126 15.9129 5.22883
threshold=inf 1.0029522806954237e-10 -0.18205394382731682 -0.27955867743039758 1.3663389689778128e-10 0.27334166010996142 -2.5379807240934995 0.38110206461964452 0.76036682615630002 23.596291820670135 -0.13048743821773745 0.063508064516129045 0.055528520636224384 3.7925645195201504e-11 14.794691176553 0.25654189532312227 -2.3171499999999994 -12.050183941606997 0.42365967365967372 -4.6149999999999993 1.1310573608167749 0.37089947089947095 -0.35799999999999987 0.22581495570105656 251.08576011121767 -0.88999999999999979 -0.37577215780213252 -18.442940856956493 -21.005410983972997 -15.836510122446999
decision_type=8 2 2 2 2 2 10 2 8 10 2 10 2 2 10 2 10 10 10 10 2 10 10 2 2 10 2 8 10 10
left_child=1 7 16 4 14 6 -6 10 9 -4 11 -1 19 -5 17 -10 -3 18 -2 -13 -18 22 23 -15 -25 -11 -14 28 -17 -20
right_child=3 2 8 13 5 -7 -8 -9 15 25 -12 12 26 21 -16 27 20 -19 29 -21 -22 -23 -24 24 -26 -27 -28 -29 -30 -31
leaf_value=0.00098455823517035516 0.02923637467333591 0.0016677482256145665 0.0045190762885804403 0.0017077866966671146 0.061043787843643442 0.0095113719179672138 0.0094201110025256239 -0.00070307528109672841 0.0014260069150470148 0.00066809840123218181 0.00073736474632541034 0.0001476918016790809 0.018107911184886853 0.033996164576284266 0.021464431380782346 -4.8299029934096129e-05 0.0027564820818090155 0.0040956047350019951 0.0062063209102721844 0.0028904979853120148 0.0047816428024483196 0.003234587353254265 0.0031478547810173479 0.0069309245616594895 0.023518263318622532 0.0025541905809342079 0.0059133476350188233 -7.822741766931986e-05 0.023528963288914143 0.016203966601278163
leaf_weight=38255 53 9228 7129 9539 52 870 60 17844 290875 5864 217105 3462 99 50 78 279 13789 5355 833 10339 7159 14898 1668 1433 54 12260 1958 11939 96 156
leaf_count=38255 53 9228 7129 9539 52 870 60 17844 290875 5864 217105 3462 99 50 78 279 13789 5355 833 10339 7159 14898 1668 1433 54 12260 1958 11939 96 156
internal_value=0.0013588 0.00123545 0.00159278 0.00363502 0.00602346 0.0122514 0.0334647 0.000792125 0.00147226 0.00267092 0.000890517 0.00150488 0.00276039 0.00299049 0.005078 0.0013724 0.00290434 0.00487711 0.00888792 0.0022021 0.00344883 0.0036661 0.00567027 0.00840413 0.0075381 0.00194367 0.00650347 0.00010666 0.00597845 0.0077897
internal_weight=682779 647680 358618 35099 7457 982 112 289062 328442 25253 271218 54113 15858 27642 6475 303189 30176 6397 1042 13801 20948 18103 3205 1537 1487 18124 2057 12314 375 989
internal_count=682779 647680 358618 35099 7457 982 112 289062 328442 25253 271218 54113 15858 27642 6475 303189 30176 6397 1042 13801 20948 18103 3205 1537 1487 18124 2057 12314 375 989
is_linear=0
shrinkage=1


end of trees

feature_importances:
roe_qoq=4
amihud_illiq=3
revenue_growth_accel=3
mom_60d=2
max_drawdown_20d=2
profit_growth_accel=2
pb_ind_rank=2
roe_ind_rank=2
price_range_10d=1
turnover_5d=1
volume_volatility=1
vwap_dev=1
high_distance_60d=1
vol_ratio_5_60=1
cci_20=1
amount_volatility=1
total_mv_log=1
revenue_growth=1

parameters:
[boosting: gbdt]
[objective: regression]
[metric: l1]
[tree_learner: serial]
[device_type: cpu]
[data_sample_strategy: bagging]
[data: ]
[valid: ]
[num_iterations: 1000]
[learning_rate: 0.05]
[num_leaves: 31]
[num_threads: 0]
[seed: 0]
[deterministic: 0]
[force_col_wise: 0]
[force_row_wise: 0]
[histogram_pool_size: -1]
[max_depth: -1]
[min_data_in_leaf: 50]
[min_sum_hessian_in_leaf: 0.001]
[bagging_fraction: 0.8]
[pos_bagging_fraction: 1]
[neg_bagging_fraction: 1]
[bagging_freq: 0]
[bagging_seed: 3]
[bagging_by_query: 0]
[feature_fraction: 0.8]
[feature_fraction_bynode: 1]
[feature_fraction_seed: 2]
[extra_trees: 0]
[extra_seed: 6]
[early_stopping_round: 0]
[early_stopping_min_delta: 0]
[first_metric_only: 0]
[max_delta_step: 0]
[lambda_l1: 0.1]
[lambda_l2: 0.1]
[linear_lambda: 0]
[min_gain_to_split: 0]
[drop_rate: 0.1]
[max_drop: 50]
[skip_drop: 0.5]
[xgboost_dart_mode: 0]
[uniform_drop: 0]
[drop_seed: 4]
[top_rate: 0.2]
[other_rate: 0.1]
[min_data_per_group: 100]
[max_cat_threshold: 32]
[cat_l2: 10]
[cat_smooth: 10]
[max_cat_to_onehot: 4]
[top_k: 20]
[monotone_constraints: ]
[monotone_constraints_method: basic]
[monotone_penalty: 0]
[feature_contri: ]
[forcedsplits_filename: ]
[refit_decay_rate: 0.9]
[cegb_tradeoff: 1]
[cegb_penalty_split: 0]
[cegb_penalty_feature_lazy: ]
[cegb_penalty_feature_coupled: ]
[path_smooth: 0]
[interaction_constraints: ]
[verbosity: -1]
[saved_feature_importance_type: 0]
[use_quantized_grad: 0]
[num_grad_quant_bins: 4]
[quant_train_renew_leaf: 0]
[stochastic_rounding: 1]
[linear_tree: 0]
[max_bin: 255]
[max_bin_by_feature: ]
[min_data_in_bin: 3]
[bin_construct_sample_cnt: 200000]
[data_random_seed: 1]
[is_enable_sparse: 1]
[enable_bundle: 1]
[use_missing: 1]
[zero_as_missing: 0]
[feature_pre_filter: 1]
[pre_partition: 0]
[two_round: 0]
[header: 0]
[label_column: ]
[weight_column: ]
[group_column: ]
[ignore_column: ]
[categorical_feature: ]
[forcedbins_filename: ]
[precise_float_parser: 0]
[parser_config_file: ]
[objective_seed: 5]
[num_class: 1]
[is_unbalance: 0]
[scale_pos_weight: 1]
[sigmoid: 1]
[boost_from_average: 1]
[reg_sqrt: 0]
[alpha: 0.9]
[fair_c: 1]
[poisson_max_delta_step: 0.7]
[tweedie_variance_power: 1.5]
[lambdarank_truncation_level: 30]
[lambdarank_norm: 1]
[label_gain: ]
[lambdarank_position_bias_regularization: 0]
[eval_at: ]
[multi_error_top_k: 1]
[auc_mu_weights: ]
[num_machines: 1]
[local_listen_port: 12400]
[time_out: 120]
[machine_list_filename: ]
[machines: ]
[gpu_platform_id: -1]
[gpu_device_id: -1]
[gpu_use_dp: 0]
[num_gpu: 1]

end of parameters

pandas_categorical:null
