tree
version=v4
num_class=1
num_tree_per_iteration=1
label_index=0
max_feature_idx=63
objective=regression
feature_names=rsi_14 macd_hist boll_pctb kdj_j vol_price_ratio mom_20d mom_60d volatility_20d rsi_delta macd_hist_delta boll_pctb_delta mom_accel volume_trend close_ma5_dev close_ma20_dev close_ma60_dev ma_alignment atr_14 price_range_10d williams_r adx_14 obv_slope amount_ratio turnover_5d turnover_pctile return_skew_20d return_kurtosis_20d updown_vol_ratio max_drawdown_20d return_autocorr close_position upper_shadow lower_shadow body_ratio gap_5d amihud_illiq volume_volatility mom_5d mom_10d vwap_dev boll_bandwidth vol_price_corr consecutive_days high_distance_60d low_distance_60d vol_ratio_5_60 mfi_14 intraday_intensity cci_20 return_extremes_ratio amount_volatility pe_ttm pb total_mv_log roe revenue_growth profit_growth roe_qoq profit_growth_accel revenue_growth_accel pe_ind_rank pb_ind_rank roe_ind_rank mom_20d_ind_rank
feature_infos=[3.5645249214560408:98.739194334700755] [-27.169443768703388:23.763778044426815] [-0.51167376763929973:1.5897247358851994] [-26.716620938504001:128.84377338174517] [0.01105202164870266:137.16348170782064] [-0.65044764499805374:3.8454987834549872] [-0.71930360415394023:17.715811965811966] [0:1.6494724239181682] [-49.725224797165431:61.781478100510483] [-23.671153909321497:18.411896679643675] [-1.6508757088827459:1.6453869919465718] [-3.2349043637218697:0.91965956843017105] [0.01467778821393193:3.6215964580926139] [-0.19931506849315073:0.35997833320436401] [-0.52772883851797314:1.1237569649950681] [-0.58888482959671351:2.5644716235364302] [-0.5136693382329649:2.0010991023997069] [0.0068086553916001432:0.21541225021022295] [0:0.18565581035125214] [-100:0] [5.4751558539972649:88.922881101346519] [-0.99684659325268132:1.1128963302504697] [0.0033763941061228063:14.170541115895229] [0.00017140723981900452:0.58021299999999998] [0:0.98333333333333328] [-4.129483209670112:4.1294832096701128] [-1.8993429045528829:15.052631578947373] [0:270.11716198710241] [-0.66943083301922357:0] [-0.80050066957808597:0.90486585780904483] [0:1] [0:0.08569628833729323] [0:0.074901687608845399] [0:0.92642390653317119] [-0.10001962024950153:0.10048732359032345] [0:1.1956394701583752e-07] [0.10997709015032651:2.7671828142263624] [-0.41007194244604317:0.8776978417266188] [-0.59018691588785044:1.5953947368421053] [-0.9578862738295173:1.0451088762653815] [5.7673923357150998e-16:2.0972206440579724] [-0.95095020345037029:0.95549798233553029] [-14:18] [-0.7885411872986654:0] [0:16.007766990291262] [0:3.1433370024541856] [0:100] [-0.63289987226384603:0.76549635211534761] [-498.20085050703238:590.26217228464145] [0:24.742655699177661] [0.10840706461179357:3.0334213472758256] none none none [-1290.26:201.97999999999999] [-32430.463773151201:6534.1137512344303] [-87934.743809934793:18088.410932085299] [-974.48000000000002:3751.8000000000002] [-87834.521189741776:88073.890565078516] [-32418.007282747672:32447.056303305482] none none [0.03125:1] [0.030303030303030304:1]
tree_sizes=3020 3061 3120 3140 3100 3116 3117 3095

Tree=0
num_leaves=31
num_cat=0
split_feature=35 6 32 35 43 22 35 39 5 47 54 39 23 56 39 56 54 6 25 28 35 6 49 58 40 55 56 39 15 20
split_gain=132.401 75.6468 38.793 30.6912 35.1382 50.7192 29.8256 23.9912 20.7082 15.775 19.7802 15.2868 13.9592 13.3323 11.3337 28.602 12.9239 11.2224 14.6968 12.0952 10.2015 10.1903 9.19259 11.2832 8.61741 8.52477 8.51756 8.49227 8.3696 8.34941
threshold=9.7399913775588378e-11 -0.3777089682307756 0.026421541973940272 3.0768727682451973e-10 -1.0000000180025095e-35 0.27679836979973632 4.558444863274498e-11 -0.50885796890282053 -0.30407542324386932 0.1296050927549626 2.9650000000000003 -0.51671404713119717 0.0069572330753029836 8.7296783772560023 -0.58961436588528915 231.05089794597851 -3.8399999999999994 0.61864066618739544 0.019263613155042401 -0.43582252091154855 2.2651078534169583e-11 0.28062711171298976 1.9663922020420932 23.651319011676502 0.689278361793908 -18.471136627192994 14.736315836857001 -0.1213551051994911 -0.22551592222379493 33.029677632152961
decision_type=2 2 2 2 2 2 2 2 2 2 10 2 2 10 2 10 8 2 10 2 2 2 2 10 2 10 10 2 2 2
left_child=2 8 6 12 14 7 20 -6 -2 24 -11 -8 -3 28 15 16 21 19 26 -14 -1 -5 -18 -24 -4 -7 -19 -22 -13 -21
right_child=1 3 9 4 5 25 11 -9 -10 10 -12 13 17 -15 -16 -17 22 18 -20 29 27 -23 23 -25 -26 -27 -28 -29 -30 -31
leaf_value=0.0094556188460536515 0.021459306795016037 0.011236434948728561 0.008273574307255744 0.046918169618361927 0.074485725347219242 0.035498914882206564 0.0123489787115487 0.03437972335455395 0.0153761745620901 -0.001028411321256039 0.0077658357618595256 0.01373527440051666 0.017736740216068726 0.011489316534446676 0.012308296215843074 0.044462836784220923 0.013140794677018515 0.0053304960029059807 0.011771535373420513 0.01175408772432261 0.010881045066816718 0.015345499083387741 0.016697665389402302 0.040731741751192464 0.018342304327516476 0.014922541837903992 0.011680008324542681 0.010082697030871215 0.010704486557223376 0.012544043927305274
leaf_weight=33098 1846 143416 2742 52 50 54 21815 150 5804 1189 1388 2305 895 86500 82656 76 11663 1990 4051 167887 59684 51 1164 51 230 750 717 75453 188638 41787
leaf_count=33098 1846 143416 2742 52 50 54 21815 150 5804 1189 1388 2305 895 86500 82656 76 11663 1990 4051 167887 59684 51 1164 51 230 750 717 75453 188638 41787
internal_value=0.0113148 0.0119138 0.0107258 0.0118314 0.0126223 0.0219277 0.0107752 0.0444578 0.0168448 0.00656972 0.003706 0.0110746 0.0116193 0.0109744 0.0125246 0.0138938 0.0137142 0.0118719 0.00986658 0.0119363 0.0102425 0.0313527 0.0135726 0.017713 0.00905468 0.0163136 0.00701408 0.0104353 0.0107411 0.0119115
internal_weight=938152 465110 473042 457460 96717 1004 467493 200 7650 5549 2577 299258 360743 277443 95713 13057 12981 217327 6758 210569 168235 103 12878 1215 2972 804 2707 135137 190943 209674
internal_count=938152 465110 473042 457460 96717 1004 467493 200 7650 5549 2577 299258 360743 277443 95713 13057 12981 217327 6758 210569 168235 103 12878 1215 2972 804 2707 135137 190943 209674
is_linear=0
shrinkage=1


Tree=1
num_leaves=31
num_cat=0
split_feature=15 18 39 47 28 54 32 13 4 20 58 39 63 39 43 34 12 20 11 18 62 15 49 7 58 18 14 25 14 25
split_gain=88.0378 50.5007 57.6742 33.5374 32.4242 22.3767 16.8171 16.7406 40.0375 13.8344 23.2668 42.2553 64.6271 13.5064 12.2185 12.1767 11.2593 10.7534 10.4928 8.70929 8.5105 7.38923 7.01589 7.35588 6.94806 9.47032 6.93213 6.8015 6.66773 6.63737
threshold=-0.22551592222379493 0.074385249334818659 -0.45102816768158122 0.12303476106203452 -0.43582252091154855 3.8550000000000004 0.026421541973940272 0.12970341878926986 0.67624078212360661 43.956646765822576 40.80919496667601 -0.66434159470870013 0.49242424242424249 -0.11406247565823462 -0.54038832443961204 -0.013594710102991596 1.0732958533339623 36.104479671945199 0.073041232506534229 0.046683137541600792 0.23904761904761906 -0.3190463355714247 1.0204081632653075 1.0436971413916278 64.359811653012514 0.056070178043124634 -0.077194762685815141 -0.6307422797295309 0.30180575823885342 -0.17580448122079342
decision_type=2 2 2 2 2 10 2 2 2 2 10 2 10 2 2 2 2 2 2 2 8 2 2 2 10 2 2 10 2 10
left_child=4 2 7 18 14 6 20 9 -9 -2 -11 12 -12 17 -1 26 28 -4 22 -17 27 -21 23 -3 25 -13 -6 -5 -15 -22
right_child=1 3 13 5 15 -7 -8 8 -10 10 11 24 -14 16 -16 19 -18 -19 -20 21 29 -23 -24 -25 -26 -27 -28 -29 -30 -31
leaf_value=0.012330966546614999 0.00088790045346684844 -0.0018201627760605632 -2.6018799713279773e-05 0.018428841039060874 0.00058176276279669321 -0.0018529016735274462 -0.010584526542935232 0.048007924275815184 0.0040988650071711692 0.0022205483742612385 0.0071011341134073775 0.0013067925841821614 0.082279868378487997 -0.0005360187661985062 0.0053609992386223016 0.0013310639265349206 -6.1275500799370533e-06 0.00081182338039957548 0.0008341612457789002 0.0075671369919099885 -0.0082581446878391314 0.0034866095783505366 -0.00046864511203491532 -0.0056927858114318277 0.0028517203707972161 0.02493160432445423 -0.0066429558214299482 -0.00069711927322460728 0.01003868293136141 -0.003853002418384769
leaf_weight=1189 106040 4811 292252 51 2574 5043 1703 63 295 5455 67 75 50 277740 1343 4294 162277 44070 6365 1293 1408 7939 6356 1649 413 99 381 511 149 2197
leaf_count=1189 106040 4811 292252 51 2574 5043 1703 63 295 5455 67 75 50 277740 1343 4294 162277 44070 6365 1293 1408 7939 6356 1649 413 99 381 511 149 2197
internal_value=0 -6.96586e-05 -1.46512e-06 -0.00208408 0.0033677 -0.00429705 -0.00639594 0.00105627 0.0118511 0.00102177 0.0033258 0.0118813 0.0393143 -0.000154797 0.00863635 0.00255791 -0.000337081 8.37533e-05 -0.000824728 0.00319318 -0.00468271 0.00405873 -0.001649 -0.00280955 0.00639909 0.0147838 -0.00034825 0.00103259 -0.000530327 -0.00557508
internal_weight=938152 919139 889045 30094 19013 10913 5870 112557 358 112199 6159 704 117 776488 2532 16481 440166 336322 19181 13526 4167 9232 12816 6460 587 174 2955 562 277889 3605
internal_count=938152 919139 889045 30094 19013 10913 5870 112557 358 112199 6159 704 117 776488 2532 16481 440166 336322 19181 13526 4167 9232 12816 6460 587 174 2955 562 277889 3605
is_linear=0
shrinkage=0.05


Tree=2
num_leaves=31
num_cat=0
split_feature=35 6 32 35 35 43 22 5 39 57 18 15 39 58 20 39 35 55 47 17 39 62 17 18 15 18 47 5 39 58
split_gain=117.401 64.7551 32.9914 28.2487 24.1038 28.4575 45.9948 21.2022 20.1721 13.9344 18.963 13.7526 11.3789 16.8496 54.4975 10.0536 10.0197 9.71705 11.6074 9.41538 9.37018 8.71081 8.04357 8.02327 7.7753 12.1989 10.3478 10.0411 8.92309 17.6516
threshold=1.0072918898609657e-10 -0.32483417001911252 0.026421541973940272 4.8820705022738813e-11 2.7253465164732489e-10 -1.0000000180025095e-35 0.27679836979973632 -0.30407542324386932 -0.50885796890282053 -0.8650000000000001 0.10690300629141956 -0.23910848686987776 -0.62250947367488652 38.837488064786506 42.983674312506828 -0.51671404713119717 2.2651078534169583e-11 8.5691905606185017 0.086292146996766281 0.097285631836571226 -0.1213551051994911 0.36515151515151517 0.049851031998209068 0.044916925744105031 -0.19061430497372525 0.079889054998972198 0.12303476106203452 0.1306194812693984 -0.85243922064165956 8.3551045355085005
decision_type=2 2 2 2 2 2 2 2 2 8 2 2 2 10 2 2 2 8 2 2 2 8 2 2 2 2 2 2 2 10
left_child=2 7 3 16 24 12 8 19 -7 10 17 -5 13 -6 21 -13 22 18 -4 -2 -18 -15 -1 -9 -3 27 -27 -26 29 -29
right_child=1 4 9 11 5 6 -8 23 -10 -11 -12 15 -14 14 -16 -17 20 -19 -20 -21 -22 -23 -24 -25 25 26 -28 28 -30 -31
leaf_value=-0.0011104521632255668 0.0046874612782246148 0.0020116213068521434 -0.0046044210349273813 0.0032007070084082269 0.0019807949516329379 0.058226054693812028 0.0042933689113204892 0.0012048759746626063 0.021470319239815922 -0.0018198395110457174 0.0027450396516133881 0.00083247983961522848 0.00083667505204086451 0.024875054656511204 0.048238647517930534 -0.00030168770487681357 -0.00036649685402539989 -0.001765660812512317 -0.01270366063229998 0.011033824461038923 -0.001144779378928724 0.0031040140146499176 -0.0026970402029383943 0.0039585713281392494 0.00015320802587773263 -0.00033319373099807378 -0.0047387088476491127 0.0022085978332415618 0.00098602744026581968 0.037385668905411
leaf_weight=19588 1057 6142 668 2970 12099 50 935 3987 151 2814 442 21074 102172 50 82 267942 69351 440 1324 1318 87495 570 13510 7896 272422 3311 2234 125 35883 50
leaf_count=19588 1057 6142 668 2970 12099 50 935 3987 151 2814 442 21074 102172 50 82 267942 69351 440 1324 1318 87495 570 13510 7896 272422 3311 2234 125 35883 50
internal_value=2.02073e-09 0.000581902 -0.000537634 -0.000492941 0.000473523 0.00109068 0.00896578 0.00389779 0.0306628 -0.00432338 -0.00677277 -0.000184169 0.00101282 0.00241831 0.00995048 -0.000218971 -0.000967566 -0.00850467 -0.00999053 0.00821178 -0.000800686 0.00487153 -0.00175823 0.00303509 0.000249694 0.000215216 -0.00210907 0.000257013 0.00104113 0.0123034
internal_weight=938152 450534 487618 481930 436276 116109 1136 14258 201 5688 2874 291986 114973 12801 702 289016 189944 2432 1992 2375 156846 620 33098 11883 320167 314025 5545 308480 36058 175
internal_count=938152 450534 487618 481930 436276 116109 1136 14258 201 5688 2874 291986 114973 12801 702 289016 189944 2432 1992 2375 156846 620 33098 11883 320167 314025 5545 308480 36058 175
is_linear=0
shrinkage=0.05


Tree=3
num_leaves=31
num_cat=0
split_feature=35 6 32 35 43 22 35 5 39 57 47 55 39 7 40 14 23 6 7 15 35 56 39 56 54 56 57 39 17 25
split_gain=106.365 62.7682 29.2571 27.4298 25.4969 41.5192 19.6102 18.5603 18.2048 13.1263 13.9341 16.7513 12.4722 11.8363 16.2621 11.656 11.3902 10.788 9.52829 9.34516 9.16489 8.50925 7.89141 24.0504 16.2531 7.87753 7.75697 7.74639 7.68773 7.35468
threshold=8.5093129461050327e-11 -0.35538099504005111 0.026421541973940272 2.7253465164732489e-10 -1.0000000180025095e-35 0.27679836979973632 4.2867358864606273e-11 -0.30407542324386932 -0.50885796890282053 -0.8650000000000001 0.084520954984264415 8.5691905606185017 -0.13574818635862948 0.95070034674231707 0.19119678134862297 -0.097539469149916666 0.0069572330753029836 0.87467142017528576 0.62320262138860827 0.10427916137339867 2.3487772954922739e-11 4.796778464721001 -0.58961436588528915 128.04699261100151 -3.1099999999999999 14.736315836857001 -2.2979999999999996 -0.23598133233293375 0.097285631836571226 0.019263613155042401
decision_type=2 2 2 2 2 2 2 2 2 8 2 10 2 2 2 2 2 2 2 2 2 10 2 10 8 10 8 2 2 10
left_child=2 7 6 16 13 8 18 28 -6 10 -4 -12 -8 14 -5 -15 -3 21 19 -1 -20 -18 23 24 -16 29 -17 -21 -2 -19
right_child=1 3 9 4 5 -7 12 -9 -10 -11 11 -13 -14 15 22 26 17 25 20 27 -22 -23 -24 -25 -26 -27 -28 -29 -30 -31
leaf_value=-0.0010332297391865519 0.0048939695835187591 -0.00014191217548450779 -0.002394597644183778 0.000675851925885298 0.055320564008312312 0.0040787235002889477 0.00013490358589059959 0.0032165014285238549 0.020397513863929642 -0.0018045215177278204 -0.012378085478403432 0.0012940328198052789 -0.00057291627191303693 0.0026908173451612406 0.03082913920255255 -0.0060455623149696701 0.00017947553147526607 -0.0071783955047524869 -0.0032228043763946677 0.0015388186544687318 -0.0012118159358811111 0.00078031775335219973 0.001622613177695395 0.035880962395371828 0.0030371455885856813 0.0010766378836887991 -0.00098425045232707303 -0.00049539503901226492 0.010957895415582439 -0.0013541439134471184
leaf_weight=101670 906 153700 1027 76515 50 935 103985 8548 151 2504 1253 272 154974 1148 53 1353 132156 1055 8559 6538 16801 106384 29730 57 6212 1057 1725 16465 1249 1120
leaf_count=101670 906 153700 1027 76515 50 935 103985 8548 151 2504 1253 272 154974 1148 53 1353 132156 1055 8559 6538 16801 106384 29730 57 6212 1057 1725 16465 1249 1120
internal_value=5.12628e-09 0.000473216 -0.000598976 0.0003942 0.00106348 0.0085183 -0.00055223 0.00426296 0.0291329 -0.00437928 -0.00690348 -0.00993631 -0.000288672 0.000990918 0.00108847 -0.00160641 0.00019461 0.000408565 -0.0010071 -0.000827318 -0.00189073 0.00044746 0.00196406 0.00356889 0.00327354 -0.0024605 -0.00321081 8.25637e-05 0.00841118 -0.00418174
internal_weight=938152 524104 414048 513401 117929 1136 408992 10703 201 5056 2552 1525 258959 116793 112567 4226 395472 241772 150033 124673 25360 238540 36052 6322 6265 3232 3078 23003 2155 2175
internal_count=938152 524104 414048 513401 117929 1136 408992 10703 201 5056 2552 1525 258959 116793 112567 4226 395472 241772 150033 124673 25360 238540 36052 6322 6265 3232 3078 23003 2155 2175
is_linear=0
shrinkage=0.05


Tree=4
num_leaves=31
num_cat=0
split_feature=6 39 18 25 5 16 32 0 22 6 16 0 22 31 58 62 39 47 40 7 36 55 29 39 7 47 56 17 44 56
split_gain=68.8184 39.1821 26.1601 23.608 22.879 15.5218 15.4647 14.8474 15.538 14.021 13.1086 13.0731 45.2104 15.989 15.4875 22.1596 29.4092 12.7421 11.7185 10.9187 8.40709 12.0621 8.3732 8.3582 7.65969 7.49121 7.4645 7.76032 7.2235 7.02728
threshold=-0.3777089682307756 -0.42734069463266972 0.074385249334818659 0.14327900514950637 -0.30407542324386932 -0.1678527520842987 0.024921016983791597 64.464826200918395 0.35670703442447582 0.12909839817412463 -0.070027313638740249 63.444695739863185 0.27679836979973632 0.0058733993002161927 49.913212693779009 0.54692082111436957 -0.67482941056456747 0.11265349036107075 0.82369972143268588 0.95070034674231707 0.36966948861394838 20.523059508206003 0.52860507982388671 -0.096081928456021412 0.99225380060557777 -0.013107519636333553 19.978623745582507 0.044248246986092775 1.1621847070506457 4.7109615830540008
decision_type=2 2 2 10 2 2 2 2 2 2 2 2 2 2 10 8 2 2 2 2 2 10 10 2 2 2 10 2 2 10
left_child=4 6 5 17 -1 -3 11 23 22 -8 -5 18 13 -13 -14 16 -16 24 19 -2 21 -19 -9 28 -4 -21 27 -10 -7 -11
right_child=1 2 3 10 -6 7 9 8 26 29 -12 12 14 -15 15 -17 -18 20 -20 25 -22 -23 -24 -25 -26 -27 -28 -29 -30 -31
leaf_value=0.0083600103747360054 0.00069083523291345284 0.0012357414640081082 -0.00081622386349510803 0.0037029178493790944 0.0027533447850237483 -6.3266460224561193e-05 0.0011005508695481681 0.0077287076536167315 0.00049727886138046596 -0.007112908604182528 -0.00092531510666938775 0.054876933390422267 0.0014977588695183285 0.015647898871133572 0.050686418334192074 0.0032284468715965049 0.011466305391962882 -0.0076368093578523984 0.0073128224543884991 0.00015548578349806397 -0.0029866257125407865 0.0066292183849688217 0.029173204126440845 -0.00042480229951794707 -0.0043099091977816086 -0.0043873075195213695 0.0014182084832446576 -0.00080780530702597754 -0.0065322784439714914 -0.0019773579105993298
leaf_weight=2295 107841 20178 5136 1966 8812 337827 1975 193 49488 1288 6895 51 16930 54 58 902 274 2799 654 1826 2620 156 60 331662 2262 1800 15537 14794 432 1387
leaf_count=2295 107841 20178 5136 1966 8812 337827 1975 193 49488 1288 6895 51 16930 54 58 902 274 2799 654 1826 2620 156 60 331662 2262 1800 15537 14794 432 1387
internal_value=6.68299e-09 -4.68624e-05 -0.000181092 -0.00188779 0.00391235 -0.000132701 0.00074035 -0.000169525 0.000473938 -0.00209269 0.000101022 0.000841423 0.00208183 0.0347837 0.00189233 0.00730101 0.0183463 -0.00324659 0.000639265 0.000600058 -0.00505222 -0.00688179 0.0128436 -0.000246442 -0.00188517 -0.0020983 0.000434651 0.000196845 -7.15449e-05 -0.00445214
internal_weight=938152 927045 792005 21834 11107 770171 135040 749993 80072 4650 8861 130390 18269 105 18164 1234 332 12973 112121 111467 5575 2955 253 669921 7398 3626 79819 64282 338259 2675
internal_count=938152 927045 792005 21834 11107 770171 135040 749993 80072 4650 8861 130390 18269 105 18164 1234 332 12973 112121 111467 5575 2955 253 669921 7398 3626 79819 64282 338259 2675
is_linear=0
shrinkage=0.05


Tree=5
num_leaves=31
num_cat=0
split_feature=35 6 35 32 35 22 0 39 55 15 56 54 32 47 56 55 54 23 7 28 5 16 7 0 56 28 7 39 39 0
split_gain=95.1138 45.9499 33.1018 20.5146 17.8969 25.828 43.1118 21.3025 16.5934 16.2127 13.674 11.613 11.3058 10.8309 10.6783 32.6204 44.0992 10.5685 11.0173 13.3266 10.4423 8.75644 8.19191 8.17623 8.14042 8.09351 7.84827 8.31085 7.72003 8.33562
threshold=1.2474618584013798e-10 -0.3777089682307756 4.8820705022738813e-11 0.023739287083996825 4.4582982003338328e-10 0.27679836979973632 56.940741723336473 -0.18358895688968316 -0.19478195426949999 -0.23910848686987776 7.9649138611445016 2.7050000000000005 0.026421541973940272 0.12094336394240408 -64.189374126894492 -18.471136627192994 2.4308500000000008 0.0069572330753029836 0.91539540820935283 -0.43582252091154855 -0.30407542324386932 -0.11704352627168442 1.0436971413916278 61.465433928793971 26.230127320281504 -0.43582252091154855 0.75986720203250302 -0.52391959749194517 -0.093607482936812023 60.484429158633318
decision_type=2 2 2 2 2 2 2 2 8 2 10 10 2 2 8 8 10 2 2 2 2 2 2 2 10 2 2 2 2 2
left_child=2 20 3 28 17 6 -6 8 -8 25 12 13 26 -5 15 16 -7 -3 21 -20 -2 -19 -16 -23 -15 -4 27 -11 29 -1
right_child=1 4 9 11 5 14 7 -9 -10 10 -12 -13 -14 24 22 -17 -18 18 19 -21 -22 23 -24 -25 -26 -27 -28 -29 -30 -31
leaf_value=-0.00074455417165915903 0.0082522805691113612 7.2206035280127038e-05 0.0083672852299622232 -0.0033157275581812552 0.0020671543808062102 0.0032517524798027346 0.062697183879381932 0.010595693111300786 0.02722094286409248 0.00081547465262274312 0.00026799153201201184 -0.0022859394922631069 -0.004111554730957665 -0.012920221869353148 0.0012935390511702614 0.0032616948422882425 0.064672394069859085 0.0016845352069506285 0.0043178127676404233 -0.0022651866110682192 0.0036298158684016689 0.00041144357723138687 -0.0022048037908823162 0.0012831313267015177 0.0014281748487766964 0.0020399094087855565 -0.0018424162085756532 -0.00036867876484507909 -0.0011899458850394562 0.00051748736857400992
leaf_weight=84020 1620 127302 582 853 491 67 52 108 93 15836 122987 3066 2007 803 41277 2112 52 21576 891 5585 5008 118931 1743 34778 112 3878 8448 229820 88562 15492
leaf_count=84020 1620 127302 582 853 491 67 52 108 93 15836 122987 3066 2007 803 41277 2112 52 21576 891 5585 5008 118931 1743 34778 112 3878 8448 229820 88562 15492
internal_value=8.85459e-09 0.000635603 -0.000398766 -0.000933026 0.000558586 0.00147882 0.0107195 0.0274839 0.0400124 -0.000130051 -0.000165323 -0.00414942 -0.000373424 -0.00737785 0.00132675 0.00470022 0.0301648 0.00042162 0.000666316 -0.00135864 0.00476049 0.000741158 0.00115168 0.000608704 -0.0111585 0.00286688 -0.000343878 -0.000292323 -0.000850328 -0.000548029
internal_weight=938152 361686 576466 192908 355058 45995 744 253 145 383558 379098 4834 256111 1768 45251 2231 119 309063 181761 6476 6628 175285 43020 153709 915 4460 254104 245656 188074 99512
internal_count=938152 361686 576466 192908 355058 45995 744 253 145 383558 379098 4834 256111 1768 45251 2231 119 309063 181761 6476 6628 175285 43020 153709 915 4460 254104 245656 188074 99512
is_linear=0
shrinkage=0.05


Tree=6
num_leaves=31
num_cat=0
split_feature=35 16 32 35 43 22 35 59 43 11 56 18 31 57 57 18 7 11 56 55 20 39 47 17 55 47 7 39 0 56
split_gain=86.3419 41.2355 24.5181 21.0024 27.6744 27.1374 18.4437 16.9915 16.8469 15.0696 14.4458 11.7649 12.6329 11.3864 11.3509 16.2275 10.782 10.7747 10.7721 18.0337 16.9518 11.367 10.393 9.57772 8.52571 8.31567 8.05866 9.53739 7.64473 7.27032
threshold=9.2570935120723741e-11 -0.17963468099778543 0.026421541973940272 4.1687017346709612e-10 -1.0000000180025095e-35 1.0722075843043173 2.66675461250908e-11 -8.3250284856370005 -0.54038832443961204 0.065780504805657683 7.551128987048501 0.079889054998972198 0.0079581989223424018 -1.2973999999999997 -0.8650000000000001 0.10690300629141956 0.6394544523339557 -0.11451728163977813 -64.189374126894492 -16.122498815086995 31.071826817408436 -0.63322932601231985 0.14843747921508407 0.11865572813220253 8.717559009967502 0.17066042492189432 0.79586460888662824 -0.52391959749194517 61.263571458584899 21.670165465731504
decision_type=2 2 2 2 2 2 2 8 2 2 10 2 2 8 8 2 2 2 8 10 2 2 2 2 8 2 2 2 2 10
left_child=2 8 6 11 18 7 16 -6 9 -2 23 12 -3 29 15 24 28 -10 19 20 -5 -21 -13 26 25 -4 27 -8 -1 -12
right_child=1 3 14 4 5 -7 10 -9 17 -11 13 22 -14 -15 -16 -17 -18 -19 -20 21 -22 -23 -24 -25 -26 -27 -28 -29 -30 -31
leaf_value=-0.0013115803998288295 -0.00074582279236973161 2.3696726325425439e-06 -0.0062962437734351649 0.0050163159597818811 0.049565753567324372 0.0027622812631763437 0.00073762255610971368 0.017411603137864707 -0.0064684185506628028 0.0082081982135991955 0.00031925022050905121 -0.00043131094521114862 0.00055899183371468052 -0.00020098668984517307 -0.0015398917399616367 0.0031045241882729762 -0.0027934051606058404 0.0021974794481748067 0.0010331570579143914 0.026461373225008814 0.045901720103586535 0.0030166733361203985 -0.0043957619133408749 0.0065815061703693167 -0.00128969053542188 -0.013023618742727124 -0.0022645210373863195 -0.00061306141000519216 0.00043447948176528368 0.0018163277960062008
leaf_weight=33575 602 204165 1071 52 50 389 13856 237 365 2125 24092 5141 203612 106989 2666 403 10314 19600 46323 53 50 2065 2439 467 418 811 6938 229348 7703 12233
leaf_count=33575 602 204165 1071 52 50 389 13856 237 365 2125 24092 5141 203612 106989 2666 403 10314 19600 46323 53 50 2065 2439 467 418 811 6938 229348 7703 12233
internal_value=1.20206e-08 0.000461433 -0.000498633 0.000359765 0.0013364 0.0113834 -0.000458144 0.0230461 0.00254266 0.00622976 -0.000341701 0.000244024 0.000280316 5.86638e-05 -0.00385738 -0.00614115 -0.00134713 0.00203877 0.00119636 0.00459928 0.0251325 0.00360693 -0.00170764 -0.000570674 -0.00776339 -0.00919843 -0.00058405 -0.000536088 -0.000985622 0.000823555
internal_weight=938152 487268 450884 464576 49219 676 445515 287 22692 2727 393923 415357 407777 143314 5369 2703 51592 19965 48543 2220 102 2118 7580 250609 2300 1882 250142 243204 41278 36325
internal_count=938152 487268 450884 464576 49219 676 445515 287 22692 2727 393923 415357 407777 143314 5369 2703 51592 19965 48543 2220 102 2118 7580 250609 2300 1882 250142 243204 41278 36325
is_linear=0
shrinkage=0.05


Tree=7
num_leaves=31
num_cat=0
split_feature=15 18 39 40 47 57 0 22 58 62 55 57 0 41 7 17 32 34 25 57 14 54 16 24 20 18 1 58 22 18
split_gain=56.0459 37.295 38.3301 25.4789 22.1995 20.7281 16.0468 28.5712 17.0115 20.4865 14.4986 13.9661 12.7218 12.9363 10.9101 10.603 8.56456 8.50219 7.75587 9.66189 7.74827 8.1832 7.52052 6.37486 6.08649 6.15753 6.87515 6.04532 6.0421 6.0229
threshold=-0.19770195713899344 0.074385249334818659 -0.45945885286737131 0.689278361793908 0.151137097121153 -0.8650000000000001 71.374020101098253 0.27679836979973632 49.913212693779009 0.50757575757575768 7.6913443214405008 -1.4649999999999996 64.464826200918395 -0.5343697624537711 0.91539540820935283 0.11865572813220253 0.02120918032852703 -0.027698284495951981 0.064731147347183993 -2.0149999999999992 -0.12169935919031376 -4.9249999999999998 -0.10624204940942258 0.12500000000000003 19.526116837131223 0.03527836367452266 -0.3298432784573529 281.79694810999007 0.91751606762025417 0.037911542224768564
decision_type=2 2 2 2 2 8 2 2 10 8 8 8 2 10 2 2 2 2 10 8 2 10 2 2 2 2 2 8 2 2
left_child=3 2 6 11 18 10 24 -8 -9 -10 16 14 17 23 -1 -5 -6 -4 19 -3 -16 -22 29 -14 -2 -26 -27 -7 -24 -19
right_child=1 4 12 15 5 27 7 8 9 -11 -12 -13 13 -15 20 -17 -18 22 -20 -21 21 -23 28 -25 25 26 -28 -29 -30 -31
leaf_value=0.00088561624966227912 0.00023037115586485796 -0.0039740257421572037 0.0041529757822459856 0.0028849523137533155 -0.0052711004053247381 -0.0011297180376576511 0.035921674451148675 0.0023897859673944755 0.033407124066121119 0.0063504561357779141 -0.00050019693957132445 0.002404232627354912 0.025504173767739308 0.00042755104586296124 0.00060919448933746147 0.0090622927983234573 -0.010507657091593417 -0.00012996555190553785 8.6209322378879411e-05 -0.00075476598345938924 0.0084832530945991771 -0.0074771258560363584 -0.00040112607299416423 0.0044223231243530293 0.0003878884622672686 -4.5784135874776299e-07 0.0016865315746728488 -0.007006489925011225 -8.4729284015176755e-05 0.00080485362513470476
leaf_weight=6431 37065 3595 1117 1163 1433 4278 68 4157 97 253 775 18767 75 81658 683 1736 1731 39392 9711 6642 87 994 358474 70 23788 7298 34857 488 260653 30616
leaf_count=6431 37065 3595 1117 1163 1433 4278 68 4157 97 253 775 18767 75 81658 683 1736 1731 39392 9711 6642 87 994 358474 70 23788 7298 34857 488 260653 30616
internal_value=1.31962e-08 -7.00537e-05 -1.22228e-05 0.00213142 -0.00184526 -0.00395222 0.00087195 0.00376975 0.00328276 0.0138707 -0.00663642 0.00165224 -0.000135436 0.000454119 -6.92477e-05 0.00658602 -0.0081378 -0.000205312 -0.000925555 -0.00188581 -0.00355307 -0.00618733 -0.000212384 0.0153712 0.000743195 0.00103136 0.00139436 -0.00173264 -0.000267931 0.00027878
internal_weight=938152 908291 879638 29861 28653 8705 107583 4575 4507 350 3939 26962 772055 81803 8195 2899 3164 690252 19948 10237 1764 1081 689135 145 103008 65943 42155 4766 619127 70008
internal_count=938152 908291 879638 29861 28653 8705 107583 4575 4507 350 3939 26962 772055 81803 8195 2899 3164 690252 19948 10237 1764 1081 689135 145 103008 65943 42155 4766 619127 70008
is_linear=0
shrinkage=0.05


end of trees

feature_importances:
vwap_dev=25
amihud_illiq=18
profit_growth=14
price_range_10d=12
volatility_20d=11
intraday_intensity=11
mom_60d=9
amount_ratio=9
lower_shadow=9
revenue_growth=9
rsi_14=8
close_ma60_dev=8
roe_qoq=8
profit_growth_accel=8
roe=7
mom_20d=6
atr_14=6
adx_14=6
return_skew_20d=6
high_distance_60d=6
ma_alignment=5
close_ma20_dev=4
max_drawdown_20d=4
boll_bandwidth=4
roe_ind_rank=4
mom_accel=3
turnover_5d=3
upper_shadow=2
gap_5d=2
return_extremes_ratio=2
macd_hist=1
vol_price_ratio=1
volume_trend=1
close_ma5_dev=1
turnover_pctile=1
return_autocorr=1
volume_volatility=1
vol_price_corr=1
low_distance_60d=1
revenue_growth_accel=1
mom_20d_ind_rank=1

parameters:
[boosting: gbdt]
[objective: regression]
[metric: l1]
[tree_learner: serial]
[device_type: cpu]
[data_sample_strategy: bagging]
[data: ]
[valid: ]
[num_iterations: 1000]
[learning_rate: 0.05]
[num_leaves: 31]
[num_threads: 0]
[seed: 0]
[deterministic: 0]
[force_col_wise: 0]
[force_row_wise: 0]
[histogram_pool_size: -1]
[max_depth: -1]
[min_data_in_leaf: 50]
[min_sum_hessian_in_leaf: 0.001]
[bagging_fraction: 0.8]
[pos_bagging_fraction: 1]
[neg_bagging_fraction: 1]
[bagging_freq: 0]
[bagging_seed: 3]
[bagging_by_query: 0]
[feature_fraction: 0.8]
[feature_fraction_bynode: 1]
[feature_fraction_seed: 2]
[extra_trees: 0]
[extra_seed: 6]
[early_stopping_round: 0]
[early_stopping_min_delta: 0]
[first_metric_only: 0]
[max_delta_step: 0]
[lambda_l1: 0.1]
[lambda_l2: 0.1]
[linear_lambda: 0]
[min_gain_to_split: 0]
[drop_rate: 0.1]
[max_drop: 50]
[skip_drop: 0.5]
[xgboost_dart_mode: 0]
[uniform_drop: 0]
[drop_seed: 4]
[top_rate: 0.2]
[other_rate: 0.1]
[min_data_per_group: 100]
[max_cat_threshold: 32]
[cat_l2: 10]
[cat_smooth: 10]
[max_cat_to_onehot: 4]
[top_k: 20]
[monotone_constraints: ]
[monotone_constraints_method: basic]
[monotone_penalty: 0]
[feature_contri: ]
[forcedsplits_filename: ]
[refit_decay_rate: 0.9]
[cegb_tradeoff: 1]
[cegb_penalty_split: 0]
[cegb_penalty_feature_lazy: ]
[cegb_penalty_feature_coupled: ]
[path_smooth: 0]
[interaction_constraints: ]
[verbosity: -1]
[saved_feature_importance_type: 0]
[use_quantized_grad: 0]
[num_grad_quant_bins: 4]
[quant_train_renew_leaf: 0]
[stochastic_rounding: 1]
[linear_tree: 0]
[max_bin: 255]
[max_bin_by_feature: ]
[min_data_in_bin: 3]
[bin_construct_sample_cnt: 200000]
[data_random_seed: 1]
[is_enable_sparse: 1]
[enable_bundle: 1]
[use_missing: 1]
[zero_as_missing: 0]
[feature_pre_filter: 1]
[pre_partition: 0]
[two_round: 0]
[header: 0]
[label_column: ]
[weight_column: ]
[group_column: ]
[ignore_column: ]
[categorical_feature: ]
[forcedbins_filename: ]
[precise_float_parser: 0]
[parser_config_file: ]
[objective_seed: 5]
[num_class: 1]
[is_unbalance: 0]
[scale_pos_weight: 1]
[sigmoid: 1]
[boost_from_average: 1]
[reg_sqrt: 0]
[alpha: 0.9]
[fair_c: 1]
[poisson_max_delta_step: 0.7]
[tweedie_variance_power: 1.5]
[lambdarank_truncation_level: 30]
[lambdarank_norm: 1]
[label_gain: ]
[lambdarank_position_bias_regularization: 0]
[eval_at: ]
[multi_error_top_k: 1]
[auc_mu_weights: ]
[num_machines: 1]
[local_listen_port: 12400]
[time_out: 120]
[machine_list_filename: ]
[machines: ]
[gpu_platform_id: -1]
[gpu_device_id: -1]
[gpu_use_dp: 0]
[num_gpu: 1]

end of parameters

pandas_categorical:null
