tree
version=v4
num_class=1
num_tree_per_iteration=1
label_index=0
max_feature_idx=56
objective=regression
feature_names=rsi_14 macd_hist boll_pctb kdj_j vol_price_ratio mom_20d mom_60d volatility_20d rsi_delta macd_hist_delta boll_pctb_delta mom_accel volume_trend close_ma5_dev close_ma20_dev close_ma60_dev ma_alignment atr_14 price_range_10d williams_r adx_14 obv_slope amount_ratio turnover_5d turnover_pctile return_skew_20d return_kurtosis_20d updown_vol_ratio max_drawdown_20d return_autocorr close_position upper_shadow lower_shadow body_ratio gap_5d amihud_illiq volume_volatility mom_5d mom_10d vwap_dev boll_bandwidth vol_price_corr consecutive_days high_distance_60d low_distance_60d vol_ratio_5_60 mfi_14 intraday_intensity cci_20 return_extremes_ratio amount_volatility pe_ttm pb total_mv_log roe revenue_growth profit_growth
feature_infos=[3.9334009172903848:98.591896791320892] [-40.363792907002939:23.763778044426815] [-0.50387608105505965:1.5483213806168699] [-25.37350677839683:128.84377338174517] [0.057428285980973749:84.700691675301684] [-0.62745098039215685:3.44794952681388] [-0.71930360415394023:14.984466019417473] [0:1.8447439100126657] [-52.952579167325226:56.632221868462196] [-40.583104686941255:24.768377274725523] [-1.565515137293777:1.6525703438214996] [-2.8374412458315845:0.88448230048272469] [0.07229650186415347:3.715901192170354] [-0.28595658073270025:0.36546380053820982] [-0.50881836459420249:1.0544951187527323] [-0.58888482959671351:2.8738924376674229] [-0.54078784594779716:2.2309911395013402] [0.0069349820095978738:0.20107754953416493] [0:0.188393532399319] [-100:0] [5.3544843892234235:84.509129927148223] [-0.98242587818138205:1.0733745695722434] [0.0040969996440236318:14.709764103265259] [0.00026339793703833415:0.58776143749999998] [0:0.98333333333333328] [-3.7758509281941879:3.8203115380527444] [-1.9055542962498229:13.411310037173909] [0:230.34933642341127] [-0.66943083301922357:0] [-0.81750190193134598:0.89990213554620024] [0:1] [0:0.08909393260446008] [0:0.072487755321737429] [0:1] [-0.10009941439549201:0.13089840310629805] [0:2.2010772647858362e-08] [0.10185332471499373:2.7671828142263624] [-0.4098360655737705:0.87901234567901243] [-0.56963890935887984:1.5966850828729284] [-0.96368229442120701:1.5477966165688577] [5.7673923357150998e-16:1.9587502919363748] [-0.94842932019390924:0.9831922553929453] [-15:18] [-0.7885411872986654:0] [0:13.544169611307419] [0:3.2003440080057644] [0:100] [-0.62622768917163962:0.82530999781973968] [-524.80732177263769:532.73809523809553] [0:24.742655699177661] [0.10840706461179357:3.1565089474333008] none none [18.239158867328975:25.710225627469409] [-1290.26:201.97999999999999] [-32430.463773151201:6534.1137512344303] [-87934.743809934793:18088.410932085299]
tree_sizes=3068 3181 3164 3174 3159 3136 3196 3166 3130

Tree=0
num_leaves=31
num_cat=0
split_feature=53 6 35 47 53 32 7 47 44 53 44 55 35 55 20 36 39 55 35 31 39 23 39 55 39 35 20 55 39 54
split_gain=638.679 325.224 217.013 115.814 114.842 100.91 97.3825 69.3017 56.2161 54.0262 52.8638 51.7787 48.1995 98.2254 678.437 52.4748 47.8075 47.0194 42.6086 42.3676 41.1115 61.5501 39.0224 38.1025 32.3716 32.2963 30.702 27.5694 27.2878 27.2606
threshold=23.75165864577875 -0.40263449618754754 1.0788516548035913e-10 -0.0057297065527103603 24.055691145519724 0.021296118507947801 0.92727985051027118 -0.014434592448920499 0.64162499062289047 21.676539519558407 0.64162499062289047 5.1735888987225005 3.5824626171567771e-10 -21.673838068419496 39.443648541886198 0.29426406897623775 -0.22870332060608675 8.8639694130910023 2.7223411584402643e-10 0.0057513544378762667 -0.017700000100115073 0.037823943767617101 -0.04699869896854602 8.7166657929375013 -0.044961570134073196 2.7069365600114486e-11 60.044270299081724 7.7729766072660009 0.0025704168680714683 3.9335000000000004
decision_type=2 2 2 2 2 2 2 2 2 2 2 8 2 8 2 2 2 10 2 2 2 2 2 10 2 2 2 10 2 8
left_child=1 6 5 12 16 7 -1 24 22 -8 18 29 19 14 15 -14 -2 26 28 -4 21 -9 -6 -23 25 -3 -12 -10 -5 -7
right_child=4 2 3 10 8 11 9 20 27 -11 17 -13 13 -15 -16 -17 -18 -19 -20 -21 -22 23 -24 -25 -26 -27 -28 -29 -30 -31
leaf_value=0.039119778245390258 0.029206152337769461 0.029202244256744534 0.03311887829218603 0.032444697705663293 0.029182368769135124 0.020930642808033594 0.061878172274153105 0.031610672981043239 0.024521118433387556 0.046622973101332219 0.02690575315643317 0.031424129739407287 0.089517585521856097 0.036143243562405065 0.23252063019787697 0.036541580750419529 0.031736849368321045 0.036218169418022486 0.03444121781461916 0.034963758922003131 0.032974066274575664 0.027325233995159685 0.030766836551189791 0.032470265424683745 0.034357630912691048 0.032848160926725968 0.041519159735973601 0.029852650621830571 0.034622556400631645 0.02837282171388936
leaf_weight=4406 20819 6408 43289 104957 80784 3262 814 89561 7461 2033 7190 3772 51 33765 50 553 180235 2022 53070 110780 37246 15243 74911 4708 36292 116440 378 3597 16668 1980
leaf_count=4406 20819 6408 43289 104957 80784 3262 814 89561 7461 2033 7190 3772 51 33765 50 553 180235 2022 53070 110780 37246 15243 74911 4708 36292 116440 378 3597 16668 1980
internal_value=0.032355 0.0332467 0.0331356 0.033952 0.0306701 0.0321692 0.043779 0.0323229 0.0297 0.0509873 0.0330606 0.0269553 0.0348234 0.0365152 0.0557076 0.0410317 0.0314748 0.0294464 0.0332591 0.0344454 0.0315392 0.0310511 0.0299447 0.0285396 0.0330456 0.0326579 0.0276364 0.0262549 0.0327432 0.0237406
internal_weight=1.06274e+06 694938 687685 372773 367807 314912 7253 305898 166753 2847 184285 9014 188488 34419 654 604 201054 9590 174695 154069 146758 109512 155695 19951 159140 122848 7568 11058 121625 5242
internal_count=1062745 694938 687685 372773 367807 314912 7253 305898 166753 2847 184285 9014 188488 34419 654 604 201054 9590 174695 154069 146758 109512 155695 19951 159140 122848 7568 11058 121625 5242
is_linear=0
shrinkage=1


Tree=1
num_leaves=31
num_cat=0
split_feature=53 15 35 53 32 35 55 56 15 56 44 56 44 18 55 44 39 23 53 53 39 16 18 39 53 7 39 35 40 56
split_gain=576.412 274.641 177.498 104.036 91.8864 80.7913 110.765 1048.45 78.3879 70.9509 72.1698 60.6447 90.158 52.7181 50.0619 47.8612 46.8181 42.1378 34.742 33.8786 32.7323 31.0438 35.2389 33.5178 30.7196 36.7415 30.6737 29.7034 25.1134 25.508
threshold=23.75165864577875 -0.19098555834721129 1.0788516548035913e-10 24.094353628177636 0.021296118507947801 3.4838473445774789e-10 -21.673838068419496 -38.977403301610991 -0.31541666932239476 6.6215598104315001 0.53184535458847826 12.932359375244003 0.51746350455432522 0.065786124602130833 5.1735888987225005 0.42756593652885205 -0.051794124836087578 0.031933934207993682 21.846510621928122 21.216487493326763 -0.035374159487094263 0.0078234718070491916 0.021540911180221788 -0.10070967497450221 20.256234186816709 0.22950468880913394 -0.22870332060608675 3.880812298822831e-11 0.48413969118344002 -52.909917326311991
decision_type=2 2 2 2 2 2 8 10 2 10 2 10 2 2 8 2 2 2 2 2 2 2 2 2 2 2 2 2 2 8
left_child=1 8 4 15 9 11 7 -7 19 10 16 12 21 20 -6 26 17 -3 -10 -1 -5 22 -4 -24 25 -8 -2 -11 29 -26
right_child=3 2 5 13 14 6 24 -9 18 27 -12 -13 -14 -15 -16 -17 -18 -19 -20 -21 -22 -23 23 -25 28 -27 -28 -29 -30 -31
leaf_value=0.023759159001091448 -0.0025700859856010133 -0.00062557146546274268 7.3438481906972796e-06 -0.0030401401401128772 -0.008709098221286583 0.18627254120063397 0.030282295285906338 0.0039709389814487671 0.0081383039013139067 -0.00091687513133371131 -0.0046809711945824143 0.0024778727711516359 -0.0035668627545033626 -0.0060095781735173904 -0.00090610073363445566 -0.0033031866053432413 0.00070942171872760229 -0.0032777382212665282 0.0036278527579024279 0.010433883460750625 -0.0014673472745061883 0.00010905962682681533 0.0010782510441281969 0.0028907134063187396 0.007064250297722798 0.0061614599943340155 -0.00049041251692253404 0.0012535325418679803 -0.0029103527776267791 0.0024103887465911919
leaf_weight=562 19635 99854 36504 77575 4832 86 166 940 5541 18900 10684 58724 11861 10737 3580 19215 58331 17621 18646 3185 57705 78482 63319 42732 3106 3244 182940 94932 2100 57006
leaf_count=562 19635 99854 36504 77575 4832 86 166 940 5541 18900 10684 58724 11861 10737 3580 19215 58331 17621 18646 3185 57705 78482 63319 42732 3106 3244 182940 94932 2100 57006
internal_value=0 0.00084715 0.000643727 -0.00160061 -0.000234909 0.00140089 0.00297153 0.0192731 0.00570426 -9.05275e-05 -0.000690969 0.00104192 0.000679828 -0.00263701 -0.00538892 -0.00091826 -0.000448459 -0.00102344 0.00466139 0.0124344 -0.00236929 0.000907732 0.0013474 0.00180861 0.00271654 0.00733799 -0.000692015 0.000893126 0.00246314 0.00265095
internal_weight=1.06274e+06 694938 667004 367807 308734 358270 66648 1026 27934 300322 186490 291622 232898 146017 8412 221790 175806 117475 24187 3747 135280 221037 142555 106051 65622 3410 202575 113832 62212 60112
internal_count=1062745 694938 667004 367807 308734 358270 66648 1026 27934 300322 186490 291622 232898 146017 8412 221790 175806 117475 24187 3747 135280 221037 142555 106051 65622 3410 202575 113832 62212 60112
is_linear=0
shrinkage=0.05


Tree=2
num_leaves=31
num_cat=0
split_feature=53 15 44 56 47 18 15 17 56 53 39 23 56 53 53 53 23 39 39 44 53 53 53 17 47 25 53 44 39 39
split_gain=521.011 252.787 155.741 118.375 95.2237 88.6897 71.4129 67.8523 58.934 56.008 53.0374 50.0291 45.4071 311.087 565.548 44.0714 42.9077 38.2251 36.7232 36.5613 35.2008 31.98 30.8297 30.2827 29.9889 29.9358 28.2546 28.0222 27.8086 24.6916
threshold=23.796542529130967 -0.19098555834721129 0.50544070285118892 13.890405352092502 -0.011607591695445762 0.052964434739369605 -0.31541666932239476 0.030056596028269936 12.689083120369002 24.211116785227045 -0.096708021127798346 0.021401948828037424 -71.560279087049977 22.001483622525431 21.629226095883443 23.426042047818381 0.037047501435385398 0.001307783244366534 -0.073644802396134065 0.38726691105614014 22.514805886669567 21.846510621928122 21.216487493326763 0.047766257340827283 0.091393385463379662 0.16190680849164849 21.584485976778485 0.083341824604306849 -0.044961570134073196 -0.13370875543614433
decision_type=2 2 2 10 2 2 2 2 10 2 2 2 8 2 2 2 2 2 2 2 2 2 2 2 2 10 2 2 2 2
left_child=1 6 4 10 7 9 22 12 11 -2 23 20 13 14 -3 16 18 26 -9 -7 -6 -8 -1 -4 -25 -5 -13 -20 -11 -21
right_child=5 2 3 25 8 19 21 15 -10 28 -12 17 -14 -15 -16 -17 -18 -19 27 29 -22 -23 -24 24 -26 -27 -28 -29 -30 -31
leaf_value=0.022571412106602955 -0.00087818925861500802 0.0054843946959814626 -0.0010912413854278758 -0.00095501575948118685 0.0015989934804960086 -0.002064579946395952 0.0077313960905048733 0.0022564976676045052 0.0014353619048444351 -0.0033442489750721651 -0.0015458801637227421 -5.1698685365170836e-06 0.00029821058028809517 0.002706130421229956 0.19868791325021018 0.00082865874552331064 0.00036877549608653281 0.0008178432345039814 0.0064984054240458337 -0.0079496964174758378 -0.00014469293499691594 0.0034189276761767869 0.0098710821677262216 -0.0043388851213275147 -0.0086645721795748937 0.0034798625614407388 -0.0028125442779873043 0.0032575625490784601 -0.0014439626244414194 -0.0041109968046452094
leaf_weight=562 209872 109 3266 6814 36048 20809 5541 89105 69025 41033 15331 11920 124877 3192 58 64196 21875 14423 9582 5212 146847 19227 3224 8527 7571 8613 36166 21993 36294 21433
leaf_count=562 209872 109 3266 6814 36048 20809 5541 89105 69025 41033 15331 11920 124877 3192 58 64196 21875 14423 9582 5212 146847 19227 3224 8527 7571 8613 36166 21993 36294 21433
internal_value=0 0.000750561 0.000562325 -0.00212307 0.000769593 -0.00163295 0.0053619 0.00135618 0.000144641 -0.00130206 -0.0037434 -0.000218381 0.000452564 0.00618926 0.0726937 0.00191661 0.00240651 -0.00143954 0.00277583 -0.00363547 0.000198955 0.00438393 0.0117582 -0.00548296 -0.00637364 0.00152069 -0.00211673 0.00424123 -0.0024524 -0.0048621
internal_weight=1.06274e+06 728092 699538 50122 649416 334653 28554 334987 314429 287199 34695 245404 128236 3359 167 206751 142555 62509 120680 47454 182895 24768 3786 19364 16098 15427 48086 31575 77327 26645
internal_count=1062745 728092 699538 50122 649416 334653 28554 334987 314429 287199 34695 245404 128236 3359 167 206751 142555 62509 120680 47454 182895 24768 3786 19364 16098 15427 48086 31575 77327 26645
is_linear=0
shrinkage=0.05


Tree=3
num_leaves=31
num_cat=0
split_feature=53 6 35 47 53 7 56 18 56 6 47 17 55 56 18 39 53 55 39 53 35 39 23 55 54 53 25 6 39 56
split_gain=471.771 261.218 169.893 107.767 89.7524 84.8948 66.5009 72.9536 57.8293 76.6267 57.2299 56.2069 90.0502 517.362 50.9527 40.7332 40.5037 38.8662 38.8345 38.5538 38.386 36.6245 43.115 31.2258 34.1931 38.9119 30.3669 31.7326 29.5572 27.7811
threshold=23.745837475495279 -0.40263449618754754 8.8051913263200129e-11 -0.0087262483495348306 24.055691145519724 0.96121129136063843 19.884870107351002 0.058107539841218962 14.153589736739502 0.35863941806135385 0.064061708317073432 0.029089495174312512 -21.673838068419496 -71.560279087049977 0.064119479081198721 -0.22870332060608675 21.676539519558407 8.1236367631550017 -0.10760948750055509 22.514805886669567 2.5621516162117233e-10 -0.044961570134073196 0.038598753704662932 5.3831807142785015 -9.3499999999999979 22.716473700512392 -0.75104099929553181 -0.032290743449695618 -0.072591704550404187 84.334701393214502
decision_type=2 2 2 2 2 2 10 2 10 2 2 2 8 8 2 2 2 10 2 2 2 2 2 10 8 2 10 2 2 10
left_child=1 5 6 11 15 -1 7 21 9 20 -9 12 13 -4 28 -2 -7 18 -12 -8 -5 22 -3 24 25 -21 -13 -28 -6 -25
right_child=4 2 3 8 14 16 19 10 -10 -11 17 26 -14 -15 -16 -17 -18 -19 -20 23 -22 -23 -24 29 -26 -27 27 -29 -30 -31
leaf_value=0.0062249406310496275 -0.0028010180297871074 -0.0005909306646225441 0.14477540512968023 -0.00011878379666896626 -0.0029232495567089391 0.027352067367695972 -0.0030183788708523511 -0.0012911338833478557 0.0021488481287763625 -0.003557617435740526 -0.011189849760282927 0.00084939616619530598 0.00076308913320526951 -0.0026394312811666054 -0.0052877007662818117 -0.00049521596847173306 0.013499117172907932 0.00069782919517389524 -0.0040768683623947149 0.057362719553568399 0.0015506864108445503 0.00068140900934324407 -0.003622778176217944 0.002059141069954216 -0.0001598914243690986 0.0035909146515291134 0.0035585322151422509 0.0019565010022277499 -0.0014958923985401251 0.0061502106301397292
leaf_weight=4684 21382 111818 73 115669 58734 748 4578 12337 41814 13371 4201 21316 71666 320 13124 183880 1803 1565 3538 55 49022 50970 13101 20130 15521 87 73990 53123 94895 5230
leaf_count=4684 21382 111818 73 115669 58734 748 4578 12337 41814 13371 4201 21316 71666 320 13124 183880 1803 1565 3538 55 49022 50970 13101 20130 15521 87 73990 53123 94895 5230
internal_value=1.16437e-09 0.000773127 0.000673079 0.00125882 -0.00143547 0.0102239 -0.000387808 -0.000785138 0.000475523 8.255e-05 -0.00352458 0.00203992 0.000894069 0.0247601 -0.00229713 -0.000735435 0.0175639 -0.00648551 -0.00793878 0.0013332 0.000378122 -0.000448053 -0.000908941 0.00181894 6.33185e-05 0.0244789 0.00259617 0.00288905 -0.00204162 0.00290306
internal_weight=1.06274e+06 690730 683495 440364 372015 7235 243131 197530 219876 178062 21641 220488 72059 393 166753 205262 2551 9304 7739 45601 164691 175889 124919 41023 15663 142 148429 127113 153629 25360
internal_count=1062745 690730 683495 440364 372015 7235 243131 197530 219876 178062 21641 220488 72059 393 166753 205262 2551 9304 7739 45601 164691 175889 124919 41023 15663 142 148429 127113 153629 25360
is_linear=0
shrinkage=0.05


Tree=4
num_leaves=31
num_cat=0
split_feature=53 6 47 6 17 18 56 56 17 53 53 16 56 53 53 18 16 39 55 39 49 47 53 39 39 25 39 55 55 43
split_gain=425.865 237.522 143.15 89.8058 84.7574 80.218 69.9585 65.6253 56.3621 54.1441 47.0006 42.3735 41.3414 260.402 525.738 36.165 41.4969 35.7856 43.4142 34.7279 34.3825 33.6702 30.5098 28.4372 26.8619 25.8923 24.9676 24.6563 59.8523 58.754
threshold=23.75165864577875 -0.37026171741361613 -0.017549650281162472 0.52251163736042372 0.088935382849084088 0.052196719703662346 12.932359375244003 31.775979238128006 0.030056596028269936 24.094353628177636 21.676539519558407 0.022395783528972407 -71.560279087049977 22.001483622525431 21.629226095883443 0.056083498177895118 -0.051608498539505533 -0.011347672567790455 6.6358052402770005 -0.070584796593480145 1.0146733072761871 0.062461822578962926 23.2437407938185 0.0025704168680714683 -0.028794897161085405 -0.75104099929553181 -0.042072909431202003 -1.3810746162009997 -1.3116998281179997 -0.088618720773075907
decision_type=2 2 2 2 2 2 10 10 2 2 2 2 8 2 2 2 2 2 8 2 2 2 2 2 2 10 2 8 8 2
left_child=1 4 8 6 -1 9 15 17 12 26 -6 19 13 14 -3 23 -17 18 -5 22 -18 -7 25 -4 -11 -10 -2 -8 29 -29
right_child=5 2 3 7 10 21 27 -9 11 24 -12 -13 -14 -15 -16 16 20 -19 -20 -21 -22 -23 -24 -25 -26 -27 -28 28 -30 -31
leaf_value=0.004907548161479292 -0.0010411324640098333 0.0041322363125268899 -0.00028879594006266275 -0.0085977237052509408 0.023814280789452608 -0.0021108206092043695 -0.0012010828153643399 0.0031131359072422839 0.00055661251367382066 -0.002495264758846991 0.010921939809061511 0.0006182011844447613 0.0003163703524411087 0.0027318483227701763 0.19514262615177994 0.0013416084445350678 -0.0057187071991951534 -0.00097250964692893412 -0.0020738305775982995 0.0035102197779144357 -0.0016070825896400281 -0.0046567691927579891 0.00072792420024880605 0.0013570488850763287 -0.00094557781338933274 0.0028304514235373834 0.00010403556266810088 0.0056885577211548376 0.0017079018549593596 0.072438606561843921
leaf_weight=6988 112861 108 198349 7231 959 31393 7775 3157 15537 74197 2703 53912 113465 2803 54 7464 7538 4403 3943 40240 15638 22163 42173 30247 44897 64590 82296 75 65527 59
leaf_count=6988 112861 108 198349 7231 959 31393 7775 3157 15537 74197 2703 53912 113465 2803 54 7464 7538 4403 3943 40240 15638 22163 42173 30247 44897 64590 82296 75 65527 59
internal_value=2.1817e-09 0.000728169 0.000612841 -9.10055e-05 0.00813775 -0.00137579 9.86618e-05 -0.0034593 0.00135587 -0.00107093 0.0143001 0.00183304 0.000468724 0.00629711 0.0679143 -0.000287235 -0.00190032 -0.00479167 -0.00629611 0.00223596 -0.00294462 -0.00316451 0.00181665 -7.10013e-05 -0.00191109 0.00238961 -0.0005582 0.00146098 0.00177628 0.0351479
internal_weight=1.06274e+06 694938 684288 351406 10650 367807 332672 18734 332882 314251 3662 216452 116430 2965 162 259236 30640 15577 11174 162540 23176 53556 122300 228596 119094 80127 195157 73436 65661 134
internal_count=1062745 694938 684288 351406 10650 367807 332672 18734 332882 314251 3662 216452 116430 2965 162 259236 30640 15577 11174 162540 23176 53556 122300 228596 119094 80127 195157 73436 65661 134
is_linear=0
shrinkage=0.05


Tree=5
num_leaves=31
num_cat=0
split_feature=53 6 44 47 7 56 44 17 53 39 23 53 53 53 23 54 39 55 55 53 53 39 55 56 56 55 55 54 17 50
split_gain=385.434 217.824 128.234 86.9242 85.0709 82.1561 71.7351 58.0591 54.5732 53.7951 60.6186 44.8426 39.1852 38.0965 35.0878 34.7801 33.8577 46.5278 33.2004 352.984 413.392 32.7656 30.589 30.4181 30.321 28.5668 31.893 33.9321 28.2934 27.1648
threshold=23.796542529130967 -0.37026171741361613 0.58016542273755078 -0.01899813247024798 0.89854817235704998 19.884870107351002 0.53184535458847826 0.030056596028269936 24.382864545596487 0.001307783244366534 0.034931287660473487 21.676539519558407 23.401622064221076 22.514805886669567 0.037047501435385398 3.3310000000000004 -0.090561431850766302 7.6772399770020003 -21.673838068419496 21.927554650815836 21.397724618658458 -0.13180531677812249 -0.25492547882499994 8.4115196396045011 7.6726958985495006 11.524748685817501 9.5921374300570026 5.6650000000000009 0.041507390447614763 0.37608185969101587
decision_type=2 2 2 2 2 10 2 2 2 2 2 2 2 2 2 10 2 8 8 2 2 2 10 8 10 10 10 10 2 2
left_child=1 4 3 7 -1 16 8 15 21 10 13 -6 14 -5 29 18 17 -4 19 20 -3 -2 28 -12 -15 26 -19 -28 -7 -9
right_child=6 2 5 9 11 22 -8 12 -10 -11 23 -13 -14 24 -16 -17 -18 25 -20 -21 -22 -23 -24 -25 -26 -27 27 -29 -30 -31
leaf_value=0.0045429456475390715 -0.0020186877081914282 -0.0052875325083732612 -0.0067789349153501129 0.0012330266184579959 0.023086393444841306 0.024040167922691424 -0.0039680012747696997 0.0034600050810404273 -0.0029524260135090864 0.0016290004292414282 -0.0031068965052737174 0.010545666327015667 0.00077439281650252146 -0.00062920701166319743 0.0004768087572536599 -0.00033217642238694091 -0.0016475289119053304 -0.0017554699160334444 0.001211550801892215 -0.0015714229178696009 0.19493835992348627 -0.00066274847565425362 0.0028432590343448281 -0.00012810195175998767 0.00072230396862585876 -0.005934376462442382 0.023897893609859753 0.0035890145754515755 -0.008387461289689398 0.0019448919808445536
leaf_weight=7224 56241 50 11893 60881 978 72 25234 49723 38674 50894 23553 2642 69515 131396 24251 70582 11506 1516 51986 672 53 214504 7981 13478 60655 1524 298 666 991 73112
leaf_count=7224 56241 50 11893 60881 978 72 25234 49723 38674 50894 23553 2642 69515 131396 24251 70582 11506 1516 51986 672 53 214504 7981 13478 60655 1524 298 666 991 73112
internal_value=4.92778e-09 0.000645567 0.000539221 0.000693914 0.00767903 -0.0023502 -0.0014045 0.00125965 -0.00119543 0.000129679 -0.000133464 0.0139357 0.00175275 0.000143138 0.0022151 0.000393684 -0.00371402 -0.00520938 0.00136481 0.0116374 0.097782 -0.000944433 0.00178158 -0.00202286 -0.000202336 -0.000546052 0.00276325 0.00987408 -0.00618429 0.00255825
internal_weight=1.06274e+06 728092 717248 680801 10844 36447 334653 339944 309419 340857 289963 3620 216601 252932 147086 123343 27403 15897 52761 775 103 270745 9044 37031 192051 4004 2480 964 1063 122835
internal_count=1062745 728092 717248 680801 10844 36447 334653 339944 309419 340857 289963 3620 216601 252932 147086 123343 27403 15897 52761 775 103 270745 9044 37031 192051 4004 2480 964 1063 122835
is_linear=0
shrinkage=0.05


Tree=6
num_leaves=31
num_cat=0
split_feature=35 6 44 35 53 47 55 56 55 39 35 17 56 53 32 16 18 7 39 53 17 6 39 36 56 43 35 15 14 25
split_gain=377.453 192.585 115.666 94.7109 91.3449 77.9178 71.6987 836.158 56.8606 49.4094 53.5263 47.2973 47.2615 46.4592 38.0034 36.9329 36.7301 35.6987 35.2993 34.2108 54.4241 32.5347 30.9757 30.1184 29.6705 56.0581 28.5606 27.6252 26.5009 25.1377
threshold=1.003934582481553e-10 -0.45344858572732039 0.58016542273755078 3.3008040689019875e-10 23.984030328376505 0.13033620548936004 -21.673838068419496 -38.977403301610991 6.5429409733895012 -0.051794124836087578 4.4888120486493036e-11 0.027020827178986451 8.7399599252250013 23.984030328376505 0.020026759616677648 0.0078234718070491916 0.065786124602130833 1.0059994845750211 -0.033478301982149399 20.256234186816709 0.024948797356621168 0.45516968228198534 -0.29604475888778103 0.44512705643766942 84.334701393214502 -0.044226044226044307 2.979130318953719e-11 -0.12285564506018164 -0.040220883843392612 -0.79312703160659559
decision_type=2 2 2 2 2 2 8 10 10 2 2 2 10 2 2 2 2 2 2 2 2 2 2 2 10 2 2 2 2 10
left_child=2 17 4 5 9 11 7 -5 14 10 22 -3 27 15 -4 23 -7 -2 -6 20 -8 -21 24 29 -1 -26 -11 -12 -24 -13
right_child=1 3 8 6 18 16 19 -9 -10 26 12 13 -14 -15 -16 -17 -18 -19 -20 21 -22 -23 28 -25 25 -27 -28 -29 -30 -31
leaf_value=-0.0038009984628408935 0.0085569000128082485 -3.945186407230583e-06 -0.0038949260201628952 0.16480165567339922 -0.0021777255582201651 -0.00054227073390011881 0.035323396284856853 0.0028372929982147634 -0.00099266111292367317 0.0025799955714645093 0.0012144707722521245 0.00043886090286643451 0.0010083750815013661 -0.0019229757498360888 -0.0087494378968176675 0.00066657378539952759 -0.0046086321873724497 0.01924048165121087 -0.00072476464431187786 0.0022723757982324763 0.0056007019785400932 -0.0046850483748946993 0.00032252407016675915 0.00091545261042033806 0.001399678774073059 0.043833799268196749 0.00028898810567834211 -0.00100071655153986 -0.0021027628841816556 0.0028714725223063574
leaf_weight=20616 1733 85790 19794 86 103030 56857 160 1071 15084 15240 16095 12259 56995 10150 5066 76653 6155 1429 70363 75526 4107 1718 19179 40865 915 85 126774 112001 27280 79669
leaf_count=20616 1733 85790 19794 86 103030 56857 160 1071 15084 15240 16095 12259 56995 10150 5066 76653 6155 1429 70363 75526 4107 1718 19179 40865 915 85 126774 112001 27280 79669
internal_value=5.86375e-09 0.00109066 -0.000814107 0.00100445 -0.000631384 0.00066122 0.00253394 0.0148937 -0.00341491 -0.000211574 -0.000630319 0.000991534 -0.000189376 0.00138046 -0.00488442 0.00154058 -0.000939558 0.0133872 -0.00158814 0.00235842 0.00671719 0.00211756 -0.00182913 0.00204504 -0.00339287 0.0050156 0.000534881 -0.000722343 -0.00110146 0.00254713
internal_weight=1.06274e+06 454228 608517 451066 568573 368398 82668 1157 39944 395180 253166 305386 185091 219596 24860 209446 63012 3162 173393 81511 4267 77244 68075 132793 21616 1000 142014 128096 46459 91928
internal_count=1062745 454228 608517 451066 568573 368398 82668 1157 39944 395180 253166 305386 185091 219596 24860 209446 63012 3162 173393 81511 4267 77244 68075 132793 21616 1000 142014 128096 46459 91928
is_linear=0
shrinkage=0.05


Tree=7
num_leaves=31
num_cat=0
split_feature=53 15 23 18 55 39 47 17 15 47 54 39 53 55 47 54 55 20 53 18 25 53 26 53 55 32 18 17 54 55
split_gain=322.857 169.706 114.766 65.3968 64.4002 74.1057 57.0126 48.1474 47.8421 42.3916 41.7911 37.7993 33.5618 30.7059 30.4589 30.0595 31.8151 352.101 29.7935 29.2081 27.7047 26.8604 25.8757 24.3355 24.3299 23.5474 22.8999 25.3898 22.0068 36.2743
threshold=23.740222192859292 -0.19098555834721129 0.037823943767617101 0.050074033005606061 8.4719033108615012 -0.020816209715927677 -0.017549650281162472 0.029784213152202567 -0.31541666932239476 0.11475375954183459 2.7250000000000005 -0.0070165435099029385 24.138734985203978 11.282801931427501 0.055866874218190428 3.3310000000000004 -21.673838068419496 36.825313501152429 23.342546781884991 0.071020578335523402 -0.7711528537325667 22.514805886669567 8.1342652736514118 21.846510621928122 2.0508797685060007 0.018674407513987055 0.10605299507403315 0.094602022880532585 0.22500000000000003 -21.673838068419496
decision_type=2 2 2 2 10 2 2 2 2 2 8 2 2 10 2 10 8 2 2 2 10 2 10 2 10 2 2 2 10 8
left_child=1 8 6 10 5 9 7 15 26 -4 -2 19 -12 -6 -5 16 17 -3 20 21 -9 -8 24 -10 28 -11 27 -1 -7 -30
right_child=3 2 4 14 13 22 11 18 23 25 12 -13 -14 -15 -16 -17 -18 -19 -20 -21 -22 -23 -24 -25 -26 -27 -28 -29 29 -31
leaf_value=0.0059628793714527955 -5.8850728719298916e-06 -0.00053565345071685184 -0.0020708093682771816 -0.0017016472949215448 0.0036671017917631085 -0.0045801246606136615 0.00097150528852372835 0.00031098063377386751 0.0065622452948969406 -0.0040725133663674353 -0.00080898652416240753 0.001559631921228131 -0.0021099487657165617 -0.00026254731601033706 -0.0039271456855698291 -0.00027029278368988669 0.0012369724456559787 0.11424325377482798 0.00087942605705840574 -0.0038134952837980125 0.0025737871127925189 -0.00024298253272478305 0.025338231132810796 0.0027834752177184536 0.0026904295336857512 -0.0087768067406355146 0.0010604286387581893 0.015199828641389183 0.03412412529815384 9.3411158647556833e-05
leaf_weight=1243 94882 605 35565 36149 7986 3023 61682 15754 5541 9536 142136 46009 76143 13162 26769 64027 46327 75 60875 4930 95908 173816 106 18488 7898 3694 633 1862 79 7842
leaf_count=1243 94882 605 35565 36149 7986 3023 61682 15754 5541 9536 142136 46009 76143 13162 26769 64027 46327 75 60875 4930 95908 173816 106 18488 7898 3694 633 1862 79 7842
internal_value=7.72934e-09 0.000644964 0.000483594 -0.00117758 -0.00118739 -0.00193936 0.000744187 0.00124676 0.00447402 -0.00296991 -0.000882014 0.000246622 -0.00126283 0.00122116 -0.00264859 0.00043455 0.0013947 0.0121314 0.00176942 -4.61969e-06 0.00225458 7.5097e-05 0.000714227 0.00365508 0.0005753 -0.00538645 0.00973688 0.011504 -0.000950687 0.000433874
internal_weight=1.06274e+06 686666 658899 376079 88891 67743 570008 283571 27767 48795 313161 286437 218279 21148 62918 111034 47007 680 172537 240428 111662 235498 18948 24029 18842 13230 3738 3105 10944 7921
internal_count=1062745 686666 658899 376079 88891 67743 570008 283571 27767 48795 313161 286437 218279 21148 62918 111034 47007 680 172537 240428 111662 235498 18948 24029 18842 13230 3738 3105 10944 7921
is_linear=0
shrinkage=0.05


Tree=8
num_leaves=31
num_cat=0
split_feature=35 43 32 53 35 55 54 54 54 43 15 35 44 55 55 53 53 53 44 55 17 54 53 17 54 23 53 54 54 49
split_gain=320.25 140.646 101.052 84.4049 82.8595 63.0382 450.409 811.261 47.4886 49.0797 45.3908 40.5998 39.1497 40.7915 38.7317 35.5219 32.9052 32.0315 31.2924 36.5199 30.9286 25.3943 25.234 49.3092 35.4536 24.8689 23.6806 22.5082 21.5771 21.3854
threshold=1.003934582481553e-10 -0.5285954782238429 0.02213075627989854 23.984030328376505 3.3008040689019875e-10 -21.673838068419496 2.4530000000000007 5.0750000000000011 6.455000000000001 -0.34430650088089532 -0.13638990669173098 3.7351352132291691e-11 0.69608481829213797 8.8639694130910023 3.8528076175480002 24.011780949296547 24.449302267833634 23.19016732389786 0.38726691105614014 5.4549377981610006 0.027020827178986451 -12.819999999999999 20.256234186816709 0.024948797356621168 8.8837500000000009 0.020391560758751471 22.638000643968017 16.915000000000003 2.9543000000000004 2.1933786632333505
decision_type=2 2 2 2 2 8 10 10 8 2 2 2 2 10 8 2 2 2 2 10 2 8 2 2 10 2 2 10 8 2
left_child=2 -2 3 8 10 6 -6 -8 18 -10 -3 -11 15 -14 -4 20 -5 22 21 29 -12 -1 23 24 -7 -22 -13 -28 -25 -20
right_child=1 4 14 16 5 17 7 -9 9 11 12 26 13 -15 -16 -17 -18 -19 19 -21 25 -23 -24 28 -26 -27 27 -29 -30 -31
leaf_value=-0.0046531890210486987 0.011388076305402763 0.0024097262394551203 -0.0076413882252669516 -0.0012371821066573 0.0021701779707780076 0.01711584104175588 0.2430974464491662 0 0.0033493660656435521 -0.0028033418903933346 -9.640088344242288e-05 -0.0027944783060009056 -0.0045491504719975999 0.003497190510208146 -0.0023056662576426044 -0.0018102366264649541 -0.0030087644504720686 -0.00049033061187848416 -0.003187605537691836 0.0010528513643765535 0.0013053356567320526 0.00044191468481083224 0.0023302877011105233 -0.00018038468875095496 0.067453527599287133 9.2523910112153157e-05 -0.0007636692973721019 0.0013568566318509429 0.007687727491965452 0.0009237701283555833
leaf_weight=2473 3238 31984 6897 152572 1004 108 57 86 6408 28898 96964 12350 7167 2018 6717 15462 31655 9739 17911 11194 157198 218028 67262 1263 52 57825 95168 14407 2801 3839
leaf_count=2473 3238 31984 6897 152572 1004 108 57 86 6408 28898 96964 12350 7167 2018 6717 15462 31655 9739 17911 11194 157198 218028 67262 1263 52 57825 95168 14407 2801 3839
internal_value=8.69501e-09 0.00100463 -0.000749882 -0.000652401 0.000930064 0.00236378 0.0140039 0.0969936 -0.000253492 -0.000936131 0.00060967 -0.00111824 0.000438629 -0.00278076 -0.0050092 0.000528949 -0.00154161 0.00219933 0.00016998 -0.00126734 0.000644895 0.000384746 0.00256583 0.00631514 0.0335387 0.000979204 -0.000718807 -0.000484814 0.00524132 -0.00246169
internal_weight=1.06274e+06 454228 608517 594903 450990 82372 1147 143 410676 157231 368618 150823 336634 9185 13614 327449 184227 81225 253445 32944 311987 220501 71486 4224 160 215023 121925 109575 4064 21750
internal_count=1062745 454228 608517 594903 450990 82372 1147 143 410676 157231 368618 150823 336634 9185 13614 327449 184227 81225 253445 32944 311987 220501 71486 4224 160 215023 121925 109575 4064 21750
is_linear=0
shrinkage=0.05


end of trees

feature_importances:
total_mv_log=49
vwap_dev=31
revenue_growth=29
profit_growth=20
amihud_illiq=16
roe=14
atr_14=13
low_distance_60d=13
intraday_intensity=13
price_range_10d=11
mom_60d=9
turnover_5d=9
close_ma60_dev=8
volatility_20d=5
return_skew_20d=5
lower_shadow=5
ma_alignment=4
high_distance_60d=4
adx_14=3
volume_volatility=2
return_extremes_ratio=2
close_ma20_dev=1
return_kurtosis_20d=1
upper_shadow=1
boll_bandwidth=1
amount_volatility=1

parameters:
[boosting: gbdt]
[objective: regression]
[metric: l1]
[tree_learner: serial]
[device_type: cpu]
[data_sample_strategy: bagging]
[data: ]
[valid: ]
[num_iterations: 9]
[learning_rate: 0.05]
[num_leaves: 31]
[num_threads: 0]
[seed: 0]
[deterministic: 0]
[force_col_wise: 0]
[force_row_wise: 0]
[histogram_pool_size: -1]
[max_depth: -1]
[min_data_in_leaf: 50]
[min_sum_hessian_in_leaf: 0.001]
[bagging_fraction: 0.8]
[pos_bagging_fraction: 1]
[neg_bagging_fraction: 1]
[bagging_freq: 0]
[bagging_seed: 3]
[bagging_by_query: 0]
[feature_fraction: 0.8]
[feature_fraction_bynode: 1]
[feature_fraction_seed: 2]
[extra_trees: 0]
[extra_seed: 6]
[early_stopping_round: 0]
[early_stopping_min_delta: 0]
[first_metric_only: 0]
[max_delta_step: 0]
[lambda_l1: 0.1]
[lambda_l2: 0.1]
[linear_lambda: 0]
[min_gain_to_split: 0]
[drop_rate: 0.1]
[max_drop: 50]
[skip_drop: 0.5]
[xgboost_dart_mode: 0]
[uniform_drop: 0]
[drop_seed: 4]
[top_rate: 0.2]
[other_rate: 0.1]
[min_data_per_group: 100]
[max_cat_threshold: 32]
[cat_l2: 10]
[cat_smooth: 10]
[max_cat_to_onehot: 4]
[top_k: 20]
[monotone_constraints: ]
[monotone_constraints_method: basic]
[monotone_penalty: 0]
[feature_contri: ]
[forcedsplits_filename: ]
[refit_decay_rate: 0.9]
[cegb_tradeoff: 1]
[cegb_penalty_split: 0]
[cegb_penalty_feature_lazy: ]
[cegb_penalty_feature_coupled: ]
[path_smooth: 0]
[interaction_constraints: ]
[verbosity: -1]
[saved_feature_importance_type: 0]
[use_quantized_grad: 0]
[num_grad_quant_bins: 4]
[quant_train_renew_leaf: 0]
[stochastic_rounding: 1]
[linear_tree: 0]
[max_bin: 255]
[max_bin_by_feature: ]
[min_data_in_bin: 3]
[bin_construct_sample_cnt: 200000]
[data_random_seed: 1]
[is_enable_sparse: 1]
[enable_bundle: 1]
[use_missing: 1]
[zero_as_missing: 0]
[feature_pre_filter: 1]
[pre_partition: 0]
[two_round: 0]
[header: 0]
[label_column: ]
[weight_column: ]
[group_column: ]
[ignore_column: ]
[categorical_feature: ]
[forcedbins_filename: ]
[precise_float_parser: 0]
[parser_config_file: ]
[objective_seed: 5]
[num_class: 1]
[is_unbalance: 0]
[scale_pos_weight: 1]
[sigmoid: 1]
[boost_from_average: 1]
[reg_sqrt: 0]
[alpha: 0.9]
[fair_c: 1]
[poisson_max_delta_step: 0.7]
[tweedie_variance_power: 1.5]
[lambdarank_truncation_level: 30]
[lambdarank_norm: 1]
[label_gain: ]
[lambdarank_position_bias_regularization: 0]
[eval_at: ]
[multi_error_top_k: 1]
[auc_mu_weights: ]
[num_machines: 1]
[local_listen_port: 12400]
[time_out: 120]
[machine_list_filename: ]
[machines: ]
[gpu_platform_id: -1]
[gpu_device_id: -1]
[gpu_use_dp: 0]
[num_gpu: 1]

end of parameters

pandas_categorical:null
