tree
version=v4
num_class=1
num_tree_per_iteration=1
label_index=0
max_feature_idx=56
objective=regression
feature_names=Column_0 Column_1 Column_2 Column_3 Column_4 Column_5 Column_6 Column_7 Column_8 Column_9 Column_10 Column_11 Column_12 Column_13 Column_14 Column_15 Column_16 Column_17 Column_18 Column_19 Column_20 Column_21 Column_22 Column_23 Column_24 Column_25 Column_26 Column_27 Column_28 Column_29 Column_30 Column_31 Column_32 Column_33 Column_34 Column_35 Column_36 Column_37 Column_38 Column_39 Column_40 Column_41 Column_42 Column_43 Column_44 Column_45 Column_46 Column_47 Column_48 Column_49 Column_50 Column_51 Column_52 Column_53 Column_54 Column_55 Column_56
feature_infos=[7.6086680894645298:98.311519961973701] [-36.674766214646148:38.650495249547447] [-0.50583816686541827:1.5897247358851994] [-23.781118298409915:126.47040002885009] [0.14395264157872562:22.511225189689267] [-0.48674985145573391:3.4469273743016755] [-0.62735361059383399:5.3938618925831197] [0.022900953999095308:1.8913610019764104] [-44.216241292631658:55.538218808087905] [-40.583104686941255:34.731367462183989] [-1.5361648895678468:1.6525703438214996] [-3.0545694761617272:0.63628975346022909] [0.22757148743854921:3.5353634401038665] [-0.22216279295925312:0.39331086336530952] [-0.3534898681247991:1.1176238794207465] [-0.51091560674121328:2.3250360277741384] [-0.46018022262795227:2.24171361194812] [0.007247427608450329:0.14502766171280504] [0.0038961038961038987:0.1925315491742883] [-100:0] [5.2916800661774195:81.798263777438294] [-0.97648596105359564:1.0739951396429603] [0.018374247919756382:13.455139550773673] [0.00066250001826237523:3.8880000000000003] [0:0.98333333333333328] [-4.129483209670112:4.1294832096701128] [-1.8149948936345497:15.052631578947373] [0:259.33188164981215] [-0.49265865792986285:0] [-0.82902829876566486:0.90760521470769695] [0:1] [0:0.081151162390514259] [0:0.078276109785269443] [0:1] [-0.090289464675152489:0.12113704235483828] [1.8604216529526737e-12:3.5572069328535507e-09] [0.097439575258210676:2.3508542773343817] [-0.38358636797961565:1.3559842174484875] [-0.40885444314683084:1.6611135466900486] [-0.99212712169644235:1.100110901192648] [5.7673923357150998e-16:1.9241787646710045] [-0.94789454096527948:0.9831922553929453] [-17:17] [-0.68181818181818188:0] [0:6.2102272727272725] [0:3.2003440080057644] [0:100] [-0.63641310614651503:0.82350245018975987] [-498.54534199938553:529.65599051008394] [0:17.104167566400466] [0.10216475411181652:2.8749351901733369] none none none [-1290.26:201.97999999999999] [-76.918692963710001:6072.3841915172698] [-42973.206900434299:7267.5874379203897]
tree_sizes=3031 3068 3103 3096 3100 3057 3103 3105 3109 3092 3137 3106 3119 3124 3113 3111 3080 3068 3079 3091 3106 3120 3123 3122 3085 3093 3119 3094 3088 3150

Tree=0
num_leaves=31
num_cat=0
split_feature=16 35 28 17 6 28 39 55 23 35 44 55 1 32 16 31 14 55 44 13 6 31 29 44 35 49 47 35 35 35
split_gain=73.7211 48.8171 29.8965 21.079 11.1654 13.9534 15.1806 8.49487 8.92129 7.33662 11.1488 9.00699 11.8793 6.82401 6.67535 5.97651 5.91551 4.51546 4.71591 4.4075 4.112 3.66093 3.65583 3.54913 3.49157 3.16067 2.98438 2.95816 2.92541 2.92345
threshold=-0.16699386481205078 1.0900258272023916e-10 -0.1219131747792634 0.049931536710312467 0.57248281753582131 -0.20708115561208851 -0.00075741193137957008 1.8083807617595002 0.035724469735157902 2.5981796180549172e-10 0.77558610121952831 1.1397794512885002 0.93100770606857741 0.01736454899714435 -0.072020028176508891 0.010575642876810959 -0.16572956969356487 0.082108469922000007 1.1555037286365091 -0.067031532456693674 -0.22461733697774303 0.0061010966211914363 0.54228521138250152 0.45425829638881471 7.5436260128847313e-11 0.85305469784084964 -0.12607515950904963 1.1570327308143105e-10 3.4656032659044595e-11 5.1456421245641164e-10
decision_type=2 2 2 2 2 2 2 10 2 2 2 10 2 2 2 2 2 10 2 2 2 2 10 2 2 2 2 2 2 2
left_child=3 4 15 28 5 -2 14 23 -9 21 20 -12 -13 19 -7 -3 -15 -6 -19 -5 -11 -4 -22 -8 -16 -10 -23 -21 -1 -17
right_child=1 2 9 13 17 6 7 8 25 10 11 12 -14 16 24 29 -18 18 -20 27 22 26 -24 -25 -26 -27 -28 -29 -30 -31
leaf_value=0.014472066303943695 0.017849600939859898 0.017784902586068574 0.015898356629525191 0.025830284768458889 0.012537822637271347 0.016224948336167208 0.016062855896822912 0.016483531745320322 0.014256134465486797 0.021382814805614995 0.013320511242928273 0.053396830849542151 0.024472372658953204 0.034441682419838665 0.015379343465921182 0.019120573393394586 0.02437263412835261 0.015596971037255773 0.012916356148936228 0.019852336139134952 0.017210442877180817 0.017382291426514127 0.030245729085123983 0.014600806369948881 0.015870225013548133 0.018373270656094193 0.016418274849291634 0.022690417965090651 0.018448600954939106 0.022827138881983743
leaf_weight=507 8728 14069 25911 535 2831 37639 40313 31412 488 642 64 58 93 175 149381 12034 913 5943 2270 2337 11679 10510 54 4629 47874 9834 34082 1529 5113 559
leaf_count=507 8728 14069 25911 535 2831 37639 40313 31412 488 642 64 58 93 175 149381 12034 913 5943 2270 2337 11679 10510 54 4629 47874 9834 34082 1529 5113 559
internal_value=0.0162189 0.0161198 0.017037 0.0202427 0.0158248 0.0158771 0.0158236 0.0163891 0.0169028 0.0165695 0.0176814 0.0289695 0.0356328 0.0224469 0.0156149 0.0184939 0.0259983 0.0142609 0.0148554 0.0215676 0.0174847 0.0163709 0.017271 0.0159122 0.0154985 0.0181781 0.0166456 0.0209762 0.0180889 0.0192856
internal_weight=462206 451097 109755 11109 341342 330298 321570 86676 41734 83093 12590 215 151 5489 234894 26662 1088 11044 8213 4401 12375 70503 11733 44942 197255 10322 44592 3866 5620 12593
internal_count=462206 451097 109755 11109 341342 330298 321570 86676 41734 83093 12590 215 151 5489 234894 26662 1088 11044 8213 4401 12375 70503 11733 44942 197255 10322 44592 3866 5620 12593
is_linear=0
shrinkage=1


Tree=1
num_leaves=31
num_cat=0
split_feature=28 35 6 28 18 39 6 44 15 55 23 56 55 35 44 55 1 18 6 35 0 6 56 54 56 20 6 41 31 56
split_gain=66.4503 41.3938 23.8031 23.2368 14.3272 9.93888 8.73002 8.45659 7.80973 7.57601 9.02321 7.71491 7.781 7.15292 10.1357 9.39971 9.70185 5.45274 5.1739 5.06657 4.60625 4.15418 4.11286 3.87935 4.50044 5.87787 3.84258 3.74069 3.5752 3.55755
threshold=-0.20708115561208851 1.0299636471905947e-10 -0.23609937247681448 -0.1219131747792634 0.057374407277324159 -0.00075741193137957008 0.61781844873075131 0.5783484303221148 -0.071061057312799811 1.9139534852520004 0.035724469735157902 -40.573825807988491 7.7729766072660009 2.5981796180549172e-10 0.68739175463792701 1.1397794512885002 0.87380325073752985 0.054462506556759376 0.32286775481105628 1.561463743859803e-10 28.726458771026071 -0.1332683579850942 -244.99173427258197 3.5650000000000004 138.16760983387803 30.53219936842353 -0.22461733697774303 0.424129848216104 0.009835263941632302 -26.693259151211496
decision_type=2 2 2 2 2 2 2 2 2 10 2 10 10 2 2 10 2 2 2 2 2 2 8 8 10 2 2 2 2 10
left_child=2 5 4 17 -1 8 19 9 28 -7 -11 12 -12 -5 26 -16 -17 21 -10 -4 -6 -3 -19 24 -13 -26 -15 -9 -2 -21
right_child=1 3 6 13 20 7 -8 27 18 10 11 23 -14 14 15 16 -18 22 -20 29 -22 -23 -24 -25 25 -27 -28 -29 -30 -31
leaf_value=0.0038550985940148507 -0.00029940879597950277 0.0024136610274446179 0.0016767309900923789 0.0001192366767122284 0.014025614869685255 -0.00026090216325187022 -0.001988740987616274 -0.0021757197346957287 -0.00066741969509941882 0.0002857529845150299 0.0034189875094366821 0.0026894832583388459 0.019486744935995792 0.0048054355142667007 -0.0016382531867921728 0.03108093604581913 0.0078102840581507713 0.01448613031835673 -0.0017234255269542008 -0.00021525557242629289 0.007876891628821556 0.0010058567341378959 0.0032528131129290795 0.00089415348511287138 0.02533205491208167 0.0043998968972406771 0.00096851108546163053 -0.00025942286099025461 0.00066028791687471836 0.0052168491473963468
leaf_weight=4037 32420 9344 10782 79132 395 42650 1433 5734 174220 29032 192 3506 125 692 100 76 111 83 12434 359 1382 11974 5088 4823 51 100 11665 4593 13850 1823
leaf_count=4037 32420 9344 10782 79132 395 42650 1433 5734 174220 29032 192 3506 125 692 100 76 111 83 12434 359 1382 11974 5088 4823 51 100 11665 4593 13850 1823
internal_value=0 -0.000128194 0.0028036 0.000672347 0.00550413 -0.000420663 0.00171265 2.29921e-05 -0.000593644 0.000195892 0.000711031 0.00211395 0.00977477 0.000295753 0.00140007 0.0106896 0.0173062 0.00197693 -0.000737793 0.00212219 0.00924718 0.00162316 0.00343436 0.00182688 0.00305556 0.0115149 0.00118382 -0.00132393 -1.20339e-05 0.00432086
internal_weight=462206 441995 20211 118265 5814 323730 14397 90806 232924 80479 37829 8797 317 91776 12644 287 187 26489 186654 12964 1777 21318 5171 8480 3657 151 12357 10327 46270 2182
internal_count=462206 441995 20211 118265 5814 323730 14397 90806 232924 80479 37829 8797 317 91776 12644 287 187 26489 186654 12964 1777 21318 5171 8480 3657 151 12357 10327 46270 2182
is_linear=0
shrinkage=0.05


Tree=2
num_leaves=31
num_cat=0
split_feature=16 35 28 18 6 28 39 54 35 44 1 18 18 16 23 25 15 16 44 20 54 6 31 41 16 49 26 54 13 6
split_gain=61.2011 39.9425 24.3683 23.2163 9.51042 10.866 11.8615 6.25272 6.16617 9.14238 6.4636 6.10223 5.90389 5.64462 5.54159 5.17258 5.57463 4.8228 4.60579 4.47166 4.15765 3.55828 3.38829 3.3776 3.41085 6.49587 3.43593 3.29521 3.29184 3.28827
threshold=-0.16699386481205078 1.0900258272023916e-10 -0.12383539249443014 0.056189252447577435 0.74302581583327254 -0.20708115561208851 -0.00075741193137957008 6.9850000000000012 2.5981796180549172e-10 0.77558610121952831 0.87380325073752985 0.04064215979759566 0.057374407277324159 -0.072020028176508891 0.027665276144776131 -0.64795299193813372 -0.22894722206032872 -0.10927731234943229 0.49880871503231233 14.795848808637537 25.010000000000005 0.2892813294602738 0.0061010966211914363 0.11760200993256073 0.20550545407491747 1.198210000224434 -0.040362526687809812 11.275 -0.046320191090458755 -0.22461733697774303
decision_type=2 2 2 2 2 2 2 8 2 2 2 2 2 2 2 2 2 2 2 2 8 2 2 2 2 2 2 8 2 2
left_child=3 4 12 11 5 -2 13 14 22 29 -11 -1 17 27 -8 -5 -17 -3 -16 -9 21 -15 -4 -14 -25 26 -26 -7 -13 -10
right_child=1 2 8 15 -6 6 7 19 9 10 -12 28 23 20 18 16 -18 -19 -20 -21 -22 -23 -24 24 25 -27 -28 -29 -30 -31
leaf_value=0.0011634874367987171 0.0013779626221723713 0.0028506020732785588 -0.00030816681244486661 0.0011556223932606029 -0.0022821627701627386 0.00024115033256218491 5.5790681567726742e-05 0.0015279153518560455 0.0045968735235101853 0.022394863944877205 0.0045647951062598386 0.0068021528668229221 0.0015256549353025277 -0.00057276498473377545 0.0014747314419137889 0.011633938736459536 0.0065662602722633082 0.0011851011131180137 -0.00020205827598029913 -0.00076522515282636183 -0.0024927795016621394 -0.0014019247178546973 0.00040759072173695578 0.0035533858110723781 0.022371518707143365 0.0050016465275800545 0.0075908726571491808 -0.00092819200396792906 0.0031494492877873399 0.00097150268838189452
leaf_weight=4519 9154 6291 26086 257 6298 30120 43100 2345 661 84 131 762 1470 181829 15828 932 1320 14128 5518 22628 3050 13941 45135 3000 94 686 70 7531 3319 11919
leaf_count=4519 9154 6291 26086 257 6298 30120 43100 2345 661 84 131 762 1470 181829 15828 932 1320 14128 5518 22628 3050 13941 45135 3000 94 686 70 7531 3319 11919
internal_value=3.60468e-09 -9.02749e-05 0.000739437 0.00366631 -0.000357075 -0.000320873 -0.000368607 0.00012189 0.000326998 0.00133764 0.0115614 0.00243081 0.0020855 -0.000554105 0.000382208 0.00789894 0.00866618 0.00169849 0.00104104 -0.000549691 -0.000660411 -0.000631837 0.000145361 0.00356991 0.00434909 0.00715082 0.0161016 7.12238e-06 0.00383285 0.00116243
internal_weight=462206 451097 109755 11109 341342 335044 325890 89419 84016 12795 215 8600 25739 236471 64446 2509 2252 20419 21346 24973 198820 195770 71221 5320 3850 850 164 37651 4081 12580
internal_count=462206 451097 109755 11109 341342 335044 325890 89419 84016 12795 215 8600 25739 236471 64446 2509 2252 20419 21346 24973 198820 195770 71221 5320 3850 850 164 37651 4081 12580
is_linear=0
shrinkage=0.05


Tree=3
num_leaves=31
num_cat=0
split_feature=16 35 18 28 6 28 39 55 23 35 56 55 18 56 28 0 18 54 35 44 55 21 16 27 54 17 54 54 21 44
split_gain=55.2377 36.2469 20.9534 19.5131 8.29854 10.6509 11.6484 7.31643 7.42614 6.2121 5.61056 10.9569 5.50815 5.40017 4.96252 4.95518 4.9059 4.90416 4.82624 8.3519 8.44637 4.92718 4.20919 3.87574 3.7601 3.71477 3.6274 4.93905 4.00533 3.36731
threshold=-0.16699386481205078 1.2201345259596606e-10 0.056189252447577435 -0.12383539249443014 0.57248281753582131 -0.19925348701671122 0.0021953994994272645 1.8083807617595002 0.035724469735157902 6.9429235581723714e-11 -55.18287720355999 7.7729766072660009 0.040850168186807458 -4.5540175985254994 -0.11110355047480792 28.726458771026071 0.057374407277324159 0.12610000000000002 2.5981796180549172e-10 0.68739175463792701 1.1397794512885002 0.33583569613591857 -0.10927731234943229 0.60089922136493312 25.010000000000005 0.052005209826460265 2.8250000000000006 2.0123000000000002 0.36128570557403877 0.43516923311103667
decision_type=2 2 2 2 2 2 2 10 2 2 10 10 2 10 2 2 2 10 2 2 10 2 2 10 8 2 8 10 2 2
left_child=2 4 12 16 5 -2 9 29 -9 24 11 -10 -1 -6 -11 -4 22 -13 -5 -20 -21 -22 -3 -17 -7 26 27 -12 -29 -8
right_child=1 3 15 18 13 6 7 8 10 14 25 17 -14 -15 -16 23 -18 -19 19 20 21 -23 -24 -25 -26 -27 -28 28 -30 -31
leaf_value=0.0011249790441307335 0.0012341026551809225 0.0028930526798145962 0.012120417342329722 0.00019387402807359143 -0.0036029491668502904 -0.00063333187142514623 -9.6057178281309832e-05 0.00028327318608425137 0.00076245985004884755 0.00049460678724677967 0.0021770963987215171 0.010665066185339333 0.0036636753505355467 -0.0010333495939611928 -0.00036701557977391258 0.0008257520068683399 0.0035618582831155941 0.030794469692749207 0.0010764926064711804 -0.0019165075996671424 0.028129934829863337 0.010465072341500724 0.0011998715161076607 0.0072797773251038122 -0.0022475627590354758 -1.9431762345890307e-05 0.0013510088728196921 0.0046692241312376289 0.012300608231783257 -0.0014321763187991011
leaf_weight=4590 11431 5321 474 55737 2681 160632 38323 30919 186 22310 1825 67 4010 8658 66558 270 4608 57 12507 101 58 129 11897 1765 3693 2524 4623 635 238 5379
leaf_count=4590 11431 5321 474 55737 2681 160632 38323 30919 186 22310 1825 67 4010 8658 66558 270 4608 57 12507 101 58 129 11897 1765 3693 2524 4623 635 238 5379
internal_value=1.20797e-08 -8.57548e-05 0.00348312 0.000809767 -0.000310079 -0.00026686 -0.000317642 0.000189603 0.000668763 -0.000487502 0.00184196 0.00846786 0.00230933 -0.00164137 -0.000150652 0.00750423 0.00211181 0.0199757 0.000395018 0.00127083 0.0096898 0.0159828 0.00172343 0.00642601 -0.000669641 0.00163273 0.00220301 0.00366095 0.00675661 -0.000260629
internal_weight=462206 451097 11109 90358 360739 349400 337969 84776 41074 253193 10155 310 8600 11339 88868 2509 21826 124 68532 12795 288 187 17218 2035 164325 9845 7321 2698 873 43702
internal_count=462206 451097 11109 90358 360739 349400 337969 84776 41074 253193 10155 310 8600 11339 88868 2509 21826 124 68532 12795 288 187 17218 2035 164325 9845 7321 2698 873 43702
is_linear=0
shrinkage=0.05


Tree=4
num_leaves=31
num_cat=0
split_feature=16 35 18 40 6 23 55 54 18 6 54 16 31 56 55 56 54 47 41 39 54 29 15 25 43 43 56 56 43 39
split_gain=49.8656 31.7084 20.2974 17.2587 7.96521 9.00921 6.61919 8.27045 6.1938 5.04716 5.30158 5.0445 5.45784 4.93464 7.93101 5.06726 5.03966 8.74994 14.7088 4.85719 5.8935 5.84485 4.5746 3.99541 3.89904 4.0399 6.59972 3.74274 3.62777 4.59
threshold=-0.16014658781694449 1.0900258272023916e-10 0.056189252447577435 0.18268934233722264 0.74302581583327254 0.024787605531275517 0.29564950199450007 2.6450000000000005 0.039606391940683799 0.16981488881911336 10.945000000000002 -0.018214071869110334 0.0070100737730111025 -40.573825807988491 7.4792366410750004 107.99581146366752 2.4750000000000005 -0.10142367263917831 0.3532214704201832 -0.043493900948591839 0.12610000000000002 0.10177183365330132 -0.22894722206032872 -0.64795299193813372 -0.089854119620005932 -1.0000000180025095e-35 -36.292302982430492 -5.7604085628524997 -0.19183812096585631 -0.024332722758083566
decision_type=2 2 2 2 2 2 10 8 2 2 8 2 2 10 10 10 10 2 2 2 10 10 2 2 2 2 10 10 2 2
left_child=2 4 8 11 5 9 -7 13 -1 10 28 12 -3 14 -8 16 -15 18 -18 -16 -21 -22 23 -4 -5 -26 -27 -6 -2 -30
right_child=1 3 22 24 27 6 7 -9 -10 -11 -12 -13 -14 15 19 -17 17 -19 -20 20 21 -23 -24 -25 25 26 -28 -29 29 -31
leaf_value=0.00082861210833356602 0.0002079538014027253 9.650212462173778e-05 0.0011269514730959372 0.0020552677217453167 -0.0044295836990053327 -0.00048008238759438438 0.0018550805539486589 0.00010760532589341875 0.0032922177103629664 -0.00096722415348217286 -0.00086945793943992941 -0.00014418784421244346 0.0012460746528627504 0.00066866791884556524 0.00060975709896531332 0.0048593725976952135 0.0042641087737554035 0.0023955300076695255 0.037702928262692087 0.0066855590401864 0.028869287884715551 0.009382991019315336 0.0052447380414773507 0.010588918068533577 0.00053792225492335156 0.020408078582098386 0.0029458831271503248 -0.0014512804765006776 -0.00057603989633838012 -1.8012961453402918e-05
leaf_weight=5205 38078 21352 128 20895 1344 22907 1046 31815 5017 37005 38852 38170 20011 11167 111 898 97 791 50 189 84 73 1651 939 8204 63 389 4954 86471 64250
leaf_count=5205 38078 21352 128 20895 1344 22907 1046 31815 5017 37005 38852 38170 20011 11167 111 898 97 791 50 189 84 73 1651 939 8204 63 389 4954 86471 64250
internal_value=1.93478e-08 -8.81091e-05 0.00306013 0.000653664 -0.000325984 -0.000292737 0.000215042 0.000558908 0.00203827 -0.000425579 -0.000337512 0.000270229 0.000652776 0.00154836 0.00426212 0.00123427 0.000964895 0.00448573 0.0156897 0.00975889 0.0126785 0.0198523 0.00690115 0.00945873 0.00168546 0.000792177 0.00539481 -0.00208771 -0.000228018 -0.000338195
internal_weight=462206 449266 12940 109084 340182 333884 69228 46321 10222 264656 227651 79533 41363 14506 1503 13003 12105 938 147 457 346 157 2718 1067 29551 8656 452 6298 188799 150721
internal_count=462206 449266 12940 109084 340182 333884 69228 46321 10222 264656 227651 79533 41363 14506 1503 13003 12105 938 147 457 346 157 2718 1067 29551 8656 452 6298 188799 150721
is_linear=0
shrinkage=0.05


Tree=5
num_leaves=31
num_cat=0
split_feature=28 35 15 28 12 18 35 44 54 44 35 23 23 55 56 18 35 55 54 44 18 34 44 44 56 32 24 56 56 56
split_gain=46.6108 28.1054 17.1453 16.1192 8.25926 7.96064 7.9279 7.20936 5.95492 5.57198 5.00442 7.28392 4.56037 5.00864 9.41313 4.48354 4.44922 4.02996 6.31416 7.59101 7.2627 3.9553 3.95084 3.76667 4.73356 3.71768 3.55414 3.23239 3.18258 3.05627
threshold=-0.20708115561208851 1.0299636471905947e-10 -0.22894722206032872 -0.11837922034183716 0.93008462325669383 0.04682633720214107 1.4342053331535648e-10 0.55937008288817747 11.275 0.45425829638881471 2.5981796180549172e-10 0.10342838460561486 0.019243371170589791 2.4528900626665004 -52.193836023517491 0.066049719474188237 5.1456421245641164e-10 7.6220872413595009 0.12610000000000002 0.90687390465790119 0.052043129540036918 0.022178755763239733 0.28908720480736377 0.5783484303221148 10.707727135460003 0.01736454899714435 0.80833333333333346 466.61616379383906 -84.978967872792978 -28.006053838565997
decision_type=2 2 2 2 2 2 2 2 8 2 2 2 2 10 10 2 2 10 10 2 2 2 2 2 10 2 2 10 10 10
left_child=2 4 5 16 9 -1 7 15 12 -2 -5 23 -6 22 17 -4 21 -15 -19 20 -20 27 -14 -12 -25 -7 -26 -3 -18 -8
right_child=1 3 6 10 8 25 29 -9 -10 -11 11 -13 13 14 -16 -17 28 18 19 -21 -22 -23 -24 24 26 -27 -28 -29 -30 -31
leaf_value=0.0025858236273517432 -0.0005312199808265274 0.0013642802473404982 0.0012746202529760114 7.3981976026699764e-05 -0.00020329155386070725 0.0066778440837651212 0.00058325955351808795 -0.0014160676112714267 -0.00078151005019724742 -0.0016828303023252015 0.00089926848279207406 0.016899033259025809 0.00041169117000235133 0.0023551757177014991 0.00070591064595393576 0.0040217559073184505 0.014445480479526117 0.0040339337792270613 0.010580976115239045 0.0024719197903578047 0.034701057818430948 0.0065100615818779566 -0.00077502920033337792 0.0027004416192804473 0.024470540937610377 0.012051556111222265 0.0055464358007658032 0.01318079338900616 0.0039464482192600363 0.0044589788931164694
leaf_weight=1129 140144 26965 9636 77398 89261 1377 614 2217 27803 11360 11858 73 16964 374 25433 1759 78 242 60 67 67 383 11955 315 51 425 50 58 1036 3054
leaf_count=1129 140144 26965 9636 77398 89261 1377 614 2217 27803 11360 11858 73 16964 374 25433 1759 78 242 60 67 67 383 11955 315 51 425 50 58 1036 3054
internal_value=2.74305e-08 -0.000107331 0.0023481 0.000552311 -0.000348327 0.00588476 0.0017479 0.0011914 -0.000111421 -0.000617604 0.000223179 0.00115802 1.75443e-05 0.000374983 0.000875141 0.00169915 0.00158782 0.00618184 0.00945159 0.0161784 0.0233624 0.00146164 -7.87224e-05 0.00106385 0.00574196 0.0079486 0.0151664 0.00138988 0.00468729 0.0038116
internal_weight=462206 441995 20211 118265 323730 2931 17280 13612 172226 151504 89745 12347 144423 55162 26243 11395 28520 810 436 194 127 27406 28919 12274 416 1802 101 27023 1114 3668
internal_count=462206 441995 20211 118265 323730 2931 17280 13612 172226 151504 89745 12347 144423 55162 26243 11395 28520 810 436 194 127 27406 28919 12274 416 1802 101 27023 1114 3668
is_linear=0
shrinkage=0.05


Tree=6
num_leaves=31
num_cat=0
split_feature=28 35 6 28 32 12 6 39 55 31 44 35 44 26 56 35 35 56 14 44 50 6 23 56 55 17 29 6 56 34
split_gain=42.0684 25.3664 15.7741 14.5749 7.55944 7.51088 5.82334 5.03138 5.57036 4.96449 4.43196 4.27068 6.85133 6.4509 6.6767 4.01376 3.72799 3.63912 3.51566 3.46116 3.41149 3.3773 4.07203 5.08685 9.30293 4.79154 4.05303 3.35499 3.25236 3.1623
threshold=-0.20708115561208851 1.0299636471905947e-10 -0.24241990598601929 -0.11341524614643937 0.014503140246335486 0.89013853674061749 0.61781844873075131 0.0028966353760592205 1.9139534852520004 0.010133921210176216 0.46374687529803055 2.7039226645048446e-10 0.6258447432523756 -0.85508588621895976 10.707727135460003 5.1456421245641164e-10 1.6343648656431332e-10 466.61616379383906 -0.16572956969356487 0.27172611272447617 0.35535752171489426 1.2742058681039921 0.035724469735157902 -55.18287720355999 7.7729766072660009 0.052005209826460265 0.18409992917259921 0.1734104046242774 178.73350919990654 -0.011438371649831925
decision_type=2 2 2 2 2 2 2 2 10 2 2 2 2 2 10 2 2 10 2 2 2 2 2 10 10 2 10 2 10 2
left_child=2 5 4 9 20 10 16 27 19 -3 -2 -5 -13 -14 -15 17 29 -11 -6 -9 -1 22 -10 24 -24 -25 -26 -7 -27 -4
right_child=1 3 6 11 18 7 -8 8 21 15 -12 12 13 14 -16 -17 -18 -19 -20 -21 -22 -23 23 25 26 28 -28 -29 -30 -31
leaf_value=0.0049287511812519096 -0.00054280535672176101 0.00086396209105540358 0.0036272896325004592 5.8941844229543563e-05 0.013229247491004764 -0.00022275257671471274 -0.0016531079004865118 0.00015092741773177479 0.00034007584492521309 0.0018969562026011717 -0.0016777204987593426 0.00090388650762184366 0.022387019323954753 -0.00059345386920279467 0.016824842833822028 0.0060369799849220654 0.003630590191005101 0.015279201794882286 0.0065904037799947987 -0.00087900160599228047 0.0021038174807289402 -0.0038540131022554783 -0.00049188061004359939 0.0020702975795215922 0.019032637173688253 -0.00050720500489651423 0.0025365189454151925 -0.0010033507395926934 0.007240459314010534 0.0010245302031673927
leaf_weight=2138 121701 16971 1327 76124 253 108637 1433 22210 21979 13873 9262 10295 65 179 79 628 2107 51 985 12887 2155 406 200 6975 146 3366 51 15769 141 9813
leaf_count=2138 121701 16971 1327 76124 253 108637 1433 22210 21979 13873 9262 10295 65 179 79 628 2107 51 985 12887 2155 406 200 6975 146 3366 51 15769 141 9813
internal_value=3.7653e-08 -0.000101955 0.00223076 0.00052472 0.00450681 -0.000330908 0.00137285 -0.000132365 0.000212189 0.0014455 -0.000623109 0.00019004 0.00112944 0.00830069 0.00472514 0.00212335 0.00170057 0.00194644 0.00795213 -0.000227103 0.00351194 0.000675839 0.000731974 0.00152326 0.00708098 0.00131222 0.0147909 -0.000321738 -0.000194085 0.00133505
internal_weight=462206 441995 20211 118265 5531 323730 14680 192767 68361 31523 130963 86742 10618 323 258 14552 13247 13924 1238 35097 4293 33264 32858 10879 397 10482 197 124406 3507 11140
internal_count=462206 441995 20211 118265 5531 323730 14680 192767 68361 31523 130963 86742 10618 323 258 14552 13247 13924 1238 35097 4293 33264 32858 10879 397 10482 197 124406 3507 11140
is_linear=0
shrinkage=0.05


Tree=7
num_leaves=31
num_cat=0
split_feature=16 18 35 28 15 44 23 41 35 18 18 55 35 23 47 23 6 35 44 40 41 56 40 49 25 3 33 35 49 26
split_gain=39.4078 24.6512 17.3963 10.2539 9.4753 6.18858 6.95134 7.15773 5.69699 5.54148 5.3726 4.47837 4.40656 4.73182 5.47632 4.32155 4.23733 3.77336 3.77157 4.44482 3.57757 7.24991 3.78276 3.81325 3.18717 3.09527 4.45327 3.08555 2.99915 2.95305
threshold=-0.10927731234943229 0.040850168186807458 8.8445694655483752e-11 -0.12383539249443014 -0.22894722206032872 1.1555037286365091 0.025161248784956024 0.44279805657528226 5.6662920627273044e-11 0.052946815663357509 0.064938254378514887 0.90262493306850011 1.9466773021424464e-10 0.14299944725334221 0.092389191917587335 0.043891017296190278 0.16981488881911336 1.133573445493962e-10 0.55937008288817747 0.35949867570263477 0.11760200993256073 -244.99173427258197 0.5146680098407751 1.6053528543149598 -0.78618655161496853 115.10519424471666 0.46194618560220041 2.323290876490334e-11 1.0041389915404251 -0.57373437089570178
decision_type=2 2 2 2 2 2 2 2 2 2 2 10 2 2 2 2 2 2 2 2 2 8 2 2 2 2 2 2 2 2
left_child=1 8 5 9 10 6 16 18 -1 -4 -3 -9 -5 25 -15 -13 -2 -6 19 29 -11 -22 -23 -24 -12 -14 -27 -7 -10 -8
right_child=2 4 3 12 17 27 7 11 28 20 24 15 13 14 -16 -17 -18 -19 -20 -21 21 22 23 -25 -26 26 -28 -29 -30 -31
leaf_value=-0.00051522094442287144 -0.0003804210200162026 0.0047681397297063589 0.00075122817374280156 -4.3999742801647106e-05 0.0017703570100142292 -0.0043136057617186967 0.00071290186775190304 -6.2434707030122497e-05 0.0015161941533446174 0.00054780926052208048 -0.0014873345506827378 0.00056370224200934867 0.00061194633438657554 -2.2411999448035562e-05 0.02239324653236947 0.0022630188349081646 -0.00099204140033011512 0.003614131148365435 -0.0012932970441208403 0.0016882742132530888 0.019511201645915313 0.0022080206249974195 0.0089144975873622773 0.0026858927844029008 0.011698099738376537 0.019286933790966024 0.0023237693653248731 -0.0010179674083653446 -3.754262858327539e-05 -0.00052264144069590448
leaf_weight=8064 183615 2190 17434 89780 6443 1437 6146 9574 11935 1963 50 8442 24535 54 54 6734 33500 4898 7695 3263 66 4415 468 524 472 53 146 1414 4190 22652
leaf_count=8064 183615 2190 17434 89780 6443 1437 6146 9574 11935 1963 50 8442 24535 54 54 6734 33500 4898 7695 3263 66 4415 468 524 472 53 146 1414 4190 22652
internal_value=4.24684e-08 0.00153728 -0.000138606 0.000318757 0.00320284 -0.000362893 -0.000339408 0.000116269 0.000569423 0.00123909 0.00585925 0.000783854 0.000119024 0.000708397 0.0111495 0.00131807 -0.000474815 0.00256712 -0.000299209 -6.04581e-05 0.0023822 0.00303921 0.00283686 0.00563003 0.0104255 0.000662559 0.00687413 -0.00268093 0.00111216 -0.00025878
internal_weight=462206 38242 423964 139492 14053 284472 281621 64506 24189 24870 2712 24750 114622 24842 108 15176 217115 11341 39756 32061 7436 5473 5407 992 522 24734 199 2851 16125 28798
internal_count=462206 38242 423964 139492 14053 284472 281621 64506 24189 24870 2712 24750 114622 24842 108 15176 217115 11341 39756 32061 7436 5473 5407 992 522 24734 199 2851 16125 28798
is_linear=0
shrinkage=0.05


Tree=8
num_leaves=31
num_cat=0
split_feature=28 35 43 6 12 35 44 40 18 50 31 18 6 43 56 45 41 47 35 0 56 47 55 23 56 55 25 35 6 27
split_gain=35.2026 21.1535 13.2485 8.52068 7.51032 7.05802 5.62855 5.46827 5.43201 4.00993 3.87923 3.7187 3.58534 3.54256 6.70655 3.41425 3.15662 2.94523 2.81639 2.79957 2.77125 2.96918 2.59809 2.71878 5.06787 7.87264 4.65027 8.32343 3.81505 4.11893
threshold=-0.20708115561208851 1.3093551722271503e-10 -0.34281760669922007 -0.15787390242643343 0.89013853674061749 1.4151032206230904e-10 0.5783484303221148 0.19223445356882163 0.04682633720214107 0.33845892632350061 0.006629261362885293 0.060186756235002713 0.33181900736386755 -1.0000000180025095e-35 -36.292302982430492 2.1345743901425158 -0.6448119917223083 -0.1981213729157302 2.9865862826522527e-10 26.685642391123313 295.28712996698505 -0.27213610222875756 -5.2437482862749993 0.019473214825402641 -55.18287720355999 7.6220872413595009 0.22157433628200282 3.2416972515271967e-11 0.24929309339562425 0.86544224689463067
decision_type=2 2 2 2 2 2 2 2 2 2 2 2 2 2 10 2 2 2 2 2 10 2 10 2 10 10 2 2 2 10
left_child=2 4 8 10 12 6 11 -5 -1 19 -3 -4 17 16 -15 20 -9 -2 -12 -10 22 -22 -6 -24 25 -25 -27 -28 -26 -30
right_child=1 3 5 7 15 -7 -8 13 9 -11 18 -13 -14 14 -16 -17 -18 -19 -20 -21 21 -23 23 24 28 26 27 -29 29 -31
leaf_value=0.0020809314907598467 0.00010780457670871477 0.00052620454579533965 0.00065610734197429476 0.00017600404154740419 -0.00062425721548490457 0.0033828853056415975 -0.001732551711851559 0.011677213811116496 0.010678243397936958 0.0038707099008306722 0.0019020704434824618 0.0029223998098937966 -0.0013987495203367254 0.022882072164162263 0.003300638676516054 0.001480025447274322 0.0011071596277477402 -0.00055691256310211226 0.0039843577738914822 0.0059210983473370581 0.012280589165605357 0.0015732407158336522 -0.00017926450283229153 0.001080379873331948 0.00040210873918751928 0.0030034784242351925 0.02433919244769198 0.005044506721559071 -0.002995669283443901 -0.00024186153071098219
leaf_weight=1917 19472 4022 7470 50812 21890 3158 1950 71 450 1848 6892 2393 11027 52 279 3504 13901 115066 2134 1025 68 1395 129651 1579 41870 191 101 127 1481 16410
leaf_count=1917 19472 4022 7470 50812 21890 3158 1950 71 450 1848 6892 2393 11027 52 279 3504 13901 115066 2134 1025 68 1395 129651 1579 41870 191 101 127 1481 16410
internal_value=4.46421e-08 -9.3254e-05 0.00204063 0.000653009 -0.00025359 0.00128278 0.000720906 0.000419219 0.00420484 0.0054285 0.00181932 0.0012065 -0.000531767 0.00128289 0.00639796 -6.80464e-05 0.00116131 -0.000460669 0.00239497 0.00737645 -9.33281e-05 0.00207514 -0.000108226 -4.91851e-05 0.00022381 0.00270099 0.00879459 0.0136206 0.000140902 -0.000470114
internal_weight=462206 441995 20211 78163 363832 14971 11813 65115 5240 3323 13048 9863 145565 14303 331 218267 13972 134538 9026 1475 214763 1463 213300 191410 61759 1998 419 228 59761 17891
internal_count=462206 441995 20211 78163 363832 14971 11813 65115 5240 3323 13048 9863 145565 14303 331 218267 13972 134538 9026 1475 214763 1463 213300 191410 61759 1998 419 228 59761 17891
is_linear=0
shrinkage=0.05


Tree=9
num_leaves=31
num_cat=0
split_feature=16 18 12 16 54 40 18 10 31 0 6 39 6 25 6 13 56 55 55 6 56 54 55 25 23 54 55 23 55 28
split_gain=33.1182 20.0012 9.53548 6.48565 6.4296 6.50779 6.36037 6.2612 5.59689 4.60599 3.98939 3.71041 4.83401 3.27743 3.25772 2.87306 2.87153 2.87134 7.64949 4.11411 3.79812 8.52911 3.1932 2.85289 2.83386 2.78414 4.94676 3.4804 2.70564 5.54033
threshold=-0.11680430108823923 0.040850168186807458 1.0726268030806325 -0.033352978235096011 11.275 0.29168405312645779 0.059445228427442008 -0.51855929222401265 0.0083574363815855316 28.726458771026071 0.74302581583327254 0.028500530814050799 -0.099712469403843582 -0.46881755847049328 0.21719103506787332 -0.048376785433383911 -6.4346239909254992 -0.56817114287699988 -0.51828839651949987 0.38982306810910544 -34.563634639492498 2.7150000000000003 11.508030419925502 0.033627869733923309 0.14299944725334221 2.6450000000000005 1.3587374086335002 0.015536919201265665 1.5893940371185002 -0.14053733579276315
decision_type=2 2 2 2 8 2 2 2 2 2 2 2 2 2 2 2 10 10 10 2 10 10 10 2 2 8 10 2 10 2
left_child=1 23 3 8 5 11 15 -7 -2 -8 25 12 -4 -11 -14 -3 -12 19 -19 -9 21 22 24 -1 -20 26 -5 -28 29 -29
right_child=2 6 4 10 -6 7 9 17 -10 13 16 -13 14 -15 -16 -17 -18 18 20 -21 -22 -23 -24 -25 -26 -27 27 28 -30 -31
leaf_value=0.0011216200843859815 -0.00021515359643503593 0.0044923753425078145 0.00079996089144671728 -0.00052671875744139381 -0.00060278828221111878 0.0045762067878048623 0.010221116007297656 0.0010157392558430131 0.00063175135352292475 4.3624336901346291e-06 -0.0043857335481277057 0.00074200575417139375 -3.0915087245945153e-05 0.0050043401450417446 -0.0012411595506667871 0.0020719854788231245 -0.0012648921269253937 0.015727031951744928 0.0031600219321955428 -0.0022259796246300108 0.0010556345746317911 0.020136465398943842 0.012189821648898626 -7.0965450195955394e-05 -0.0063445275729731689 -0.00054446247620400614 -5.0019135289416873e-05 0.016177209680656304 0.00095520536669773401 0.0019112780394060958
leaf_weight=10370 57083 1448 17114 35967 20782 1332 377 2904 29634 382 942 25179 60820 2396 6121 8181 3430 93 442 1476 9317 81 80 9696 95 128810 17935 89 9337 293
leaf_count=10370 57083 1448 17114 35967 20782 1332 377 2904 29634 382 942 25179 60820 2396 6121 8181 3430 93 442 1476 9317 81 80 9696 95 128810 17935 89 9337 293
internal_value=5.2328e-08 0.00153018 -0.000117007 -0.000286009 0.000211516 0.000346881 0.00307597 0.00129473 7.42039e-05 0.00502582 -0.000444754 0.00020956 5.0004e-05 0.00431862 -0.000141655 0.00243652 -0.00193854 0.000992665 0.00145604 -7.556e-05 0.00132286 0.00488204 0.00286839 0.00054511 0.00146841 -0.000410788 -0.000140067 0.000362635 0.00112463 0.00525147
internal_weight=462206 32850 429356 283520 145836 125054 12784 15820 86717 3155 196803 109234 84055 2778 66941 9629 4372 14488 10108 4380 10015 698 617 20066 537 192431 63621 27654 9719 382
internal_count=462206 32850 429356 283520 145836 125054 12784 15820 86717 3155 196803 109234 84055 2778 66941 9629 4372 14488 10108 4380 10015 698 617 20066 537 192431 63621 27654 9719 382
is_linear=0
shrinkage=0.05


Tree=10
num_leaves=31
num_cat=0
split_feature=16 18 12 15 40 44 47 18 39 40 55 43 6 25 49 55 55 55 44 18 12 17 18 26 36 39 34 6 28 31
split_gain=30.0604 19.4141 8.8412 7.54896 5.19505 6.15167 4.99799 4.53101 4.12509 3.50745 3.44107 3.60298 3.34263 3.20657 3.1151 2.93272 5.30427 2.83474 3.11816 2.57367 2.32665 2.4413 2.31212 2.51111 2.27378 2.26366 2.41807 2.15323 2.11037 2.07461
threshold=-0.10450548413712139 0.040230384662458818 1.0726268030806325 -0.22894722206032872 0.34349736569749217 0.40371189149204084 -0.19303744628873723 0.063851726622588659 0.028500530814050799 0.5146680098407751 -3.3257486277239994 -0.24695288552452296 0.1734104046242774 -1.0346589930241323 1.0041389915404251 -0.56817114287699988 -0.51828839651949987 2.6331037181710006 0.27172611272447617 0.035390624333771284 0.81872265439989045 0.075728112722687799 0.059445228427442008 1.1557596693655749 0.32029467526134908 -0.04537553247771952 -0.0081658001240717606 0.40385152857204282 -0.10445506532220046 0.0067973506048039558
decision_type=2 2 2 2 2 2 2 2 2 2 10 2 2 2 2 10 10 10 2 2 2 2 2 2 2 2 2 2 2 2
left_child=1 14 6 7 8 9 25 -3 12 -6 27 -12 -4 -9 29 28 -17 18 -10 -18 -13 -22 -5 -24 -21 26 -2 -8 -7 -1
right_child=2 3 4 22 5 15 10 13 17 -11 11 20 -14 -15 -16 16 19 -19 -20 24 21 -23 23 -25 -26 -27 -28 -29 -30 -31
leaf_value=0.00013350222836357311 0.0034129372583016821 0.0039991559721785806 4.9757076036063105e-05 0.0018174311374906209 0.0023682573605161121 0.00069608306831541985 -0.00071564366451190987 -0.0030432031177144176 0.00074528085359857688 0.0070934469438969959 0.00066039172196452091 -0.00054552736510778555 -0.00083670657742179993 0.010122857371213566 -0.00044359984209512777 0.014451026706709483 0.01177225614860895 0.0011533467101182454 -0.00061410674455737745 -0.0018589452220489776 -0.00016899066350675488 -0.0026482934609130485 0.0043435165788619518 0.00073904336112977484 0.0011342474356207798 0.00093189580918268979 -4.3259660885952789e-05 -0.0024736286403588999 -0.0022185419486613874 0.0011963217699301136
leaf_weight=7561 516 2197 87784 10124 2785 1099 38539 50 10221 459 9510 78554 12099 530 7113 73 54 13336 7180 709 111862 1002 2018 640 5949 9267 25990 1827 1422 11736
leaf_count=7561 516 2197 87784 10124 2785 1099 38539 50 10221 459 9510 78554 12099 530 7113 73 54 13336 7180 709 111862 1002 2018 640 5949 9267 25990 1827 1422 11736
internal_value=5.38679e-08 0.00127601 -0.000127364 0.00267713 0.000191655 0.00116336 -0.00029223 0.0050413 9.82534e-05 0.00303857 -0.000374006 -0.000289335 -5.75725e-05 0.0089789 0.000450366 0.000509118 0.00105051 0.000604787 0.000184083 0.000903808 -0.000336546 -0.000191048 0.00216307 0.00347756 0.000814733 0.000259219 2.38471e-05 -0.000795341 -0.000945985 0.000780147
internal_weight=462206 41969 420237 15559 143170 12550 277067 2777 130620 3244 241294 200928 99883 580 26410 9306 6785 30737 17401 6712 191418 112864 12782 2658 6658 35773 26506 40366 2521 19297
internal_count=462206 41969 420237 15559 143170 12550 277067 2777 130620 3244 241294 200928 99883 580 26410 9306 6785 30737 17401 6712 191418 112864 12782 2658 6658 35773 26506 40366 2521 19297
is_linear=0
shrinkage=0.05


Tree=11
num_leaves=31
num_cat=0
split_feature=43 35 18 15 39 54 44 28 35 35 18 43 56 40 44 28 1 49 49 6 35 56 17 56 17 54 47 28 28 16
split_gain=27.3873 16.4975 14.1967 8.31353 7.15519 7.16249 7.97748 7.14524 6.16522 4.10095 3.93547 3.90657 9.43593 3.4129 5.25506 3.35399 3.6251 3.29707 3.27561 3.05298 3.94573 5.39117 6.37358 4.60092 4.55761 4.87008 4.70085 3.48948 5.5891 3.15136
threshold=-0.26903434753436045 1.3093551722271503e-10 0.040850168186807458 -0.22894722206032872 -0.022482771480261118 6.9850000000000012 1.1555037286365091 -0.1219131747792634 4.5167920410001731e-11 1.1696577584793774e-10 0.082179905937543582 -1.0000000180025095e-35 -36.292302982430492 0.32920587058109146 0.45425829638881471 -0.15263053838629789 -0.71807086002945508 1.0073474907082482 1.1281460528114649 0.57248281753582131 2.7047718887523155e-11 178.73350919990654 0.04529222089689499 -46.332318525474498 0.041278667065568861 6.4750000000000005 0.0014390183385740044 -0.047619047619047568 -0.045925925925925849 0.08116575710558914
decision_type=2 2 2 2 2 8 2 2 2 2 2 2 10 2 2 2 2 2 2 2 2 10 2 10 2 10 2 2 2 2
left_child=2 4 17 9 8 6 13 -3 -2 -4 -11 -9 -13 19 -15 16 -5 -1 -10 20 21 23 -23 27 29 -26 -27 -6 -29 -25
right_child=1 7 3 15 5 -7 -8 11 18 10 -12 12 -14 14 -16 -17 -18 -19 -20 -21 -22 22 -24 24 25 26 -28 28 -30 -31
leaf_value=0.00084154525975432902 -0.00083845657445932907 0.0014687649239584861 0.0030415253994002882 0.0010972039024942503 0.0021418114893906499 -0.00055687522826382806 -0.003555067203120839 0.0002619911553565804 -3.3499082583611267e-05 0.0062424208473196531 0.018156005554818694 0.024450276121023885 0.0021288987774587295 0.0027666484295655251 0.00026605328416253788 0.0006300035466955009 0.0030333834632370188 -0.00050624898045034509 -0.00053361108575888526 -0.0018430292616416826 7.2630211647857932e-05 0.0028501645002142625 0.022455972788522498 0.00064177741583051884 -0.0011601900142851253 0.020386828639973958 0.0019987783103164137 0.023446789815392267 0.0054804069972039654 0.0025425917156744098
leaf_weight=14002 68456 16806 1443 3785 641 41127 1382 57055 74208 1215 74 55 342 3356 5632 3969 6740 6708 58626 1826 78738 127 62 8471 3956 50 116 53 243 2942
leaf_count=14002 68456 16806 1443 3785 641 41127 1382 57055 74208 1215 74 55 342 3356 5632 3969 6740 6708 58626 1826 78738 127 62 8471 3956 50 116 53 243 2942
internal_value=5.49742e-08 -0.000115023 0.00128719 0.00234781 -0.000258643 4.32756e-06 0.000218888 0.00056186 -0.000452963 0.00487894 0.0069316 0.000296481 0.00523925 0.000268043 0.00120032 0.00187034 0.00233759 0.000404751 -0.00025426 0.000181806 0.000220617 0.000919683 0.00931661 0.000822977 0.000617359 -0.000806965 0.00757639 0.00422626 0.00872108 0.00113222
internal_weight=462206 424270 37936 17226 350012 148722 107595 74258 201290 2732 1289 57452 397 106213 8988 14494 10525 20710 132834 97225 95399 16661 189 16472 15535 4122 166 937 296 11413
internal_count=462206 424270 37936 17226 350012 148722 107595 74258 201290 2732 1289 57452 397 106213 8988 14494 10525 20710 132834 97225 95399 16661 189 16472 15535 4122 166 937 296 11413
is_linear=0
shrinkage=0.05


Tree=12
num_leaves=31
num_cat=0
split_feature=28 35 28 35 39 43 54 44 28 31 23 35 49 54 56 56 49 6 35 23 56 35 44 54 54 19 7 44 56 6
split_gain=25.3011 17.419 11.5014 9.54489 6.32067 5.73181 5.57959 6.28691 4.91707 4.6412 4.63979 4.50547 4.28705 3.94831 4.80325 5.08397 3.86318 3.81754 3.60576 5.91154 3.50984 3.41633 3.11461 3.51562 5.16994 5.93343 3.00822 2.92684 2.75394 3.16336
threshold=-0.20708115561208851 9.2803499447854792e-11 -0.11341524614643937 1.4342053331535648e-10 -0.023700753009920302 -0.27876138741767442 6.9050000000000011 0.72780789818282066 -0.31019382323558359 0.010133921210176216 0.02970724306666667 2.7877402566347858e-11 1.0336291525956167 -13.019999999999998 -46.332318525474498 -3.8818569209624996 2.1215057103791177 0.84572632443154228 2.5981796180549172e-10 0.10342838460561486 466.61616379383906 5.1456421245641164e-10 0.54061133698937336 2.1850000000000005 0.068700000000000025 -25.689565152532278 0.66501946285381708 0.11463587942369248 -20.772923299633497 0.19854147554279192
decision_type=2 2 2 2 2 2 8 2 2 2 2 2 2 10 10 10 2 2 2 2 10 2 2 10 10 2 2 2 10 2
left_child=3 4 9 5 11 -1 7 10 -5 -3 28 -2 -13 -12 27 -16 -9 -7 -4 22 21 -11 -20 24 -24 -26 -8 -15 -6 -30
right_child=1 2 18 8 6 17 26 16 -10 20 13 12 -14 14 15 -17 -18 -19 19 -21 -22 -23 23 -25 25 -27 -28 -29 29 -31
leaf_value=0.0020819851822028129 -0.001090538791912059 0.00062466303730968086 6.505419729655193e-06 0.007958152174094393 -0.0006555100348742865 0.00046553069100492312 -0.00039922774315779419 -0.0027418155080760889 0.0030850368566930301 0.0015710752436231283 -0.0046339141118944029 -0.00010934709903009048 -0.00065355808593313717 0.013635583086863873 -0.00051696458866883239 0.0012943368255608867 0.00038180854186070309 -0.003894086790211311 0.00068415182962139039 0.0153135665167947 0.013446824521504856 0.0053336169851500954 -0.00021568602100968315 -0.0016755535977585935 0.02719547537255422 0.007471994203508703 -0.0019161501153716423 0.0031061566046185446 0.00036938491052249469 -0.00063567862402163708
leaf_weight=7827 26562 19604 90856 594 11058 7128 34062 2888 4122 16114 315 72271 72533 69 5439 13435 1502 540 11278 71 64 628 121 139 53 140 3618 1653 48177 9345
leaf_count=7827 26562 19604 90856 594 11058 7128 34062 2888 4122 16114 315 72271 72533 69 5439 13435 1502 540 11278 71 64 628 121 139 53 140 3618 1653 48177 9345
internal_value=6.12842e-08 -7.90337e-05 0.000384214 0.00173003 -0.000291718 0.0011301 -3.10136e-05 0.000175234 0.00370004 0.00114774 0.000265907 -0.000491837 -0.00038198 0.000917914 0.00100309 0.000772102 -0.00167197 0.000157817 0.000113362 0.000935549 0.0017576 0.00171254 0.000847972 0.00491441 0.00784714 0.0129255 -0.000545019 0.00353174 6.7027e-05 0.000206015
internal_weight=462206 441995 139068 20211 302927 15495 131561 93881 4716 36410 89491 171366 144804 20911 20596 18874 4390 7668 102658 11802 16806 16742 11731 453 314 193 37680 1722 68580 57522
internal_count=462206 441995 139068 20211 302927 15495 131561 93881 4716 36410 89491 171366 144804 20911 20596 18874 4390 7668 102658 11802 16806 16742 11731 453 314 193 37680 1722 68580 57522
is_linear=0
shrinkage=0.05


Tree=13
num_leaves=31
num_cat=0
split_feature=16 17 35 31 35 20 39 6 28 50 55 28 56 55 17 35 40 56 55 17 35 56 55 47 17 55 41 37 16 32
split_gain=23.3536 12.8595 11.7637 6.97189 6.78539 5.8324 5.78315 6.05839 4.92032 4.86766 4.66328 4.2421 3.75644 3.83233 3.65183 3.24339 3.14417 8.42907 3.11826 3.06691 4.73896 6.55789 4.49536 3.12546 2.95217 3.26804 2.96433 2.85001 2.78927 2.69229
threshold=-0.10450548413712139 0.045762758443444074 8.8445694655483752e-11 0.0079300958982187666 5.7126539497789525e-11 30.04741429083165 -0.022482771480261118 0.74302581583327254 -0.12383539249443014 0.35422334966875724 1.9139534852520004 -0.25280097845153598 -46.332318525474498 9.9940728509730015 0.067457826593571552 2.7877402566347858e-11 0.5146680098407751 -13.178569606034499 23.487156153973505 0.039886474221317116 1.8263064378053223e-11 -46.332318525474498 -1.8920992118414997 -0.0072706646344254484 0.063957468872173032 0.082108469922000007 0.5032246511546733 -0.071463943663553173 -0.0086120175167722149 0.027523018328288875
decision_type=2 2 2 2 2 2 2 2 2 2 10 2 10 10 2 2 2 10 10 2 2 10 10 2 2 10 2 2 2 2
left_child=1 4 6 16 -1 -3 11 10 29 14 19 -2 13 -12 -7 -13 -4 -18 -15 20 21 22 -8 -24 25 -9 -27 -17 -10 -5
right_child=2 5 3 8 -6 9 7 24 28 -11 12 15 -14 18 -16 27 17 -19 -20 -21 -22 -23 23 -25 -26 26 -28 -29 -30 -31
leaf_value=-0.00071976373206089899 0.0020335134749915901 0.0014409197588349269 -0.00010378095441944387 0.0012711754986427272 0.00099957045008069101 0.0041450180286216913 0.0020819072367718665 -0.0043329241551774986 0.00088217963861301086 0.0019837797075314598 0.0015840754967265888 -0.0010273759147563218 0.00029129298589027742 0.01062960470936933 0.009295435124747441 0.00039367505524086252 0.022205621571233576 -0.00064068735422833636 -0.0024490014268101963 -0.00086430069360982911 -0.00018489966866096346 0.0012897876389722936 0.0079963236825983091 0.025062856435586745 -0.0032404633381954043 -0.00080216982886091538 0.0041443065265429693 -0.0004891580919047199 0.00010890563003645908 0.0058154546395326537
leaf_weight=8267 1636 8514 69323 16746 18744 3003 85 440 17962 3050 1135 26666 54033 231 391 9894 58 131 56 16101 46685 2394 50 61 2108 1096 418 119296 33299 333
leaf_count=8267 1636 8514 69323 16746 18744 3003 85 440 17962 3050 1135 26666 54033 231 391 9894 58 131 56 16101 46685 2394 50 61 2108 1096 418 119296 33299 333
internal_value=6.1302e-08 0.00112471 -0.000112245 0.00026636 0.000473164 0.00230091 -0.000297087 -4.29507e-05 0.000624986 0.00343633 2.0859e-05 -0.000498588 0.000358157 0.00289515 0.00474009 -0.0005252 -8.61471e-05 0.00635194 0.0080603 -0.000265177 -6.93058e-05 0.00201228 0.0108064 0.0174344 -0.00194226 -0.000539094 0.000560383 -0.000421507 0.000379962 0.0013601
internal_weight=462206 41969 420237 137852 27011 14958 282385 124893 68340 6444 120831 157492 55455 1422 3394 155856 69512 189 287 65376 49275 2590 196 111 4062 1954 1514 129190 51261 17079
internal_count=462206 41969 420237 137852 27011 14958 282385 124893 68340 6444 120831 157492 55455 1422 3394 155856 69512 189 287 65376 49275 2590 196 111 4062 1954 1514 129190 51261 17079
is_linear=0
shrinkage=0.05


Tree=14
num_leaves=31
num_cat=0
split_feature=15 35 18 40 12 16 14 39 55 41 23 56 55 25 6 18 6 56 44 17 55 35 41 36 18 41 20 31 23 26
split_gain=21.3824 16.2133 8.26542 7.2516 4.47817 4.43607 4.3455 3.51949 4.07522 3.54797 3.68458 4.48037 5.88472 3.17737 3.07303 3.88595 3.05498 2.99178 2.83332 2.72059 2.90975 2.76599 2.68739 3.1902 2.66797 2.59039 2.58899 2.57601 2.97991 2.56208
threshold=-0.18701680173048577 1.3605304765969964e-10 0.057374407277324159 0.19223445356882163 0.89275993251146324 -0.025571290380459268 -0.10099338866083095 0.013982456155978486 2.3169734993785007 0.26368418545600192 0.035724469735157902 -55.18287720355999 7.7729766072660009 -0.66681622023352916 0.1734104046242774 0.052043129540036918 0.36460918026866435 -5.5029155516759989 0.40371189149204084 0.05320614345919232 6.8852053265785012 2.5400068082988538e-11 -0.6448119917223083 0.4366389506145863 0.045029803174269516 0.66158727032926246 16.194594334073379 0.0068401417495586756 0.017989394418162611 0.24085100326851763
decision_type=2 2 2 2 2 2 2 2 10 2 2 10 10 2 2 2 2 10 2 2 10 2 2 2 2 2 2 2 2 2
left_child=2 4 24 5 6 27 -2 14 18 -10 -11 12 -12 -4 15 -6 -8 -18 -9 20 25 26 23 -5 -1 -13 -21 -3 -29 -14
right_child=1 3 13 22 7 -7 16 8 9 10 11 19 29 -15 -16 -17 17 -19 -20 21 -22 -23 -24 -25 -26 -27 -28 28 -30 -31
leaf_value=0.00098102598150545933 0.0012369521021780533 0.00026892493063761821 -0.00018085875695775128 0.018348501235113744 -0.00014101737413617255 -0.00010592624022069306 -0.00037111232641569801 0.00015889715807319491 -0.0003665992194227623 0.00051840422361460695 0.0011632442821244596 0.002425881229622168 0.0210240287836021 0.0063532322029863121 -0.00072644643424928784 0.00099695979438455267 -0.0028214157307304005 -0.00079450613995358285 -0.00094086436573566096 0.0091812764008874868 0.0008254466548259867 0.0017140525164852588 0.0013940224814268957 0.0031932893947815098 0.0029576988605554046 0.0058618978265812371 -0.0023481756957714267 0.0015086800148225164 -0.00075566299641440871 0.0074687854639538202
leaf_weight=4903 4003 12639 211 50 133156 28390 140362 24922 5984 14508 161 2724 81 1485 20910 7949 2378 7822 7654 51 2323 1276 19477 117 2629 691 977 12671 1638 64
leaf_count=4903 4003 12639 211 50 133156 28390 140362 24922 5984 14508 161 2724 81 1485 20910 7949 2378 7822 7654 51 2323 1276 19477 117 2629 691 977 12671 1638 64
internal_value=6.35228e-08 -4.84655e-05 0.00238274 0.000623151 -0.000181706 0.000330071 -0.000388624 -3.85409e-05 0.00028374 0.000716629 0.00100045 0.00183759 0.00777915 0.00553741 -0.000160741 -7.68745e-05 -0.000431878 -0.00126757 -9.93495e-05 0.00161079 0.0021936 0.000157139 0.00144851 0.00776897 0.00167167 0.00312275 -0.00177049 0.000789583 0.00124912 0.0150848
internal_weight=462206 452978 9228 74982 377996 55338 154565 223431 61416 28840 22856 8348 306 1696 162015 141105 150562 10200 32576 8042 5738 2304 19644 167 7532 3415 1028 26948 14309 145
internal_count=462206 452978 9228 74982 377996 55338 154565 223431 61416 28840 22856 8348 306 1696 162015 141105 150562 10200 32576 8042 5738 2304 19644 167 7532 3415 1028 26948 14309 145
is_linear=0
shrinkage=0.05


Tree=15
num_leaves=31
num_cat=0
split_feature=16 18 35 35 31 39 6 54 5 18 20 55 54 54 49 35 34 56 14 35 56 17 54 47 16 20 56 35 35 56
split_gain=19.8668 13.8766 9.4778 6.06916 5.86514 5.08258 5.31923 5.6495 4.84106 4.35363 4.29817 4.17922 4.01682 6.18622 5.79186 3.87112 3.72707 15.7544 3.61573 3.40767 6.47701 4.86022 5.51047 5.69627 5.23153 4.56161 3.30925 3.30816 3.13849 2.98055
threshold=-0.096570315846714813 0.037758876346278204 8.8445694655483752e-11 1.1940942435772791e-10 0.0085982392689699198 -0.022482771480261118 0.74302581583327254 6.9050000000000011 -0.26295235232317343 0.078592809305203223 15.650315681731852 -3.4501652144854993 1.5750000000000004 1.6150000000000004 1.1914302277968156 5.6662920627273044e-11 0.030981439110627177 -36.292302982430492 -0.10099338866083095 2.7047718887523155e-11 178.73350919990654 0.041278667065568861 6.4750000000000005 -0.0058177983792314951 0.093987410472012242 23.576597870420748 -66.937838786507498 1.4529867704342036e-11 2.7877402566347858e-11 -502.75674715061797
decision_type=2 2 2 2 2 2 2 8 2 2 2 10 10 10 2 2 2 10 2 2 10 2 10 2 2 2 10 2 2 10
left_child=1 15 5 -3 16 18 7 11 9 -5 27 -7 -6 14 -14 -1 -4 -18 -2 20 21 24 -23 -24 -13 -22 -26 -9 -20 -15
right_child=2 3 4 8 12 6 -8 10 -10 -11 -12 19 13 29 -16 -17 17 -19 28 -21 25 22 23 -25 26 -27 -28 -29 -30 -31
leaf_value=-0.0005853201258121829 0.0009728095645700302 0.0012447386290543405 -8.5594772029676442e-05 0.0060760720403769484 -5.7093549202968121e-05 -0.00047495018968608631 -0.0018213819767694921 0.0075872132437490901 0.0026716113387484407 0.021206331614355808 -0.00076365216745152972 0.00096329248643019943 0.018878665015336034 0.010649819114642889 0.00098033571726060869 0.00064718200579591914 0.030123432976826882 0.00083840455468783392 -0.001018667696512157 0.00021031161590638787 0.021138546696522112 -0.00051276757639111758 0.02152096588835253 0.0025087963857861732 0.01303123984719462 0.0052339603447480385 0.0032836138320003236 0.00054025786073270445 -0.00040884075913755224 0.00080451594141030746
leaf_weight=9569 4211 12567 75248 489 16480 16645 4062 172 7599 53 29069 8065 92 77 90 19048 53 343 25427 52467 59 5725 56 135 91 197 2196 5309 124410 42202
leaf_count=9569 4211 12567 75248 489 16480 16645 4062 172 7599 53 29069 8065 92 77 90 19048 53 343 25427 52467 59 5725 56 135 91 197 2196 5309 124410 42202
internal_value=6.55194e-08 0.000948484 -0.000113226 0.00193439 0.000231236 -0.000279827 -4.18563e-05 1.82473e-05 0.00299833 0.00756846 -0.000521406 0.00023603 0.000605172 0.000862328 0.0100607 0.000234881 -6.00659e-05 0.0047771 -0.00047173 0.000407637 0.00103388 0.000909323 -0.000233157 0.00811755 0.00156271 0.00892582 0.00367421 0.000762446 -0.000512361 0.00082259
internal_weight=462206 49325 412881 20708 134585 278296 124248 120186 8141 542 34550 85636 58941 42461 182 28617 75644 396 154048 68991 16524 16268 5916 191 10352 256 2287 5481 149837 42279
internal_count=462206 49325 412881 20708 134585 278296 124248 120186 8141 542 34550 85636 58941 42461 182 28617 75644 396 154048 68991 16524 16268 5916 191 10352 256 2287 5481 149837 42279
is_linear=0
shrinkage=0.05


Tree=16
num_leaves=31
num_cat=0
split_feature=43 35 18 35 12 34 56 5 54 18 6 56 6 25 35 55 40 10 44 7 54 41 26 54 49 54 18 45 40 1
split_gain=18.5843 10.0013 9.98109 6.09586 5.61253 4.84299 13.3865 4.57565 3.89201 3.48394 3.35576 3.05091 2.97606 2.80841 2.67358 4.09239 2.58519 4.83212 2.82721 2.44499 3.21146 2.43443 2.34462 2.32063 2.31783 2.42515 2.29419 2.28254 2.18715 2.69401
threshold=-0.25474557538871467 1.8244660296183217e-10 0.040850168186807458 1.1821547187015521e-10 1.0295198239494001 0.030981439110627177 -36.292302982430492 -0.26295235232317343 11.065000000000003 0.078592809305203223 0.33181900736386755 -6.4346239909254992 -0.1332683579850942 0.18296151235347305 2.7039226645048446e-10 -9.5152333710619974 0.29168405312645779 -0.51855929222401265 1.4406680697942837 1.0647478880046524 8.4850000000000012 -0.6448119917223083 1.2600402235895076 -13.019999999999998 1.4249144035150869 -1.9549999999999998 0.051214807398646749 1.7460545228252371 0.19831226145668193 -0.6480732823768941
decision_type=2 2 2 2 2 2 10 2 8 2 2 10 2 2 2 8 2 2 2 2 10 2 2 10 2 8 2 2 2 2
left_child=2 4 13 28 10 12 -7 9 16 -5 23 -12 21 14 -1 -16 -6 -18 19 -19 22 -3 -21 -2 -9 -26 -14 -25 -4 -30
right_child=1 5 3 7 8 6 -8 24 -10 -11 11 -13 26 -15 15 -17 17 18 -20 20 -22 -23 -24 27 25 -27 -28 -29 29 -31
leaf_value=0.00057391411338894864 -0.0020310211128531045 0.010152741365520971 0.00015124579552503337 0.0060189206993092985 8.3010228762460045e-05 0.024830513467907125 0.001835488692138947 0.0030941848182546388 -0.00053740011724709197 0.018946153172307575 -0.0022700567336153264 -0.00066080604604173932 0.00022421977859342739 -0.00029178010071612831 0.013138337347061069 0.0022075975681660051 0.0040485590460090258 0.0005095873848752888 -0.0030441547387947874 0.00065360156051902775 0.01197953885841512 0.00147654380771938 0.007896836826516011 -0.00027771412803311886 -0.0038640216812313244 0.0017926140523391787 0.0014629089225161023 0.0024007144561152363 0.00060718209809297206 0.002281095097910336
leaf_weight=14389 1883 82 3788 478 112016 77 357 4981 23416 59 3730 14086 25489 11281 95 889 1057 12123 529 532 96 6423 142 208058 241 881 4384 798 4206 5640
leaf_count=14389 1883 82 3788 478 112016 77 357 4981 23416 59 3730 14086 25489 11281 95 889 1057 12123 529 532 96 6423 142 208058 241 881 4384 798 4206 5640
internal_value=7.05227e-08 -0.000106498 0.000943226 0.00177937 -0.000183034 0.000680241 0.00593155 0.00302219 5.46835e-05 0.0074518 -0.000338977 -0.000998014 0.000617438 0.000307035 0.000746781 0.00326921 0.000164326 0.000793074 0.0005363 0.000683616 0.00341664 0.00158684 0.00218799 -0.000283238 0.0026315 0.000572905 0.000406175 -0.000267455 0.0011737 0.00156656
internal_weight=462206 415278 46928 20274 378466 36812 434 6640 149911 537 228555 17816 36378 26654 15373 984 126495 14479 13422 12893 770 6505 674 210739 6103 1122 29873 208856 13634 9846
internal_count=462206 415278 46928 20274 378466 36812 434 6640 149911 537 228555 17816 36378 26654 15373 984 126495 14479 13422 12893 770 6505 674 210739 6103 1122 29873 208856 13634 9846
is_linear=0
shrinkage=0.05


Tree=17
num_leaves=31
num_cat=0
split_feature=43 35 18 15 40 54 55 6 23 44 23 25 35 55 55 54 54 34 23 24 3 41 54 54 54 55 25 18 24 55
split_gain=16.7736 9.39162 9.08842 7.446 5.72335 4.1145 4.48406 5.35841 5.11758 4.64863 3.60281 3.58405 3.59954 3.02762 2.89492 3.64572 2.76401 2.75418 3.48235 2.91749 2.74561 2.65339 3.09956 4.68855 3.33306 3.25882 2.62321 2.75456 2.46778 2.37377
threshold=-0.25474557538871467 8.7744226284879267e-11 0.045615170253739408 -0.22894722206032872 0.18658299289090913 3.2550000000000003 0.77766499890800012 0.67287740128264317 0.017604147413792185 1.1555037286365091 0.080136998582716626 0.17633030925704465 2.7039226645048446e-10 -6.9957505514959992 0.94933007410900017 1.8310000000000002 25.010000000000005 0.022178755763239733 0.14299944725334221 0.94166666666666676 107.97861803150356 0.37516018546514263 0.50500000000000012 0.12610000000000002 -2.5149999999999992 4.4215864454070006 -0.66681622023352916 0.087495983184973897 0.87500000000000011 3.2506202902100001
decision_type=2 2 2 2 2 8 10 2 2 2 2 2 2 8 10 10 8 2 2 2 2 2 10 10 10 10 2 2 2 10
left_child=2 5 11 26 28 6 7 -2 -8 10 14 12 -1 -14 15 -10 -7 -6 19 20 -19 -12 23 24 -23 -25 -4 -28 -3 -24
right_child=1 4 3 -5 17 16 8 -9 9 -11 21 -13 13 -15 -16 -17 -18 18 -20 -21 -22 22 29 25 -26 -27 27 -29 -30 -31
leaf_value=0.00068457529569844987 -0.00028885811192878597 -3.0837729077239549e-05 0.00057004474761702679 0.0014504831798809042 0.00070048401921406168 -0.00039351482175877444 -0.0001267273588761655 -0.0043459876250212049 -0.00057156324893367953 -0.0035772790554741193 0.0011145549289547482 -0.00019379032193922205 0.0090655989039994372 0.0023767078007160634 0.00065991719317043461 0.0063109816802991402 -0.0017511982656566571 0.0034710315983448531 0.012925490677285795 0.00023420556250212227 0.013657353873263979 0.010418851642457939 -0.00017215091629482456 0.0096609050892967237 -0.0031639545205677678 0.026507596776389915 0.0049660441173221366 0.015112587596594056 0.00071261594736096777 0.0055659945075671588
leaf_weight=17004 51609 95887 342 12816 30821 165350 30012 827 308 572 953 13650 202 1069 19155 507 3838 748 80 880 73 94 323 71 86 50 1775 70 12631 403
leaf_count=17004 51609 95887 342 12816 30821 165350 30012 827 308 572 953 13650 202 1069 19155 507 3838 748 80 880 73 94 323 71 86 50 1775 70 12631 403
internal_value=7.56884e-08 -0.000101167 0.000896107 0.00191122 0.000230232 -0.00027177 -2.58071e-05 -0.000352949 0.000300629 0.00087033 0.000986474 0.0004189 0.000876804 0.00344434 0.000784422 0.00370409 -0.000424344 0.00081118 0.00272387 0.00224041 0.0043844 0.00302168 0.00478624 0.00905984 0.00390337 0.0166798 0.00460867 0.00535452 5.56514e-05 0.00300651
internal_weight=462206 415278 46928 15003 141120 274158 104970 52436 52534 22522 21950 31925 18275 1271 19970 815 169188 32602 1781 1701 821 1980 1027 301 180 121 2187 1845 108518 726
internal_count=462206 415278 46928 15003 141120 274158 104970 52436 52534 22522 21950 31925 18275 1271 19970 815 169188 32602 1781 1701 821 1980 1027 301 180 121 2187 1845 108518 726
is_linear=0
shrinkage=0.05


Tree=18
num_leaves=31
num_cat=0
split_feature=35 15 28 54 12 28 55 15 28 1 54 55 44 54 54 50 43 54 39 55 44 55 18 54 32 43 44 56 55 54
split_gain=15.7454 8.64472 8.1192 5.19486 5.19309 3.78126 4.57499 3.57171 3.26684 4.71539 4.85817 8.58821 3.32363 3.23301 4.48354 6.16043 3.18401 4.49269 3.17554 3.7536 3.68608 3.13761 3.02137 2.81365 2.64679 2.49436 2.33942 2.32148 2.93165 5.79647
threshold=1.862219052514062e-10 -0.19777924458625376 -0.15430570697491133 11.065000000000003 0.8801090081583135 -0.31019382323558359 14.978176426887002 -0.061843328369208798 -0.15739211322273625 -0.34088857134191158 10.655000000000003 1.1397794512885002 0.77558610121952831 5.6950000000000012 5.5702500000000006 0.47023277284805937 -1.0000000180025095e-35 2.7150000000000003 0.013982456155978486 2.3169734993785007 0.27172611272447617 27.231845770003002 0.071349181746233725 25.010000000000005 0.019101194052349443 -0.087301587301587255 0.90687390465790119 -52.193836023517491 7.6220872413595009 0.12610000000000002
decision_type=2 2 2 8 2 2 8 2 2 2 10 10 2 8 10 2 2 10 2 10 2 8 2 8 2 2 2 10 10 10
left_child=1 24 5 4 7 6 -2 -3 9 -6 12 -12 22 14 16 -16 25 -18 -10 20 -20 -7 -11 26 -1 -4 -5 28 -21 -30
right_child=2 3 13 23 8 21 -8 -9 18 10 11 -13 -14 -15 15 -17 17 -19 19 27 -22 -23 -24 -25 -26 -27 -28 -29 29 -31
leaf_value=0.0015635728899093826 0.0049486872579815573 0.00020576261775822572 0.0011469039501976264 -0.00038833384053985623 -0.00033510081214924533 0.0022771002105193886 0.020732000362549883 -0.00041872129968558428 -7.3401081088750797e-05 0.0011864330878097074 0.024954028742445226 0.00013760707829376395 -0.0018287730021780213 -0.00012751054341987033 0.0033736093805999973 0.023506092849318143 0.0017646372237517312 0.018364363090598568 0.00045373670522795952 0.0007813307923664356 -0.0006573852515085795 -0.0029818362212218645 0.0037744715982470627 -0.0015411787451549417 0.0060748703196912487 -3.3328526527483668e-06 -0.0033941377958952353 0.00073016744098992686 0.0021756340152173574 0.015280326336770712
leaf_weight=5376 408 29162 15565 58130 6121 7421 52 106415 140718 8683 60 84 797 10852 161 50 121 62 18274 481 12618 294 1299 6213 347 6748 655 24663 247 129
leaf_count=5376 408 29162 15565 58130 6121 7421 52 106415 140718 8683 60 84 797 10852 161 50 121 62 18274 481 12618 294 1299 6213 347 6748 655 24663 247 129
internal_value=7.74367e-08 -9.18521e-05 0.000926389 -0.000118495 -4.21953e-05 0.00233958 0.00674787 -0.000284361 0.000111078 0.000775209 0.00139786 0.0105226 0.0012754 0.000581979 0.000921274 0.0081769 0.000852962 0.00742285 5.36306e-05 0.000370595 0 0.00207601 0.00152376 -0.000528983 0.00183808 0.000798822 -0.000421916 0.00081933 0.00337905 0.00668782
internal_weight=462206 420472 41734 414749 349751 8175 460 135577 214174 17044 10923 144 10779 33559 22707 211 22496 183 197130 56412 30892 7715 9982 64998 5723 22313 58785 25520 857 376
internal_count=462206 420472 41734 414749 349751 8175 460 135577 214174 17044 10923 144 10779 33559 22707 211 22496 183 197130 56412 30892 7715 9982 64998 5723 22313 58785 25520 857 376
is_linear=0
shrinkage=0.05


Tree=19
num_leaves=31
num_cat=0
split_feature=28 35 28 43 54 44 18 12 37 55 43 56 54 6 31 56 35 23 55 56 44 55 54 56 17 44 54 29 17 56
split_gain=14.7179 9.97205 6.35266 5.67518 4.36361 3.68744 3.75785 3.6862 3.13883 2.86115 3.46954 9.97005 3.07178 2.80503 2.76407 2.74924 2.70379 2.66037 4.33029 4.95403 4.51903 5.44549 4.49406 3.49946 3.59266 3.26024 3.05065 4.45871 3.04426 2.43352
threshold=-0.20708115561208851 1.0299636471905947e-10 -0.11341524614643937 -0.34281760669922007 25.010000000000005 1.0056695817270502 0.060186756235002713 0.80545300180328805 -0.14133862764964147 -0.722126510133 -1.0000000180025095e-35 -13.583306312907999 26.840000000000003 0.5050434597012825 0.010133921210176216 466.61616379383906 5.1456421245641164e-10 0.019029273306247829 0.77766499890800012 -52.193836023517491 0.90687390465790119 9.9940728509730015 0.12610000000000002 107.99581146366752 0.041278667065568861 0.41106523945879719 0.43280000000000002 -0.2310901659472567 0.047557281935596982 -49.263900269085489
decision_type=2 2 2 2 8 2 2 2 2 10 2 10 10 2 2 10 2 2 10 10 2 10 10 10 2 2 10 10 2 10
left_child=3 4 14 8 7 6 -5 -2 -1 12 -11 -12 13 -4 -3 16 -16 -9 25 20 21 -20 -23 24 -21 -19 27 -25 -24 -18
right_child=1 2 9 5 -6 -7 -8 17 -10 10 11 -13 -14 -15 15 -17 29 18 19 23 -22 22 28 26 -26 -27 -28 -29 -30 -31
leaf_value=0.0051868433895529073 -0.00046066702092489582 0.00050656767651760277 -0.00027529250436393409 0.00046423233156264049 -0.0017042130631498616 -0.002530771161875325 0.0022280018407937908 -0.00019741682561458349 0.0021221497975672308 0.00028346242410205578 0.020370745331846924 0.00093199212199525773 0.010555425893937199 -0.0062921184233734927 0.0012594048327622591 0.013035533412684526 0.0098841453710777072 -3.3084393976435389e-05 0.0027695718384295009 0.00078986744778970362 -0.0035158417750562436 0.0054217415560069964 0.010489255876849787 0.016989036944722244 -0.00010585558597957176 -0.0012962849190842273 0.001388100629042375 0.0037311070632550175 0.027434945894973507 0.0027580448119672585
leaf_weight=1048 86190 16971 28938 9829 4775 776 4366 155164 4192 57138 83 323 65 195 13873 51 163 21794 859 19406 196 152 56 78 26437 6675 1547 348 53 465
leaf_count=1048 86190 16971 28938 9829 4775 776 4366 155164 4192 57138 83 323 65 195 13873 51 163 21794 859 19406 196 152 56 78 26437 6675 1547 348 53 465
internal_value=7.92087e-08 -6.02439e-05 0.000332671 0.00131953 -0.000203799 0.000823355 0.00100708 -0.000181321 0.00273613 0.000111694 0.000316287 0.00492227 -0.00029135 -0.000315759 0.000940575 0.00144638 0.00140518 -7.78605e-05 0.000161129 0.000445486 0.00347221 0.00469978 0.0110298 0.000362073 0.000273209 -0.000329441 0.00242419 0.00617377 0.0187923 0.00461689
internal_weight=462206 441995 118265 20211 323730 14971 14195 318955 5240 86742 57544 406 29198 29133 31523 14552 14501 232765 77601 49132 1316 1120 261 47816 45843 28469 1973 426 109 628
internal_count=462206 441995 118265 20211 323730 14971 14195 318955 5240 86742 57544 406 29198 29133 31523 14552 14501 232765 77601 49132 1316 1120 261 47816 45843 28469 1973 426 109 628
is_linear=0
shrinkage=0.05


Tree=20
num_leaves=31
num_cat=0
split_feature=16 18 35 35 17 40 54 10 54 54 49 23 17 6 41 49 26 17 20 54 18 6 8 35 49 17 54 47 7 26
split_gain=13.8007 9.85845 5.8276 4.51324 4.16168 4.09314 3.94283 3.71004 3.38466 3.7677 3.27484 3.09313 3.35441 3.30799 2.66479 4.2807 3.57299 3.00834 2.57519 2.63794 2.98227 2.57458 2.52636 2.33775 2.27223 2.40144 2.25095 2.27217 2.66274 2.72543
threshold=-0.078866136075134638 0.037758876346278204 8.8445694655483752e-11 1.1227671713712917e-10 0.086117993656603942 0.32272312413933735 11.275 -0.40254984185686205 -13.019999999999998 3.2550000000000003 1.4746470257403781 0.017801409619067763 0.020665513544430567 0.61781844873075131 0.010915014238460039 1.5549770360190076 -1.2326853873302077 0.086117993656603942 23.070688596783558 3.1650000000000005 0.04364703468749407 -0.2142242644276646 -16.241312312881895 5.6662920627273044e-11 2.1215057103791177 0.056604820040210314 53.045000000000009 -0.029027190064306981 0.70274832706416424 -0.31263121959920931
decision_type=2 2 2 2 2 2 10 2 10 10 2 2 2 2 2 2 2 2 2 10 2 2 2 2 2 2 8 2 2 2
left_child=1 6 8 -3 10 26 23 -7 -2 11 21 12 -10 18 -9 17 -17 -16 19 -13 -21 -5 -11 -1 -15 -26 27 28 -4 -30
right_child=2 3 5 4 -6 7 -8 14 9 22 -12 13 -14 24 15 16 -18 -19 -20 20 -22 -23 -24 -25 25 -27 -28 -29 29 -31
leaf_value=-0.00020126907077523324 -0.0025170675724412494 0.00087599720628510976 0.00029728207868897315 0.0033085813261734664 0.011689666105429444 0.0038349353690061041 -0.0009317015068327696 -0.0021621109636447079 0.00038662517839503689 0.0005055243784528109 0.00012891779216097328 -0.00016439032359291065 -0.00044111260385837158 -0.0021148626776557131 0.0024922698726151048 0.010318747041361461 -9.7372758299020664e-05 0.012954911894692861 0.0008074856898817311 0.0021167496540959252 0.01432764658827595 0.0015730529881267325 -0.00042626274502591293 0.00065645661192311735 0.0041175135900743329 -0.001096074453135828 -0.0017064977887169515 -9.9593212894511177e-05 0.0077610287395285657 0.0014788263994986897
leaf_weight=11457 1633 15231 55757 4696 115 1184 6612 681 16791 7627 1728 13714 45112 2160 2300 84 3887 71 22833 308 60 3950 155318 25851 349 599 1718 59400 225 755
leaf_count=11457 1633 15231 55757 4696 115 1184 6612 681 16791 7627 1728 13714 45112 2160 2300 84 3887 71 22833 308 60 3950 155318 25851 349 599 1718 59400 225 755
internal_value=8.19791e-08 0.000648771 -0.000114981 0.00142619 0.00222463 0.000165099 0.000193389 0.0012448 -0.000247483 -0.000233471 0.00211912 4.91528e-06 -0.00021651 0.000347516 0.000807373 0.00112705 0.000121958 0.00280822 0.000479511 -5.19243e-05 0.00412459 0.0025163 -0.000382617 0.000392922 -0.00121861 0.000818232 8.98686e-05 0.000116487 0.000342796 0.00292691
internal_weight=462206 69640 392566 25720 10489 126062 43920 8207 266504 264871 10374 101926 61903 40023 7023 6342 3971 2371 36915 14082 368 8646 162945 37308 3108 948 117855 116137 56737 980
internal_count=462206 69640 392566 25720 10489 126062 43920 8207 266504 264871 10374 101926 61903 40023 7023 6342 3971 2371 36915 14082 368 8646 162945 37308 3108 948 117855 116137 56737 980
is_linear=0
shrinkage=0.05


Tree=21
num_leaves=31
num_cat=0
split_feature=35 43 16 31 39 44 35 13 35 28 41 18 36 34 56 54 32 55 56 39 26 21 55 55 54 27 55 56 54 14
split_gain=12.6265 6.97749 6.43145 5.20259 4.44639 4.56959 3.89658 3.75048 3.74842 3.51372 3.34871 3.08444 3.60508 3.06876 9.99076 3.01896 3.10314 2.80201 2.79758 2.8784 5.0134 2.76914 2.55382 3.25323 2.53736 2.51558 2.48265 4.27513 2.77907 2.37746
threshold=1.862219052514062e-10 -0.25474557538871467 -0.10927731234943229 0.0085504748272059502 0.0021953994994272645 0.47454776579368102 6.1731485543770945e-11 -0.050838899863766766 2.2331467761304116e-11 -0.10953477551703227 0.3532214704201832 0.082179905937543582 0.41141676952262624 0.030981439110627177 -36.292302982430492 7.1050000000000013 0.024093179282359684 -0.56817114287699988 26.996345223266506 -0.18013965991513733 -0.8657961675754321 0.35573116051964354 -3.5654615787159996 -3.9509493646444995 1.5250000000000001 2.2460455936723647 -1.8920992118414997 -38.143219722467499 1.0010500000000002 0.0081054315282647078
decision_type=2 2 2 2 2 2 2 2 2 2 2 2 2 2 10 8 2 10 10 2 2 2 8 10 10 8 10 10 10 2
left_child=1 3 11 -1 6 8 29 -5 26 18 -7 22 -13 -4 -15 16 24 -12 21 20 -20 -8 23 -2 -10 -9 -6 28 -28 -3
right_child=2 4 13 7 5 10 9 25 15 -11 17 12 -14 14 -16 -17 -18 -19 19 -21 -22 -23 -24 -25 -26 -27 27 -29 -30 -31
leaf_value=-0.00017990273738187319 0.0033188611771522167 -0.00032352271523164081 0.00050735731277991682 0.0026436996357724831 -0.00058522605580414548 -0.0013770654161016503 0.00013863368655365395 0.00089666565368400227 -0.00010188165080446636 -0.00021005734719571005 -0.0013930413462502726 0.016719057447131012 0.0024850034950735854 0.021753528911424042 0.0012785929530646756 -0.00037011649701900715 0.0051885693076740907 0.00048585440303730083 0.019720964183880734 0.0010619604537670559 0.003437302051281252 0.0031043485572579185 0.0016003991458443504 0.012293528580525516 0.00060524153730722808 -0.0013501244434350268 0.0045284437780744513 0.0013518401290273832 0.015767487013895531 -0.00080930538106375029
leaf_weight=15404 1075 104276 34656 3011 1599 7667 30646 20651 20662 106816 2674 79 104 72 347 19070 331 7692 52 3037 533 808 5289 112 32820 1324 200 7882 77 33240
leaf_count=15404 1075 104276 34656 3011 1599 7667 30646 20651 20662 106816 2674 79 104 72 347 19070 331 7692 52 3037 533 808 5289 112 32820 1324 200 7882 77 33240
internal_value=8.18566e-08 -8.22396e-05 0.000829593 0.00054255 -0.000148647 0.000136223 -0.000251307 0.000988144 0.00029362 -6.74466e-05 -0.000584813 0.00225437 0.00866284 0.000558951 0.00481324 0.000170324 0.000361937 6.85773e-07 0.000366699 0.00168277 0.00489641 0.000214986 0.00207237 0.00417085 0.000331962 0.000761063 0.001214 0.00156723 0.00767526 -0.000440982
internal_weight=462206 420472 41734 40390 380082 100674 279408 24986 82641 141892 18033 6659 183 35075 419 72883 53813 10366 35076 3622 585 31454 6476 1187 53482 21975 9758 8159 277 137516
internal_count=462206 420472 41734 40390 380082 100674 279408 24986 82641 141892 18033 6659 183 35075 419 72883 53813 10366 35076 3622 585 31454 6476 1187 53482 21975 9758 8159 277 137516
is_linear=0
shrinkage=0.05


Tree=22
num_leaves=31
num_cat=0
split_feature=16 31 15 12 49 54 40 10 35 35 32 45 47 55 44 39 31 16 55 55 54 35 23 49 9 39 23 1 40 54
split_gain=11.5878 9.47974 5.56904 5.13672 3.52986 3.30727 3.91456 4.28731 3.0773 2.97253 2.85061 2.57337 2.49436 2.50832 2.46148 2.37176 2.24177 2.23325 2.16923 6.26306 2.98585 3.06669 6.02201 2.1827 2.01925 1.88332 1.83197 3.16401 5.30221 1.78257
threshold=-0.076019375345426035 0.009835263941632302 -0.22894722206032872 1.0726268030806325 1.7916243560640057 11.275 0.29168405312645779 -0.51855929222401265 5.6662920627273044e-11 4.3614843438149823e-10 0.017856865101682093 1.7460545228252371 -0.19551231050519816 -3.3257486277239994 1.4406680697942837 0.055507230462530817 0.0063064268214016771 -0.007082624301297487 -0.56817114287699988 -0.51828839651949987 6.9850000000000012 2.8327128582140367e-10 0.074629047498724094 1.5461146835274511 0.2826709529251184 -0.032421653171570246 0.074629047498724094 -0.58552376855077404 0.22915328551271544 8.4850000000000012
decision_type=2 2 2 2 2 8 2 2 2 2 2 2 2 10 2 2 2 2 10 10 10 2 2 2 2 2 2 2 2 10
left_child=1 8 10 11 9 6 15 -8 -1 -4 -3 12 25 -14 18 17 -10 -5 23 -20 21 -21 -23 29 -15 26 -2 -28 -29 -9
right_child=3 2 4 5 -6 -7 7 14 16 -11 -12 -13 13 24 -16 -17 -18 -19 19 20 -22 22 -24 -25 -26 -27 27 28 -30 -31
leaf_value=-0.00048177128319464436 -4.4719627668543358e-05 0.0028572699680605206 0.0011408271064299439 0.00037955198982365804 -0.00091572868390644372 -0.00047820055437689641 0.0037061419660363369 0.00093397285164819504 -6.8990465040687547e-05 0.0040861671583954391 0.007610312725479941 0.002198612669529431 -0.00067974870678631002 -0.00017879098916953563 -0.0024004347813305973 0.00080512285054598674 0.00079064803593398747 -0.0001451278299185732 0.014717066700329072 0.0014015250364289647 -0.00047776210517680808 0.0035687657497907015 0.022154586082566045 -0.00099198561494811903 -0.00073922418143842464 0.0010781506158665476 -0.00039082500033872598 0.00025018817637500643 0.022637333844169348 0.0081017181319745831
leaf_weight=14285 22466 1966 23167 31264 2038 18567 1320 1572 13692 891 378 1076 37485 170332 602 11404 16973 57719 86 6757 2130 346 50 2561 17756 4970 154 57 50 92
leaf_count=14285 22466 1966 23167 31264 2038 18567 1320 1572 13692 891 378 1076 37485 170332 602 11404 16973 57719 86 6757 2130 346 50 2561 17756 4970 154 57 50 92
internal_value=8.43864e-08 0.000576339 0.00129077 -0.000108672 0.00108079 0.000141247 0.000240522 0.000979683 0.000124204 0.00125013 0.00362618 -0.000240822 -0.000251206 -0.000306198 0.00072579 0.000126225 0.000406655 3.91614e-05 0.000864617 0.00128879 0.00116369 0.00165318 0.00593308 -7.48165e-05 -0.000231724 0.000196484 3.45466e-06 0.00416771 0.0107695 0.00133373
internal_weight=462206 73390 28440 388816 26096 134470 115903 15516 44950 24058 2344 254346 253270 225573 14196 100387 30665 88983 13594 9369 9283 7153 396 4225 188088 27697 22727 261 107 1664
internal_count=462206 73390 28440 388816 26096 134470 115903 15516 44950 24058 2344 254346 253270 225573 14196 100387 30665 88983 13594 9369 9283 7153 396 4225 188088 27697 22727 261 107 1664
is_linear=0
shrinkage=0.05


Tree=23
num_leaves=31
num_cat=0
split_feature=35 6 15 54 17 45 6 27 31 35 55 55 49 23 44 55 55 12 32 39 10 25 31 31 47 49 47 35 23 54
split_gain=10.9925 7.11444 5.81584 4.40569 4.35669 3.91338 3.785 4.83861 4.52451 4.16285 3.51185 5.88927 7.56876 3.43225 3.40689 5.07469 10.0966 4.29206 3.24648 3.15493 2.87093 2.85927 2.47905 2.4656 2.25244 2.2052 2.19627 2.18653 2.13546 2.39643
threshold=1.862219052514062e-10 -0.13788691475276735 -0.19777924458625376 -13.019999999999998 0.086117993656603942 1.6736275385422004 0.28192272049891703 0.9368059188883141 0.0093792588901761131 8.4943325244887705e-11 -0.56817114287699988 -0.51828839651949987 1.198210000224434 0.021214777079846998 0.6258447432523756 -0.56817114287699988 1.2833989587505001 0.66650764951267794 0.024093179282359684 -0.029313441028600059 -0.2805924484619664 0.27936762234535939 0.01274876145713654 0.0081209182043249784 -0.11917187722128764 0.79989649956134501 -0.16370905255372606 1.7139248502725994e-11 0.2083488448447425 3.2050000000000005
decision_type=2 2 2 10 2 2 2 10 2 2 10 10 2 2 2 10 10 2 2 2 2 2 2 2 2 2 2 2 2 10
left_child=2 4 22 -4 23 6 8 -8 19 13 -9 12 -12 -10 -3 -16 -17 -18 21 -5 -20 -7 -1 -2 -21 -25 -15 -26 29 -13
right_child=1 14 3 5 -6 18 7 10 9 -11 11 28 -14 26 15 16 17 -19 20 24 -22 -23 -24 25 27 -27 -28 -29 -30 -31
leaf_value=0.00075861929394105876 0.00087880538874582587 0.00027230507080102008 -0.0017376181369965649 -0.00034041429947080713 0.016144053557214173 0.0013700306870145188 -0.0017279422500116161 -0.0012010263379966292 -0.00026665339878952413 0.00063070777382205222 0.022869033589288469 0.0006467753916242166 0.002696726653001618 0.0013009810871938646 -0.0014410174210319308 0.022591212203345479 0.017005207965257205 0.0022570638724434284 0.0067271535414815762 0.00068587210112256922 0.00061259083258616254 -1.6696283610194012e-05 0.0029591227690898714 0.00357007840214414 0.0013559072327686272 0.0016883856508268476 0.00020554728788281409 -0.0001085616633132983 -0.0035043163881679803 -0.00038674770646780483
leaf_weight=3781 4570 29300 4060 140063 53 6037 7360 8434 51633 36491 61 8429 198 5369 395 78 54 582 407 11757 367 9655 1942 2486 2640 4216 31104 73472 453 16759
leaf_count=3781 4570 29300 4060 140063 53 6037 7360 8434 51633 36491 61 8429 198 5369 395 78 54 582 407 11757 367 9655 1942 2486 2640 4216 31104 73472 453 16759
internal_value=8.33087e-08 0.000774064 -7.67265e-05 -9.85817e-05 0.00184391 -8.23659e-05 -0.000113921 -0.000564432 -6.06236e-05 0.00018163 -0.000314867 -2.6104e-05 0.00747402 -4.30936e-06 0.00037546 0.00309607 0.00561293 0.0035196 0.000672795 -0.000193071 0.00383478 0.00051649 0.00150623 0.00177608 4.17364e-05 0.00238716 0.000366941 -5.76981e-05 -0.000102087 -4.06862e-05
internal_weight=462206 41734 420472 414749 11325 410689 394223 41694 352529 124597 34334 25900 259 88106 30409 1109 714 636 16466 227932 774 15692 5723 11272 87869 6702 36473 76112 25641 25188
internal_count=462206 41734 420472 414749 11325 410689 394223 41694 352529 124597 34334 25900 259 88106 30409 1109 714 636 16466 227932 774 15692 5723 11272 87869 6702 36473 76112 25641 25188
is_linear=0
shrinkage=0.05


Tree=24
num_leaves=31
num_cat=0
split_feature=35 6 14 54 5 12 34 56 55 45 6 27 23 55 56 54 55 34 31 7 35 24 23 55 55 23 56 18 54 55
split_gain=9.93846 8.84567 4.27067 4.23564 3.61263 3.57769 3.35367 9.45101 9.58005 2.44043 2.64849 4.80314 2.96538 2.96417 3.63399 4.52018 5.91593 2.61249 2.3859 2.30293 2.25874 2.19495 2.04236 2.0307 4.849 8.05622 3.30422 3.14666 2.02696 2.40272
threshold=1.3605304765969964e-10 -0.19312830411368284 -0.10099338866083095 25.010000000000005 -0.26295235232317343 0.80545300180328805 0.030981439110627177 -36.292302982430492 0.65556712297350017 2.1345743901425158 0.26145947012030774 0.9426908262314434 0.019029273306247829 1.9139534852520004 -75.011294602513985 0.12610000000000002 7.6220872413595009 0.017434678444395165 0.011871234024407271 0.48992309074453627 3.1583966619024013e-10 0.82500000000000007 0.014086575906689916 -0.56817114287699988 -0.51828839651949987 0.053641772459004984 -40.573825807988491 0.087495983184973897 -7.254999999999999 -6.9957505514959992
decision_type=2 2 2 8 2 2 2 10 10 2 2 10 2 10 10 10 10 2 2 2 2 2 2 10 10 2 10 2 8 8
left_child=2 4 18 5 19 -4 21 8 -8 10 12 -12 -7 -14 15 -15 -17 -11 -1 -2 -6 -3 -5 -13 25 -25 27 -26 -22 -30
right_child=1 6 3 22 20 9 7 -9 -10 17 11 23 13 14 -16 16 -18 -19 -20 -21 28 -23 -24 24 26 -27 -28 -29 29 -31
leaf_value=0.00027401606811451454 0.0018560071211380542 0.00012608187479222098 -0.00037124577742876457 -0.0005082932372980285 0.0012277675384596237 -8.0286409445743312e-05 0.0025572002654527942 0.0012952632853625251 0.033461478919519519 0.00058304068559313093 -0.0018711782899195591 -0.00094707414949374248 -4.0081799038772889e-05 0.0022141319906037863 0.00061006727372626675 0.0027064024460661576 0.026792494500773451 0.0038994559715132479 0.0017677141133975787 0.0090764804609022916 -0.002022065452519351 0.00084553803337756705 -0.0024874686123264405 0.0014323336507898131 0.0047785537311565802 0.023058321673776364 -0.00015360839096476212 -0.0037208329791814394 0.0078223127556002088 0.0027780602503428096
leaf_weight=6894 187 53467 98366 2499 7559 173827 51 558 50 2892 5064 6878 27999 285 30119 53 50 749 4377 277 188 13231 2742 154 606 60 20548 132 268 2076
leaf_count=6894 187 53467 98366 2499 7559 173827 51 558 50 2892 5064 6878 27999 285 30119 53 50 749 4377 277 188 13231 2742 154 606 60 20548 132 268 2076
internal_value=8.55964e-08 0.000515018 -0.000104299 -0.000133284 0.00186095 -0.000113157 0.00030403 0.00385371 0.0179238 -1.89074e-05 -3.65393e-05 -0.000452573 2.33231e-05 0.000331242 0.000672202 0.00548122 0.0144618 0.00126673 0.000854536 0.00617831 0.00166188 0.000268878 -0.00154475 -0.000199243 3.97638e-05 0.00752699 -3.53095e-05 0.00325127 0.00295578 0.00335723
internal_weight=462206 77912 384294 373023 10555 367782 67357 659 101 269416 265775 33442 232333 58506 30507 388 103 3641 11271 464 10091 66698 5241 28378 21500 214 21286 738 2532 2344
internal_count=462206 77912 384294 373023 10555 367782 67357 659 101 269416 265775 33442 232333 58506 30507 388 103 3641 11271 464 10091 66698 5241 28378 21500 214 21286 738 2532 2344
is_linear=0
shrinkage=0.05


Tree=25
num_leaves=31
num_cat=0
split_feature=16 18 12 35 18 20 49 6 39 40 48 55 55 35 6 14 6 54 21 0 38 6 54 54 54 54 55 55 55 1
split_gain=9.40773 7.46907 4.10376 4.08442 3.4516 3.27294 3.06565 2.98159 2.89157 2.76646 2.56208 2.533 4.30475 5.79487 2.46032 2.48251 2.44712 2.43417 2.6064 2.37322 2.69782 2.2882 2.13306 2.75093 3.2864 16.5093 20.3935 4.12063 2.58547 2.12564
threshold=-0.072020028176508891 0.058709745187636594 1.0726268030806325 5.7126539497789525e-11 0.027040293691995961 28.553029163465961 1.0336291525956167 -0.10330358478775557 0.028500530814050799 0.36915347040211083 -165.20278963895552 -0.56817114287699988 -0.51828839651949987 9.6019450550824056e-11 0.74302581583327254 -0.1153020603769772 0.1734104046242774 9.3850000000000033 -0.35679782996234127 69.964360600187874 0.10976211523814118 0.5050434597012825 7.0450000000000008 1.5750000000000004 2.7450000000000006 2.7150000000000003 2.4528900626665004 -0.34547004642149998 -0.40934238975999993 -1.2411416870194332
decision_type=2 2 2 2 2 2 2 2 2 2 2 10 10 2 2 2 2 8 2 2 2 2 8 10 10 8 10 10 10 2
left_child=1 3 14 -1 -5 -3 7 17 9 16 -7 21 13 -13 15 -2 -4 18 -6 20 -11 -10 23 -14 25 -25 -27 28 -26 -17
right_child=2 5 8 4 6 10 -8 -9 11 19 -12 12 22 -15 -16 29 -18 -19 -20 -21 -22 -23 -24 24 27 26 -28 -29 -30 -31
leaf_value=-0.00015080460457604975 0.0017014243322252887 0.0010136892090836754 2.4572955329526706e-05 -3.7604199663918328e-05 0.00068515729756381477 0.0092206710833368493 0.00022875343595629255 9.7752880827074753e-05 0.00011352218802503673 -0.00016867005201008601 0.0031833471653411869 0.0021981906459250327 0.00017653042104322128 0.018351181814640054 -0.0013932459202107583 -0.0009345550077995363 -0.00073174688458632349 0.00044363517761823935 0.002187832492866889 -0.0014362743289908744 0.003187964924640907 -0.0022246807461499653 6.3061312015682732e-06 0.0020429949129795251 0.0039482633134972321 0.045170381220574388 0.0051239923197695745 0.00075218657987154592 0.017332017153706688 -0.00018363120223147258
leaf_weight=24742 1703 2238 78829 13724 3918 191 11651 4775 11090 904 2356 184 6579 80 4403 9823 12372 4296 11069 598 1756 1155 7800 3326 99 50 88 8040 58 234309
leaf_count=24742 1703 2238 78829 13724 3918 191 11651 4775 11090 904 2356 184 6579 80 4403 9823 12372 4296 11069 598 1756 1155 7800 3326 99 50 88 8040 58 234309
internal_value=8.79908e-08 0.000497068 -0.000102292 0.000373474 0.000635984 0.00241188 0.000895003 0.00121745 0.000122103 -2.6777e-05 0.00363839 0.000487042 0.0007636 0.00711706 -0.000221583 -0.000200578 -7.79725e-05 0.00149446 0.00179533 0.00140476 0.00204537 -0.000106635 0.000698967 0.000994896 0.00145617 0.00274809 0.019692 0.00090958 0.00893229 -0.000213867
internal_weight=462206 78960 383246 74175 49433 4785 35709 24058 133008 94459 2547 38549 26304 264 250238 245835 91201 19283 14987 3258 2660 12245 26040 18240 11661 3464 138 8197 157 244132
internal_count=462206 78960 383246 74175 49433 4785 35709 24058 133008 94459 2547 38549 26304 264 250238 245835 91201 19283 14987 3258 2660 12245 26040 18240 11661 3464 138 8197 157 244132
is_linear=0
shrinkage=0.05


Tree=26
num_leaves=31
num_cat=0
split_feature=28 35 18 35 39 35 50 6 41 17 35 56 7 27 25 56 47 6 28 35 34 44 34 49 23 20 25 49 17 27
split_gain=9.17997 10.3531 4.94657 4.00022 3.52481 3.4246 3.27761 3.12157 2.93274 2.88884 3.60185 3.38897 3.13271 3.7499 3.08585 3.07602 2.8634 3.5002 2.76769 2.49075 2.39281 2.37549 2.53348 2.34965 2.33651 2.28387 2.27617 2.27611 2.59963 3.09667
threshold=-0.15134614725924353 5.5344017857855176e-11 0.057374407277324159 1.9037812316480116e-10 -0.019416798899059281 4.5167920410001731e-11 0.34704862567291039 -0.27216737988718143 0.11760200993256073 0.063957468872173032 2.1856785310457313e-11 -46.332318525474498 0.40223483337250437 1.5786392608640833 0.77788910021176172 121.66483163138402 -0.054969645940778661 0.16981488881911336 -0.078875616286277581 2.4119807583871828e-11 0.022178755763239733 1.0056695817270502 -0.011438371649831925 1.1281460528114649 0.026341227824548865 17.494894540766591 -0.30594978201809991 1.2865925116902326 0.086117993656603942 1.1542587683934526
decision_type=2 2 2 2 2 2 2 2 2 2 2 10 2 10 2 10 2 2 2 2 2 2 2 2 2 2 2 2 2 10
left_child=1 21 6 4 5 -2 -3 -4 -9 10 11 12 13 -6 -15 18 17 -12 -13 25 27 22 -1 -7 -24 -11 -26 28 -10 -30
right_child=3 2 7 -5 9 23 -8 8 20 19 16 15 -14 14 -16 -17 -18 -19 -20 -21 -22 -23 24 -25 26 -27 -28 -29 29 -31
leaf_value=0.0016566440038534647 -0.00057321635719739632 0.0015148103781887383 0.0041921977734670646 0.00044995868196236953 0.0024550362914408106 3.9952595172897877e-05 0.00037404783522247096 0.00028725184381874814 0.003003925779586105 0.0072652405944881515 0.00067316175494213162 -0.00052565533025328412 0.0016221192925684148 0.022439491632209999 0.0070363719893165068 0.0044233375792780928 -0.00013320984564154997 -0.00074390984488452254 0.00094071842945010395 -0.00032336696308985727 0.0069890163628793661 -0.0021389627140442845 -0.00068344757428465456 -0.00035214710522235148 -0.00092595166313997213 -0.0036000385588386449 0.00072960528461759114 0.0012368874295428933 0.0014529660885309846 0.017877448449241006
leaf_weight=1957 63379 9725 1525 31702 133 84813 17909 2450 1753 50 24763 4610 466 63 70 516 99461 5285 10630 2009 270 1470 12512 69501 2769 1208 8278 2811 52 66
leaf_count=1957 63379 9725 1525 31702 133 84813 17909 2450 1753 50 24763 4610 466 63 70 516 99461 5285 10630 2009 270 1470 12512 69501 2769 1208 8278 2811 52 66
internal_value=9.12705e-08 0.00055822 0.00110654 -8.8863e-05 -0.000135426 -0.000263748 0.000775692 0.0021301 0.00170453 5.16893e-05 8.46266e-05 0.000780654 0.00410739 0.00844024 0.0143815 0.000625757 -3.94771e-06 0.000423752 0.000496821 -0.00141866 0.0024047 -0.000184463 -7.16588e-05 -0.000136612 -0.000215444 -0.00316367 0.000314172 0.00213912 0.00349184 0.0106892
internal_weight=462206 63547 36561 398659 366957 217693 27634 8927 7402 149264 145997 16488 732 266 133 15756 129509 30048 15240 3267 4952 26986 25516 154314 23559 1258 11047 4682 1871 118
internal_count=462206 63547 36561 398659 366957 217693 27634 8927 7402 149264 145997 16488 732 266 133 15756 129509 30048 15240 3267 4952 26986 25516 154314 23559 1258 11047 4682 1871 118
is_linear=0
shrinkage=0.05


Tree=27
num_leaves=31
num_cat=0
split_feature=28 35 28 54 55 35 56 16 56 41 44 41 18 41 27 36 26 54 56 56 17 47 44 23 55 17 23 41 56 14
split_gain=8.38427 5.74474 5.98918 3.58826 4.41508 3.51297 3.50282 3.36428 4.31614 7.72242 3.10157 3.70779 2.92672 2.78924 3.18694 3.41152 4.56931 9.19536 3.12941 2.78343 4.16665 2.59213 2.55574 2.93889 3.97956 5.42648 4.62193 5.26556 4.20235 3.44901
threshold=-0.20708115561208851 7.4840727732827658e-11 -0.11837922034183716 3.2050000000000005 -5.0958011398114991 1.5143453264752199e-10 466.61616379383906 0.065636754879782808 -244.99173427258197 0.14715021626181846 0.55937008288817747 -0.29261028921391158 0.066049719474188237 -0.017646553039501345 1.7131447337417554 0.49474788647887641 -0.36445956878448865 7.5050000000000008 31.045162358668502 -28.006053838565997 0.086117993656603942 -0.11580098538532192 1.1555037286365091 0.017232151960801929 3.1864816234240005 0.041086587914170178 0.042658815926723458 0.53009198067124663 121.66483163138402 0.00050740679177740955
decision_type=2 2 2 8 10 2 10 2 10 2 2 2 2 2 10 2 2 10 10 10 2 2 2 2 10 2 2 2 10 2
left_child=5 3 6 4 -2 10 7 -3 9 -9 11 -1 -13 -10 15 18 17 -17 -15 -7 -21 -4 23 -6 25 28 -26 -28 -25 -29
right_child=1 2 21 -5 22 19 -8 8 13 -11 -12 12 -14 14 -16 16 -18 -19 -20 20 -22 -23 -24 24 26 -27 27 29 -30 -31
leaf_value=-0.00053909196855716254 -0.00071787583513384086 0.00048852364987579883 0.0003760136447124976 -0.00034463543554912344 -4.5446963144842308e-05 -0.0005253463344911559 0.00976407292266495 -0.0014136594738060476 -0.0012999178109963704 0.026004778369486687 -0.0010797526001300331 0.0010028460395880739 0.0032009051799028565 0.00072355249535086203 0.00039506766030362756 0.0047745119788115417 0.0032976018318808722 0.023785858371480048 0.007628405176051763 0.0025131127932718688 0.012114360213182695 -0.00011204425114745983 -0.0029602111075622667 0.00076829141775681519 0.00062146544936172987 -0.00072502293271466491 0.0015952271470605274 0.018045233863719194 0.0075078935501534817 0.0050265308729236131
leaf_weight=3253 15934 36710 36432 159626 45247 745 106 52 717 50 2226 8520 1846 1471 1847 226 1064 89 185 3504 117 107414 637 9801 10093 9822 3215 54 237 966
leaf_count=3253 15934 36710 36432 159626 45247 745 106 52 717 50 2226 8520 1846 1471 1847 226 1064 89 185 3504 117 107414 637 9801 10093 9822 3215 54 237 966
internal_value=9.29458e-08 -4.54339e-05 0.000165669 -0.000199353 4.21503e-05 0.000995964 0.000687035 0.000664207 0.00179457 0.0119901 0.000649487 0.000932501 0.00139479 0.00160772 0.0020358 0.0030326 0.00487116 0.0101677 0.00149836 0.00225221 0.00282505 1.1532e-05 0.000193455 0.000218812 0.000568697 0.00011022 0.00120384 0.00259054 0.000927987 0.00572236
internal_weight=462206 441995 186363 255632 96006 20211 42517 42411 5701 102 15845 13619 10366 5599 4882 3035 1379 315 1656 4366 3621 143846 80072 79435 34188 19860 14328 4235 10038 1020
internal_count=462206 441995 186363 255632 96006 20211 42517 42411 5701 102 15845 13619 10366 5599 4882 3035 1379 315 1656 4366 3621 143846 80072 79435 34188 19860 14328 4235 10038 1020
is_linear=0
shrinkage=0.05


Tree=28
num_leaves=31
num_cat=0
split_feature=28 35 18 54 35 12 0 41 49 16 1 54 16 55 54 54 38 29 49 43 6 9 54 25 39 6 55 44 41 35
split_gain=7.6718 8.77153 4.20554 4.18038 3.61975 3.32461 2.92232 3.14264 3.58779 3.23239 2.77941 2.61483 2.50935 2.74009 2.32312 4.05645 5.36767 2.52385 3.04266 5.98569 2.43844 2.16413 2.14543 2.13984 2.10468 3.17639 3.02359 3.85834 2.38007 2.21353
threshold=-0.15134614725924353 5.5344017857855176e-11 0.066049719474188237 25.010000000000005 1.9037812316480116e-10 0.80545300180328805 30.257125490907026 0.11760200993256073 1.5549770360190076 0.18943919231939249 -1.3482396589967516 8.4850000000000012 0.32449418364757687 2.1162581527630002 5.6950000000000012 5.5702500000000006 0.096078853773306064 0.48658563643016234 3.6799545719762992 -0.0034828764591170454 -0.062527927082549659 0.44958683376861375 1.8310000000000002 0.27936762234535939 0.013982456155978486 0.21235230497278693 0.86351922012350013 0.35564911448848163 0.48700145549596469 4.2201647403594398e-11
decision_type=2 2 2 8 2 2 2 2 2 2 2 10 2 10 10 10 2 10 2 2 2 2 8 2 2 2 10 2 2 2
left_child=1 21 10 4 5 -2 -4 -8 9 -9 -3 12 13 -11 15 17 -17 20 19 -19 23 -1 -15 -6 25 28 27 -26 -7 -28
right_child=3 2 6 -5 14 24 7 8 -10 11 -12 -13 -14 22 -16 16 -18 18 -20 -21 -22 -23 -24 -25 26 -27 29 -29 -30 -31
leaf_value=8.9596229610765636e-05 -0.0003689117701620088 -0.00054208804576068791 0.0082816537047627203 -0.0013612817088664506 0.0018658226796362096 5.1183702205041186e-05 0.0001437235076969899 0.0032079576931105464 0.0010353659250125777 0.0044696956758373835 0.00096388189758591725 0.018399700750175055 0.00033144331590919199 0.021655486103647394 -0.00020466741497014832 0.0029856762585149118 0.021623234430438842 0.0035077837851327657 -0.0025717641987184191 0.02334630489134857 0.00013284856708952182 -0.00093535163646369128 0.0086652273674013135 0.0003298673770692001 0.00019432187761202888 -0.00073439579371963569 0.00091472186497164798 -0.0011139239147116909 -0.00039882094920142642 0.00016024619790393018
leaf_weight=20060 89707 3435 200 6278 5384 150557 1442 1531 1452 151 28048 54 115 58 9174 153 52 144 83 52 11677 6926 75 3933 20112 17869 18078 7828 36505 21073
leaf_count=20060 89707 3435 200 6278 5384 150557 1442 1531 1452 151 28048 54 115 58 9174 153 52 144 83 52 11677 6926 75 3933 20112 17869 18078 7828 36505 21073
internal_value=9.39225e-08 0.00051032 0.00101502 -8.12247e-05 -6.0731e-05 -0.00010495 0.00235077 0.00210642 0.00292862 0.00431157 0.000799411 0.00802888 0.00660853 0.00913169 0.000460934 0.000745468 0.00774587 0.000677737 0.00540344 0.00880578 0.000614671 -0.000173275 0.0143797 0.00121799 -1.7882e-05 -9.74763e-05 0.000225166 -0.000172035 -3.66078e-05 0.000508755
internal_weight=462206 63547 36561 398659 392381 361729 5078 4878 3436 1984 31483 453 399 284 30652 21478 205 21273 279 196 20994 26986 133 9317 272022 204931 67091 27940 187062 39151
internal_count=462206 63547 36561 398659 392381 361729 5078 4878 3436 1984 31483 453 399 284 30652 21478 205 21273 279 196 20994 26986 133 9317 272022 204931 67091 27940 187062 39151
is_linear=0
shrinkage=0.05


Tree=29
num_leaves=31
num_cat=0
split_feature=43 31 1 47 8 55 39 54 17 54 37 20 38 54 6 31 34 39 23 49 17 29 23 54 27 12 49 47 16 32
split_gain=7.30934 4.75884 3.95224 4.25028 3.26689 3.32974 4.04408 3.13835 5.74907 3.34168 3.02436 2.77706 2.71465 2.60091 2.55264 2.44416 2.67666 2.55223 2.41087 3.45543 2.53589 2.48489 2.19205 2.17328 2.01186 3.42114 1.97491 1.86217 1.86042 2.83915
threshold=-0.26903434753436045 0.012124021024693038 -0.28354038251559971 -0.1981213729157302 -16.241312312881895 -3.4501652144854993 0.0021953994994272645 7.1050000000000013 0.086117993656603942 1.5250000000000001 -0.11100188780362978 15.374484480833081 0.10665532529870249 36.705000000000005 0.5050434597012825 0.0065907023932283825 0.00063746544403075589 -0.049278241336799637 0.019243371170589791 0.91520870275645039 0.040225171477137452 0.071418506609093324 0.055746568529147077 1.7050000000000003 2.9513631733305541 1.3890597191151495 1.6485325356654956 -0.030459460748194989 -0.018214071869110334 0.0087913808098303483
decision_type=2 2 2 2 2 10 2 8 2 10 2 2 2 10 2 2 2 2 2 2 2 10 2 10 10 2 2 2 2 2
left_child=1 26 -2 15 12 13 28 9 11 -8 -3 -9 -5 -6 18 -4 17 -17 -11 -20 22 27 -21 -23 -24 -26 -1 -22 29 -7
right_child=2 10 3 4 5 6 7 8 -10 14 -12 -13 -14 -15 -16 16 -18 -19 19 20 21 23 24 -25 25 -27 -28 -29 -30 -31
leaf_value=0.00038410615557208538 -0.00042638437889443213 0.0031840526798964466 7.1685170501533494e-05 0.00047482768463958069 -0.00045392588143720013 -0.0001058182275982476 -3.7624838014794294e-05 0.0013642020012423015 0.015927844086388115 0.00050510025409490806 0.0010993103347231841 -0.00041469969471264931 0.0027210832380386257 0.0096204410843237359 -0.0005623290270807391 0.00086839612616846718 0.00020733869199917384 0.0024686552951259572 -0.0013147889471017652 0.0018545017961849302 0.001898966632878665 0.0075905494662420851 0.0028316705728823111 0.0016719591717471332 0.016888841762381552 0.0046104134571782274 -0.0012271989862187704 -0.00050869812225592785 -0.00027862196241730086 0.00068929795708314251
leaf_weight=22266 62534 2053 16263 9049 53255 55919 21704 2432 55 21019 11539 22324 1582 64 3473 7478 8041 3749 1146 6659 1072 166 606 2486 78 215 2078 3198 105657 14046
leaf_count=22266 62534 2053 16263 9049 53255 55919 21704 2432 55 21019 11539 22324 1582 64 3473 7478 8041 3749 1146 6659 1072 166 606 2486 78 215 2078 3198 105657 14046
internal_value=9.69508e-08 0.000665053 -5.93483e-05 4.08817e-06 -5.24621e-05 -8.15187e-05 -8.26674e-06 0.000271267 -0.000203631 0.000461938 0.00141459 -0.000239736 0.000809586 -0.000441722 0.000732328 0.000523407 0.000904418 0.00140323 0.000855166 0.00132572 0.00153506 0.000842441 0.00216871 0.00204459 0.00449004 0.00790078 0.000246356 9.46148e-05 -0.000146187 5.37366e-05
internal_weight=462206 37936 424270 361736 326205 315574 262255 86633 24811 61822 13592 24756 10631 53319 40118 35531 19268 11227 36645 15626 14480 6922 7558 2652 899 293 24344 4270 175622 69965
internal_count=462206 37936 424270 361736 326205 315574 262255 86633 24811 61822 13592 24756 10631 53319 40118 35531 19268 11227 36645 15626 14480 6922 7558 2652 899 293 24344 4270 175622 69965
is_linear=0
shrinkage=0.05


end of trees

feature_importances:
Column_35=87
Column_54=80
Column_55=77
Column_56=62
Column_6=53
Column_18=47
Column_44=43
Column_28=37
Column_23=35
Column_16=29
Column_39=26
Column_17=25
Column_49=25
Column_31=23
Column_41=21
Column_43=18
Column_40=17
Column_47=17
Column_12=16
Column_25=15
Column_15=13
Column_34=12
Column_1=10
Column_20=10
Column_26=10
Column_27=9
Column_32=9
Column_14=8
Column_0=6
Column_29=6
Column_7=5
Column_10=5
Column_45=5
Column_50=5
Column_13=4
Column_21=4
Column_24=4
Column_36=4
Column_5=3
Column_37=3
Column_38=3
Column_3=2
Column_8=2
Column_9=2
Column_19=1
Column_33=1
Column_48=1

parameters:
[boosting: gbdt]
[objective: regression]
[metric: l1]
[tree_learner: serial]
[device_type: cpu]
[data_sample_strategy: bagging]
[data: ]
[valid: ]
[num_iterations: 30]
[learning_rate: 0.05]
[num_leaves: 31]
[num_threads: 0]
[seed: 0]
[deterministic: 0]
[force_col_wise: 0]
[force_row_wise: 0]
[histogram_pool_size: -1]
[max_depth: -1]
[min_data_in_leaf: 50]
[min_sum_hessian_in_leaf: 0.001]
[bagging_fraction: 0.8]
[pos_bagging_fraction: 1]
[neg_bagging_fraction: 1]
[bagging_freq: 0]
[bagging_seed: 3]
[bagging_by_query: 0]
[feature_fraction: 0.8]
[feature_fraction_bynode: 1]
[feature_fraction_seed: 2]
[extra_trees: 0]
[extra_seed: 6]
[early_stopping_round: 0]
[early_stopping_min_delta: 0]
[first_metric_only: 0]
[max_delta_step: 0]
[lambda_l1: 0.1]
[lambda_l2: 0.1]
[linear_lambda: 0]
[min_gain_to_split: 0]
[drop_rate: 0.1]
[max_drop: 50]
[skip_drop: 0.5]
[xgboost_dart_mode: 0]
[uniform_drop: 0]
[drop_seed: 4]
[top_rate: 0.2]
[other_rate: 0.1]
[min_data_per_group: 100]
[max_cat_threshold: 32]
[cat_l2: 10]
[cat_smooth: 10]
[max_cat_to_onehot: 4]
[top_k: 20]
[monotone_constraints: ]
[monotone_constraints_method: basic]
[monotone_penalty: 0]
[feature_contri: ]
[forcedsplits_filename: ]
[refit_decay_rate: 0.9]
[cegb_tradeoff: 1]
[cegb_penalty_split: 0]
[cegb_penalty_feature_lazy: ]
[cegb_penalty_feature_coupled: ]
[path_smooth: 0]
[interaction_constraints: ]
[verbosity: -1]
[saved_feature_importance_type: 0]
[use_quantized_grad: 0]
[num_grad_quant_bins: 4]
[quant_train_renew_leaf: 0]
[stochastic_rounding: 1]
[linear_tree: 0]
[max_bin: 255]
[max_bin_by_feature: ]
[min_data_in_bin: 3]
[bin_construct_sample_cnt: 200000]
[data_random_seed: 1]
[is_enable_sparse: 1]
[enable_bundle: 1]
[use_missing: 1]
[zero_as_missing: 0]
[feature_pre_filter: 1]
[pre_partition: 0]
[two_round: 0]
[header: 0]
[label_column: ]
[weight_column: ]
[group_column: ]
[ignore_column: ]
[categorical_feature: ]
[forcedbins_filename: ]
[precise_float_parser: 0]
[parser_config_file: ]
[objective_seed: 5]
[num_class: 1]
[is_unbalance: 0]
[scale_pos_weight: 1]
[sigmoid: 1]
[boost_from_average: 1]
[reg_sqrt: 0]
[alpha: 0.9]
[fair_c: 1]
[poisson_max_delta_step: 0.7]
[tweedie_variance_power: 1.5]
[lambdarank_truncation_level: 30]
[lambdarank_norm: 1]
[label_gain: ]
[lambdarank_position_bias_regularization: 0]
[eval_at: ]
[multi_error_top_k: 1]
[auc_mu_weights: ]
[num_machines: 1]
[local_listen_port: 12400]
[time_out: 120]
[machine_list_filename: ]
[machines: ]
[gpu_platform_id: -1]
[gpu_device_id: -1]
[gpu_use_dp: 0]
[num_gpu: 1]

end of parameters

pandas_categorical:null
