tree
version=v4
num_class=1
num_tree_per_iteration=1
label_index=0
max_feature_idx=63
objective=regression
feature_names=rsi_14 macd_hist boll_pctb kdj_j vol_price_ratio mom_20d mom_60d volatility_20d rsi_delta macd_hist_delta boll_pctb_delta mom_accel volume_trend close_ma5_dev close_ma20_dev close_ma60_dev ma_alignment atr_14 price_range_10d williams_r adx_14 obv_slope amount_ratio turnover_5d turnover_pctile return_skew_20d return_kurtosis_20d updown_vol_ratio max_drawdown_20d return_autocorr close_position upper_shadow lower_shadow body_ratio gap_5d amihud_illiq volume_volatility mom_5d mom_10d vwap_dev boll_bandwidth vol_price_corr consecutive_days high_distance_60d low_distance_60d vol_ratio_5_60 mfi_14 intraday_intensity cci_20 return_extremes_ratio amount_volatility pe_ttm pb total_mv_log roe revenue_growth profit_growth roe_qoq profit_growth_accel revenue_growth_accel pe_ind_rank pb_ind_rank roe_ind_rank mom_20d_ind_rank
feature_infos=[3.9334009172903848:98.368329154908224] [-39.78670472759638:38.650495249547447] [-0.52920046404580445:1.5496690822014207] [-26.019267312481375:128.20041060531031] [0.057428285980973749:66.606922952582053] [-0.62320143884892087:3.4484732824427473] [-0.71930360415394023:12.049360146252285] [0.022900953999095308:1.7857676058686893] [-46.772541197310957:56.632221868462196] [-35.768114143399174:34.731367462183989] [-1.5833042211345256:1.6453869919465718] [-3.0545694761617272:0.98121289672966783] [0.07229650186415347:3.8031987559478684] [-0.22216279295925312:0.37268513792188185] [-0.50245081581951245:1.0405759162303667] [-0.58888482959671351:2.5779886924710276] [-0.54078784594779716:1.9836526900150939] [0.0068086553916001432:0.20107754953416493] [0:0.20643520885523917] [-100:0] [5.4214795911274507:89.065748681864306] [-1.0014828108123581:1.0739951396429603] [0.0017498783558784336:15.36627582195838] [0.00026288916005356988:0.64229882211538458] [0:0.98333333333333328] [-4.129483209670112:3.5030903354144884] [-1.9210376932538107:15.052631578947366] [0:586.19823779201545] [-0.66943083301922357:0] [-0.82121124558065062:0.87015707906146478] [0:1] [0:0.081151162390514259] [0:0.088508467471551056] [0:0.93333333333333235] [-0.10009941439549201:0.10178949808234503] [3.5289164341523312e-12:2.1999822962968472e-08] [0.10221270371466573:2.5167554688150404] [-0.4098360655737705:0.88970927549607759] [-0.56963890935887984:1.6758928571428573] [-0.96423843211544225:1.3228154595619133] [5.7673923357150998e-16:1.9241787646710045] [-0.94478612458818245:0.96976705835918531] [-17:17] [-0.7885411872986654:0] [0:12.392120075046904] [0:3.1453893969901223] [0:100] [-0.61641054837166731:0.82530999781973968] [-524.80732177263769:563.18630187977499] [0:18.428571428570859] [0.10349808372885802:3.300503497032969] none none [18.231938619355489:25.823596989107635] [-1290.26:201.97999999999999] [-32430.463773151201:6534.1137512344303] [-87934.743809934793:18088.410932085299] [-974.48000000000002:3751.8000000000002] [-87834.521189741776:88073.890565078516] [-32418.007282747672:32447.056303305482] none none [0.029411764705882353:1] [0.029411764705882353:1]
tree_sizes=3052 3158 3181 3134 3189 3159 3188 3127 3172 3151

Tree=0
num_leaves=31
num_cat=0
split_feature=53 15 23 43 53 47 55 39 17 56 15 18 56 53 53 39 53 18 53 25 39 39 53 39 23 55 56 59 62 26
split_gain=642.386 291.68 173.592 123.616 115.53 97.4665 85.8801 94.1779 75.5905 69.701 66.3778 62.5014 57.0742 365.764 598.992 48.986 48.6789 44.9528 38.7472 36.9318 36.1245 35.1434 34.0413 31.5378 36.999 30.8354 32.962 33.4905 27.9329 26.1285
threshold=23.743937696437985 -0.19113095179112219 0.037584830589005642 -0.52633644480984654 24.056299731764266 -0.017390943793063 8.4761027968895011 -0.017878586124480397 0.030005042933208076 12.978849104526001 0.13359782234138132 0.065636297753808054 -80.873415115989985 21.875344915931652 21.47749071840332 -0.22816856830441498 23.344700455420433 0.069569915920064965 21.523739888085075 0.084474566436323478 -0.053787737167339693 -0.074036240409168605 22.51153819125415 -0.0093036091073702126 0.016135614813683825 11.083749907495502 290.49038255684803 6.287648527961502 0.063508064516129045 8.0912892121426978
decision_type=2 2 2 2 2 2 10 2 2 10 2 2 8 2 2 2 2 2 2 2 2 2 2 2 2 10 10 10 8 2
left_child=1 3 5 18 15 8 7 10 12 17 -4 20 13 14 -3 -2 21 22 -1 -12 -6 -10 -7 24 -24 26 -8 -28 -11 -9
right_child=4 2 6 -5 11 9 25 29 16 28 19 -13 -14 -15 -16 -17 -18 -19 -20 -21 -22 -23 23 -25 -26 -27 27 -29 -30 -31
leaf_value=0.05455085909739403 0.029171812120076159 0.040522512492210824 0.030248301298904511 0.036862242417890809 0.029110510646224996 0.033485454356384489 0.03577367093410648 0.032966464161810025 0.034743363185890219 0.061384710627869168 0.023580069602812892 0.026138650982542269 0.032805559710198121 0.035783071875298743 0.25319167629899758 0.031683865920583219 0.033501403517832956 0.027647497023188302 0.043404463763201985 0.028359501833596982 0.030642661587237639 0.03678940960832125 0.032110595484174512 0.033426472470300318 0.030073051836718503 0.032330081539189363 0.040423751011386316 0.082143825833965817 0.034118493589884953 0.057735342764928428
leaf_weight=1061 21677 91 32818 23621 72949 52065 7193 18593 81617 94 6923 11771 111049 2487 52 185429 60282 5160 2958 9728 81446 28265 107024 32250 28140 13636 129 77 61392 107
leaf_count=1061 21677 91 32818 23621 72949 52065 7193 18593 81617 94 6923 11771 111049 2487 52 185429 60282 5160 2958 9728 81446 28265 107024 32250 28140 13636 129 77 61392 107
internal_value=0.0323025 0.0332099 0.0329989 0.0382419 0.030633 0.0333199 0.0309479 0.0300861 0.0339764 0.0326687 0.0289435 0.0296509 0.032978 0.040258 0.117992 0.0314209 0.0346433 0.0322604 0.0463488 0.026372 0.0299187 0.0352697 0.0323688 0.0320216 0.0316864 0.0337406 0.0363394 0.056059 0.0341603 0.0331086
internal_weight=1.06008e+06 686812 659172 27640 373272 569968 89204 68169 283843 286125 49469 166166 113679 2630 143 207106 170164 224639 4019 16651 154395 109882 219479 167414 135164 21035 7399 206 61486 18700
internal_count=1060084 686812 659172 27640 373272 569968 89204 68169 283843 286125 49469 166166 113679 2630 143 207106 170164 224639 4019 16651 154395 109882 219479 167414 135164 21035 7399 206 61486 18700
is_linear=0
shrinkage=1


Tree=1
num_leaves=31
num_cat=0
split_feature=35 6 44 35 55 62 47 55 39 35 57 17 56 17 44 58 16 57 32 15 56 56 6 57 18 23 55 15 58 48
split_gain=563.908 276.496 164.972 121.552 103.044 1642.6 98.8756 72.1725 66.7504 121.213 116.928 65.8416 60.3306 57.2961 50.6787 50.5332 47.8469 46.595 45.1427 42.311 41.5218 41.2658 39.304 38.2214 36.754 37.983 39.4686 33.9368 33.4647 32.1332
threshold=1.0078708882256425e-10 -0.39946016435481985 0.57689818580250862 3.4124339934527254e-10 -21.180577120209495 0.12701612903225809 0.091408861583851905 6.252535281969001 -0.04514015287162159 4.2760244547894473e-11 -0.73999999999999977 0.093983658879502163 8.7935338594530013 0.027080088087491846 0.69170538332183518 84.087903113398013 0.0078111431618610042 3.8906500000000008 0.020643911067382108 -0.12734981149820621 14.545351881905502 -14.993539510255498 0.49619148044628442 0.05000000000000001 0.043366287831799556 0.019391414832284831 24.515212074184003 -0.27120937452344357 -14.626417753280498 -37.51499820020301
decision_type=2 2 2 2 8 8 2 10 2 2 8 2 10 2 2 10 2 8 2 2 10 8 2 8 2 2 10 2 8 2
left_child=2 11 8 6 5 -5 13 18 9 29 24 -2 19 -3 -8 -12 -15 22 -4 -11 -16 28 -6 -14 25 -10 -27 -25 -19 -1
right_child=1 3 7 4 17 -7 14 -9 10 12 15 -13 23 16 20 -17 -18 21 -20 -21 -22 -23 -24 27 -26 26 -28 -29 -30 -31
leaf_value=-0.0018969042028920435 0.0078025525136019196 0.00015608166941858821 -0.0047662171446513244 0.27931508293502588 0.0024049343423848376 0.0040188665949347181 -0.00029259632988617215 -0.0014849900640500711 0.0014059576653022968 0.0011212732651184345 -0.0011851928514849579 0.018607121969697552 0.002525631597539693 0.0023081290650423156 -0.0076518953069557027 0.0022560542830784343 0.00066694698089802629 0.0055252448041691439 -0.010300544092291905 -0.0013657911121599273 0.0017422931822329108 0.0048715123977562088 -0.0063627823035081717 0.014617441042087786 -0.00070484418397643764 0.0042296873622476661 0.045893906948079995 -0.00016510583834681458 0.028307738571273416 -0.0036482020406743893
leaf_weight=69256 3548 79209 19801 57 61387 1062 85991 16150 43176 19282 130473 2343 19539 130100 4293 11617 67441 300 4530 151041 1619 12229 1305 391 14149 13991 57 53252 350 42145
leaf_count=69256 3548 79209 19801 57 61387 1062 85991 16150 43176 19282 130473 2343 19539 130100 4293 11617 67441 300 4530 151041 1619 12229 1305 391 14149 13991 57 53252 350 42145
internal_value=0 0.00133955 -0.000992768 0.00119719 0.00300832 0.0180702 0.000820407 -0.00407676 -0.000773108 -0.00119334 -7.44044e-05 0.0121009 -0.000568312 0.00129229 -0.000600525 -0.000903807 0.00174785 0.0027852 -0.00579685 -0.0010842 -0.00507847 0.00552468 0.00222234 0.000632302 0.00157671 0.00214092 0.00439942 -5.72367e-05 0.0178029 -0.0025595
internal_weight=1.06008e+06 451234 608850 445343 76690 1119 368653 40481 568369 354906 213463 5891 243505 276750 91903 142090 197541 75571 24331 170323 5912 12879 62692 73182 71373 57224 14048 53643 650 111401
internal_count=1060084 451234 608850 445343 76690 1119 368653 40481 568369 354906 213463 5891 243505 276750 91903 142090 197541 75571 24331 170323 5912 12879 62692 73182 71373 57224 14048 53643 650 111401
is_linear=0
shrinkage=0.05


Tree=2
num_leaves=31
num_cat=0
split_feature=53 6 35 47 32 7 18 59 47 56 53 18 17 56 53 54 56 44 53 44 39 25 35 54 39 6 39 63 59 39
split_gain=550.716 281.605 192.976 97.7905 96.5565 89.0205 86.7041 64.4409 62.5582 58.8722 58.4331 52.2576 48.7908 68.3756 442.697 47.7336 47.4048 71.6371 47.3454 36.9247 34.0334 33.5916 33.1861 32.3851 31.0624 29.6368 27.6216 35.1829 38.9845 27.0014
threshold=23.795383534852949 -0.39946016435481985 1.1065889204498919e-10 -0.0057628022966120076 0.021317770999766238 0.95918966767524705 0.052947015911950952 -121.07049643861897 -0.014575192612438342 9.5064256687305022 24.095113213705229 0.051759011508202064 0.027355066673584425 -80.873415115989985 21.875344915931652 2.6850000000000005 17.206798985645502 0.63886924406726375 21.791251202894614 0.38596736391005476 -0.098586067726645729 -0.75692591634936968 2.8072416504597783e-10 3.7037500000000008 -0.029911709907053326 -0.018847181240793928 -0.0048325011145337595 0.91833333333333345 -9.0165109412579962 -0.015776219904692853
decision_type=2 2 2 2 2 2 2 10 2 10 2 2 2 8 2 8 10 2 2 2 2 2 2 8 2 2 2 10 8 2
left_child=1 5 4 12 7 -1 10 -3 23 11 -2 29 13 14 -4 -6 17 22 -7 -8 -13 -14 -5 -9 -12 -23 -18 -28 -29 -10
right_child=6 2 3 16 15 18 19 8 9 -11 24 20 21 -15 -16 -17 26 -19 -20 -21 -22 25 -24 -25 -26 -27 27 28 -30 -31
leaf_value=0.006412384520246929 -0.00074698355294734731 -0.0047995481525999299 0.1141117963551795 6.1019223146208169e-05 -0.0096455930836323971 0.027372026336655482 -0.0020694388754927749 0.001504614634814167 -0.0013175759019699777 0.00077462848084554423 -0.002831270229338937 -0.0059283856750626009 0.00086740574598953622 0.00062373149879535049 0.0043170746184457666 -0.0023730402426452501 0.0017632413982082498 -0.0045088595465604042 0.013079466127757178 -0.0048822271072605792 -0.0015337249451059828 0.0037103201549268934 0.0017072934206420272 0.00012382678606293781 -0.0011786034826547249 0.0020564268302712763 0.0039916032023203946 0.041309444995367837 0.010683233394462002 0.00065724988303627761
leaf_weight=4988 167968 6938 98 103931 3620 865 20702 75577 68209 49997 73525 9052 19825 48968 1434 5996 22511 7359 1764 26761 8590 72820 43397 96945 46380 43159 4652 121 741 23191
leaf_count=4988 167968 6938 98 103931 3620 865 20702 75577 68209 49997 73525 9052 19825 48968 1434 5996 22511 7359 1764 26761 8590 72820 43397 96945 46380 43159 4652 121 741 23191
internal_value=2.39365e-09 0.000775201 0.000673617 0.00147026 -0.000170838 0.0103384 -0.00167539 -3.04706e-05 6.93099e-05 -0.000645994 -0.0013489 -0.00129741 0.00227633 0.000949274 0.0113507 -0.00511143 0.000648309 0.00030547 0.0177848 -0.00365548 -0.0037889 0.00276977 0.000545981 0.00072874 -0.00219205 0.00309491 0.00254046 0.00571249 0.0149924 -0.000816447
internal_weight=1.06008e+06 724748 717131 369016 348115 7617 335336 338499 331561 159039 287873 109042 186304 50500 1532 9616 182712 154687 2629 47463 17642 135804 147328 172522 119905 115979 28025 5514 862 91400
internal_count=1060084 724748 717131 369016 348115 7617 335336 338499 331561 159039 287873 109042 186304 50500 1532 9616 182712 154687 2629 47463 17642 135804 147328 172522 119905 115979 28025 5514 862 91400
is_linear=0
shrinkage=0.05


Tree=3
num_leaves=31
num_cat=0
split_feature=53 6 35 47 55 62 23 53 17 56 39 53 39 56 18 17 57 44 39 57 62 54 55 58 55 57 35 44 53 56
split_gain=499.357 253.493 164.007 134.03 105.748 1435.08 100.888 89.9603 85.1991 78.1694 58.4563 54.3052 53.1844 50.9184 50.0099 42.1095 42.0534 41.9056 41.0149 40.9813 43.129 97.7022 37.8784 37.5392 37.2589 38.3073 36.3358 36.253 32.8985 53.9283
threshold=23.749936572611237 -0.37013334482244603 2.746233247339279e-10 -0.014575192612438342 -21.180577120209495 0.12701612903225809 0.034827478232690522 24.056299731764266 0.084354340809564818 12.978849104526001 -0.04514015287162159 21.658825489734973 -0.021110989560775392 13.644250799900503 0.065636297753808054 0.030152298043076019 -3.4249999999999994 0.63886924406726375 -0.22816856830441498 2.895 0.15504807692307696 2.3750000000000004 22.191222678524003 -30.185796543024498 -0.25492547882499994 0.10999999999999967 8.3131722413654219e-11 0.59483076727319018 21.129255666266879 84.424245175280006
decision_type=2 2 2 2 8 8 2 2 2 10 2 2 2 10 2 2 8 2 2 8 8 10 10 10 8 8 2 2 2 10
left_child=1 8 3 10 5 -4 13 18 -1 12 15 -10 27 17 -9 -3 22 -5 -2 -6 21 -21 -15 -24 -11 -26 -17 -8 29 -22
right_child=7 2 4 6 19 -7 9 14 11 24 -12 -13 -14 16 -16 26 -18 -19 -20 20 28 -23 23 -25 25 -27 -28 -29 -30 -31
leaf_value=0.004910793776850185 -0.0028656176215231008 -0.00019950442681965103 0.22732052862565874 -0.00022782203827533318 0.0016786929252124161 0.0033861204302768053 -0.0037065945150615183 -0.0021082244618196573 0.023987279595728786 -0.0057691916840565587 0.0024842588406623163 0.010750275211527447 -0.00086499449812522814 0.0042952934381040517 -0.0054895396395790545 0.00030286643289709658 0.00086994915192321702 -0.0054801464097754687 -0.00053614736798825765 0.009066539990676829 0.0060779263453396848 0.083693861828466221 0.052360304171871756 0.011371025355928842 0.0048527828960175691 -0.00042380262724935259 0.0019055034008255334 -0.0079419206381477255 0.0027975180538009595 0.034068933593670359
leaf_weight=6523 21091 78706 76 176774 77510 1196 21000 154395 1040 2072 60438 3052 13166 6911 11771 60740 41322 3881 181682 233 6184 54 79 192 5218 10088 84695 6658 23160 177
leaf_count=6523 21091 78706 76 176774 77510 1196 21000 154395 1040 2072 60438 3052 13166 6911 11771 60740 41322 3881 181682 233 6184 54 79 192 5218 10088 84695 6658 23160 177
internal_value=4.61541e-09 0.000792872 0.000673271 0.000335042 0.00245466 0.0167866 -0.000426643 -0.00148529 0.00845999 -0.00228562 0.00110419 0.0141162 -0.00348117 4.54809e-05 -0.00234779 0.000732042 0.00148388 -0.000340688 -0.000778468 0.00228473 0.00386043 0.0231496 0.00501542 0.0233533 0.000522646 0.00137474 0.00123621 -0.00472635 0.00367266 0.00685811
internal_weight=1.06008e+06 691145 680530 571940 108590 1272 287361 368939 10615 58202 284579 4092 40824 229159 166166 224141 48504 180655 202773 107318 29808 287 7182 271 17378 15306 145435 27658 29521 6361
internal_count=1060084 691145 680530 571940 108590 1272 287361 368939 10615 58202 284579 4092 40824 229159 166166 224141 48504 180655 202773 107318 29808 287 7182 271 17378 15306 145435 27658 29521 6361
is_linear=0
shrinkage=0.05


Tree=4
num_leaves=31
num_cat=0
split_feature=53 16 35 43 53 47 32 58 56 57 56 18 47 35 62 55 57 18 39 17 18 55 62 39 57 39 54 55 56 55
split_gain=450.975 205.59 141.33 96.5784 83.2296 80.9122 71.3381 60.6921 53.35 57.7315 51.0737 49.8114 48.5889 44.5866 107.243 590.44 41.4837 41.0816 40.7682 40.1635 39.5888 37.7945 32.7097 31.1649 31.1226 33.2051 33.7747 30.8478 29.5985 37.0928
threshold=23.743937696437985 -0.16666102969964183 8.8322050896529179e-11 -0.52633644480984654 24.095113213705229 0.01702528765207369 0.024269470293698071 1802.4465277209322 19.963832251160003 0.10999999999999967 13.644250799900503 0.069569915920064965 0.034440935174948249 3.6121668834303999e-10 0.12701612903225809 -7.3436162087219996 0.23000000000000018 0.05334497897666745 -0.22816856830441498 0.026655176202330457 0.065636297753808054 5.1744838744505008 0.031754032258064523 -0.060534712763124159 0.05000000000000001 -0.034722618290529132 0.36500000000000005 7.5548214913775009 97.382649942855508 8.5577015146160011
decision_type=2 2 2 2 2 2 2 8 10 8 10 2 2 2 8 10 8 2 2 2 2 10 8 2 8 2 10 10 10 10
left_child=1 3 6 16 18 13 7 8 12 -10 11 -7 -3 19 15 -15 -1 -14 -2 -4 -6 -8 -21 -24 25 -20 -27 -19 -11 -30
right_child=4 2 5 -5 20 10 21 -9 9 28 -12 -13 17 14 -16 -17 -18 27 24 22 -22 -23 23 -25 -26 26 -28 -29 29 -31
leaf_value=0.0062921622159077158 -0.00278463458347052 4.9638974574503863e-05 0.00032439934032396991 0.0035745395919867446 -0.0021001398049498351 0.00015427163126036165 -0.011294452288103995 -0.0056007425781621992 0.0044615764088535249 -0.00051601217955041712 0.0020072256725866227 -0.0037280607277344127 -0.0010539735648898998 0.16195865548732497 0.0030698562723639172 0.0060897766455132799 0.016553538551732611 -0.0055820206515915446 -0.00074783232387460956 0.031377230630147877 -0.0052498087285462779 -0.0011746910479779539 0.0014409166641987444 0.0031170382500805087 -0.0010398249877145108 -0.0011999186954756678 0.0023300679144080991 0.0008613880350741886 7.0871230427216878e-05 0.0078403047396854338
leaf_weight=1816 23292 120708 56036 30261 134598 139734 2273 5284 11446 23825 36722 8781 52961 69 32044 504 2158 9472 39334 94 10778 1555 104716 37736 130853 9274 25143 2309 3658 2650
leaf_count=1816 23292 120708 56036 30261 134598 139734 2273 5284 11446 23825 36722 8781 52961 69 32044 504 2158 9472 39334 94 10778 1555 104716 37736 130853 9274 25143 2309 3658 2650
internal_value=7.92006e-09 0.000760286 0.000562137 0.00453718 -0.00139887 0.00111623 -0.000414993 -0.000303412 -0.000180095 0.00143859 0.000337568 -7.52413e-05 -0.000543042 0.00174008 0.00345346 0.024893 0.0118659 -0.00164814 -0.000802526 0.00145863 -0.00233369 -0.00718507 0.00190447 0.00188496 -0.000576859 0.000244493 0.00137873 -0.00431873 0.00029014 0.00333569
internal_weight=1.06008e+06 686812 652577 34235 373272 416436 236141 232313 227029 41579 185237 148515 185450 231199 32617 573 3974 64742 227896 198582 145376 3828 142546 142452 204604 73751 34417 11781 30133 6308
internal_count=1060084 686812 652577 34235 373272 416436 236141 232313 227029 41579 185237 148515 185450 231199 32617 573 3974 64742 227896 198582 145376 3828 142546 142452 204604 73751 34417 11781 30133 6308
is_linear=0
shrinkage=0.05


Tree=5
num_leaves=31
num_cat=0
split_feature=53 6 35 32 47 17 44 57 53 56 57 44 17 55 62 53 47 54 57 35 56 62 39 6 56 57 39 54 53 54
split_gain=407.55 216.553 147.492 79.576 74.284 73.1086 71.8648 58.2766 55.1407 54.6857 63.6843 58.9479 46.0338 151.58 498.262 45.8739 38.5426 35.7713 33.4056 38.04 62.8128 112.243 36.2744 33.3786 35.5132 32.9866 50.5518 35.3528 29.5288 28.2837
threshold=23.795383534852949 -0.37013334482244603 1.1065889204498919e-10 0.023070011330466284 0.052699073550050331 0.088451787498581777 0.47100651910887464 -28.249999999999996 24.383073894437768 19.963832251160003 0.10999999999999967 0.57689818580250862 0.025486279718814259 -21.180577120209495 0.12701612903225809 21.658825489734973 -0.041986793816905225 2.6850000000000005 -0.61499999999999999 3.4124339934527254e-10 -147.55232124334796 0.096006144393241177 -0.10989329355695114 0.49619148044628442 18.920403108114005 0.23000000000000018 -0.053787737167339693 -1.4749999999999999 20.257832365281249 10.535000000000002
decision_type=2 2 2 2 2 2 2 10 2 10 10 2 2 8 8 2 2 8 10 2 8 10 2 2 10 8 2 10 2 10
left_child=1 5 3 7 12 -1 8 -3 25 11 29 16 13 14 -4 -7 -9 -5 22 -20 21 -21 -14 -6 -25 26 -2 -28 -15 -11
right_child=6 2 4 17 23 15 -8 9 -10 10 -12 -13 18 28 -16 -17 -18 -19 19 20 -22 -23 -24 24 -26 -27 27 -29 -30 -31
leaf_value=0.0046929272254118736 -0.0014425625734970197 -0.0051141443184974317 0.17525645210692686 -0.01003888961699179 0.00046948150462684742 0.022796533865174228 -0.0036647359611452976 0.00054232937879507921 -0.0030207576125201759 0.0038288839388341081 0.00042690090587285993 -0.0035490326002545593 0.00033053540849992927 0.021928988698750027 -0.0014721903288422817 0.010095390257670592 -0.0006733789891979464 -0.0026319563634548508 0.0022072335431555746 0.0066046673125264438 0.0042487890482938179 0.097769798731018695 0.0025723181722805497 -0.0049798218936170412 0.0040449982587125368 -0.0013689947236162694 -0.0031103540728711788 0.0012882794529501319 0.00021836311056734346 0.017192437735163744
leaf_weight=7068 44606 5633 53 2665 119338 955 32789 120145 36569 14780 43533 13140 41572 157 160 2795 142547 4204 91689 104 23458 50 31893 5370 1367 169806 5065 46501 51665 407
leaf_count=7068 44606 5633 53 2665 119338 955 32789 120145 36569 14780 43533 13140 41572 157 160 2795 142547 4204 91689 104 23458 50 31893 5370 1367 169806 5065 46501 51665 407
internal_value=9.46037e-09 0.000666878 0.000560479 -0.000178411 0.00125946 0.0076881 -0.00144125 -7.08099e-05 -0.00120026 1.40935e-05 0.0013996 -0.00028084 0.00177427 0.000457426 0.0425407 0.0133318 -0.000117343 -0.00550649 0.00213724 0.00266822 0.00445807 0.0362804 0.00130382 0.000276143 -0.00314783 -0.000949941 -0.000209987 0.000856128 0.000284276 0.00418746
internal_weight=1.06008e+06 724748 713930 347054 366876 10818 335336 340185 302547 334552 58720 275832 240801 52035 213 3750 262692 6869 188766 115301 23612 154 73465 126075 6737 265978 96172 51566 51822 15187
internal_count=1060084 724748 713930 347054 366876 10818 335336 340185 302547 334552 58720 275832 240801 52035 213 3750 262692 6869 188766 115301 23612 154 73465 126075 6737 265978 96172 51566 51822 15187
is_linear=0
shrinkage=0.05


Tree=6
num_leaves=31
num_cat=0
split_feature=35 6 44 35 55 62 47 55 54 35 32 43 15 56 18 7 59 32 6 62 49 59 54 56 6 54 47 18 62 44
split_gain=355.347 189.037 111.408 92.4613 75.5247 1252.43 75.0941 56.835 55.6384 68.4348 63.4611 57.0306 38.4401 37.7796 37.0513 36.1959 35.675 35.3737 34.0047 33.6824 37.0097 32.3771 30.7128 29.0478 27.775 26.7748 24.216 29.7008 23.4905 23.9324
threshold=9.6350480106697899e-11 -0.45314098503787698 0.57689818580250862 3.3234585522927853e-10 -21.180577120209495 0.12701612903225809 0.13007246480185208 6.5478730270035008 4.1100500000000011 4.4686795196292506e-11 0.020643911067382108 -0.3446533704402539 -0.13583895274489674 7.3592868193995011 0.065636297753808054 1.0036123177010936 -7.8060171968899992 0.018649137862367188 -0.2935085344066265 0.063508064516129045 2.364775187112969 -1.4477233319139995 -21.014999999999997 13.644250799900503 0.4373414405914659 5.705000000000001 0.031473398807015412 0.051022489264904346 0.031754032258064523 0.39210130267278293
decision_type=2 2 2 2 8 8 2 10 8 2 2 2 2 10 2 2 10 2 2 8 2 10 10 10 2 10 2 2 8 2
left_child=2 15 8 6 5 -5 12 17 10 16 13 -11 -3 19 -8 -2 -10 -4 -6 20 -1 -13 -21 28 -20 -9 -24 -28 -14 -30
right_child=1 3 7 4 18 -7 14 25 9 11 -12 21 23 -15 -16 -17 -18 -19 24 22 -22 -23 26 -25 -26 -27 27 -29 29 -31
leaf_value=0.0040705870343190464 0.0082537566173938783 0.0025721376149428522 -0.0037661741698267175 0.24347663407985465 0.0061636151362091923 0.0032516552236920987 -0.0005231767744499049 0.0012768917377290159 -0.0044724491216748853 0.004049818696302959 -0.0058894757807653663 -0.0014997325060650097 0.023594005163047934 0.0010202962740960145 -0.0044865765235722471 0.018896581874843898 -0.0017057298617683529 -0.0081484353611258799 0.0021711132340013349 -0.0082282281710550215 0.027496494860748746 -0.00011289049660354674 5.194923559227844e-05 0.0017674882123278194 -0.0038879178574353838 -0.0029650367854639047 -0.00077071805507072835 -0.0041774959346695959 0.00063027225457605552 -0.0013747562800086553
leaf_weight=1249 1766 32190 18524 57 5287 1091 59914 7098 13050 6709 4593 68380 110 69928 6541 1463 108933 6133 73091 1253 195 109462 110791 56487 1941 7814 46330 7424 216299 15981
leaf_count=1249 1766 32190 18524 57 5287 1091 59914 7098 13050 6709 4593 68380 110 69928 6541 1463 108933 6133 73091 1253 195 109462 110791 56487 1941 7814 46330 7424 216299 15981
internal_value=1.19828e-08 0.00102141 -0.000820445 0.000938391 0.00246959 0.0152037 0.00061648 -0.00338271 -0.000635524 -0.00108283 -6.83574e-05 -0.000475415 0.000933146 4.43549e-05 -0.000913366 0.0130778 -0.00200176 -0.00485642 0.0022875 -0.000363681 0.00723921 -0.000646158 -0.000429932 0.000750493 0.0020143 -0.00094558 -0.000370513 -0.00124133 0.00050327 0.000492303
internal_weight=1.06008e+06 472218 587866 468989 81467 1148 387522 39569 548297 306534 241763 184551 321067 237170 66455 3229 121983 24657 80319 167242 1444 177842 165798 288877 75032 14912 164545 53754 232390 232280
internal_count=1060084 472218 587866 468989 81467 1148 387522 39569 548297 306534 241763 184551 321067 237170 66455 3229 121983 24657 80319 167242 1444 177842 165798 288877 75032 14912 164545 53754 232390 232280
is_linear=0
shrinkage=0.05


Tree=7
num_leaves=31
num_cat=0
split_feature=53 6 44 35 55 58 55 53 39 47 7 17 58 39 23 55 18 39 39 53 17 54 32 44 53 54 53 39 55 35
split_gain=349.45 178.932 119.825 106.224 74.5464 1217.09 74.0182 68.2588 67.9903 67.1719 61.3773 47.5342 47.2748 47.2612 47.4548 41.4009 36.8319 35.33 33.9114 31.8785 55.5346 36.5572 31.4753 30.1697 28.8524 50.5089 28.3685 27.9778 26.7035 26.1
threshold=23.743937696437985 -0.39946016435481985 0.50364258011839169 2.746233247339279e-10 -21.180577120209495 -75.832560087596491 8.4761027968895011 24.056299731764266 -0.062541538395426297 -0.020345038166095352 1.0036123177010936 0.029145242736930813 43.722899767009515 0.0025302588360262006 0.037584830589005642 13.920765732191501 0.063929513439395527 -0.060534712763124159 -0.24130354693542541 20.257832365281249 0.024879283631237516 8.9142000000000028 0.021317770999766238 0.064516129032258132 22.379194662843968 4.6850000000000014 21.658825489734973 -0.07297195562436963 11.546637789609502 2.7605447279260202e-11
decision_type=2 2 2 2 8 8 10 2 2 2 2 2 10 2 2 10 2 2 2 2 2 10 2 2 2 10 2 2 10 2
left_child=1 10 3 9 5 -5 8 18 22 11 -1 -3 28 14 -11 24 27 29 -2 20 21 -6 -4 -19 25 -14 -12 -9 -8 -13
right_child=7 2 6 4 19 -7 12 16 -10 13 26 17 15 -15 -16 -17 -18 23 -20 -21 -22 -23 -24 -25 -26 -27 -28 -29 -30 -31
leaf_value=0.0054366076855900903 -0.0025858851171792242 0.00011666840689844064 -0.0038213306927111336 0.25344999932962853 0.018402016739810872 0.0036294301975662831 0.0031780050955243148 -0.002633027988808153 -0.00024253076885025627 -0.00010649764325689512 0.024201674078106594 -0.0027871365489007924 0.0055861005392260181 0.0015509913495833142 -0.002413446251876603 0.0028559826857239186 -0.0045164054802873691 0.0056465918289182425 -0.00041683913553449634 0.001895405396211114 0.0050552814597077224 0.068679794523226576 -0.0087329811399619647 0.0021578316908863328 0.013989752953584247 0.074824270287299544 0.011712002856478804 -0.0012387827845025624 -0.0018343710948571111 0.0012416164148513784
leaf_weight=5289 19941 91518 17831 51 115 1063 4459 57950 13862 198039 645 4151 50 37554 25120 1144 13240 7491 187165 98330 4570 53 3995 35944 620 56 1553 94976 6575 126734
leaf_count=5289 19941 91518 17831 51 115 1063 4459 57950 13862 198039 645 4151 50 37554 25120 1144 13240 7491 187165 98330 4570 53 3995 35944 620 56 1553 94976 6575 126734
internal_value=1.27819e-08 0.000669264 0.00058453 0.000768853 0.00222762 0.0150927 -0.0018079 -0.00123138 -0.00298138 0.000480215 0.00835666 0.00103948 0.00143714 -9.00247e-05 -0.000366204 0.00878834 -0.00198625 0.00152393 -0.000625709 0.00208851 0.00609487 0.0343246 -0.00472062 0.00275965 0.0181277 0.0422479 0.0153803 -0.00176715 0.00019076 0.0011138
internal_weight=1.06008e+06 686812 679325 630733 104182 1114 48592 373272 35688 526551 7487 265838 12904 260713 223159 1870 166166 174320 207106 103068 4738 168 21826 43435 726 106 2198 152926 11034 130885
internal_count=1060084 686812 679325 630733 104182 1114 48592 373272 35688 526551 7487 265838 12904 260713 223159 1870 166166 174320 207106 103068 4738 168 21826 43435 726 106 2198 152926 11034 130885
is_linear=0
shrinkage=0.05


Tree=8
num_leaves=31
num_cat=0
split_feature=53 6 47 23 7 56 18 39 17 39 53 16 53 56 53 53 39 16 55 54 47 6 53 53 49 25 62 56 25 39
split_gain=315.492 165.044 104.891 78.834 65.0809 60.8181 59.4572 50.7131 46.6821 38.5703 37.9068 37.6984 37.6926 34.0713 210.922 414.619 32.6888 32.5914 32.7519 32.4485 30.6558 29.8663 30.9731 29.748 26.5364 25.9577 25.4324 25.3989 25.3298 23.8428
threshold=23.795383534852949 -0.37013334482244603 -0.011678385056284437 0.034827478232690522 0.92380605618839995 25.440631652971003 0.051388020137836624 -0.017878586124480397 0.030005042933208076 0.0025302588360262006 24.224922257369325 0.022247656106749374 21.791251202894614 -80.873415115989985 21.875344915931652 21.523739888085075 -0.074036240409168605 0.096758593877189533 8.3506361581515023 7.2150000000000007 0.057392272944881854 0.57708961528263392 22.51153819125415 23.244990509954636 1.9967463175746427 -0.75692591634936968 0.031754032258064523 9.5064256687305022 -0.14679761381681186 -0.71536805088068067
decision_type=2 2 2 2 2 10 2 2 2 2 2 2 2 8 2 2 2 2 8 8 2 2 2 2 2 2 8 10 2 2
left_child=1 4 8 9 -1 7 10 17 13 21 -2 16 -6 14 15 -3 23 -5 28 -18 -8 22 -4 25 -7 -10 -13 -24 -19 -29
right_child=6 2 3 5 12 24 20 -9 11 -11 -12 26 -14 -15 -16 -17 19 18 -20 -21 -22 -23 27 -25 -26 -27 -28 29 -30 -31
leaf_value=0.0041110789301319678 -0.00064527511956424637 0.0032643858770501654 0.0010748607097521546 -0.0018236167586023887 0.020439775561970904 0.00010572560879787291 -0.0017632981950845385 -8.8949204143963037e-05 0.00021949646525831691 0.0017042094267193813 -0.0019802416908502188 0.035351022403694386 0.0089595336183219375 0.00019800503077552513 0.0025956071400012582 0.18076844297185868 0.0037429361280299136 -0.0089739680583138994 -0.00065368653290445462 0.00058232587263865054 -0.0042010384706725815 -0.0045435641065617663 -0.00059127896205062687 0.00045876635468454827 0.0054318006480766328 0.0024931309933131007 0.00040082401942573672 0.023361082608160999 -0.0045323827166486091 0.0006746681851784094
leaf_weight=7456 211661 96 59155 17986 1034 7890 30025 17067 15567 38955 71028 52 2328 124334 2901 50 35850 4427 3919 10504 22622 3546 136438 45921 3325 64955 59442 116 11716 49718
leaf_count=7456 211661 96 59155 17986 1034 7890 30025 17067 15567 38955 71028 52 2328 124334 2901 50 35850 4427 3919 10504 22622 3546 136438 45921 3325 64955 59442 116 11716 49718
internal_value=1.57851e-08 0.000586754 0.000493866 -0.000116788 0.00671634 -0.00167081 -0.00126806 -0.00235381 0.00109534 0.000241194 -0.000980715 0.00151717 0.0124923 0.000326062 0.00554964 0.0641698 0.00189093 -0.00336961 -0.00475535 0.00302684 -0.00281088 1.22665e-05 7.81126e-05 0.00147446 0.00168527 0.00205364 0.000431515 -0.000238401 -0.00575079 0.000727623
internal_weight=1.06008e+06 724748 713930 354258 10818 66330 335336 55115 359672 287928 282689 232291 3362 127381 3047 146 172797 38048 20062 46354 52647 248973 245427 126443 11215 80522 59494 186272 16143 49834
internal_count=1060084 724748 713930 354258 10818 66330 335336 55115 359672 287928 282689 232291 3362 127381 3047 146 172797 38048 20062 46354 52647 248973 245427 126443 11215 80522 59494 186272 16143 49834
is_linear=0
shrinkage=0.05


Tree=9
num_leaves=31
num_cat=0
split_feature=35 6 32 35 55 62 59 56 44 55 6 44 35 43 62 59 6 58 55 55 18 35 20 44 18 55 59 55 59 58
split_gain=281.868 151.73 88.65 78.1569 61.2344 1024.33 58.241 49.221 78.4413 39.6926 34.7788 33.2044 33.1117 32.5595 30.1394 33.2686 28.0459 24.8109 28.1767 73.7253 28.0873 24.6493 24.136 24.0235 23.0045 22.0903 25.1837 23.9873 151.428 21.3231
threshold=8.8322050896529179e-11 -0.45314098503787698 0.022101684599721554 3.3234585522927853e-10 -21.180577120209495 0.12701612903225809 -4.3257024652834994 13.644250799900503 0.39881138276672307 3.8492208541385007 -0.17279484450957125 0.61487579812822557 5.099984210919301e-10 -0.17741072418725037 0.059714795008912663 -5.0487765513959992 -0.2935085344066265 84.087903113398013 9.1483732518785015 9.2596780558285019 0.04664792402673569 4.0872853839162106e-11 24.393816217847171 0.72374340859292152 0.030196933352350134 -1.5097221802714997 55.387014284057507 -1.3695540941114996 -8.477567367798498 -81.034820536848486
decision_type=2 2 2 2 8 8 10 10 2 8 2 2 2 2 8 10 2 10 10 10 2 2 2 2 2 10 10 10 10 8
left_child=2 12 6 7 5 -5 11 8 10 -4 -3 14 -2 -8 15 -1 -6 20 -19 -20 -15 -16 -18 -10 -9 -26 27 28 -27 -12
right_child=1 3 9 4 16 -7 13 24 23 -11 29 -13 -14 17 21 -17 22 18 19 -21 -22 -23 -24 -25 25 26 -28 -29 -30 -31
leaf_value=0.0052150427765244017 0.008911406426810542 0.0016706473235861944 -0.0077560382770841055 0.22009888082268061 0.0055471737284549976 0.0028478662143633406 0.00031043245550740461 0.00053146252130161864 -0.0014341797878173164 -0.0021086310978940636 0.0021812185778645556 -0.0051511820744634612 0.021237648141070403 -0.00054535211081658478 -0.0024717236751323497 0.040835857523075614 0.0026088983109859112 -2.8995043476698942e-05 0.048589515296680964 0.0038077483635692959 -0.0018123291725877068 -0.00095912347035180751 0.00080972115265832251 -0.0048103353761323169 -0.00087177147946110247 0.079215780801457775 -0.0052184315015124686 0.002669902365225363 -0.0015879850669440285 0.0001389227174873818
leaf_weight=574 2681 50815 6288 57 5287 1091 114085 31373 23370 6165 13465 6412 685 227943 42603 74 40414 10875 94 3993 54139 73279 34618 6806 5098 74 1008 44803 266 251649
leaf_count=574 2681 50815 6288 57 5287 1091 114085 31373 23370 6165 13465 6412 685 227943 42603 74 40414 10875 94 3993 54139 73279 34618 6806 5098 74 1008 44803 266 251649
internal_value=1.81402e-08 0.000841092 -0.000790317 0.000771273 0.00219095 0.0136573 -0.000693066 0.000501493 0.000239718 -0.00496067 0.000472366 -0.0016479 0.0114219 -0.000407523 -0.00145509 0.00929624 0.00202699 -0.000683284 0.00130073 0.00484011 -0.000788537 -0.00151526 0.00177887 -0.00219583 0.00159801 0.00225081 0.00259585 0.00277046 0.0160021 0.000242669
internal_weight=1.06008e+06 513560 546524 510194 81467 1148 534071 428727 346105 12453 315929 122942 3366 411129 116530 648 80319 297044 14962 4087 282082 115882 75032 30176 82622 51249 46151 45143 340 265114
internal_count=1060084 513560 546524 510194 81467 1148 534071 428727 346105 12453 315929 122942 3366 411129 116530 648 80319 297044 14962 4087 282082 115882 75032 30176 82622 51249 46151 45143 340 265114
is_linear=0
shrinkage=0.05


end of trees

feature_importances:
total_mv_log=33
vwap_dev=27
revenue_growth=26
profit_growth=24
amihud_illiq=20
mom_60d=16
price_range_10d=15
low_distance_60d=15
intraday_intensity=14
roe_ind_rank=14
roe=13
roe_qoq=13
atr_14=12
revenue_growth_accel=9
lower_shadow=8
profit_growth_accel=8
turnover_5d=6
close_ma60_dev=5
volatility_20d=4
ma_alignment=4
return_skew_20d=4
high_distance_60d=4
return_extremes_ratio=2
adx_14=1
return_kurtosis_20d=1
cci_20=1
mom_20d_ind_rank=1

parameters:
[boosting: gbdt]
[objective: regression]
[metric: l1]
[tree_learner: serial]
[device_type: cpu]
[data_sample_strategy: bagging]
[data: ]
[valid: ]
[num_iterations: 10]
[learning_rate: 0.05]
[num_leaves: 31]
[num_threads: 0]
[seed: 0]
[deterministic: 0]
[force_col_wise: 0]
[force_row_wise: 0]
[histogram_pool_size: -1]
[max_depth: -1]
[min_data_in_leaf: 50]
[min_sum_hessian_in_leaf: 0.001]
[bagging_fraction: 0.8]
[pos_bagging_fraction: 1]
[neg_bagging_fraction: 1]
[bagging_freq: 0]
[bagging_seed: 3]
[bagging_by_query: 0]
[feature_fraction: 0.8]
[feature_fraction_bynode: 1]
[feature_fraction_seed: 2]
[extra_trees: 0]
[extra_seed: 6]
[early_stopping_round: 0]
[early_stopping_min_delta: 0]
[first_metric_only: 0]
[max_delta_step: 0]
[lambda_l1: 0.1]
[lambda_l2: 0.1]
[linear_lambda: 0]
[min_gain_to_split: 0]
[drop_rate: 0.1]
[max_drop: 50]
[skip_drop: 0.5]
[xgboost_dart_mode: 0]
[uniform_drop: 0]
[drop_seed: 4]
[top_rate: 0.2]
[other_rate: 0.1]
[min_data_per_group: 100]
[max_cat_threshold: 32]
[cat_l2: 10]
[cat_smooth: 10]
[max_cat_to_onehot: 4]
[top_k: 20]
[monotone_constraints: ]
[monotone_constraints_method: basic]
[monotone_penalty: 0]
[feature_contri: ]
[forcedsplits_filename: ]
[refit_decay_rate: 0.9]
[cegb_tradeoff: 1]
[cegb_penalty_split: 0]
[cegb_penalty_feature_lazy: ]
[cegb_penalty_feature_coupled: ]
[path_smooth: 0]
[interaction_constraints: ]
[verbosity: -1]
[saved_feature_importance_type: 0]
[use_quantized_grad: 0]
[num_grad_quant_bins: 4]
[quant_train_renew_leaf: 0]
[stochastic_rounding: 1]
[linear_tree: 0]
[max_bin: 255]
[max_bin_by_feature: ]
[min_data_in_bin: 3]
[bin_construct_sample_cnt: 200000]
[data_random_seed: 1]
[is_enable_sparse: 1]
[enable_bundle: 1]
[use_missing: 1]
[zero_as_missing: 0]
[feature_pre_filter: 1]
[pre_partition: 0]
[two_round: 0]
[header: 0]
[label_column: ]
[weight_column: ]
[group_column: ]
[ignore_column: ]
[categorical_feature: ]
[forcedbins_filename: ]
[precise_float_parser: 0]
[parser_config_file: ]
[objective_seed: 5]
[num_class: 1]
[is_unbalance: 0]
[scale_pos_weight: 1]
[sigmoid: 1]
[boost_from_average: 1]
[reg_sqrt: 0]
[alpha: 0.9]
[fair_c: 1]
[poisson_max_delta_step: 0.7]
[tweedie_variance_power: 1.5]
[lambdarank_truncation_level: 30]
[lambdarank_norm: 1]
[label_gain: ]
[lambdarank_position_bias_regularization: 0]
[eval_at: ]
[multi_error_top_k: 1]
[auc_mu_weights: ]
[num_machines: 1]
[local_listen_port: 12400]
[time_out: 120]
[machine_list_filename: ]
[machines: ]
[gpu_platform_id: -1]
[gpu_device_id: -1]
[gpu_use_dp: 0]
[num_gpu: 1]

end of parameters

pandas_categorical:null
