tree
version=v4
num_class=1
num_tree_per_iteration=1
label_index=0
max_feature_idx=56
objective=regression
feature_names=rsi_14 macd_hist boll_pctb kdj_j vol_price_ratio mom_20d mom_60d volatility_20d rsi_delta macd_hist_delta boll_pctb_delta mom_accel volume_trend close_ma5_dev close_ma20_dev close_ma60_dev ma_alignment atr_14 price_range_10d williams_r adx_14 obv_slope amount_ratio turnover_5d turnover_pctile return_skew_20d return_kurtosis_20d updown_vol_ratio max_drawdown_20d return_autocorr close_position upper_shadow lower_shadow body_ratio gap_5d amihud_illiq volume_volatility mom_5d mom_10d vwap_dev boll_bandwidth vol_price_corr consecutive_days high_distance_60d low_distance_60d vol_ratio_5_60 mfi_14 intraday_intensity cci_20 return_extremes_ratio amount_volatility pe_ttm pb total_mv_log roe revenue_growth profit_growth
feature_infos=[5.311476700735895:99.251147301860144] [-23.886877150311605:24.687549146247335] [-0.55685951330981898:1.5897247358851994] [-26.245070866114638:129.85034330286001] [0.01105202164870266:165.72193370059225] [-0.63489037178265018:5.7271573604060908] [-0.72440523924084466:13.377207062600318] [0:1.7219497908353212] [-50.8815245382428:49.713139295102238] [-24.021403558099635:24.768377274725523] [-1.6122462606324748:1.5780084282389191] [-5.1164007514726357:0.91965956843017105] [0.022802033982713767:3.8543490044310689] [-0.28595658073270025:0.3778910231281849] [-0.52998379254457051:1.1356485305078259] [-0.55597849745391226:2.9946747717310758] [-0.53004449524431563:2.3315331382424231] [0.0069600709940416559:0.21058235128879069] [0:0.16053324782720499] [-100:0] [5.6055901931181227:84.452976231505062] [-1.0250167157942141:1.0607463689878205] [0.0019935459228851119:15.745587933809535] [0.00024739361613002113:0.5863798173076924] [0:0.98333333333333328] [-3.7078420257640157:4.1294832096701128] [-1.8875516827015533:15.052631578947373] [0.00073847118454986062:331.14121783065463] [-0.6716095149830088:0] [-0.8046507396741428:0.90486585780904483] [0:1] [0:0.079154848423811236] [0:0.067342397641210902] [0:0.93333333333333235] [-0.10009941439549201:0.10026807949173502] [0:1.1922910476974704e-07] [0.10300313004668828:2.7761310636219125] [-0.40999999999999992:1.2986376021798365] [-0.58234928527035423:1.5947882736156349] [-0.96368229442120701:1.014300310137624] [5.7673923357150998e-16:2.1352212243084692] [-0.94478612458818245:0.96484495838647211] [-13:21] [-0.73032673722963648:0] [0:12.075912408759123] [0:3.1092627182959087] [0:100] [-0.63289987226384603:0.74041047609257682] [-595.92326139087936:525.86771447282399] [0:15.071947674418364] [0.10879382365650936:3.3871575228842041] none none [17.95526497436547:25.823596989107635] [-1290.26:201.97999999999999] [-32430.463773151201:6534.1137512344303] [-87934.743809934793:18088.410932085299]
tree_sizes=3018 3097 3074 3106 3092 3107 3113 3097

Tree=0
num_leaves=31
num_cat=0
split_feature=53 6 53 35 43 22 53 5 32 20 53 6 44 15 54 54 23 5 35 32 22 47 14 7 7 54 55 31 6 7
split_gain=160.757 79.9903 43.21 36.5775 35.1161 53.0462 29.247 25.5361 24.2271 19.8544 18.8946 18.681 17.7037 16.1657 34.6423 14.1994 12.023 11.2263 10.4863 10.6021 9.08143 8.84095 8.19611 15.5573 8.09929 8.00365 7.89998 7.21942 7.15313 11.008
threshold=23.458797883754716 -0.37879432212836417 24.057047057189568 2.734784421044365e-10 -1.0000000180025095e-35 0.27656963987027999 21.155717450715454 -0.30353797187079362 0.026358760728955707 32.270011439435102 20.280129701165826 0.26133333333333336 0.9241299337366754 0.11391863520620717 0.9850000000000001 3.8550000000000004 0.045855764593314342 -0.35169816083619276 5.540908261937794e-11 0.026358760728955707 1.0593063504407778 0.11392320545886618 -0.1047740804720461 0.99302419421561705 0.58313011050743813 3.2250000000000005 -22.3769592447245 0.0093553486879218006 0.095947695401128033 0.70939254907130245
decision_type=2 2 2 2 2 2 2 2 2 2 2 2 2 2 8 8 2 2 2 2 2 2 2 2 2 8 10 2 2 2
left_child=1 7 17 8 10 6 -6 -1 9 16 13 -10 24 -5 -15 21 20 -2 19 -19 -3 -13 -12 27 -4 -16 -7 -24 -11 -30
right_child=2 3 12 4 5 26 -8 -9 11 28 22 15 -14 14 25 -17 -18 18 -20 -21 -22 -23 23 -25 -26 -27 -28 -29 29 -31
leaf_value=0.021609904542199403 0.017804096324809754 0.011245159404912062 0.0099187437488254728 0.014216968439991703 0.078265203080147797 0.03442882093082713 0.033669264990461675 0.015088568045977456 0.011567267166678028 0.011644467513293271 0.013956300450187123 0.0077033749009810838 0.005626178189965178 0.059090711632978798 0.033571848465193302 0.0093610579443467578 0.010400654640656138 0.010419322948637575 0.010983945907734931 0.0057136679535356796 0.011858382278702305 -0.00015795482125140377 0.011874374718554419 0.0080545923534321093 0.0087553897958787628 0.016512808731419876 0.014947630431009881 0.012769662720528745 0.012906875269081752 0.010968948967251311
leaf_weight=1957 567 195259 98112 5723 51 56 134 6468 2180 35656 6604 530 2675 59 80 1307 31206 105630 192052 1211 87413 1114 56080 2280 17668 500 747 37661 41958 8873
leaf_count=1957 567 195259 98112 5723 51 56 134 6468 2180 35656 6604 530 2675 59 80 1307 31206 105630 192052 1211 87413 1114 56080 2280 17668 500 747 37661 41958 8873
internal_value=0.011188 0.0117714 0.0104566 0.0116924 0.0125012 0.0218853 0.0460199 0.0166041 0.0114731 0.0115168 0.0124161 0.00805926 0.0096482 0.0150605 0.0226055 0.00546616 0.011332 0.0107764 0.010763 0.0103659 0.0114348 0.00237301 0.0122521 0.0121348 0.00974117 0.0188779 0.0163152 0.0122341 0.0121876 0.0125685
internal_weight=941811 523896 417915 515471 109975 988 185 8425 405496 400365 108987 5131 118455 6362 639 2951 313878 299460 298893 106841 282672 1644 102625 96021 115780 580 803 93741 86487 50831
internal_count=941811 523896 417915 515471 109975 988 185 8425 405496 400365 108987 5131 118455 6362 639 2951 313878 299460 298893 106841 282672 1644 102625 96021 115780 580 803 93741 86487 50831
is_linear=0
shrinkage=1


Tree=1
num_leaves=31
num_cat=0
split_feature=53 16 53 35 32 13 41 15 55 0 53 56 20 44 28 55 18 55 11 56 15 18 25 34 55 20 44 40 55 35
split_gain=145.165 68.0454 37.6433 31.1262 27.6765 27.0681 50.7266 25.1307 19.1603 18.2103 17.3416 50.3456 48.1422 16.204 13.7076 9.9365 9.5061 9.85297 9.42802 9.40152 9.32493 9.35219 8.25747 8.05381 7.77588 7.68908 7.67519 7.57584 7.46968 7.21624
threshold=23.482725819071081 -0.18637698243627976 24.057047057189568 2.734784421044365e-10 0.026358760728955707 0.12720107494774571 -0.24200194205496139 -0.32029673264569075 -4.8134872751704991 62.076461110260574 20.280129701165826 28.396435415868506 45.032682498271676 0.7248912996013801 -0.43380602955226483 5.0717678544780016 0.066364271606744518 7.1450965595245011 -0.14977372126121632 4.8716642456800008 -0.19821044665877277 0.07435697976858778 -0.25598049702177078 -0.013565657461092827 -12.093106983607997 45.635341792551976 0.66507452377318599 0.12766286848794475 6.5130279397325008 5.4879680343221132e-11
decision_type=2 2 2 2 2 2 10 2 10 2 2 10 2 2 2 8 2 10 2 10 2 2 10 2 10 2 2 2 10 2
left_child=1 7 20 4 9 10 8 14 -7 19 11 -5 -13 -4 -1 -6 -11 22 -9 26 -2 29 -18 -16 -8 -10 -3 -12 -15 -22
right_child=2 3 13 5 15 6 24 18 25 16 27 12 -14 28 23 -17 17 -19 -20 -21 21 -23 -24 -25 -26 -27 -28 -29 -30 -31
leaf_value=0.011488053895943748 0.0015494469365147242 -5.7527341866328303e-05 -0.0013359289479819094 0.0028791366177310859 -0.0053139060999734438 0.05770536206305741 0.021384937589475975 -0.006896738368741437 0.029106137021699549 0.0012660468680056993 0.00044743173043688169 0.014256735489323573 0.070762183279367896 -0.0057506486222609048 0.00054552501781740136 -0.00061268701665178032 -0.005953698572482416 0.0019986989660422103 0.0027224251554691854 0.00042791847654228068 -0.00074964058409519342 -0.0023674815756906252 -0.00088300714318831092 0.0072530742016517699 0.0012323320311694334 0.0057863567909318776 -0.0023207541323956946 0.0013367930239976628 -0.0019480714331082121 -0.00021382266699015333
leaf_weight=1250 5982 188759 113136 5677 2993 50 52 258 126 56684 41428 154 50 3093 716 1804 1009 2377 18048 147561 96904 6190 3947 1201 600 50 3822 56809 2226 178855
leaf_count=1250 5982 188759 113136 5677 2993 50 52 258 126 56684 41428 154 50 3093 716 1804 1009 2377 18048 147561 96904 6190 3947 1201 600 50 3822 56809 2226 178855
internal_value=0 0.000540806 -0.00071252 0.00042558 0.000228404 0.00119352 0.00993611 0.00329846 0.0303459 0.000273229 0.00111974 0.00375734 0.0281585 -0.0014628 0.00741168 -0.00354702 0.00104687 -0.000646669 0.00258655 0.000127609 -0.000403838 -0.000445298 -0.00191647 0.00475057 0.0028503 0.0225166 -0.000102471 0.000961788 -0.00416028 -0.000402132
internal_weight=941811 535425 406386 513952 408956 104996 878 21473 226 404159 104118 5881 204 118455 3167 4797 64017 7333 18306 340142 287931 281949 4956 1917 652 176 192581 98237 5319 275759
internal_count=941811 535425 406386 513952 408956 104996 878 21473 226 404159 104118 5881 204 118455 3167 4797 64017 7333 18306 340142 287931 281949 4956 1917 652 176 192581 98237 5319 275759
is_linear=0
shrinkage=0.05


Tree=2
num_leaves=31
num_cat=0
split_feature=53 15 53 18 0 22 53 47 40 18 39 44 53 56 23 20 36 5 47 18 16 17 56 56 56 41 34 18 47 53
split_gain=131.382 61.0262 36.9296 26.2357 32.3196 61.6598 41.3161 23.5037 23.469 15.0032 14.3871 14.0555 12.8321 19.8675 28.071 10.8696 11.0471 9.55299 9.38316 9.01746 8.60736 8.24032 7.64827 7.5109 7.08314 6.73473 6.52036 6.56987 6.49753 6.45651
threshold=23.427668969792443 -0.21656214084721806 23.995103183367458 0.07435697976858778 64.70159980552863 0.27656963987027999 21.092930245657783 0.15274687976240378 0.68147660414751055 0.0655429211199616 -0.48847092876973347 0.26200436681222711 20.280129701165826 31.525469076162004 0.049755918511172788 54.561594204235369 0.27013722574472215 -0.35169816083619276 0.12229932557375336 0.07588922826628007 -0.11339296268366163 0.1182376967763414 8.3853337047945029 26.928936878643501 3.9587198200275004 -0.43365535598729804 -0.013565657461092827 0.046758042924289596 0.040848335491703212 22.563213570906878
decision_type=2 2 2 2 2 2 2 2 2 2 2 2 2 10 2 2 2 2 2 2 2 2 10 10 10 10 2 2 2 2
left_child=1 8 17 4 10 6 -6 22 11 -4 -3 26 13 -7 -15 16 -9 -2 -11 -19 -12 -10 28 29 -20 -8 -1 -28 -5 -14
right_child=2 3 9 7 5 12 25 15 21 18 20 -13 23 14 -16 -17 -18 19 24 -21 -22 -23 -24 -25 -26 -27 27 -29 -30 -31
leaf_value=0.00065494490440096056 0.0062396813220513703 0.00097510743092764276 -0.0011529104947441118 -3.0663130859086717e-05 0.066262987282863631 0.0042968970074638742 0.029655449715219495 -0.010874526221287876 0.0044227674136019923 -0.002021262131451367 0.00096574856038908116 -0.0035637285237691782 0.0019645780889379211 0.05050318346719801 0.0057716553379616306 0.0012491733138938641 -0.0040894835655635219 -0.00028439109514963957 -0.0076815560835563727 -0.0022348567279473017 0.00015004476082719739 0.010561695179315194 0.0013535442037639124 0.0030405245822564455 -0.0031911382078991194 0.0095811190831642055 0.0018330063233656831 0.0045259398613997272 -0.0028323058542401142 0.00070170629149588263
leaf_weight=2105 555 81439 134823 5132 52 846 62 715 886 6441 36148 816 17561 60 85 771 3770 281564 1608 6054 307338 1443 4657 6706 1948 132 3271 7419 3472 23932
leaf_count=2105 555 81439 134823 5132 52 846 62 715 886 6441 36148 816 17561 60 85 771 3770 281564 1608 6054 307338 1443 4657 6706 1948 132 3271 7419 3472 23932
internal_value=0 0.000544778 -0.000640168 0.000446292 0.000518374 0.00172839 0.0266947 -0.00139999 0.00358971 -0.00129155 0.000377587 0.00279549 0.00160338 0.00723642 0.0243378 -0.00422954 -0.00517249 -0.000312801 -0.00316077 -0.000325464 0.000235903 0.00822876 -0.000278093 0.00148745 -0.00522324 0.0160344 0.00320147 0.00370243 -0.00116182 0.00123631
internal_weight=941811 508818 432993 492878 474361 49436 246 18517 15940 144820 424925 13611 49190 991 145 5256 4485 288173 9997 287618 343486 2329 13261 48199 3556 194 12795 10690 8604 41493
internal_count=941811 508818 432993 492878 474361 49436 246 18517 15940 144820 424925 13611 49190 991 145 5256 4485 288173 9997 287618 343486 2329 13261 48199 3556 194 12795 10690 8604 41493
is_linear=0
shrinkage=0.05


Tree=3
num_leaves=31
num_cat=0
split_feature=53 6 35 5 53 53 56 18 47 22 19 54 36 16 18 0 22 7 39 5 0 23 5 56 39 17 17 35 35 17
split_gain=119.545 69.8255 37.6005 21.9977 16.7667 16.5608 16.2941 21.7042 20.9121 14.6254 58.7488 12.6921 12.5238 11.2876 11.7405 11.3169 14.0605 10.3486 10.2429 9.82415 8.99192 8.16795 11.5084 8.92501 16.9634 7.66857 7.65993 7.35888 6.7768 6.72566
threshold=23.760905593647639 -0.37879432212836417 1.3613646071421269e-10 -0.30353797187079362 21.476403199767262 24.23116019354261 5.4824382981930002 0.066364271606744518 0.043849988846913629 0.27656963987027999 -26.545199182839614 5.3950000000000005 0.35661921610145048 -0.11339296268366163 0.077651306221069069 66.820989842480927 0.34071878820674351 0.70058017726915156 -0.46296033442253404 0.17297779277271033 57.390327391409656 0.15947139333333335 0.15255635229174805 13.992894229058502 -0.85314451703718064 0.1182376967763414 0.09712449250712403 8.2115994178861463e-10 7.2782183560051418e-10 0.1182376967763414
decision_type=2 2 2 2 2 2 10 2 2 2 2 10 2 2 2 2 2 2 2 2 2 2 2 8 2 2 2 2 2 2
left_child=1 3 6 26 9 29 7 18 25 10 -4 12 -10 19 15 -15 28 -7 -3 -6 -8 22 -11 -24 -25 -9 -1 -26 -17 -2
right_child=5 2 4 -5 13 17 20 8 11 21 -12 -13 -14 14 -16 16 -18 -19 -20 -21 -22 -23 23 24 27 -27 -28 -29 -30 -31
leaf_value=0.0053415143509190598 -0.00069236336311890472 0.00076386699388650606 0.0017304587254203991 0.0033134653566534024 0.0014929134851564719 -0.0014011174804714605 8.8635161660979004e-05 -0.0006848135254543796 -0.0081518457127912943 0.0012334025650384012 0.046081162218775902 -0.00080483809337311978 -0.0031569110509222717 0.00034366986639226241 -0.0023074241850281063 0.0032923228531489762 0.00159015189021645 -0.00357844546778174 -0.00033888056426128657 -0.0071882068683625068 0.00091339902400620638 -0.0029054550602149801 0.0024047490292677313 0.027103468863866276 0.0046731455686726091 0.0055833784138634339 0.011509894617042923 0.021758905200586404 0.023799101745974868 0.0066873032142575721
leaf_weight=833 199559 23948 396 7419 31672 57375 109580 5328 2358 47466 92 2029 2693 194118 3940 66 15253 6035 174357 329 47327 1072 4715 96 1449 537 1288 66 106 309
leaf_count=833 199559 23948 396 7419 31672 57375 109580 5328 2358 47466 92 2029 2693 194118 3940 66 15253 6035 174357 329 47327 1072 4715 96 1449 537 1288 66 106 309
internal_value=2.80672e-09 0.000350902 0.000290324 0.00459836 0.000705 -0.000904332 -4.8511e-05 -0.000335199 -0.00231885 0.00149114 0.0101096 -0.00414794 -0.00548984 0.000527719 0.000396418 0.000447283 0.00175088 -0.00160843 -0.000205683 0.00140349 0.000337436 0.00141437 0.00150056 0.00350428 0.00671886 -0.000109959 0.00909005 0.00542216 0.0159658 -0.000680926
internal_weight=941811 678533 668993 9540 300836 263278 368157 211250 12945 55352 488 7080 5051 245484 213483 209543 15425 63410 198305 32001 156907 54864 53792 6326 1611 5865 2121 1515 172 199868
internal_count=941811 678533 668993 9540 300836 263278 368157 211250 12945 55352 488 7080 5051 245484 213483 209543 15425 63410 198305 32001 156907 54864 53792 6326 1611 5865 2121 1515 172 199868
is_linear=0
shrinkage=0.05


Tree=4
num_leaves=31
num_cat=0
split_feature=53 6 53 0 22 53 32 28 16 17 18 53 56 55 55 39 15 14 17 11 18 47 55 55 47 41 18 18 34 18
split_gain=108.534 56.647 33.0426 19.5075 50.7383 35.6584 24.029 16.7222 14.6603 15.0156 12.9718 10.1562 13.685 21.4478 9.64015 9.48124 9.44176 9.10633 12.8155 12.0496 9.10263 9.01889 8.96368 8.82727 8.53967 8.2072 7.87242 7.74334 9.36826 7.61547
threshold=23.364414377785305 -0.35626564028679891 23.995103183367458 62.076461110260574 0.27656963987027999 21.020423099838485 0.022693373627736824 -0.43380602955226483 -0.11339296268366163 0.077317994507779889 0.063881108687670732 20.280129701165826 31.525469076162004 9.0369737455175017 -15.461161534971 -0.4544901615616016 -0.19821044665877277 -0.14444940271837628 0.082462595093440602 0.089522280662167678 0.07435697976858778 0.12229932557375336 9.6506077652520013 10.130142399794503 0.065494638039588063 -0.25001896558353659 0.077651306221069069 0.050939023430850487 -0.013565657461092827 0.04028299310417182
decision_type=2 2 2 2 2 2 2 2 2 2 2 2 10 10 8 2 2 2 2 2 2 2 10 10 2 10 2 2 2 2
left_child=1 7 16 8 5 -5 11 -1 17 15 -4 12 -6 -14 -8 -10 -2 -3 29 -20 -18 -12 26 -23 -11 -7 -16 -9 -29 -19
right_child=2 3 10 4 6 25 14 27 9 24 21 -13 13 -15 22 -17 20 18 19 -21 -22 23 -24 -25 -26 -27 -28 28 -30 -31
leaf_value=0.010499844630810971 0.0015636305422466201 0.0029351451743783851 -0.0010351560482960943 0.060079120369556573 0.003651842133188388 0.024725259853628622 0.01865883261430553 0.0016553896931876073 0.00073806157933581254 -0.00086633638786126383 -0.0017766280306890797 0.0012433247973461588 0.040011046471980311 0.0044293359133673821 -0.0020070008043308906 0.00010051231355136692 -0.00026118642863202105 0.00047167701744870068 -0.0058965601802209323 0.00021063129328492388 -0.0021027041195286348 -0.0061292534002478586 0.0018465409725566394 -0.00059676589581940701 -0.0044440993051692683 0.0050644970979888742 -0.0073354802914262565 0.00061187013228566553 0.0056051063874936313 0.001817708077910412
leaf_weight=951 6933 5949 133566 52 1269 97 51 3460 74929 5382 7381 66382 70 108 1503 263113 303621 22746 1291 2153 6863 2912 701 961 2420 119 1292 1170 4814 19552
leaf_count=951 6933 5949 133566 52 1269 97 51 3460 74929 5382 7381 66382 70 108 1503 263113 303621 22746 1291 2153 6863 2912 701 961 2420 119 1292 1170 4814 19552
internal_value=5.51438e-09 0.000526967 -0.00054671 0.000446069 0.00120554 0.0229173 0.00112392 0.00417781 0.000309183 0.000191779 -0.00117258 0.00133376 0.00547864 0.0184648 -0.00288738 0.000241844 -0.000261145 0.00109459 0.000855105 -0.00207733 -0.000301908 -0.00280307 -0.00320365 -0.00475783 -0.00197676 0.0139241 -0.00447208 0.00354055 0.00462968 0.00109399
internal_weight=941811 479574 462237 469179 71644 268 71376 10395 397535 345844 144820 67829 1447 178 3547 338042 317417 51691 45742 3444 310484 11254 3496 3873 7802 216 2795 9444 5984 42298
internal_count=941811 479574 462237 469179 71644 268 71376 10395 397535 345844 144820 67829 1447 178 3547 338042 317417 51691 45742 3444 310484 11254 3496 3873 7802 216 2795 9444 5984 42298
is_linear=0
shrinkage=0.05


Tree=5
num_leaves=31
num_cat=0
split_feature=53 6 53 32 5 6 53 34 22 53 12 15 23 5 18 53 56 54 44 7 28 55 6 45 50 34 17 54 5 23
split_gain=98.5736 57.8267 24.1725 21.9054 18.8753 16.8567 13.5924 12.9691 44.5161 19.9421 11.9243 11.5219 9.45451 9.45319 11.4029 9.96236 9.12636 42.3438 9.02861 8.58996 10.8213 8.57897 7.57446 6.95839 6.86532 6.62319 6.57107 5.86248 5.81571 6.03019
threshold=23.773713025855717 -0.37879432212836417 22.026168722230988 0.026358760728955707 -0.30353797187079362 0.31964278212424097 24.281129492935484 0.018312014434577962 0.27656963987027999 20.938504145770199 1.0218505122362982 -0.18432700464735827 0.15947139333333335 0.10952795271240746 0.072956989521203372 20.280129701165826 28.396435415868506 8.1950000000000021 0.9241299337366754 0.91471715922088948 -0.25215159518951702 5.0717678544780016 -0.26923076923076916 1.0136975377018025 0.45719619807325607 -0.027060197373845778 0.09712449250712403 4.8820000000000006 -0.35169816083619276 0.049755918511172788
decision_type=2 2 2 2 2 2 2 2 2 2 2 2 2 2 2 2 10 10 2 2 2 8 2 2 2 2 2 10 2 2
left_child=1 4 7 10 26 -5 28 12 9 -9 19 -12 13 22 15 16 -15 -18 -8 23 -21 24 -3 -4 -7 -25 -1 -16 -2 -30
right_child=6 2 3 5 -6 21 18 8 -10 -11 11 -13 -14 14 27 -17 17 -19 -20 20 -22 -23 -24 25 -26 -27 -28 -29 29 -31
leaf_value=0.0048564557785500603 0.006122455312057338 0.0023545043960921234 -0.00010276326809069012 -0.00032192412980220264 0.0029830684729623752 -0.01050987574549918 -0.0014443825492486814 0.055564033612608914 0.0024578217333914246 0.018136001043899602 0.0025191147038003238 0.00037010890541417919 -0.0024989079870245418 0.0046277364668410488 -0.0030624231800066531 0.0019022960021641271 0.052682923936283425 0.00060759645597800033 -0.0054009506261345199 0.00036093292032498409 -0.00430429014548193 -0.0022363669215256748 0.00055780679488430301 0.0066390290704102881 -0.0038400999916388687 0.00051410620269006239 0.010562873114030237 0.0012874671578518562 -0.00061034068296042738 -0.0020633358845253092
leaf_weight=835 316 6279 278773 2832 7455 1055 50743 52 1329 115 6425 214378 2088 1485 1646 18354 56 129 1485 2351 2633 1022 89651 446 613 43079 1292 1461 196019 7414
leaf_count=835 316 6279 278773 2832 7455 1055 50743 52 1329 115 6425 214378 2088 1485 1646 18354 56 129 1485 2351 2633 1022 89651 446 613 43079 1292 1461 196019 7414
internal_value=8.17553e-09 0.00031252 0.000257861 0.000117148 0.00416954 -0.00301622 -0.000837279 0.000892982 0.00552037 0.0298464 0.000148727 0.000432665 0.000835795 0.00089432 0.00180176 0.00223913 0.00593773 0.0164179 -0.00155699 -4.28186e-05 -0.00210269 -0.00585076 0.000675462 -1.09487e-05 -0.00806207 0.000576998 0.00832538 -0.0010154 -0.000652768 -0.00066332
internal_weight=941811 685834 676252 553607 9582 5522 255977 122645 1496 167 548085 220803 121149 119061 23131 20024 1670 185 52228 327282 4984 2690 95930 322298 1668 43525 2127 3107 203749 203433
internal_count=941811 685834 676252 553607 9582 5522 255977 122645 1496 167 548085 220803 121149 119061 23131 20024 1670 185 52228 327282 4984 2690 95930 322298 1668 43525 2127 3107 203749 203433
is_linear=0
shrinkage=0.05


Tree=6
num_leaves=31
num_cat=0
split_feature=53 6 53 35 43 22 53 5 32 20 6 44 53 56 6 56 35 44 20 5 56 44 32 35 6 7 40 25 17 56
split_gain=90.5807 46.5275 27.2731 23.7608 22.8483 29.2941 20.0861 15.9036 14.6419 15.0031 12.7892 12.0462 10.6919 35.2088 29.9391 10.4919 10.3419 8.64726 13.1958 8.32682 7.67474 7.62981 7.52892 7.51607 7.4266 7.09629 7.19715 7.06293 6.49904 6.42168
threshold=23.364414377785305 -0.35626564028679891 24.057047057189568 3.0741771556662437e-10 -1.0000000180025095e-35 0.47279214746480613 21.092930245657783 -0.30353797187079362 0.026358760728955707 32.270011439435102 0.12327905574222454 0.9241299337366754 20.280129701165826 28.396435415868506 0.31964278212424097 23.112907496578007 4.9379534902539297e-11 0.40165069706189543 18.343459559999101 -0.30353797187079362 8.5280846848065011 0.43808786672563765 0.026358760728955707 1.2475423182930618e-10 0.78452326116996784 1.0431644282049646 0.22867511462335346 0.16338648979763612 0.10558676388723702 3.9587198200275004
decision_type=2 2 2 2 2 2 2 2 2 2 2 2 2 10 2 10 2 2 2 2 8 2 2 2 2 2 2 10 2 10
left_child=1 7 16 8 12 6 -6 28 9 17 -10 -4 13 -5 -15 24 22 23 -19 -18 -12 -17 -2 -3 -11 26 -14 -27 -1 -13
right_child=2 3 11 4 5 -7 -8 -9 10 15 20 29 25 14 -16 21 19 18 -20 -21 -22 -23 -24 -25 -26 27 -28 -29 -30 -31
leaf_value=0.0048980766217770894 -0.00066644475976023083 -8.4343007505307209e-05 -0.0010770464480470557 0.0025488232269467396 0.052567375282193823 0.0038844100602162704 0.016633979134475629 0.0028068637630227753 0.0011061023495541114 0.00075044186794594962 -0.0060867193056863772 -0.0078690062755953517 0.00073531320332560844 0.010685631575232958 0.058920147061636556 0.0012160457615818679 0.0044260471151548846 -0.003225464269521517 -0.00023645082159832131 -0.00012279265203829902 -0.0010609586146743818 0.0037743659623515682 -0.004615539617568362 0.00044250153190670795 -0.0017344202169716754 -0.0042161721466959538 0.0018501133265906796 0.0014346223280118932 0.010483040084517205 -0.0026990552713290574
leaf_weight=1050 93940 130833 115780 5386 51 648 167 8301 1666 65244 2101 916 60616 91 50 7384 1010 4547 19672 247609 1194 4824 1223 140253 3151 1312 19035 954 1044 1759
leaf_count=1050 93940 130833 115780 5386 51 648 167 8301 1666 65244 2101 916 60616 91 50 7384 1010 4547 19672 247609 1194 4824 1223 140253 3151 1312 19035 954 1044 1759
internal_value=1.01009e-08 0.00048142 -0.000499445 0.000408102 0.00114707 0.00922898 0.0250836 0.00379014 0.000236749 0.000272376 -0.00246172 -0.00115375 0.00106696 0.00319581 0.0278551 0.000877 -0.000273982 0.000107328 -0.000797841 -0.000104291 -0.00426715 0.0022274 -0.000717254 0.000188215 0.000635887 0.000923258 0.00100179 -0.00183499 0.00768531 -0.0044715
internal_weight=941811 479574 462237 469179 88310 866 218 10395 380869 375908 4961 118455 87444 5527 141 80603 343782 295305 24219 248619 3295 12208 95163 271086 68395 81917 79651 2266 2094 2675
internal_count=941811 479574 462237 469179 88310 866 218 10395 380869 375908 4961 118455 87444 5527 141 80603 343782 295305 24219 248619 3295 12208 95163 271086 68395 81917 79651 2266 2094 2675
is_linear=0
shrinkage=0.05


Tree=7
num_leaves=31
num_cat=0
split_feature=53 16 53 18 0 22 53 5 47 54 55 7 39 5 53 23 16 32 5 32 23 18 54 7 20 25 23 53 20 29
split_gain=81.9203 40.9275 21.7831 20.7039 24.9005 40.5737 27.8807 17.0865 16.4615 14.8787 14.8014 11.6099 9.95462 9.91721 9.4201 13.0486 18.7992 9.28566 7.29661 6.44164 6.21445 8.53128 6.08259 6.20783 13.6008 5.97264 5.72926 5.61583 5.63582 5.56443
threshold=23.458797883754716 -0.18637698243627976 24.057047057189568 0.072956989521203372 63.45380709707468 0.27656963987027999 21.092930245657783 -0.35169816083619276 0.15274687976240378 4.5950000000000006 -22.3769592447245 0.63955738834961451 -0.48847092876973347 0.10284397706709238 20.280129701165826 0.045855764593314342 0.20711007288151698 0.020581609867107196 -0.35169816083619276 0.026358760728955707 0.041694441732390598 0.025888909252953594 -1.1449999999999998 0.54515353518287435 28.330257048285432 0.16338648979763612 0.02481119756494557 22.547915671324603 37.68733323692296 -0.083096031958170974
decision_type=2 2 2 2 2 2 2 2 2 10 8 2 2 2 2 2 2 2 2 2 2 2 8 2 2 10 2 2 2 10
left_child=1 7 18 4 12 6 -6 -1 -5 10 -10 -4 22 -9 15 16 -7 -12 -2 -20 21 -14 23 -3 -25 -19 -13 28 -16 -24
right_child=2 3 11 8 5 14 -8 13 9 -11 17 26 20 -15 27 -17 -18 25 19 -21 -22 -23 29 24 -26 -27 -28 -29 -30 -31
leaf_value=0.00628745905233573 0.0053706552736679323 0.0023125294542139909 -0.00091373228974466316 -0.00033371862742762797 0.05388641326103695 0.0082227270922125267 0.012831062963791374 0.0022088403494595846 0.021397914813307231 -0.00039197159824843003 -0.0031353664572363231 -0.0011830137168157295 -0.0001555001012024443 -0.0052937047041645693 0.0012177721123036087 0.0027614922518388544 0.039708774404218439 -0.010292749213388725 -0.00028599726728723251 -0.0030291324252269725 -0.00058505286829232809 0.00039025535837219877 0.00024744129766222803 0.0038596287554095057 0.028631524094374479 -0.004162978872495204 -0.0032473172881141879 0.00076603894356953969 0.0028539502060977405 0.0010994797255023435
leaf_weight=2696 567 849 104314 14232 52 215 204 18070 50 2322 1579 5528 109099 451 15720 892 61 1267 296737 2156 27180 208317 35198 193 78 584 8613 34553 7927 42107
leaf_count=2696 567 849 104314 14232 52 215 204 18070 50 2322 1579 5528 109099 451 15720 892 61 1267 296737 2156 27180 208317 35198 193 78 584 8613 34553 7927 42107
internal_value=1.14354e-08 0.000416507 -0.000522094 0.000325703 0.000391087 0.00134771 0.0212077 0.00256763 -0.00124923 -0.00349404 -0.00556236 -0.00109606 0.000256241 0.00202585 0.00126195 0.00570879 0.0152116 -0.00595743 -0.000295036 -0.000305802 0.000140513 0.000202658 0.000764683 0.0044237 0.0110159 -0.00836181 -0.00244071 0.00117261 0.00176648 0.000711601
internal_weight=941811 523896 417915 502679 482645 59624 256 21217 20034 5802 3480 118455 423021 18521 59368 1168 276 3430 299460 298893 344596 317416 78425 1120 271 1851 14141 58200 23647 77305
internal_count=941811 523896 417915 502679 482645 59624 256 21217 20034 5802 3480 118455 423021 18521 59368 1168 276 3430 299460 298893 344596 317416 78425 1120 271 1851 14141 58200 23647 77305
is_linear=0
shrinkage=0.05


end of trees

feature_importances:
total_mv_log=33
price_range_10d=16
mom_20d=14
profit_growth=14
mom_60d=12
revenue_growth=12
amihud_illiq=10
amount_ratio=9
lower_shadow=9
volatility_20d=8
atr_14=8
adx_14=8
turnover_5d=8
low_distance_60d=8
intraday_intensity=8
roe=8
rsi_14=6
close_ma60_dev=6
ma_alignment=6
gap_5d=5
vwap_dev=5
return_skew_20d=3
max_drawdown_20d=3
boll_bandwidth=3
vol_price_corr=3
mom_accel=2
close_ma20_dev=2
volume_volatility=2
high_distance_60d=2
volume_trend=1
close_ma5_dev=1
williams_r=1
return_autocorr=1
upper_shadow=1
vol_ratio_5_60=1
amount_volatility=1

parameters:
[boosting: gbdt]
[objective: regression]
[metric: l1]
[tree_learner: serial]
[device_type: cpu]
[data_sample_strategy: bagging]
[data: ]
[valid: ]
[num_iterations: 1000]
[learning_rate: 0.05]
[num_leaves: 31]
[num_threads: 0]
[seed: 0]
[deterministic: 0]
[force_col_wise: 0]
[force_row_wise: 0]
[histogram_pool_size: -1]
[max_depth: -1]
[min_data_in_leaf: 50]
[min_sum_hessian_in_leaf: 0.001]
[bagging_fraction: 0.8]
[pos_bagging_fraction: 1]
[neg_bagging_fraction: 1]
[bagging_freq: 0]
[bagging_seed: 3]
[bagging_by_query: 0]
[feature_fraction: 0.8]
[feature_fraction_bynode: 1]
[feature_fraction_seed: 2]
[extra_trees: 0]
[extra_seed: 6]
[early_stopping_round: 0]
[early_stopping_min_delta: 0]
[first_metric_only: 0]
[max_delta_step: 0]
[lambda_l1: 0.1]
[lambda_l2: 0.1]
[linear_lambda: 0]
[min_gain_to_split: 0]
[drop_rate: 0.1]
[max_drop: 50]
[skip_drop: 0.5]
[xgboost_dart_mode: 0]
[uniform_drop: 0]
[drop_seed: 4]
[top_rate: 0.2]
[other_rate: 0.1]
[min_data_per_group: 100]
[max_cat_threshold: 32]
[cat_l2: 10]
[cat_smooth: 10]
[max_cat_to_onehot: 4]
[top_k: 20]
[monotone_constraints: ]
[monotone_constraints_method: basic]
[monotone_penalty: 0]
[feature_contri: ]
[forcedsplits_filename: ]
[refit_decay_rate: 0.9]
[cegb_tradeoff: 1]
[cegb_penalty_split: 0]
[cegb_penalty_feature_lazy: ]
[cegb_penalty_feature_coupled: ]
[path_smooth: 0]
[interaction_constraints: ]
[verbosity: -1]
[saved_feature_importance_type: 0]
[use_quantized_grad: 0]
[num_grad_quant_bins: 4]
[quant_train_renew_leaf: 0]
[stochastic_rounding: 1]
[linear_tree: 0]
[max_bin: 255]
[max_bin_by_feature: ]
[min_data_in_bin: 3]
[bin_construct_sample_cnt: 200000]
[data_random_seed: 1]
[is_enable_sparse: 1]
[enable_bundle: 1]
[use_missing: 1]
[zero_as_missing: 0]
[feature_pre_filter: 1]
[pre_partition: 0]
[two_round: 0]
[header: 0]
[label_column: ]
[weight_column: ]
[group_column: ]
[ignore_column: ]
[categorical_feature: ]
[forcedbins_filename: ]
[precise_float_parser: 0]
[parser_config_file: ]
[objective_seed: 5]
[num_class: 1]
[is_unbalance: 0]
[scale_pos_weight: 1]
[sigmoid: 1]
[boost_from_average: 1]
[reg_sqrt: 0]
[alpha: 0.9]
[fair_c: 1]
[poisson_max_delta_step: 0.7]
[tweedie_variance_power: 1.5]
[lambdarank_truncation_level: 30]
[lambdarank_norm: 1]
[label_gain: ]
[lambdarank_position_bias_regularization: 0]
[eval_at: ]
[multi_error_top_k: 1]
[auc_mu_weights: ]
[num_machines: 1]
[local_listen_port: 12400]
[time_out: 120]
[machine_list_filename: ]
[machines: ]
[gpu_platform_id: -1]
[gpu_device_id: -1]
[gpu_use_dp: 0]
[num_gpu: 1]

end of parameters

pandas_categorical:null
